%YAML:1.0
---
opencv_ml_svm:
   format: 3
   svmType: NU_SVC
   kernel:
      type: RBF
      gamma: 3.3750000000000002e-02
   nu: 8.9999999999999997e-02
   term_criteria: { epsilon:9.9999999999999995e-07, iterations:1000 }
   var_count: 4
   class_count: 2
   class_labels: !!opencv-matrix
      rows: 2
      cols: 1
      dt: i
      data: [ 0, 1 ]
   sv_total: 373
   support_vectors:
      - [ 3.91003378e-02, 9.99836981e-01, 9.25383925e-01, 8.99298728e-01 ]
      - [ 6.20120354e-02, 9.99713242e-01, 9.34458137e-01, 9.04953599e-01 ]
      - [ 4.25375760e-01, 9.95395780e-01, 9.43619609e-01, 7.58436859e-01 ]
      - [ 4.65787321e-01, 9.05549109e-01, 9.99215543e-01, 9.71553445e-01 ]
      - [ 4.59804207e-01, 9.86990273e-01, 9.18698967e-01, 9.61627424e-01 ]
      - [ 0., 7.75458336e-01, 9.81724560e-01, 7.20545709e-01 ]
      - [ 0., 8.49889040e-01, 9.57330763e-01, 7.14906275e-01 ]
      - [ 6.21254981e-01, 9.92984831e-01, 9.97219801e-01, 9.26149845e-01 ]
      - [ 0., 8.20915878e-01, 9.59802508e-01, 7.31513679e-01 ]
      - [ 5.16029835e-01, 9.79699612e-01, 9.98665333e-01, 8.99368942e-01 ]
      - [ 0., 8.11565697e-01, 9.60067630e-01, 7.53841519e-01 ]
      - [ 7.44784355e-01, 9.77707982e-01, 9.97693121e-01, 8.57812285e-01 ]
      - [ 8.11709166e-01, 9.95366216e-01, 9.92639184e-01, 5.87616861e-01 ]
      - [ 8.63193512e-01, 9.96748745e-01, 9.91995454e-01, 5.98218262e-01 ]
      - [ 4.29408073e-01, 9.99247491e-01, 9.99144912e-01, 9.28244770e-01 ]
      - [ 2.59435385e-01, 9.81921852e-01, 9.92403090e-01, 9.82255340e-01 ]
      - [ 1.14557248e-37, 9.41592038e-01, 9.00845706e-01, 8.25274765e-01 ]
      - [ 7.11765945e-01, 9.98619795e-01, 8.76818895e-01, 8.56373847e-01 ]
      - [ 6.19877219e-01, 9.99259114e-01, 9.11195755e-01, 9.38705266e-01 ]
      - [ 8.07286680e-01, 9.99666929e-01, 9.98053908e-01, 9.58456039e-01 ]
      - [ 9.55897570e-01, 9.99272704e-01, 9.37146664e-01, 9.58258390e-01 ]
      - [ 7.53340900e-01, 9.98582006e-01, 9.98829067e-01, 9.35838938e-01 ]
      - [ 5.63898027e-01, 9.90744770e-01, 9.97089148e-01, 9.54361439e-01 ]
      - [ 9.51216757e-01, 9.97225225e-01, 9.39130247e-01, 8.65798950e-01 ]
      - [ 8.12598050e-01, 9.93285358e-01, 9.39473748e-01, 9.48077857e-01 ]
      - [ 5.09060383e-01, 9.65047657e-01, 9.99658525e-01, 9.41900253e-01 ]
      - [ 9.86748576e-01, 9.93808925e-01, 8.75016093e-01, 9.25048709e-01 ]
      - [ 9.85031724e-01, 9.99896467e-01, 9.49688315e-01, 9.62808430e-01 ]
      - [ 3.92908841e-01, 9.72582817e-01, 9.98724580e-01, 9.41520393e-01 ]
      - [ 9.96196985e-01, 9.87944245e-01, 9.64481354e-01, 8.90996933e-01 ]
      - [ 4.52570647e-01, 9.81144130e-01, 9.98474300e-01, 9.35245812e-01 ]
      - [ 4.45011199e-01, 9.86245632e-01, 9.97765303e-01, 9.48163569e-01 ]
      - [ 9.98228431e-01, 9.84439075e-01, 8.81681144e-01, 9.29826915e-01 ]
      - [ 6.52410328e-01, 9.25285339e-01, 9.97416735e-01, 9.58678186e-01 ]
      - [ 8.93497586e-01, 9.68410969e-01, 9.42880154e-01, 7.12764382e-01 ]
      - [ 9.98579860e-01, 9.92343605e-01, 9.99677598e-01, 9.37248766e-01 ]
      - [ 9.11971390e-01, 9.76086617e-01, 9.98551309e-01, 7.14330077e-01 ]
      - [ 7.11403564e-02, 8.97269189e-01, 9.98180211e-01, 9.54412937e-01 ]
      - [ 9.11326051e-01, 9.70032215e-01, 9.97932494e-01, 7.39752710e-01 ]
      - [ 9.98236537e-01, 9.97481465e-01, 9.43391442e-01, 7.91240633e-01 ]
      - [ 2.49771047e-02, 9.31442916e-01, 9.96844828e-01, 9.76849854e-01 ]
      - [ 7.78660476e-01, 9.92468894e-01, 9.19226170e-01, 6.45581782e-01 ]
      - [ 7.10686982e-01, 9.66314256e-01, 9.13868546e-01, 8.41791987e-01 ]
      - [ 8.84564281e-01, 9.92275655e-01, 8.51937592e-01, 6.66499496e-01 ]
      - [ 6.58835888e-01, 8.88433158e-01, 9.99043584e-01, 9.56180871e-01 ]
      - [ 8.88660431e-01, 9.91036713e-01, 8.52144897e-01, 6.78238690e-01 ]
      - [ 1.53269393e-05, 9.99750435e-01, 8.92020762e-01, 9.19837475e-01 ]
      - [ 7.56638348e-01, 9.68473792e-01, 9.95379925e-01, 9.51973200e-01 ]
      - [ 1.93561420e-01, 9.59302783e-01, 9.96047020e-01, 9.60587442e-01 ]
      - [ 8.67899239e-01, 9.80214119e-01, 9.96014774e-01, 9.51979876e-01 ]
      - [ 9.98864591e-01, 9.75815177e-01, 8.46801758e-01, 8.62752616e-01 ]
      - [ 8.75265598e-01, 9.88888800e-01, 9.96366858e-01, 9.63766634e-01 ]
      - [ 9.75040197e-02, 9.82426703e-01, 9.94932473e-01, 9.56010699e-01 ]
      - [ 1.59272164e-01, 9.99934494e-01, 8.16307843e-01, 7.37577021e-01 ]
      - [ 6.93889856e-02, 9.84108210e-01, 9.95296836e-01, 9.66415346e-01 ]
      - [ 4.89344634e-03, 9.99201536e-01, 6.11162961e-01, 8.35997045e-01 ]
      - [ 1.58788692e-02, 9.99846995e-01, 9.96855080e-01, 7.42634356e-01 ]
      - [ 1.89620276e-29, 9.96632576e-01, 8.99114490e-01, 8.66969645e-01 ]
      - [ 7.60553888e-29, 9.61611450e-01, 9.13155675e-01, 7.22454250e-01 ]
      - [ 1.71827599e-02, 8.89543116e-01, 6.68951273e-01, 4.21525359e-01 ]
      - [ 9.47780092e-04, 9.94099498e-01, 8.99962664e-01, 8.58493686e-01 ]
      - [ 0., 9.57169235e-01, 9.52527761e-01, 7.78631389e-01 ]
      - [ 1.91688731e-01, 9.99694169e-01, 8.60247016e-01, 8.69537830e-01 ]
      - [ 0., 9.63206470e-01, 9.50427532e-01, 7.13545024e-01 ]
      - [ 3.37282958e-30, 9.99947786e-01, 8.70365798e-01, 9.20510292e-01 ]
      - [ 6.12295466e-03, 9.98664141e-01, 8.86954606e-01, 8.65123451e-01 ]
      - [ 7.66044080e-01, 4.58747745e-01, 9.13246334e-01, 4.24498826e-01 ]
      - [ 9.27685201e-01, 9.48858798e-01, 8.75070155e-01, 9.83218610e-01 ]
      - [ 3.72961350e-02, 9.85271394e-01, 8.85263443e-01, 9.22403336e-01 ]
      - [ 1.35411352e-01, 9.28291023e-01, 8.65153730e-01, 9.14903581e-01 ]
      - [ 3.99082422e-01, 9.95974481e-01, 9.98976707e-01, 9.22927320e-01 ]
      - [ 5.54120481e-01, 9.97828901e-01, 9.97432768e-01, 6.80800080e-01 ]
      - [ 3.23076963e-01, 9.54293430e-01, 8.90276313e-01, 9.62893426e-01 ]
      - [ 9.93850529e-01, 9.88317072e-01, 8.70745778e-01, 9.28461254e-01 ]
      - [ 2.01204225e-01, 9.62586284e-01, 8.57289612e-01, 9.64736760e-01 ]
      - [ 9.68649983e-01, 9.87127185e-01, 8.56942654e-01, 9.01221633e-01 ]
      - [ 1.53021792e-42, 9.39823568e-01, 8.04825187e-01, 9.86117542e-01 ]
      - [ 3.82614166e-01, 9.99766231e-01, 6.18715286e-01, 9.66098487e-01 ]
      - [ 6.13294542e-01, 9.97856975e-01, 8.38131189e-01, 9.44171071e-01 ]
      - [ 9.45860054e-03, 9.98770177e-01, 8.23388040e-01, 6.86724067e-01 ]
      - [ 2.21068244e-02, 9.99311090e-01, 8.49501848e-01, 9.16802585e-01 ]
      - [ 6.33467287e-02, 9.98733521e-01, 9.99803603e-01, 6.64231598e-01 ]
      - [ 1.00688785e-02, 9.79802728e-01, 8.72768998e-01, 9.51643825e-01 ]
      - [ 0., 9.90033746e-01, 9.64461088e-01, 6.35649443e-01 ]
      - [ 1.31974434e-02, 9.99021292e-01, 8.53087008e-01, 8.80471826e-01 ]
      - [ 7.19032109e-01, 9.99028742e-01, 8.22168171e-01, 9.02440786e-01 ]
      - [ 2.83598416e-02, 9.99405503e-01, 8.71535063e-01, 8.64087343e-01 ]
      - [ 4.62432654e-04, 9.34510529e-01, 9.37390268e-01, 8.79551172e-01 ]
      - [ 9.52085294e-03, 9.86909568e-01, 9.16327178e-01, 6.43397808e-01 ]
      - [ 3.13158589e-03, 9.96445298e-01, 8.30934107e-01, 8.94838750e-01 ]
      - [ 5.45603998e-17, 5.04498541e-01, 8.81253719e-01, 8.89725149e-01 ]
      - [ 8.95085782e-02, 9.99668479e-01, 9.98744547e-01, 8.93518865e-01 ]
      - [ 8.92706029e-03, 9.97743368e-01, 8.30615342e-01, 9.12857652e-01 ]
      - [ 1.47752394e-03, 9.98773456e-01, 7.99127638e-01, 9.09609616e-01 ]
      - [ 9.31544323e-03, 9.96669352e-01, 8.78055930e-01, 8.71379256e-01 ]
      - [ 6.13921940e-01, 9.99977767e-01, 8.06961834e-01, 8.79861355e-01 ]
      - [ 1.59573704e-02, 9.98585701e-01, 7.99268126e-01, 9.15292621e-01 ]
      - [ 1.24950884e-02, 9.99082863e-01, 8.09134662e-01, 9.15206850e-01 ]
      - [ 1.02467231e-01, 9.98990357e-01, 8.25932741e-01, 9.25870359e-01 ]
      - [ 5.94757348e-02, 9.99105275e-01, 8.40816736e-01, 8.88726056e-01 ]
      - [ 0., 9.85161662e-01, 9.60151494e-01, 6.15421474e-01 ]
      - [ 7.63490330e-03, 9.95801687e-01, 9.13623095e-01, 7.91562617e-01 ]
      - [ 1.27579086e-03, 9.99331594e-01, 8.12632382e-01, 9.28171933e-01 ]
      - [ 5.01275897e-01, 9.94171202e-01, 8.91830266e-01, 8.73703301e-01 ]
      - [ 8.87117990e-10, 9.85408008e-01, 7.05812454e-01, 8.69781733e-01 ]
      - [ 4.96439666e-01, 9.29482818e-01, 9.68210161e-01, 8.75011027e-01 ]
      - [ 4.14209766e-03, 9.55006063e-01, 8.84457886e-01, 8.93957496e-01 ]
      - [ 3.73316929e-03, 9.67293680e-01, 8.83396685e-01, 9.53048050e-01 ]
      - [ 4.01522547e-01, 9.25248206e-01, 9.13831949e-01, 8.76744568e-01 ]
      - [ 4.16236231e-03, 9.00316834e-01, 9.13316548e-01, 9.26843762e-01 ]
      - [ 4.15785192e-03, 9.65964615e-01, 8.91233444e-01, 9.30352807e-01 ]
      - [ 4.22134250e-03, 9.90700364e-01, 8.55885148e-01, 9.01371658e-01 ]
      - [ 1.26644135e-01, 9.88792777e-01, 8.69333506e-01, 9.08686042e-01 ]
      - [ 3.62286538e-01, 7.86347508e-01, 8.94223392e-01, 7.05711603e-01 ]
      - [ 4.73708361e-01, 9.25045371e-01, 9.13854420e-01, 8.47286165e-01 ]
      - [ 9.88548577e-01, 8.95962358e-01, 8.89331400e-01, 8.43753874e-01 ]
      - [ 9.62632239e-01, 9.51846302e-01, 9.06639159e-01, 8.23775530e-01 ]
      - [ 9.63216424e-01, 9.94173944e-01, 8.88893545e-01, 9.60577607e-01 ]
      - [ 5.04973471e-01, 8.20927322e-01, 8.85987163e-01, 7.84747958e-01 ]
      - [ 5.20247042e-01, 7.82222509e-01, 9.25960004e-01, 9.27182972e-01 ]
      - [ 9.64083433e-01, 9.34111953e-01, 8.89241695e-01, 8.77211571e-01 ]
      - [ 9.64923203e-01, 9.41641092e-01, 9.03458953e-01, 8.47080946e-01 ]
      - [ 5.48263013e-01, 8.25824797e-01, 9.24317777e-01, 8.88082683e-01 ]
      - [ 5.73150158e-01, 8.99998069e-01, 9.56195056e-01, 9.00884926e-01 ]
      - [ 9.82580483e-01, 9.17086542e-01, 8.91687155e-01, 5.84321439e-01 ]
      - [ 5.45743736e-04, 9.67200935e-01, 6.55695558e-01, 9.13415909e-01 ]
      - [ 8.88630688e-01, 9.82581854e-01, 8.13808739e-01, 8.43250990e-01 ]
      - [ 9.40168262e-01, 9.76771116e-01, 8.86049330e-01, 9.64034677e-01 ]
      - [ 1.24634281e-01, 9.98918831e-01, 9.98175502e-01, 9.66120899e-01 ]
      - [ 1.07229203e-01, 9.98192489e-01, 9.98616397e-01, 9.64681804e-01 ]
      - [ 5.40592968e-01, 9.30410206e-01, 9.95535731e-01, 9.72468257e-01 ]
      - [ 5.15956938e-01, 9.70440328e-01, 9.59065855e-01, 7.73607910e-01 ]
      - [ 5.11130989e-01, 7.87278295e-01, 9.54661787e-01, 7.93365717e-01 ]
      - [ 5.11195838e-01, 7.44589210e-01, 9.56525445e-01, 7.59324610e-01 ]
      - [ 5.37461340e-01, 8.81144345e-01, 9.97590482e-01, 7.75073588e-01 ]
      - [ 6.66054368e-01, 8.92751098e-01, 9.98503447e-01, 8.71579587e-01 ]
      - [ 6.12490892e-01, 8.96020472e-01, 9.99143720e-01, 7.67080069e-01 ]
      - [ 9.75221157e-01, 8.86751890e-01, 9.20377791e-01, 6.35146916e-01 ]
      - [ 6.73162878e-01, 8.90562952e-01, 9.99461889e-01, 8.84530842e-01 ]
      - [ 6.17683642e-02, 9.88052070e-01, 8.49416196e-01, 9.19842064e-01 ]
      - [ 9.89208639e-01, 8.35770190e-01, 9.25212979e-01, 8.91664982e-01 ]
      - [ 5.11336863e-01, 7.53933132e-01, 9.59510148e-01, 7.52639055e-01 ]
      - [ 4.92470682e-01, 9.92986560e-01, 8.48841727e-01, 7.37513900e-01 ]
      - [ 4.52283710e-01, 9.87396777e-01, 8.17376673e-01, 7.98806608e-01 ]
      - [ 7.04620183e-01, 8.74165773e-01, 9.05897796e-01, 6.71279430e-01 ]
      - [ 7.04634488e-01, 8.62482727e-01, 9.06938136e-01, 6.58037841e-01 ]
      - [ 7.04632699e-01, 8.69220555e-01, 9.69839096e-01, 6.49225175e-01 ]
      - [ 7.04614639e-01, 9.21507239e-01, 9.14179265e-01, 6.57765508e-01 ]
      - [ 4.91999149e-01, 9.84473050e-01, 9.99530315e-01, 9.21428859e-01 ]
      - [ 5.02165973e-01, 9.85917509e-01, 9.99612153e-01, 9.05811667e-01 ]
      - [ 5.22679806e-01, 9.87120509e-01, 9.99572396e-01, 9.36403632e-01 ]
      - [ 8.53776753e-01, 9.95046437e-01, 9.31001127e-01, 7.07310140e-01 ]
      - [ 9.75633025e-01, 8.97747219e-01, 9.99536157e-01, 8.72140527e-01 ]
      - [ 8.61268520e-01, 9.93337810e-01, 9.40063715e-01, 7.15919018e-01 ]
      - [ 5.47362506e-01, 9.90620017e-01, 9.02686477e-01, 9.43317115e-01 ]
      - [ 9.89702463e-01, 8.99953783e-01, 9.98622835e-01, 8.76491427e-01 ]
      - [ 7.15667248e-01, 8.86205494e-01, 9.46911395e-01, 9.02390003e-01 ]
      - [ 9.74449158e-01, 9.05069590e-01, 9.99259889e-01, 8.87045920e-01 ]
      - [ 8.78366590e-01, 9.90663946e-01, 9.45320547e-01, 9.26991463e-01 ]
      - [ 5.60125828e-01, 9.90941882e-01, 9.21081364e-01, 9.13210571e-01 ]
      - [ 0., 9.94896352e-01, 9.10937428e-01, 5.87929130e-01 ]
      - [ 5.50111353e-01, 9.96149838e-01, 9.25547898e-01, 9.29157734e-01 ]
      - [ 7.64276683e-01, 8.72327626e-01, 9.90312159e-01, 7.95813978e-01 ]
      - [ 9.18374121e-01, 9.76473033e-01, 9.98881459e-01, 9.52090383e-01 ]
      - [ 8.42501700e-01, 9.95141685e-01, 7.98580229e-01, 8.96805167e-01 ]
      - [ 7.67972946e-01, 9.80738282e-01, 9.72599030e-01, 8.16286743e-01 ]
      - [ 7.71395862e-01, 9.75104570e-01, 8.19995046e-01, 7.20493793e-01 ]
      - [ 9.76253331e-01, 9.93183792e-01, 9.50708151e-01, 5.61288238e-01 ]
      - [ 7.74789870e-01, 9.80427563e-01, 8.73433769e-01, 8.95497143e-01 ]
      - [ 9.76241350e-01, 9.96442378e-01, 8.65889549e-01, 7.46157825e-01 ]
      - [ 9.18083310e-01, 9.96119142e-01, 8.66178632e-01, 7.87461579e-01 ]
      - [ 6.75804496e-01, 9.78528142e-01, 8.98088813e-01, 8.79219532e-01 ]
      - [ 8.54846239e-01, 9.90258694e-01, 8.41941893e-01, 9.37432528e-01 ]
      - [ 6.30200565e-01, 9.93591905e-01, 8.95546973e-01, 9.16863143e-01 ]
      - [ 9.47391629e-01, 9.99855340e-01, 6.63647532e-01, 8.98097873e-01 ]
      - [ 2.70745050e-24, 9.98295724e-01, 8.86394083e-01, 8.60575080e-01 ]
      - [ 5.76169312e-01, 9.99754369e-01, 9.48620141e-01, 8.89352083e-01 ]
      - [ 7.33879924e-01, 9.97534990e-01, 8.71427596e-01, 8.84799182e-01 ]
      - [ 6.12146080e-01, 9.77012813e-01, 9.33139741e-01, 8.77944410e-01 ]
      - [ 7.44175732e-01, 9.99190032e-01, 9.22134161e-01, 9.06668365e-01 ]
      - [ 7.95233667e-01, 9.98922467e-01, 9.52165782e-01, 8.96777749e-01 ]
      - [ 6.17976189e-01, 9.65567410e-01, 9.99527872e-01, 8.77892137e-01 ]
      - [ 6.29664719e-01, 9.72869515e-01, 9.41541672e-01, 8.49659860e-01 ]
      - [ 8.00816342e-02, 9.63601291e-01, 9.12877381e-01, 8.93646359e-01 ]
      - [ 4.97254312e-01, 7.92905688e-01, 9.43360627e-01, 9.52586412e-01 ]
      - [ 4.91694599e-01, 7.96792507e-01, 9.80849445e-01, 9.58779693e-01 ]
      - [ 4.91820216e-01, 8.79486978e-01, 9.81126666e-01, 9.53444004e-01 ]
      - [ 4.91652459e-01, 9.77948844e-01, 9.35829222e-01, 9.37976241e-01 ]
      - [ 0., 9.49414074e-01, 6.23818517e-01, 8.53996575e-01 ]
      - [ 5.05205870e-01, 9.91953254e-01, 8.95824969e-01, 8.86140704e-01 ]
      - [ 5.93069553e-01, 9.96862710e-01, 8.97059202e-01, 9.19139922e-01 ]
      - [ 9.71676409e-01, 9.33245718e-01, 8.66196394e-01, 9.48463142e-01 ]
      - [ 9.49111342e-01, 9.75211263e-01, 8.63825560e-01, 9.42337096e-01 ]
      - [ 9.04870749e-01, 8.03862214e-01, 9.03260350e-01, 5.72176993e-01 ]
      - [ 4.18741954e-03, 9.98293996e-01, 9.17675197e-01, 9.59735692e-01 ]
      - [ 4.80311364e-03, 9.96497512e-01, 9.18142974e-01, 9.41266060e-01 ]
      - [ 8.08556437e-01, 9.85891521e-01, 8.52331042e-01, 9.56775069e-01 ]
      - [ 1.31203175e-01, 8.37952435e-01, 8.90803754e-01, 5.40841460e-01 ]
      - [ 5.45786440e-01, 9.94342387e-01, 8.97311807e-01, 8.65116179e-01 ]
      - [ 5.75745344e-01, 9.95414913e-01, 8.95641983e-01, 8.83046389e-01 ]
      - [ 9.05675173e-01, 9.41598535e-01, 8.55964780e-01, 8.96805227e-01 ]
      - [ 2.11852312e-01, 9.69621658e-01, 8.46193850e-01, 8.46028745e-01 ]
      - [ 5.00641227e-01, 9.94740188e-01, 8.95774662e-01, 8.37619722e-01 ]
      - [ 8.68292034e-01, 9.35437381e-01, 8.12305510e-01, 9.81633842e-01 ]
      - [ 9.08046663e-01, 8.37332487e-01, 8.64342034e-01, 8.76521349e-01 ]
      - [ 9.00587380e-01, 8.31034780e-01, 8.79612982e-01, 8.82797837e-01 ]
      - [ 9.91785347e-01, 9.96870518e-01, 9.13104475e-01, 9.37412441e-01 ]
      - [ 9.14778590e-01, 8.56660545e-01, 8.52079153e-01, 8.49632323e-01 ]
      - [ 8.98277640e-01, 8.30258608e-01, 8.51885200e-01, 8.22920203e-01 ]
      - [ 8.07723701e-01, 8.33554327e-01, 8.51774931e-01, 8.51565719e-01 ]
      - [ 8.91108990e-01, 9.41738427e-01, 8.50546122e-01, 8.50436151e-01 ]
      - [ 8.94235671e-01, 8.66731703e-01, 8.32084417e-01, 8.79242718e-01 ]
      - [ 7.22227097e-01, 9.55168843e-01, 8.06906641e-01, 9.49093521e-01 ]
      - [ 7.22288899e-03, 9.92739379e-01, 7.18294621e-01, 8.54721963e-01 ]
      - [ 7.40070283e-01, 8.73028994e-01, 8.33186865e-01, 8.50366175e-01 ]
      - [ 3.95635426e-01, 8.87775898e-01, 7.85283148e-01, 8.59368503e-01 ]
      - [ 3.37959319e-01, 9.69649553e-01, 7.94268250e-01, 8.72464597e-01 ]
      - [ 2.33003110e-01, 9.67383385e-01, 7.85162926e-01, 8.01766336e-01 ]
      - [ 2.19869152e-01, 9.91550803e-01, 7.79553175e-01, 8.20611000e-01 ]
      - [ 9.57847178e-01, 8.43612015e-01, 8.36436331e-01, 7.90669799e-01 ]
      - [ 2.56098270e-01, 9.39066172e-01, 8.44984710e-01, 3.90488893e-01 ]
      - [ 1.56026317e-10, 9.72679973e-01, 7.93996930e-01, 9.25854504e-01 ]
      - [ 9.39895809e-01, 8.35585952e-01, 8.41478765e-01, 9.00737524e-01 ]
      - [ 3.87517929e-01, 9.09074128e-01, 7.84672379e-01, 9.27548766e-01 ]
      - [ 2.73948789e-01, 9.67531979e-01, 7.84923434e-01, 8.26183796e-01 ]
      - [ 2.22992390e-01, 9.93333817e-01, 7.92580545e-01, 8.46153557e-01 ]
      - [ 0., 9.18027461e-01, 8.47181261e-01, 6.66385174e-01 ]
      - [ 0., 8.98508608e-01, 8.84870470e-01, 6.91520929e-01 ]
      - [ 0., 9.44856763e-01, 8.85696113e-01, 6.76547587e-01 ]
      - [ 8.89087498e-01, 9.19380546e-01, 8.14241230e-01, 8.10502112e-01 ]
      - [ 8.67414057e-01, 9.70090866e-01, 7.84981370e-01, 8.30650449e-01 ]
      - [ 9.38413382e-01, 9.91470098e-01, 7.92537987e-01, 8.50865006e-01 ]
      - [ 7.66988635e-01, 9.77396667e-01, 7.92740285e-01, 9.30196583e-01 ]
      - [ 7.28326023e-01, 8.40729058e-01, 8.40968251e-01, 9.04070675e-01 ]
      - [ 7.66988993e-01, 9.82481301e-01, 8.22263360e-01, 9.81393933e-01 ]
      - [ 8.10082555e-01, 9.70438659e-01, 7.64671326e-01, 8.92133296e-01 ]
      - [ 8.81628215e-01, 8.57612312e-01, 8.06712508e-01, 7.49944746e-01 ]
      - [ 8.18146229e-01, 9.82270181e-01, 7.65762806e-01, 8.49838078e-01 ]
      - [ 0., 8.99393499e-01, 8.84609699e-01, 6.87308908e-01 ]
      - [ 0., 9.45434332e-01, 8.85435402e-01, 6.72426760e-01 ]
      - [ 7.81481087e-01, 9.88822222e-01, 8.17563891e-01, 9.75830793e-01 ]
      - [ 5.56291163e-01, 7.14551032e-01, 8.16346467e-01, 9.68154728e-01 ]
      - [ 0., 9.14669335e-01, 8.46922934e-01, 6.68350995e-01 ]
      - [ 7.52456725e-01, 9.07102883e-01, 8.19396555e-01, 9.07605410e-01 ]
      - [ 7.23125339e-01, 9.24661219e-01, 7.65984416e-01, 8.57364058e-01 ]
      - [ 5.75566888e-01, 9.69132423e-01, 7.53696442e-01, 8.66232991e-01 ]
      - [ 2.68731475e-01, 8.29003811e-01, 8.14174592e-01, 9.39240754e-01 ]
      - [ 7.94679761e-01, 9.88667965e-01, 8.18089485e-01, 9.61162567e-01 ]
      - [ 8.76341403e-01, 9.89075005e-01, 8.17992330e-01, 8.63192737e-01 ]
      - [ 8.06403399e-01, 9.88174617e-01, 8.17567527e-01, 9.56312299e-01 ]
      - [ 6.94588125e-01, 8.85757744e-01, 8.14348459e-01, 7.15114832e-01 ]
      - [ 4.61150825e-01, 8.26902390e-01, 8.14696491e-01, 9.51330125e-01 ]
      - [ 7.98405468e-01, 9.90411758e-01, 8.17034841e-01, 9.58460271e-01 ]
      - [ 6.63527489e-01, 8.90077889e-01, 8.15183222e-01, 7.23868072e-01 ]
      - [ 7.32509911e-01, 7.25126624e-01, 8.24168622e-01, 9.08056021e-01 ]
      - [ 1.46301127e-09, 8.92152786e-01, 9.46759164e-01, 5.49126506e-01 ]
      - [ 7.39490628e-01, 9.62029278e-01, 7.54102111e-01, 9.22496557e-01 ]
      - [ 4.09117281e-01, 8.47242415e-01, 8.84338856e-01, 9.28621411e-01 ]
      - [ 2.14822039e-01, 9.40864742e-01, 7.58614838e-01, 8.61656666e-01 ]
      - [ 0., 9.50670958e-01, 9.25401390e-01, 6.37884378e-01 ]
      - [ 6.12053962e-04, 9.43626463e-01, 9.99819219e-01, 8.59124124e-01 ]
      - [ 0., 9.49278653e-01, 9.24858153e-01, 6.42847240e-01 ]
      - [ 5.78396618e-01, 9.91566956e-01, 7.96339691e-01, 7.44578660e-01 ]
      - [ 3.73189032e-01, 9.90859210e-01, 8.57991517e-01, 6.93648994e-01 ]
      - [ 9.96666670e-01, 9.60866451e-01, 8.52912068e-01, 8.60309660e-01 ]
      - [ 9.03019249e-01, 9.18856561e-01, 8.99322033e-01, 9.47886109e-01 ]
      - [ 9.76800978e-01, 9.88886058e-01, 8.71074021e-01, 9.13478613e-01 ]
      - [ 9.80178297e-01, 9.92958426e-01, 8.71962070e-01, 9.09568369e-01 ]
      - [ 9.76186156e-01, 9.89597499e-01, 8.71180654e-01, 8.85093629e-01 ]
      - [ 8.27780962e-01, 9.89972234e-01, 8.56187046e-01, 6.54421628e-01 ]
      - [ 9.75839019e-01, 9.92685258e-01, 8.70681822e-01, 9.33438778e-01 ]
      - [ 8.27946723e-01, 9.81205523e-01, 9.59128439e-01, 8.41840863e-01 ]
      - [ 8.28508854e-01, 9.99619603e-01, 7.16227055e-01, 9.39637303e-01 ]
      - [ 9.74273264e-01, 9.93209541e-01, 8.71371448e-01, 9.08404410e-01 ]
      - [ 8.29301536e-01, 9.87477243e-01, 8.78845096e-01, 8.51800799e-01 ]
      - [ 9.74884748e-01, 9.92367983e-01, 8.71257961e-01, 8.89216065e-01 ]
      - [ 6.47963762e-01, 9.95738149e-01, 9.67194855e-01, 9.13246214e-01 ]
      - [ 8.30490410e-01, 9.94401217e-01, 8.06695640e-01, 9.04151559e-01 ]
      - [ 9.72630084e-01, 9.90180254e-01, 8.71011972e-01, 9.44108248e-01 ]
      - [ 9.73670661e-01, 9.92738664e-01, 8.70479345e-01, 9.10566330e-01 ]
      - [ 9.73005891e-01, 9.93372798e-01, 8.71519983e-01, 9.08173382e-01 ]
      - [ 9.73786831e-01, 9.92909670e-01, 8.71727884e-01, 9.12378669e-01 ]
      - [ 9.72469568e-01, 9.92482960e-01, 8.71291876e-01, 9.14107144e-01 ]
      - [ 9.76271033e-01, 9.79871452e-01, 9.05198455e-01, 9.46412623e-01 ]
      - [ 7.34150231e-01, 9.95093405e-01, 8.85255814e-01, 8.76737833e-01 ]
      - [ 8.87174666e-01, 9.89489615e-01, 8.89926553e-01, 8.74822438e-01 ]
      - [ 8.69340181e-01, 9.92351353e-01, 8.89791846e-01, 8.83494973e-01 ]
      - [ 7.42704690e-01, 9.93472993e-01, 8.90070975e-01, 8.70959580e-01 ]
      - [ 8.69809628e-01, 9.91109014e-01, 8.89838278e-01, 8.59236717e-01 ]
      - [ 8.77791286e-01, 9.92112815e-01, 8.87496173e-01, 8.55369627e-01 ]
      - [ 8.70985925e-01, 9.93719161e-01, 8.93113732e-01, 9.38469470e-01 ]
      - [ 8.72409165e-01, 9.85313118e-01, 8.92661870e-01, 9.09470916e-01 ]
      - [ 5.21329403e-01, 9.89594579e-01, 8.94240260e-01, 8.16550136e-01 ]
      - [ 8.56786072e-02, 9.23361361e-01, 8.80539894e-01, 6.11473203e-01 ]
      - [ 5.03255963e-01, 9.18166339e-01, 7.86729157e-01, 7.70734251e-01 ]
      - [ 8.01826239e-01, 8.59589279e-01, 8.47600579e-01, 9.11327899e-01 ]
      - [ 7.43742168e-01, 9.17895734e-01, 8.60506892e-01, 7.99406767e-01 ]
      - [ 3.66466165e-01, 9.48000073e-01, 7.82741070e-01, 8.74357045e-01 ]
      - [ 9.46031392e-01, 9.04572845e-01, 8.54078889e-01, 9.11199570e-01 ]
      - [ 3.84881124e-02, 9.25833881e-01, 8.25658500e-01, 9.00048137e-01 ]
      - [ 7.08932817e-01, 9.91344869e-01, 8.31074893e-01, 9.42993999e-01 ]
      - [ 7.14977622e-01, 9.86972034e-01, 9.55537975e-01, 8.43076587e-01 ]
      - [ 7.91837275e-01, 9.23212349e-01, 8.17090988e-01, 8.07117403e-01 ]
      - [ 8.42953801e-01, 9.40256476e-01, 9.20939684e-01, 7.98641682e-01 ]
      - [ 7.42686689e-01, 9.52167511e-01, 9.50091243e-01, 7.87777424e-01 ]
      - [ 7.33567953e-01, 9.54549491e-01, 9.49167192e-01, 7.89771676e-01 ]
      - [ 8.97012711e-01, 9.91963565e-01, 8.56480777e-01, 8.21394801e-01 ]
      - [ 8.71466637e-01, 9.58193123e-01, 7.27986038e-01, 8.51943195e-01 ]
      - [ 9.07496512e-01, 9.95851219e-01, 9.63292301e-01, 8.07204068e-01 ]
      - [ 9.05377567e-01, 9.76405144e-01, 9.02828336e-01, 6.59955502e-01 ]
      - [ 7.56263673e-01, 9.72257495e-01, 9.24423158e-01, 8.30322683e-01 ]
      - [ 8.26391101e-01, 9.71622348e-01, 9.15678382e-01, 8.23625922e-01 ]
      - [ 7.50679076e-01, 9.85551536e-01, 8.86383772e-01, 9.25839603e-01 ]
      - [ 7.52524078e-01, 9.89216328e-01, 9.60184634e-01, 9.32582140e-01 ]
      - [ 9.78467524e-01, 9.17670190e-01, 9.18540597e-01, 9.78652358e-01 ]
      - [ 9.67123926e-01, 9.96166587e-01, 8.93660903e-01, 8.92409325e-01 ]
      - [ 9.37739551e-01, 9.99050975e-01, 9.05402780e-01, 8.65790665e-01 ]
      - [ 9.78024960e-01, 8.59124422e-01, 9.35158193e-01, 9.81392264e-01 ]
      - [ 7.52019763e-01, 9.93829846e-01, 9.42196190e-01, 9.25463557e-01 ]
      - [ 6.56174183e-01, 9.96195853e-01, 9.42686439e-01, 9.36512291e-01 ]
      - [ 5.50118148e-01, 9.76434290e-01, 8.76231909e-01, 6.44277573e-01 ]
      - [ 0., 8.40501130e-01, 9.34367836e-01, 9.24561262e-01 ]
      - [ 8.56154084e-01, 9.93081987e-01, 8.76351237e-01, 9.16987717e-01 ]
      - [ 2.86743678e-02, 9.83921707e-01, 9.83392239e-01, 9.01982069e-01 ]
      - [ 6.47428989e-01, 9.78620470e-01, 9.61412072e-01, 8.99804294e-01 ]
      - [ 3.50585073e-01, 9.99222517e-01, 9.39280450e-01, 8.05423915e-01 ]
      - [ 8.49004865e-01, 9.79156971e-01, 9.82379258e-01, 9.08026934e-01 ]
      - [ 9.16501343e-01, 7.79361129e-01, 9.57971871e-01, 9.30090725e-01 ]
      - [ 4.52203631e-01, 7.79888213e-01, 9.72454906e-01, 9.22908783e-01 ]
      - [ 4.06908005e-01, 9.96310413e-01, 9.74018872e-01, 6.63611114e-01 ]
      - [ 9.87999499e-01, 7.83445776e-01, 9.98209000e-01, 9.06989694e-01 ]
      - [ 5.16707301e-01, 9.90937233e-01, 8.89568508e-01, 9.86179948e-01 ]
      - [ 6.96884573e-01, 9.97962356e-01, 8.99579227e-01, 9.05208945e-01 ]
      - [ 7.92970181e-01, 9.79914606e-01, 9.61835861e-01, 8.92981529e-01 ]
      - [ 9.86095965e-01, 7.93058872e-01, 9.98053253e-01, 9.54943299e-01 ]
      - [ 8.05363417e-01, 9.65264142e-01, 9.64689612e-01, 9.52584326e-01 ]
      - [ 9.34723854e-01, 9.84477758e-01, 9.18849707e-01, 8.99711013e-01 ]
      - [ 9.80557799e-01, 8.01726639e-01, 9.99373496e-01, 9.16143715e-01 ]
      - [ 7.60334551e-01, 9.79986489e-01, 9.62443829e-01, 8.98152471e-01 ]
      - [ 6.21276677e-01, 9.97594655e-01, 8.51901591e-01, 9.45269883e-01 ]
      - [ 4.93328661e-01, 9.43634927e-01, 9.63938475e-01, 9.72816765e-01 ]
      - [ 6.72393262e-01, 9.70077336e-01, 9.99422252e-01, 9.00786817e-01 ]
      - [ 4.91769731e-01, 8.99343908e-01, 9.18933272e-01, 9.65885401e-01 ]
      - [ 6.73702359e-01, 9.31928575e-01, 9.18808043e-01, 8.95432293e-01 ]
      - [ 5.70148192e-02, 8.91025543e-01, 9.18296874e-01, 9.55683529e-01 ]
      - [ 4.32135021e-05, 8.91413748e-01, 9.97719526e-01, 8.95109594e-01 ]
      - [ 6.50772229e-02, 9.93498027e-01, 8.86431515e-01, 9.09282327e-01 ]
      - [ 8.92486598e-04, 9.77416515e-01, 8.96467149e-01, 9.14171517e-01 ]
      - [ 5.57499751e-03, 9.90122437e-01, 9.99613285e-01, 7.71801531e-01 ]
      - [ 9.20905054e-01, 9.76732016e-01, 8.55371714e-01, 8.69283140e-01 ]
      - [ 1.60289361e-04, 8.70912611e-01, 9.28444743e-01, 8.10518682e-01 ]
      - [ 7.05090940e-01, 9.99589860e-01, 9.43151116e-01, 9.19624746e-01 ]
      - [ 0., 9.48051035e-01, 9.28878605e-01, 8.68058741e-01 ]
      - [ 1.01543488e-02, 9.90180492e-01, 9.99012291e-01, 7.72989511e-01 ]
      - [ 8.05253961e-08, 9.67684925e-01, 9.58409965e-01, 6.97220623e-01 ]
      - [ 9.33430076e-01, 9.99680817e-01, 9.36519146e-01, 9.11680579e-01 ]
      - [ 7.96949212e-03, 8.77381444e-01, 9.99029636e-01, 7.85618246e-01 ]
      - [ 5.76801486e-02, 9.98018384e-01, 9.19467986e-01, 9.05291796e-01 ]
      - [ 0., 9.58418250e-01, 9.20284450e-01, 6.79031968e-01 ]
      - [ 6.95300817e-01, 9.84785795e-01, 9.29292202e-01, 8.29364538e-01 ]
      - [ 2.18651947e-02, 9.99615312e-01, 9.42091346e-01, 9.88748252e-01 ]
      - [ 3.98172736e-01, 6.37997627e-01, 9.22554672e-01, 9.07241523e-01 ]
      - [ 2.75384169e-02, 9.98990893e-01, 9.21425045e-01, 9.84883070e-01 ]
      - [ 9.46099997e-01, 9.86279368e-01, 9.82821226e-01, 9.01568532e-01 ]
      - [ 7.82376707e-01, 6.56724453e-01, 9.96185899e-01, 8.56804073e-01 ]
      - [ 9.78328049e-01, 9.92607653e-01, 8.73967528e-01, 6.62107170e-01 ]
      - [ 7.10594058e-01, 9.72563326e-01, 8.30218971e-01, 8.02033603e-01 ]
      - [ 9.47213829e-01, 5.21406174e-01, 9.80569780e-01, 8.37480426e-01 ]
      - [ 9.80578840e-01, 9.66281533e-01, 8.50303054e-01, 6.65400267e-01 ]
      - [ 4.05299008e-01, 9.98660147e-01, 7.27256298e-01, 5.94928503e-01 ]
      - [ 9.70241785e-01, 9.48190570e-01, 8.51537049e-01, 6.45021141e-01 ]
      - [ 2.08551306e-02, 9.91184592e-01, 9.25389946e-01, 7.33809531e-01 ]
      - [ 3.27803254e-01, 9.93393004e-01, 9.99471247e-01, 7.49540389e-01 ]
   decision_functions:
      -
         sv_count: 373
         rho: -1.4456327404875051e+02
         alpha: [ 2.0554366432451006e+04, 2.0554366432451006e+04,
             2.0554366432451006e+04, 2.0554366432451006e+04,
             2.0554366432451006e+04, 2.0554366432451006e+04,
             8.1184569080277915e+03, 2.0554366432451006e+04,
             2.0554366432451006e+04, 2.0554366432451006e+04,
             1.9728731349100774e+04, 2.0554366432451006e+04,
             2.0554366432451006e+04, 2.0554366432451006e+04,
             2.0554366432451006e+04, 2.0554366432451006e+04,
             2.0554366432451006e+04, 2.0554366432451006e+04,
             2.0554366432451006e+04, 2.0554366432451006e+04,
             2.0554366432451006e+04, 2.0554366432451006e+04,
             2.0554366432451006e+04, 6.6967764151773963e+03,
             2.0554366432451006e+04, 2.0554366432451006e+04,
             2.0554366432451006e+04, 2.0554366432451006e+04,
             2.0554366432451006e+04, 1.8807410767915109e+04,
             1.2725896980969470e+04, 2.0554366432451006e+04,
             4.5064337074675441e+03, 2.0554366432451006e+04,
             2.0554366432451006e+04, 2.0554366432451006e+04,
             2.0554366432451006e+04, 2.0554366432451006e+04,
             2.0554366432451006e+04, 2.0554366432451006e+04,
             2.0554366432451006e+04, 2.0554366432451006e+04,
             2.0554366432451006e+04, 2.0554366432451006e+04,
             2.0554366432451006e+04, 2.0554366432451006e+04,
             2.0554366432451006e+04, 2.0554366432451006e+04,
             1.5470642015823668e+02, 2.0554366432451006e+04,
             2.0554366432451006e+04, 2.0554366432451006e+04,
             2.9414808212445782e+03, 2.0554366432451006e+04,
             2.0554366432451006e+04, 2.0554366432451006e+04,
             2.0554366432451006e+04, 2.0951004293892256e+03,
             2.0554366432451006e+04, 2.0554366432451006e+04,
             2.0554366432451006e+04, 7.6230824063488290e+03,
             2.0554366432451006e+04, 2.0554366432451006e+04,
             2.0554366432451006e+04, 1.9100226820028237e+02,
             2.0554366432451006e+04, 2.0554366432451006e+04,
             2.0554366432451006e+04, 2.0554366432451006e+04,
             2.0554366432451006e+04, 2.0554366432451006e+04,
             2.0554366432451006e+04, 2.0554366432451006e+04,
             2.0554366432451006e+04, 2.0554366432451006e+04,
             2.0554366432451006e+04, 2.0554366432451006e+04,
             2.0554366432451006e+04, 2.0554366432451006e+04,
             2.0554366432451006e+04, 2.0554366432451006e+04,
             2.0554366432451006e+04, 2.0554366432451006e+04,
             2.0554366432451006e+04, 2.0554366432451006e+04,
             2.0554366432451006e+04, 2.0554366432451006e+04,
             2.0554366432451006e+04, 2.0554366432451006e+04,
             2.0554366432451006e+04, 4.6620540753031883e+03,
             2.0554366432451006e+04, 2.0554366432451006e+04,
             2.0554366432451006e+04, 1.4037509866453964e+04,
             2.3510634010604049e+03, 1.2453170201858606e+04,
             2.0554366432451006e+04, 2.0554366432451006e+04,
             2.0554366432451006e+04, 2.0554366432451006e+04,
             2.0554366432451006e+04, 2.0554366432451006e+04,
             2.0554366432451006e+04, 2.0554366432451006e+04,
             2.0554366432451006e+04, 2.0554366432451006e+04,
             2.0554366432451006e+04, 3.9937249162956778e+03,
             2.0554366432451006e+04, 2.0554366432451006e+04,
             2.0554366432451006e+04, 2.0554366432451006e+04,
             2.0554366432451006e+04, 2.0554366432451006e+04,
             2.0554366432451006e+04, 2.0554366432451006e+04,
             2.0554366432451006e+04, 8.2460009606181738e+03,
             2.0554366432451006e+04, 2.0554366432451006e+04,
             2.0554366432451006e+04, 2.0554366432451006e+04,
             2.0554366432451006e+04, 2.0554366432451006e+04,
             2.0554366432451006e+04, 2.0554366432451006e+04,
             8.3996112872920457e+03, 2.0554366432451006e+04,
             9.9809326792494551e+02, 2.0554366432451006e+04,
             1.0854060369490397e+04, 2.0554366432451006e+04,
             1.2228764182508653e+03, 2.0554366432451006e+04,
             1.1905056204553007e+03, 2.0554366432451006e+04,
             2.0554366432451006e+04, 2.0554366432451006e+04,
             2.0501555557453827e+02, 2.0554366432451006e+04,
             4.0991727406207661e+02, 2.0554366432451006e+04,
             2.0554366432451006e+04, 2.0554366432451006e+04,
             2.0554366432451006e+04, 2.0554366432451006e+04,
             2.0554366432451006e+04, 1.8844055517408746e+04,
             2.0554366432451006e+04, 2.0554366432451006e+04,
             2.0554366432451006e+04, 2.0554366432451006e+04,
             1.9502007132720499e+02, 2.0554366432451006e+04,
             2.0554366432451006e+04, 2.0554366432451006e+04,
             2.0554366432451006e+04, 2.0554366432451006e+04,
             2.0554366432451006e+04, 2.0554366432451006e+04,
             2.0554366432451006e+04, 2.0554366432451006e+04,
             2.0554366432451006e+04, 2.0554366432451006e+04,
             2.0554366432451006e+04, 2.0554366432451006e+04,
             2.0554366432451006e+04, 2.0554366432451006e+04,
             2.0554366432451006e+04, 2.0554366432451006e+04,
             2.0554366432451006e+04, 2.0554366432451006e+04,
             2.0554366432451006e+04, 2.0554366432451006e+04,
             7.4695590121143068e+03, 2.0554366432451006e+04,
             6.0739157643541660e+02, 2.0554366432451006e+04,
             2.0554366432451006e+04, 2.0554366432451006e+04,
             3.3796052016283525e+03, 2.0554366432451006e+04,
             2.0554366432451006e+04, 4.3689636673591322e+03,
             2.0554366432451006e+04, 2.0554366432451006e+04,
             2.0554366432451006e+04, 2.0554366432451006e+04,
             1.6019409325506326e+03, 1.8519883300291833e+04,
             -2.0554366432451006e+04, -2.0554366432451006e+04,
             -9.3119739326790695e+03, -2.0554366432451006e+04,
             -2.0554366432451006e+04, -2.0554366432451006e+04,
             -2.0554366432451006e+04, -2.0554366432451006e+04,
             -2.0554366432451006e+04, -2.0554366432451006e+04,
             -2.0554366432451006e+04, -1.9185472272316997e+03,
             -2.0554366432451006e+04, -2.0311450723966958e+04,
             -2.0554366432451006e+04, -2.0554366432451006e+04,
             -2.0554366432451006e+04, -2.0554366432451006e+04,
             -2.0554366432451006e+04, -2.0554366432451006e+04,
             -2.0554366432451006e+04, -2.0554366432451006e+04,
             -2.0554366432451006e+04, -2.0554366432451006e+04,
             -2.0554366432451006e+04, -2.0554366432451006e+04,
             -2.0554366432451006e+04, -2.0554366432451006e+04,
             -2.0554366432451006e+04, -2.0554366432451006e+04,
             -2.0554366432451006e+04, -2.0554366432451006e+04,
             -2.0554366432451006e+04, -2.0554366432451006e+04,
             -2.0554366432451006e+04, -2.0554366432451006e+04,
             -2.0554366432451006e+04, -2.0554366432451006e+04,
             -2.0554366432451006e+04, -2.0554366432451006e+04,
             -2.0554366432451006e+04, -2.0554366432451006e+04,
             -2.0554366432451006e+04, -2.0554366432451006e+04,
             -2.0554366432451006e+04, -2.0554366432451006e+04,
             -2.0554366432451006e+04, -2.0554366432451006e+04,
             -2.0554366432451006e+04, -2.0554366432451006e+04,
             -2.0554366432451006e+04, -2.0554366432451006e+04,
             -2.0554366432451006e+04, -2.0554366432451006e+04,
             -2.0554366432451006e+04, -2.0554366432451006e+04,
             -2.0554366432451006e+04, -2.0554366432451006e+04,
             -2.0554366432451006e+04, -2.0554366432451006e+04,
             -2.0554366432451006e+04, -2.0554366432451006e+04,
             -2.0554366432451006e+04, -2.0554366432451006e+04,
             -2.0554366432451006e+04, -2.0554366432451006e+04,
             -2.0554366432451006e+04, -2.0053290474312489e+04,
             -2.0554366432451006e+04, -3.4202768463764522e+02,
             -2.0554366432451006e+04, -2.0554366432451006e+04,
             -2.0554366432451006e+04, -2.0554366432451006e+04,
             -2.0554366432451006e+04, -2.0554366432451006e+04,
             -1.5945771235440941e+04, -2.0554366432451006e+04,
             -2.0554366432451006e+04, -1.6784103381224490e+04,
             -2.0554366432451006e+04, -2.0554366432451006e+04,
             -2.0554366432451006e+04, -9.0306940919873505e+03,
             -2.0554366432451006e+04, -1.3097610652734726e+04,
             -2.0554366432451006e+04, -2.0554366432451006e+04,
             -2.0554366432451006e+04, -2.0554366432451006e+04,
             -2.0554366432451006e+04, -2.0554366432451006e+04,
             -2.0554366432451006e+04, -8.4341612060867574e+03,
             -2.0554366432451006e+04, -2.0554366432451006e+04,
             -2.0554366432451006e+04, -2.0554366432451006e+04,
             -1.8245461026433804e+04, -2.0554366432451006e+04,
             -2.0554366432451006e+04, -2.0554366432451006e+04,
             -2.0554366432451006e+04, -2.0554366432451006e+04,
             -2.0554366432451006e+04, -2.0554366432451006e+04,
             -2.0554366432449838e+03, -2.0554366432451006e+04,
             -2.0554366432451006e+04, -2.0554366432451006e+04,
             -2.0554366432451006e+04, -2.0554366432451006e+04,
             -2.0554366432451006e+04, -2.0554366432451006e+04,
             -2.0554366432451006e+04, -2.0554366432451006e+04,
             -2.0554366432451006e+04, -2.0554366432451006e+04,
             -2.0554366432451006e+04, -2.0554366432451006e+04,
             -2.0554366432451006e+04, -2.0554366432451006e+04,
             -9.9955972016650103e+03, -2.0554366432451006e+04,
             -2.0554366432451006e+04, -2.0554366432451006e+04,
             -2.0554366432451006e+04, -2.0554366432451006e+04,
             -2.0554366432451006e+04, -2.0554366432451006e+04,
             -2.0554366432451006e+04, -2.0554366432451006e+04,
             -2.0554366432451006e+04, -5.4431225825820402e+03,
             -6.4994870121758422e+03, -2.0554366432451006e+04,
             -6.1103826520300390e+02, -2.0554366432451006e+04,
             -2.0554366432451006e+04, -2.0554366432451006e+04,
             -4.2130876662161863e+03, -2.0554366432451006e+04,
             -2.0554366432451006e+04, -2.0554366432451006e+04,
             -2.0554366432451006e+04, -1.1004201737717729e+04,
             -2.0554366432451006e+04, -2.0554366432451006e+04,
             -2.0554366432451006e+04, -2.0554366432451006e+04,
             -2.0554366432451006e+04, -2.0554366432451006e+04,
             -6.9257309196492743e+03, -2.0554366432451006e+04,
             -2.0554366432451006e+04, -2.0554366432451006e+04,
             -2.0554366432451006e+04, -2.0554366432451006e+04,
             -2.0554366432451006e+04, -2.0554366432451006e+04,
             -6.8219408701140510e+03, -2.0554366432451006e+04,
             -2.0554366432451006e+04, -2.0554366432451006e+04,
             -2.0554366432451006e+04, -2.0554366432451006e+04,
             -2.0554366432451006e+04, -2.0554366432451006e+04,
             -2.0554366432451006e+04, -2.0554366432451006e+04,
             -2.0554366432451006e+04, -2.0554366432451006e+04,
             -2.0554366432451006e+04, -2.0554366432451006e+04,
             -2.0554366432451006e+04, -2.0554366432451006e+04,
             -2.0554366432451006e+04, -2.0554366432451006e+04,
             -2.0554366432451006e+04, -2.0554366432451006e+04,
             -2.0554366432451006e+04 ]
         index: [ 224, 225, 226, 227, 228, 230, 231, 232, 233, 234, 235,
             236, 237, 238, 239, 215, 216, 217, 218, 240, 219, 220, 221,
             222, 223, 252, 250, 251, 253, 254, 256, 241, 242, 244, 245,
             246, 247, 248, 249, 205, 207, 208, 209, 210, 211, 199, 202,
             204, 213, 261, 259, 264, 160, 161, 163, 167, 169, 170, 171,
             146, 147, 142, 144, 145, 154, 188, 195, 194, 198, 189, 190,
             185, 184, 186, 187, 346, 340, 342, 344, 312, 326, 331, 333,
             335, 338, 318, 313, 315, 317, 319, 321, 322, 323, 324, 364,
             367, 368, 370, 354, 358, 278, 279, 280, 276, 281, 282, 266,
             273, 271, 274, 275, 267, 268, 269, 270, 286, 287, 288, 289,
             284, 285, 290, 291, 292, 73, 70, 71, 72, 74, 75, 76, 61, 58,
             63, 66, 67, 96, 94, 97, 98, 89, 91, 99, 92, 93, 100, 88, 83,
             9, 8, 10, 11, 6, 7, 45, 47, 38, 35, 36, 40, 42, 43, 52, 54,
             49, 48, 33, 50, 51, 19, 13, 12, 14, 21, 23, 130, 106, 129,
             104, 132, 131, 105, 125, 109, 110, 111, 128, 108, 139, 141,
             133, 103, 345, 339, 372, 164, 307, 123, 41, 341, 44, 301,
             16, 15, 114, 162, 343, 302, 177, 316, 25, 176, 31, 120, 320,
             24, 32, 175, 121, 22, 178, 118, 180, 28, 179, 181, 311, 29,
             119, 309, 27, 30, 314, 183, 117, 26, 310, 332, 172, 122, 37,
             334, 305, 336, 330, 168, 182, 337, 166, 17, 304, 165, 39,
             303, 116, 174, 325, 20, 327, 308, 328, 34, 173, 115, 18,
             329, 306, 1, 136, 151, 135, 152, 153, 359, 138, 363, 148,
             137, 362, 134, 361, 149, 150, 360, 0, 353, 156, 3, 355, 157,
             155, 352, 4, 158, 159, 351, 356, 357, 2, 369, 143, 371, 140,
             366, 365, 127, 124, 126, 5, 350, 347, 348, 349, 80, 81, 82,
             79, 212, 84, 85, 86, 203, 201, 78, 77, 206, 265, 107, 260,
             229, 243, 255, 101, 258, 257, 102, 90, 87, 214, 262, 263,
             95, 55, 56, 57, 293, 294, 59, 60, 300, 299, 298, 46, 297,
             296, 113, 53, 295, 277, 193, 196, 191, 68, 69, 197, 192,
             272, 200, 62, 64, 65, 112, 283 ]
