%YAML:1.0
my_svm: !!opencv-ml-svm
   svm_type: NU_SVC
   kernel: { type:RBF, gamma:20. }
   nu: 1.0000000000000001e-01
   term_criteria: { epsilon:9.9999999747524271e-07, iterations:1000 }
   var_all: 4
   var_count: 4
   class_count: 2
   class_labels: !!opencv-matrix
      rows: 1
      cols: 2
      dt: i
      data: [ 0, 1 ]
   sv_total: 284
   support_vectors:
      - [ 0., 4.23618793e-01, 8.47143292e-01, 4.38102365e-01 ]
      - [ 0., 4.21878844e-01, 6.47193551e-01, 4.29609776e-01 ]
      - [ 3.36540550e-01, 5.92782617e-01, 8.08503985e-01, 8.38228941e-01 ]
      - [ 1.87993739e-02, 4.89470035e-01, 8.07055593e-01, 9.25329745e-01 ]
      - [ 7.22164894e-03, 4.63175923e-01, 8.67251277e-01, 8.68081450e-01 ]
      - [ 3.22680299e-10, 4.59277362e-01, 8.48705530e-01, 8.96050692e-01 ]
      - [ 2.85412937e-01, 9.94705737e-01, 9.14795816e-01, 8.97128522e-01 ]
      - [ 6.02520873e-17, 4.77381825e-01, 8.23862255e-01, 9.02493715e-01 ]
      - [ 9.02683914e-01, 4.66090143e-01, 8.67124438e-01, 7.89120615e-01 ]
      - [ 0., 6.03223681e-01, 8.49848330e-01, 6.97622359e-01 ]
      - [ 2.26006255e-01, 5.10186911e-01, 8.84742022e-01, 5.97202122e-01 ]
      - [ 0., 5.97420633e-01, 6.88554525e-01, 3.33684057e-01 ]
      - [ 5.05346573e-17, 8.87197196e-01, 6.80408478e-01, 7.80104041e-01 ]
      - [ 5.46683311e-01, 9.98767376e-01, 7.73062229e-01, 9.04969811e-01 ]
      - [ 9.22170222e-01, 7.14658737e-01, 7.22059309e-01, 7.87621200e-01 ]
      - [ 6.73641026e-01, 9.90534008e-01, 8.25978875e-01, 8.86879385e-01 ]
      - [ 9.91113007e-01, 9.16841626e-01, 8.40763927e-01, 7.81358302e-01 ]
      - [ 9.84274447e-01, 4.59642410e-01, 9.61368799e-01, 8.14266801e-01 ]
      - [ 7.80298531e-01, 9.91524637e-01, 9.99233902e-01, 9.08339739e-01 ]
      - [ 7.65914083e-01, 4.57021385e-01, 9.61535990e-01, 8.37588668e-01 ]
      - [ 8.00105989e-01, 7.60561466e-01, 6.46550596e-01, 8.31046820e-01 ]
      - [ 0., 8.86680484e-01, 8.66743565e-01, 9.31468725e-01 ]
      - [ 9.92507696e-01, 9.92154717e-01, 9.61959422e-01, 9.40338612e-01 ]
      - [ 9.99993086e-01, 9.98206556e-01, 9.98881400e-01, 9.79220510e-01 ]
      - [ 9.92740273e-01, 9.95826244e-01, 9.09950554e-01, 8.99874210e-01 ]
      - [ 9.92819190e-01, 9.93007362e-01, 9.09570456e-01, 9.15910304e-01 ]
      - [ 0., 9.71445262e-01, 7.07866788e-01, 2.59359330e-01 ]
      - [ 9.95178640e-01, 9.63357508e-01, 8.95625412e-01, 8.95960212e-01 ]
      - [ 9.93299067e-01, 9.61012065e-01, 8.94929945e-01, 9.16216671e-01 ]
      - [ 8.85856509e-01, 8.84497225e-01, 6.11188352e-01, 2.79317081e-01 ]
      - [ 0., 5.33862710e-01, 8.69163215e-01, 8.63316596e-01 ]
      - [ 7.82146811e-01, 9.99575019e-01, 9.70140755e-01, 9.30902779e-01 ]
      - [ 7.85088062e-01, 9.99370158e-01, 9.70971704e-01, 9.63196099e-01 ]
      - [ 7.82244146e-01, 9.99739647e-01, 9.70699668e-01, 9.50698376e-01 ]
      - [ 7.83714890e-01, 9.98856366e-01, 9.70698297e-01, 9.50260520e-01 ]
      - [ 7.83963263e-01, 9.98390555e-01, 9.70654130e-01, 9.61134136e-01 ]
      - [ 7.84865677e-01, 9.97784615e-01, 9.70168114e-01, 9.32115078e-01 ]
      - [ 7.83409357e-01, 9.99380887e-01, 9.25142109e-01, 9.29573298e-01 ]
      - [ 9.70860302e-01, 9.81086135e-01, 6.40915215e-01, 8.37412536e-01 ]
      - [ 0., 9.86639082e-01, 8.80454957e-01, 6.44619703e-01 ]
      - [ 2.30019590e-14, 8.83282602e-01, 9.02899265e-01, 7.82594502e-01 ]
      - [ 2.89460510e-01, 8.61143529e-01, 8.23328912e-01, 6.07816279e-01 ]
      - [ 0., 8.90269697e-01, 9.07004654e-01, 4.60743904e-01 ]
      - [ 5.17135084e-01, 8.84755492e-01, 9.36673820e-01, 6.80567920e-01 ]
      - [ 7.48862565e-01, 8.88417244e-01, 9.69978690e-01, 6.80560589e-01 ]
      - [ 6.85268700e-01, 9.50702190e-01, 8.09132814e-01, 8.42051387e-01 ]
      - [ 8.13855469e-01, 9.99380052e-01, 8.36892128e-01, 8.25993538e-01 ]
      - [ 4.49325144e-01, 9.89845157e-01, 7.76025891e-01, 8.46998394e-01 ]
      - [ 7.81605184e-01, 9.98813927e-01, 8.63761246e-01, 9.32991683e-01 ]
      - [ 5.17139316e-01, 6.94795668e-01, 7.14861929e-01, 2.87871033e-01 ]
      - [ 0., 9.09815907e-01, 8.19701612e-01, 4.79959399e-01 ]
      - [ 7.81648397e-01, 9.90324914e-01, 8.62806857e-01, 9.34316874e-01 ]
      - [ 9.07563508e-01, 9.46938932e-01, 7.99067974e-01, 5.35202384e-01 ]
      - [ 7.81573892e-01, 9.88764703e-01, 8.62323761e-01, 8.92520070e-01 ]
      - [ 7.81552076e-01, 9.83419955e-01, 8.62180412e-01, 8.89339328e-01 ]
      - [ 0., 9.91236627e-01, 8.50281060e-01, 6.95128202e-01 ]
      - [ 9.37383831e-01, 9.80349898e-01, 9.35853064e-01, 8.37321341e-01 ]
      - [ 2.49679521e-01, 6.32335782e-01, 8.04291666e-01, 9.28269923e-01 ]
      - [ 1.13998753e-24, 9.09682393e-01, 9.08383310e-01, 8.43173981e-01 ]
      - [ 3.44728261e-01, 9.80860651e-01, 9.27308857e-01, 8.04779768e-01 ]
      - [ 2.21860148e-02, 9.71872926e-01, 8.53894591e-01, 8.41961622e-01 ]
      - [ 4.30392891e-01, 9.73540306e-01, 7.85176396e-01, 8.06211710e-01 ]
      - [ 5.69519997e-01, 5.09011567e-01, 8.16055179e-01, 4.96873111e-01 ]
      - [ 9.49144721e-01, 9.73666608e-01, 8.36517334e-01, 8.28190327e-01 ]
      - [ 0., 9.97947216e-01, 8.83037448e-01, 8.18708539e-01 ]
      - [ 3.85173172e-01, 9.57336187e-01, 8.04747641e-01, 4.95361924e-01 ]
      - [ 3.47436853e-02, 9.50308025e-01, 7.86826015e-01, 5.97865343e-01 ]
      - [ 0., 8.93468261e-01, 9.34472561e-01, 6.79013908e-01 ]
      - [ 8.48435879e-01, 4.59652483e-01, 6.33485973e-01, 8.72208297e-01 ]
      - [ 9.09532905e-01, 9.76809859e-01, 8.17166030e-01, 7.64056921e-01 ]
      - [ 0., 9.96710360e-01, 9.35430825e-01, 7.72278547e-01 ]
      - [ 3.73899983e-03, 9.08081770e-01, 9.35140550e-01, 7.61571288e-01 ]
      - [ 8.47652316e-01, 9.82747495e-01, 8.48337412e-01, 8.69601607e-01 ]
      - [ 0., 9.91404116e-01, 6.34443343e-01, 7.58803725e-01 ]
      - [ 0., 8.40123057e-01, 6.09460294e-01, 7.33259261e-01 ]
      - [ 5.91024399e-01, 9.89929020e-01, 8.50479662e-01, 6.85919344e-01 ]
      - [ 9.43319857e-01, 9.79670823e-01, 8.51460338e-01, 9.02033269e-01 ]
      - [ 6.24916434e-01, 9.95538354e-01, 8.35386097e-01, 7.05909371e-01 ]
      - [ 6.88938618e-01, 9.87458229e-01, 9.25088584e-01, 5.33165872e-01 ]
      - [ 0., 9.92485762e-01, 6.34261131e-01, 7.70091295e-01 ]
      - [ 9.98569727e-01, 9.76300418e-01, 8.38709831e-01, 8.09053659e-01 ]
      - [ 9.77273405e-01, 9.88328993e-01, 8.39021623e-01, 9.68538702e-01 ]
      - [ 9.95712996e-01, 9.82043147e-01, 9.00594354e-01, 9.06670809e-01 ]
      - [ 8.55232537e-01, 9.97321367e-01, 9.99298155e-01, 9.25397754e-01 ]
      - [ 1.23175040e-01, 9.64546382e-01, 9.98947382e-01, 9.15324986e-01 ]
      - [ 2.75587857e-01, 9.55921233e-01, 8.23812485e-01, 8.93814325e-01 ]
      - [ 9.95395780e-01, 9.63957965e-01, 8.61677587e-01, 8.33480656e-01 ]
      - [ 9.92922783e-01, 9.58970487e-01, 8.66457164e-01, 8.97341251e-01 ]
      - [ 7.21129179e-01, 9.99422550e-01, 8.16391468e-01, 8.93934786e-01 ]
      - [ 6.91726565e-01, 9.26290631e-01, 8.98393989e-01, 9.19436693e-01 ]
      - [ 9.20643270e-01, 9.98039007e-01, 8.65438938e-01, 9.19122875e-01 ]
      - [ 7.22779989e-01, 9.81587470e-01, 8.56845260e-01, 9.35464978e-01 ]
      - [ 8.63527060e-01, 8.59978914e-01, 8.84838998e-01, 8.85643840e-01 ]
      - [ 8.02608848e-01, 9.93226111e-01, 9.30789173e-01, 9.33796585e-01 ]
      - [ 7.68233955e-01, 9.98084307e-01, 9.76175010e-01, 9.34641957e-01 ]
      - [ 7.06328273e-01, 9.09923911e-01, 8.99733126e-01, 8.63125026e-01 ]
      - [ 7.57041395e-01, 9.85690057e-01, 8.79747689e-01, 8.99567485e-01 ]
      - [ 6.91702902e-01, 9.17976320e-01, 8.99916708e-01, 8.78581226e-01 ]
      - [ 8.68673384e-01, 9.99971449e-01, 9.20052290e-01, 9.57242548e-01 ]
      - [ 6.91713870e-01, 9.00995135e-01, 8.99040401e-01, 8.84086609e-01 ]
      - [ 8.22725296e-01, 9.18447614e-01, 6.19413137e-01, 8.42086971e-01 ]
      - [ 6.91707134e-01, 9.00825918e-01, 8.99192750e-01, 8.88320029e-01 ]
      - [ 5.25601268e-01, 9.97768939e-01, 8.75332355e-01, 8.30251217e-01 ]
      - [ 9.18580770e-01, 9.90689814e-01, 8.32180977e-01, 8.13022196e-01 ]
      - [ 9.20317590e-01, 9.98834968e-01, 8.31900716e-01, 8.31869006e-01 ]
      - [ 7.20701694e-01, 9.97037768e-01, 8.32235277e-01, 8.28535199e-01 ]
      - [ 7.68009722e-02, 9.99394536e-01, 8.75295520e-01, 9.47936952e-01 ]
      - [ 2.21210629e-01, 9.98199522e-01, 8.75632942e-01, 8.84641588e-01 ]
      - [ 1.18660657e-02, 9.99174476e-01, 8.75496864e-01, 9.56429362e-01 ]
      - [ 8.62254739e-01, 9.60013628e-01, 8.66595149e-01, 9.22553718e-01 ]
      - [ 6.91713810e-01, 8.58354747e-01, 9.82061625e-01, 8.43611240e-01 ]
      - [ 1.10304961e-02, 9.99250710e-01, 8.76468241e-01, 8.76348317e-01 ]
      - [ 1.48241452e-30, 9.77716088e-01, 8.67637396e-01, 8.36286485e-01 ]
      - [ 9.98022139e-01, 9.98969138e-01, 8.57129812e-01, 8.93145978e-01 ]
      - [ 8.52320611e-01, 9.44352448e-01, 8.69160950e-01, 9.32389259e-01 ]
      - [ 1.17683169e-02, 9.99853492e-01, 8.76042783e-01, 9.30604517e-01 ]
      - [ 1.36415661e-08, 9.69524801e-01, 8.68190527e-01, 8.75572681e-01 ]
      - [ 6.76331282e-01, 9.98367846e-01, 8.05289567e-01, 8.48836064e-01 ]
      - [ 1.41074089e-02, 9.98644114e-01, 8.76152039e-01, 9.02791858e-01 ]
      - [ 1.11297416e-02, 9.99848187e-01, 8.75954092e-01, 8.36297154e-01 ]
      - [ 1.94963757e-02, 9.99869585e-01, 8.76162648e-01, 9.34220850e-01 ]
      - [ 8.84301513e-02, 9.99919951e-01, 8.75974000e-01, 9.59076941e-01 ]
      - [ 4.28173430e-02, 9.99925256e-01, 8.76282752e-01, 8.77800763e-01 ]
      - [ 7.94958651e-01, 9.96816516e-01, 8.05485308e-01, 7.58721530e-01 ]
      - [ 8.26604068e-01, 9.94044781e-01, 8.86922061e-01, 9.22401965e-01 ]
      - [ 8.28476489e-01, 9.98884976e-01, 8.89627874e-01, 9.14693236e-01 ]
      - [ 9.98185039e-01, 9.99889135e-01, 8.55584800e-01, 9.11413550e-01 ]
      - [ 9.98231232e-01, 9.99600232e-01, 8.56291890e-01, 9.00231838e-01 ]
      - [ 8.14313531e-01, 7.97430456e-01, 7.57278800e-01, 8.00335228e-01 ]
      - [ 9.69787240e-01, 9.32812512e-01, 8.65770340e-01, 8.87074888e-01 ]
      - [ 8.43652904e-01, 9.46791530e-01, 8.65499854e-01, 8.52929890e-01 ]
      - [ 9.98050392e-01, 9.98020768e-01, 8.55354607e-01, 9.27186787e-01 ]
      - [ 8.45413148e-01, 9.98073459e-01, 8.55538487e-01, 9.25514698e-01 ]
      - [ 1.45525243e-02, 4.74825233e-01, 9.32484090e-01, 8.41256261e-01 ]
      - [ 6.82221532e-01, 9.71542537e-01, 9.55269575e-01, 6.42866611e-01 ]
      - [ 6.93274677e-01, 9.72866118e-01, 9.55680192e-01, 6.32701099e-01 ]
      - [ 6.88325286e-01, 9.74129021e-01, 9.55600679e-01, 6.33802533e-01 ]
      - [ 6.83621168e-01, 9.70793962e-01, 9.55547333e-01, 6.42526090e-01 ]
      - [ 2.73522288e-01, 9.49604571e-01, 8.19988728e-01, 8.75854433e-01 ]
      - [ 6.92073226e-01, 9.76516783e-01, 9.55716491e-01, 6.33709967e-01 ]
      - [ 6.85220659e-01, 9.75099742e-01, 9.55394626e-01, 6.33637607e-01 ]
      - [ 8.80970836e-01, 9.99883711e-01, 8.73679340e-01, 8.90352428e-01 ]
      - [ 4.16215569e-01, 6.39762819e-01, 6.56094730e-01, 7.46993899e-01 ]
      - [ 9.04090285e-01, 9.99916613e-01, 8.73263061e-01, 9.16576207e-01 ]
      - [ 4.24535006e-01, 6.46903217e-01, 7.92108536e-01, 8.45213413e-01 ]
      - [ 9.97745812e-01, 9.99837935e-01, 8.39814901e-01, 9.48409081e-01 ]
      - [ 9.94807661e-01, 9.98842239e-01, 8.51563156e-01, 9.41378951e-01 ]
      - [ 7.90220618e-01, 9.41008031e-01, 9.03238237e-01, 9.71406341e-01 ]
      - [ 1.02607377e-01, 9.99122322e-01, 8.42172980e-01, 9.22456264e-01 ]
      - [ 4.96778309e-01, 9.47094738e-01, 8.21505010e-01, 9.33846951e-01 ]
      - [ 9.91225064e-01, 9.99905407e-01, 8.41814697e-01, 8.77656221e-01 ]
      - [ 7.90118814e-01, 9.30536509e-01, 9.03635263e-01, 9.16651785e-01 ]
      - [ 7.90148437e-01, 9.57297802e-01, 9.18814838e-01, 9.88411069e-01 ]
      - [ 8.96560013e-01, 6.21577978e-01, 6.39445901e-01, 6.33219898e-01 ]
      - [ 9.56820488e-01, 9.99731302e-01, 8.37415993e-01, 9.66613054e-01 ]
      - [ 9.87853706e-01, 8.25074911e-01, 9.23173726e-01, 8.55996609e-01 ]
      - [ 9.87587512e-01, 9.69035685e-01, 7.98844576e-01, 5.92315614e-01 ]
      - [ 7.95373321e-01, 8.11792493e-01, 8.60707819e-01, 5.61631978e-01 ]
      - [ 9.05154884e-01, 9.66199517e-01, 8.67308855e-01, 9.41023529e-01 ]
      - [ 9.99868810e-01, 9.99492764e-01, 9.31781352e-01, 9.74031806e-01 ]
      - [ 9.98791039e-01, 9.97030556e-01, 8.24617028e-01, 8.83966446e-01 ]
      - [ 9.92372513e-01, 9.99269724e-01, 8.83263171e-01, 8.03810775e-01 ]
      - [ 8.48857224e-01, 9.99131620e-01, 9.02415693e-01, 9.32376385e-01 ]
      - [ 1.35288075e-01, 9.99180079e-01, 8.55573773e-01, 9.78581309e-01 ]
      - [ 3.84778649e-01, 7.57429421e-01, 8.15829158e-01, 8.06452274e-01 ]
      - [ 6.34842753e-01, 9.97479856e-01, 9.91112649e-01, 5.90616167e-01 ]
      - [ 3.39504282e-07, 4.99056458e-01, 8.44377637e-01, 9.03786659e-01 ]
      - [ 9.20731962e-01, 9.99350488e-01, 8.95932555e-01, 9.40015316e-01 ]
      - [ 7.72883177e-01, 9.98447895e-01, 9.96997535e-01, 9.88396764e-01 ]
      - [ 7.88081229e-01, 9.98364866e-01, 8.61500561e-01, 8.69534135e-01 ]
      - [ 3.78553659e-01, 9.94507015e-01, 8.60330164e-01, 8.76085937e-01 ]
      - [ 5.78464940e-04, 9.98346925e-01, 8.90931964e-01, 9.19589758e-01 ]
      - [ 7.40685344e-01, 9.97644544e-01, 9.28825855e-01, 9.15628672e-01 ]
      - [ 7.93173909e-01, 9.98235345e-01, 9.04552877e-01, 9.43779528e-01 ]
      - [ 1.70269921e-01, 8.78614485e-01, 9.45164204e-01, 8.08633387e-01 ]
      - [ 3.14848721e-01, 8.86178434e-01, 9.32907522e-01, 9.35195148e-01 ]
      - [ 7.05204298e-12, 9.72490788e-01, 9.09207940e-01, 7.59562135e-01 ]
      - [ 1.47310304e-04, 9.72808659e-01, 9.28974926e-01, 7.56112814e-01 ]
      - [ 5.81003129e-01, 9.54625368e-01, 9.41909909e-01, 6.80350661e-01 ]
      - [ 5.00362925e-02, 9.98140574e-01, 9.37383294e-01, 7.81574190e-01 ]
      - [ 6.84088051e-01, 9.47669327e-01, 9.18567717e-01, 7.49639034e-01 ]
      - [ 7.58904219e-01, 9.99562085e-01, 9.06226158e-01, 9.58534420e-01 ]
      - [ 2.88710638e-04, 8.60590875e-01, 9.01332855e-01, 7.13046908e-01 ]
      - [ 9.40405607e-01, 9.94379163e-01, 8.83457005e-01, 8.53977263e-01 ]
      - [ 0., 9.13096309e-01, 9.23666894e-01, 2.97582000e-01 ]
      - [ 5.35696447e-01, 9.82338250e-01, 8.81939769e-01, 9.60428834e-01 ]
      - [ 6.17697775e-01, 9.81004775e-01, 9.58636105e-01, 5.07241666e-01 ]
      - [ 8.68127406e-01, 8.32959950e-01, 9.28229272e-01, 5.96295834e-01 ]
      - [ 6.13188505e-01, 9.88980234e-01, 9.80271876e-01, 5.74061334e-01 ]
      - [ 7.51281202e-01, 9.86084700e-01, 8.69239867e-01, 7.29313910e-01 ]
      - [ 9.93993163e-01, 9.97975826e-01, 7.84294605e-01, 9.71129894e-01 ]
      - [ 8.69127035e-01, 9.94091034e-01, 7.50861168e-01, 6.83073461e-01 ]
      - [ 9.87038374e-01, 9.98385549e-01, 8.88046265e-01, 8.82275224e-01 ]
      - [ 9.97779131e-01, 9.99963224e-01, 9.15717900e-01, 9.05740619e-01 ]
      - [ 7.34234333e-01, 9.99764860e-01, 9.44137871e-01, 9.33431506e-01 ]
      - [ 9.58272159e-01, 9.92576599e-01, 8.79728496e-01, 9.21759486e-01 ]
      - [ 8.86773109e-01, 9.98766840e-01, 8.77839983e-01, 8.91931415e-01 ]
      - [ 3.76308849e-03, 9.98403728e-01, 8.65884781e-01, 9.01203990e-01 ]
      - [ 9.75831211e-01, 9.97979105e-01, 7.54878759e-01, 8.57107759e-01 ]
      - [ 3.40894639e-01, 9.98049617e-01, 9.84711111e-01, 5.12622416e-01 ]
      - [ 9.89504516e-01, 9.45934832e-01, 9.02504742e-01, 8.75140250e-01 ]
      - [ 1.52064045e-03, 9.63018060e-01, 8.07884276e-01, 8.67625296e-01 ]
      - [ 9.86788392e-01, 9.78455603e-01, 8.92180443e-01, 8.71421218e-01 ]
      - [ 7.27398470e-02, 9.97512698e-01, 8.97835076e-01, 9.21769321e-01 ]
      - [ 7.41908848e-01, 9.95795369e-01, 9.63049293e-01, 9.44494665e-01 ]
      - [ 6.74866047e-14, 9.45945740e-01, 8.37635577e-01, 7.10163891e-01 ]
      - [ 1.20476270e-02, 9.37260211e-01, 6.45523608e-01, 8.20233703e-01 ]
      - [ 7.09973514e-01, 9.88683224e-01, 8.79020572e-01, 8.48221838e-01 ]
      - [ 8.18745613e-01, 9.99621093e-01, 9.98735130e-01, 9.66726124e-01 ]
      - [ 9.91166711e-01, 9.06548619e-01, 8.01890731e-01, 8.15100014e-01 ]
      - [ 9.91182804e-01, 9.98888016e-01, 7.96825409e-01, 8.64010632e-01 ]
      - [ 6.58592463e-01, 9.99127030e-01, 8.94238234e-01, 9.08493400e-01 ]
      - [ 7.97071934e-01, 9.99245644e-01, 8.90330017e-01, 9.43762600e-01 ]
      - [ 5.94326913e-01, 9.43925023e-01, 8.36878955e-01, 7.73709297e-01 ]
      - [ 9.99941707e-01, 9.99420762e-01, 9.09284294e-01, 9.43832099e-01 ]
      - [ 9.98043239e-01, 9.99893546e-01, 8.68692815e-01, 9.58506227e-01 ]
      - [ 9.33695316e-01, 9.98555243e-01, 9.05471742e-01, 8.96358371e-01 ]
      - [ 8.91941726e-01, 9.83534217e-01, 9.12645876e-01, 9.03975248e-01 ]
      - [ 8.98636401e-01, 9.99996126e-01, 9.24750090e-01, 9.66814637e-01 ]
      - [ 5.49646775e-21, 9.94212091e-01, 9.04497981e-01, 9.12343681e-01 ]
      - [ 6.21838629e-01, 9.72537816e-01, 8.61718118e-01, 8.16121578e-01 ]
      - [ 6.42982721e-01, 9.75230396e-01, 7.72009432e-01, 8.56431544e-01 ]
      - [ 9.92766082e-01, 9.99673724e-01, 9.08542812e-01, 8.53549004e-01 ]
      - [ 8.41803730e-01, 7.98212171e-01, 7.91458786e-01, 8.25723708e-01 ]
      - [ 1.47062339e-04, 9.72719252e-01, 8.14058542e-01, 4.70812798e-01 ]
      - [ 1.45473603e-23, 9.99756515e-01, 9.03424561e-01, 8.79763722e-01 ]
      - [ 8.82004678e-01, 9.79351342e-01, 9.22330558e-01, 9.39986765e-01 ]
      - [ 8.85522127e-01, 9.85518754e-01, 8.89923036e-01, 9.29281831e-01 ]
      - [ 3.56117698e-06, 9.81697321e-01, 8.95534098e-01, 9.58276451e-01 ]
      - [ 9.44963038e-01, 9.95378017e-01, 9.04554307e-01, 9.69360828e-01 ]
      - [ 7.88085878e-01, 9.59234536e-01, 8.83705139e-01, 8.37506354e-01 ]
      - [ 9.83060539e-01, 9.90845680e-01, 8.93980682e-01, 8.64550471e-01 ]
      - [ 1.27674684e-01, 9.60911751e-01, 9.08248842e-01, 8.45521092e-01 ]
      - [ 7.76377618e-01, 9.93988931e-01, 9.98880088e-01, 9.60429728e-01 ]
      - [ 9.92582500e-01, 9.86511707e-01, 8.93485963e-01, 8.22612166e-01 ]
      - [ 1.89239785e-01, 9.98054922e-01, 8.91015053e-01, 8.99928093e-01 ]
      - [ 2.02957869e-01, 9.96002138e-01, 8.91524553e-01, 7.99952388e-01 ]
      - [ 5.95055595e-02, 9.95111227e-01, 9.03825223e-01, 9.18735981e-01 ]
      - [ 1.60296828e-01, 9.96314228e-01, 9.09605026e-01, 9.18726087e-01 ]
      - [ 7.92870283e-01, 9.99162972e-01, 9.02434945e-01, 8.53068948e-01 ]
      - [ 9.73992050e-01, 9.99824345e-01, 9.11810875e-01, 9.13219988e-01 ]
      - [ 7.95400262e-01, 9.97229874e-01, 9.87299740e-01, 9.50266600e-01 ]
      - [ 9.34785418e-03, 9.95358288e-01, 9.07145321e-01, 9.39117253e-01 ]
      - [ 3.73093009e-01, 9.98647869e-01, 7.99628019e-01, 8.10413778e-01 ]
      - [ 7.20004439e-01, 9.90349054e-01, 9.47552502e-01, 6.23619974e-01 ]
      - [ 3.23181212e-01, 9.96015966e-01, 9.14730430e-01, 7.58514225e-01 ]
      - [ 8.99772570e-02, 9.95407522e-01, 9.13037300e-01, 8.75905991e-01 ]
      - [ 9.48957801e-01, 9.21298802e-01, 8.71312380e-01, 4.91087228e-01 ]
      - [ 9.72054183e-01, 6.68106079e-01, 9.42201555e-01, 6.01346731e-01 ]
      - [ 9.17447567e-01, 9.60840106e-01, 9.11609948e-01, 9.08702433e-01 ]
      - [ 3.32448855e-02, 9.91977036e-01, 8.25231850e-01, 7.64944375e-01 ]
      - [ 6.55483365e-01, 9.97215748e-01, 9.24525976e-01, 7.12775946e-01 ]
      - [ 7.17405558e-01, 9.69226360e-01, 9.12434220e-01, 8.81695390e-01 ]
      - [ 9.45586443e-01, 9.80374873e-01, 8.91226232e-01, 5.79259515e-01 ]
      - [ 7.99947500e-01, 9.98824775e-01, 9.01034296e-01, 8.34794581e-01 ]
      - [ 9.24827576e-01, 9.97644305e-01, 9.18900430e-01, 9.45805967e-01 ]
      - [ 6.18960476e-05, 9.74053085e-01, 8.98230970e-01, 8.91214728e-01 ]
      - [ 3.40984991e-17, 9.62451756e-01, 9.07206416e-01, 9.22012866e-01 ]
      - [ 7.06823289e-01, 9.54044700e-01, 9.02985752e-01, 8.82602930e-01 ]
      - [ 7.31836438e-01, 9.54059064e-01, 9.12389934e-01, 9.36295867e-01 ]
      - [ 8.12284470e-01, 9.76985991e-01, 9.17468488e-01, 9.77250218e-01 ]
      - [ 8.61602843e-01, 9.48614717e-01, 9.30794597e-01, 9.30305958e-01 ]
      - [ 9.90655243e-01, 9.62665617e-01, 8.96645963e-01, 9.18848217e-01 ]
      - [ 9.92920041e-01, 9.51614022e-01, 9.31092441e-01, 8.90625656e-01 ]
      - [ 1.24313936e-01, 9.38891709e-01, 9.23933625e-01, 9.22469795e-01 ]
      - [ 5.54609261e-02, 9.42045808e-01, 9.50688720e-01, 8.27109516e-01 ]
      - [ 7.53262103e-01, 9.46604133e-01, 8.81874323e-01, 8.48696113e-01 ]
      - [ 7.76298940e-01, 9.51783717e-01, 8.79162848e-01, 8.89070213e-01 ]
      - [ 7.86510587e-01, 9.40482020e-01, 8.78653169e-01, 9.21643257e-01 ]
      - [ 7.98433959e-01, 9.39678550e-01, 9.10113752e-01, 9.06525075e-01 ]
      - [ 8.06913853e-01, 9.36898947e-01, 9.01998103e-01, 9.67825890e-01 ]
      - [ 8.19572628e-01, 9.43861663e-01, 9.38986421e-01, 8.85255933e-01 ]
      - [ 8.25555623e-01, 9.65548992e-01, 8.48133624e-01, 8.92841697e-01 ]
      - [ 7.30054557e-01, 9.98589396e-01, 8.31775308e-01, 8.49980831e-01 ]
      - [ 3.70215714e-01, 9.95772243e-01, 8.80185366e-01, 8.63293648e-01 ]
      - [ 7.18147159e-01, 9.21932638e-01, 9.98064935e-01, 9.08452928e-01 ]
      - [ 2.53660679e-01, 9.99236226e-01, 8.85808170e-01, 9.40063059e-01 ]
      - [ 7.19971776e-01, 9.41087604e-01, 9.98868406e-01, 9.02668118e-01 ]
      - [ 7.13618934e-01, 9.79917347e-01, 8.95739377e-01, 8.52320135e-01 ]
      - [ 7.29709983e-01, 9.72256064e-01, 7.88852155e-01, 9.09183562e-01 ]
      - [ 8.66867483e-01, 9.57776725e-01, 9.24220979e-01, 9.15275872e-01 ]
      - [ 6.40414879e-02, 9.71032858e-01, 9.10993397e-01, 9.56793725e-01 ]
      - [ 8.34385633e-01, 9.77895319e-01, 7.75046587e-01, 8.64067256e-01 ]
      - [ 8.09512615e-01, 9.69078124e-01, 7.62391090e-01, 8.93121123e-01 ]
   decision_functions:
      -
         sv_count: 284
         rho: -6.1136181991970340e-01
         alpha: [ 1.9591123442759423e-01, 2.1328515753282279e-01,
             5.5590099182070307e-01, 2.3269918951194737e+00,
             2.2786484795118039e-01, 1.3973519300688138e+00,
             5.3948555991177143e+00, 3.8295438944837479e-01,
             2.2028624859249976e-01, 3.9000267031888525e-02,
             1.7515952521712497e-01, 9.7779238308498093e-02,
             5.1342369567614465e-01, 2.8412892230470005e-01,
             1.2450805630398469e+00, 5.3948555991177143e+00,
             4.4879054594307555e-01, 1.3335149285140538e-01,
             5.3948555991177143e+00, 3.5605406544683242e-02,
             7.4996822928497597e-01, 3.1715700314053406e+00,
             5.3948555991177143e+00, 5.3948555991177143e+00,
             5.3948555991177143e+00, 5.3948555991177143e+00,
             1.9036402054056103e+00, 5.3948555991177143e+00,
             5.3948555991177143e+00, 1.5134533829143063e-01,
             1.0143643416300998e+00, 5.3948555991177143e+00,
             5.3948555991177143e+00, 5.3948555991177143e+00,
             5.3948555991177143e+00, 5.3948555991177143e+00,
             5.3948555991177143e+00, 5.3948555991177143e+00,
             4.4756039455522773e-01, 5.3948555991177143e+00,
             2.7129369089513333e+00, 1.0434773549797474e+00,
             2.8026370181343454e+00, 4.1630642011957342e+00,
             1.8680075088803300e-01, 5.1145997153243501e+00,
             5.3948555991177143e+00, 5.2267317174404160e-01,
             5.3948555991177143e+00, 2.7265352663644776e-01,
             1.7812092482593087e+00, 5.3948555991177143e+00,
             3.5887177643256281e+00, 5.3948555991177143e+00,
             5.3948555991177143e+00, 6.5617343739290412e-01,
             5.3948555991177143e+00, 2.3050676993223398e-01,
             5.3948555991177143e+00, 5.3948555991177143e+00,
             2.1714914930481246e+00, 4.4114132230414000e+00,
             1.8205806270393765e-01, 2.4660255238920037e+00,
             5.3948555991177143e+00, 8.1501029000360192e-01,
             2.5817777631883354e+00, 1.5418280561054636e+00,
             1.6914439185169847e-01, 2.1847073044316119e+00,
             5.3948555991177143e+00, 5.3948555991177143e+00,
             5.3948555991177143e+00, 6.0766014987810577e-02,
             1.8243736959794838e+00, 3.4622827921151860e+00,
             5.3948555991177143e+00, 3.9836039399506116e+00,
             2.7467154894585115e+00, 2.8390902238130415e+00,
             5.3948555991177143e+00, 1.7085281932484346e+00,
             5.3948555991177143e+00, 5.3948555991177143e+00,
             5.3948555991177143e+00, 5.3948555991177143e+00,
             5.3948555991177143e+00, 5.3948555991177143e+00,
             6.7179378358589892e-01, 5.3948555991177143e+00,
             5.3948555991177143e+00, 5.3247023428826727e+00,
             3.4446834171007730e+00, 5.3948555991177143e+00,
             5.3948555991177143e+00, 5.3948555991177143e+00,
             5.3948555991177143e+00, 5.3948555991177143e+00,
             5.3948555991177143e+00, 5.3948555991177143e+00,
             1.9133632220346226e+00, 2.9688880129709196e+00,
             5.3948555991177143e+00, 5.3948555991177143e+00,
             5.3948555991177143e+00, 5.3948555991177143e+00,
             5.3948555991177143e+00, 5.3948555991177143e+00,
             5.3948555991177143e+00, 5.3948555991177143e+00,
             3.8665128986626343e+00, 5.3948555991177143e+00,
             5.3948555991177143e+00, 5.3948555991177143e+00,
             5.3948555991177143e+00, 5.3948555991177143e+00,
             5.3948555991177143e+00, 5.3948555991177143e+00,
             5.3948555991177143e+00, 5.3948555991177143e+00,
             5.3948555991177143e+00, 5.3948555991177143e+00,
             5.3948555991177143e+00, 5.3948555991177143e+00,
             5.3948555991177143e+00, 5.3948555991177143e+00,
             5.3948555991177143e+00, 5.3948555991177143e+00,
             1.5426715270786157e-01, 4.2051117247554766e+00,
             5.3948555991177143e+00, 5.3948555991177143e+00,
             6.0015775297299467e-01, 4.7630076433596569e-01,
             5.3948555991177143e+00, 5.2509304988734673e-01,
             5.3948555991177143e+00, 5.3948555991177143e+00,
             5.3948555991177143e+00, 5.3948555991177143e+00,
             5.3948555991177143e+00, 5.3948555991177143e+00,
             3.9789611642109862e-01, 5.3948555991177143e+00,
             2.1518304044099983e+00, 7.5151317769889325e-01,
             5.3948555991177143e+00, 5.3948555991177143e+00,
             5.3948555991177143e+00, 5.3948555991177143e+00,
             3.1471493382119937e+00, 5.3948555991177143e+00,
             5.3948555991177143e+00, 1.2327534867897279e-01,
             3.6089028712028166e+00, 3.7721826605182094e+00,
             5.3948555991177143e+00, 1.6840484246185430e+00,
             5.3948555991177143e+00, -3.7037268187418659e+00,
             -5.3948555991177143e+00, -5.3948555991177143e+00,
             -5.3948555991177143e+00, -5.3948555991177143e+00,
             -5.3948555991177143e+00, -5.3948555991177143e+00,
             -5.3948555991177143e+00, -5.3948555991177143e+00,
             -5.3948555991177143e+00, -5.3948555991177143e+00,
             -5.3948555991177143e+00, -5.3948555991177143e+00,
             -5.3948555991177143e+00, -5.3948555991177143e+00,
             -7.7249097164287184e-01, -2.4834207066012741e+00,
             -5.3948555991177143e+00, -5.3948555991177143e+00,
             -5.3948555991177143e+00, -5.3948555991177143e+00,
             -5.3948555991177143e+00, -5.3948555991177143e+00,
             -5.3948555991177143e+00, -5.3948555991177143e+00,
             -2.9589979985065766e+00, -5.3948555991177143e+00,
             -4.7043638939293633e+00, -3.6455876048506584e+00,
             -5.3948555991177143e+00, -5.3948555991177143e+00,
             -5.3948555991177143e+00, -5.3948555991177143e+00,
             -5.3948555991177143e+00, -5.3948555991177143e+00,
             -5.3948555991177143e+00, -5.3948555991177143e+00,
             -5.3948555991177143e+00, -5.3948555991177143e+00,
             -5.3948555991177143e+00, -7.8716858535148615e-01,
             -5.3948555991177143e+00, -5.3948555991177143e+00,
             -5.3948555991177143e+00, -5.3948555991177143e+00,
             -5.3948555991177143e+00, -5.3948555991177143e+00,
             -5.3948555991177143e+00, -5.3948555991177143e+00,
             -4.5885619510029692e+00, -5.3948555991177143e+00,
             -5.3948555991177143e+00, -3.3015476355377635e+00,
             -5.3948555991177143e+00, -5.3948555991177143e+00,
             -5.3948555991177143e+00, -5.3948555991177143e+00,
             -5.3948555991177143e+00, -5.3948555991177143e+00,
             -5.3948555991177143e+00, -5.3948555991177143e+00,
             -5.3948555991177143e+00, -5.3948555991177143e+00,
             -1.0273268817223211e+00, -5.3948555991177143e+00,
             -5.3948555991177143e+00, -5.3948555991177143e+00,
             -5.3948555991177143e+00, -5.3948555991177143e+00,
             -5.3948555991177143e+00, -5.3948555991177143e+00,
             -5.3948555991177143e+00, -5.3948555991177143e+00,
             -5.3948555991177143e+00, -5.3948555991177143e+00,
             -5.3948555991177143e+00, -5.3948555991177143e+00,
             -1.7175710510788427e+00, -5.3948555991177143e+00,
             -2.3326298643782165e-01, -5.3948555991177143e+00,
             -5.3948555991177143e+00, -5.1205617502692902e-01,
             -5.3948555991177143e+00, -5.3948555991177143e+00,
             -5.3948555991177143e+00, -2.2422579710294053e+00,
             -1.6375654388366987e+00, -3.4187463540183547e+00,
             -6.8360016409893209e-01, -5.3948555991177143e+00,
             -5.3948555991177143e+00, -5.3948555991177143e+00,
             -5.3948555991177143e+00, -4.6401947948049633e+00,
             -2.2557145444718691e+00, -2.1830474000206452e+00,
             -5.3948555991177143e+00, -5.3948555991177143e+00,
             -5.3948555991177143e+00, -5.3948555991177143e+00,
             -5.3948555991177143e+00, -5.3948555991177143e+00,
             -5.3948555991177143e+00, -5.3948555991177143e+00,
             -9.8132239621346651e-01, -1.1735801431017234e+00,
             -5.3948555991177143e+00, -5.3948555991177143e+00,
             -5.3948555991177143e+00, -5.3948555991177143e+00,
             -5.3948555991177143e+00, -3.2183514730880232e+00,
             -5.3948555991177143e+00, -5.3948555991177143e+00,
             -5.3948555991177143e+00, -5.3948555991177143e+00,
             -5.3948555991177143e+00, -1.6866983932711825e+00,
             -1.5741145790350779e+00, -5.3948555991177143e+00,
             -5.3948555991177143e+00, -1.8634207780943437e+00,
             -5.3948555991177143e+00, -5.3948555991177143e+00 ]
         index: [ 0, 1, 2, 3, 4, 5, 6, 7, 8, 9, 10, 11, 12, 13, 14, 15,
             16, 17, 18, 19, 20, 21, 22, 23, 24, 25, 26, 27, 28, 29, 30,
             31, 32, 33, 34, 35, 36, 37, 38, 39, 40, 41, 42, 43, 44, 45,
             46, 47, 48, 49, 50, 51, 52, 53, 54, 55, 56, 57, 58, 59, 60,
             61, 62, 63, 64, 65, 66, 67, 68, 69, 70, 71, 72, 73, 74, 75,
             76, 77, 78, 79, 80, 81, 82, 83, 84, 85, 86, 87, 88, 89, 90,
             91, 92, 93, 94, 95, 96, 97, 98, 99, 100, 101, 102, 103, 104,
             105, 106, 107, 108, 109, 110, 111, 112, 113, 114, 115, 116,
             117, 118, 119, 120, 121, 122, 123, 124, 125, 126, 127, 128,
             129, 130, 131, 132, 133, 134, 135, 136, 137, 138, 139, 140,
             141, 142, 143, 144, 145, 146, 147, 148, 149, 150, 151, 152,
             153, 154, 155, 156, 157, 158, 159, 160, 161, 162, 163, 164,
             165, 166, 167, 168, 169, 170, 171, 172, 173, 174, 175, 176,
             177, 178, 179, 180, 181, 182, 183, 184, 185, 186, 187, 188,
             189, 190, 191, 192, 193, 194, 195, 196, 197, 198, 199, 200,
             201, 202, 203, 204, 205, 206, 207, 208, 209, 210, 211, 212,
             213, 214, 215, 216, 217, 218, 219, 220, 221, 222, 223, 224,
             225, 226, 227, 228, 229, 230, 231, 232, 233, 234, 235, 236,
             237, 238, 239, 240, 241, 242, 243, 244, 245, 246, 247, 248,
             249, 250, 251, 252, 253, 254, 255, 256, 257, 258, 259, 260,
             261, 262, 263, 264, 265, 266, 267, 268, 269, 270, 271, 272,
             273, 274, 275, 276, 277, 278, 279, 280, 281, 282, 283 ]
