%YAML:1.0
my_svm: !!opencv-ml-svm
   svm_type: NU_SVC
   kernel: { type:RBF, gamma:20. }
   nu: 1.0000000000000001e-01
   term_criteria: { epsilon:9.9999999747524271e-07, iterations:1000 }
   var_all: 5
   var_count: 5
   class_count: 2
   class_labels: !!opencv-matrix
      rows: 1
      cols: 2
      dt: i
      data: [ 0, 1 ]
   sv_total: 524
   support_vectors:
      - [ 0., 3.84359449e-01, 7.70908475e-01, 6.75009727e-01,
          7.39882886e-01 ]
      - [ 0., 4.28296447e-01, 7.73825407e-01, 6.80109739e-01,
          3.85382682e-01 ]
      - [ 0., 4.33750153e-01, 8.56909811e-01, 6.30970776e-01,
          3.85352999e-01 ]
      - [ 0., 5.03682673e-01, 7.36950457e-01, 9.38506126e-01,
          3.95718753e-01 ]
      - [ 0., 5.24508595e-01, 7.33681619e-01, 6.95268691e-01,
          4.99979347e-01 ]
      - [ 1.55484453e-02, 5.07873654e-01, 6.87249839e-01, 8.93319011e-01,
          3.38492572e-01 ]
      - [ 9.56107080e-01, 5.08401811e-01, 6.75134003e-01, 8.93409550e-01,
          3.18792492e-01 ]
      - [ 9.14435238e-02, 5.12660861e-01, 6.76150560e-01, 8.78283739e-01,
          1. ]
      - [ 0., 4.43723708e-01, 8.56649876e-01, 6.09026670e-01, 1. ]
      - [ 9.19746101e-01, 5.02188623e-01, 6.77088141e-01, 9.12565947e-01,
          1. ]
      - [ 0., 4.39609468e-01, 5.86207509e-01, 7.19253600e-01,
          2.38412604e-01 ]
      - [ 4.36954498e-01, 5.08662879e-01, 6.65173829e-01, 8.91652524e-01,
          1. ]
      - [ 0., 4.49402601e-01, 6.00813150e-01, 6.70424342e-01,
          1.68669205e-02 ]
      - [ 5.40680170e-01, 9.93104577e-01, 9.97540534e-01, 9.14175153e-01,
          3.35859835e-01 ]
      - [ 0., 8.18624914e-01, 9.60123301e-01, 7.77232587e-01,
          1.65383084e-04 ]
      - [ 6.21254981e-01, 9.92984831e-01, 9.97219801e-01, 9.26149845e-01,
          1.92593094e-02 ]
      - [ 2.38400456e-02, 6.68713510e-01, 8.04882526e-01, 8.53645861e-01,
          1. ]
      - [ 5.16029835e-01, 9.79699612e-01, 9.98665333e-01, 8.99368942e-01,
          1.18141773e-03 ]
      - [ 7.44784355e-01, 9.77707982e-01, 9.97693121e-01, 8.57812285e-01,
          4.07306041e-04 ]
      - [ 0., 9.48109746e-01, 9.52237725e-01, 6.71778083e-01,
          4.51303393e-01 ]
      - [ 5.12896955e-01, 9.31880355e-01, 9.94317472e-01, 6.61574066e-01,
          1.18709584e-04 ]
      - [ 0., 9.26933110e-01, 8.88902366e-01, 6.76410198e-01,
          2.05687359e-01 ]
      - [ 8.11709166e-01, 9.95366216e-01, 9.92639184e-01, 5.87616861e-01,
          4.66991187e-05 ]
      - [ 5.91516316e-01, 9.80077744e-01, 9.99303401e-01, 9.17395651e-01,
          2.56816088e-06 ]
      - [ 0., 6.59435272e-01, 8.91365290e-01, 6.68799520e-01, 1. ]
      - [ 1.28713220e-01, 9.99431789e-01, 9.97148514e-01, 9.14906383e-01,
          1.66379095e-07 ]
      - [ 8.07286680e-01, 9.99666929e-01, 9.98053908e-01, 9.58456039e-01,
          5.18030419e-08 ]
      - [ 7.53340900e-01, 9.98582006e-01, 9.98829067e-01, 9.35838938e-01,
          2.57279780e-08 ]
      - [ 9.51216757e-01, 9.97225225e-01, 9.39130247e-01, 8.65798950e-01,
          1.01284865e-08 ]
      - [ 6.52410328e-01, 9.25285339e-01, 9.97416735e-01, 9.58678186e-01,
          0. ]
      - [ 9.98579860e-01, 9.92343605e-01, 9.99677598e-01, 9.37248766e-01,
          0. ]
      - [ 9.11971390e-01, 9.76086617e-01, 9.98551309e-01, 7.14330077e-01,
          5.91686189e-01 ]
      - [ 1.84734762e-01, 9.91263807e-01, 9.98912334e-01, 9.88060176e-01,
          5.91686189e-01 ]
      - [ 3.97125855e-02, 9.96348023e-01, 9.97380793e-01, 9.90826845e-01,
          2.75356114e-01 ]
      - [ 9.11274016e-01, 9.81325626e-01, 9.45133030e-01, 5.74267209e-01,
          3.53737595e-03 ]
      - [ 2.49771047e-02, 9.31442916e-01, 9.96844828e-01, 9.76849854e-01,
          3.53737595e-03 ]
      - [ 7.10686982e-01, 9.66314256e-01, 9.13868546e-01, 8.41791987e-01,
          9.35715798e-04 ]
      - [ 5.61455607e-01, 9.92614686e-01, 9.96226549e-01, 9.94762659e-01,
          1.65869631e-06 ]
      - [ 3.48026395e-01, 9.91007864e-01, 9.95823562e-01, 9.87157881e-01,
          7.22453194e-07 ]
      - [ 0., 4.80796188e-01, 9.36093986e-01, 5.76252103e-01, 0. ]
      - [ 8.78513992e-01, 9.68906939e-01, 8.51465166e-01, 8.62206340e-01,
          4.17448252e-01 ]
      - [ 8.29842865e-01, 9.66201663e-01, 8.56762826e-01, 7.35769808e-01,
          4.46899299e-04 ]
      - [ 6.96518898e-01, 8.40396345e-01, 8.67114902e-01, 7.16581464e-01,
          1.30274682e-04 ]
      - [ 1.93561420e-01, 9.59302783e-01, 9.96047020e-01, 9.60587442e-01,
          3.27300383e-12 ]
      - [ 9.97117341e-01, 9.74566460e-01, 8.33728492e-01, 8.19787145e-01,
          4.51367229e-01 ]
      - [ 8.67899239e-01, 9.80214119e-01, 9.96014774e-01, 9.51979876e-01,
          3.50451032e-13 ]
      - [ 8.58601928e-01, 9.60281789e-01, 8.46819580e-01, 6.85992718e-01,
          2.05721736e-01 ]
      - [ 9.97969985e-01, 9.75913942e-01, 8.46369922e-01, 8.45646024e-01,
          4.29430753e-01 ]
      - [ 7.78075159e-01, 6.10785365e-01, 9.11760807e-01, 7.10649610e-01,
          5.37811697e-01 ]
      - [ 6.93889856e-02, 9.84108210e-01, 9.95296836e-01, 9.66415346e-01,
          2.84198720e-21 ]
      - [ 3.43284220e-01, 6.27406120e-01, 9.32238102e-01, 9.20612872e-01,
          4.99680430e-01 ]
      - [ 1.47537261e-01, 9.70011711e-01, 7.71691263e-01, 6.65050089e-01,
          4.71132360e-08 ]
      - [ 9.65404868e-01, 9.87252593e-01, 9.26357388e-01, 9.49008942e-01,
          9.46521914e-22 ]
      - [ 4.71216962e-02, 6.47702813e-01, 9.49948907e-01, 9.40117300e-01,
          1.01028614e-01 ]
      - [ 0., 9.57169235e-01, 9.52527761e-01, 7.78631389e-01,
          2.72578091e-05 ]
      - [ 6.15863025e-01, 4.54051018e-01, 8.48957837e-01, 3.53955090e-01,
          0. ]
      - [ 0., 6.98283672e-01, 8.06055605e-01, 4.12654698e-01,
          7.29831299e-06 ]
      - [ 3.98671925e-01, 4.60185140e-01, 7.19038665e-01, 3.91926855e-01,
          0. ]
      - [ 9.27685201e-01, 9.48858798e-01, 8.75070155e-01, 9.83218610e-01,
          3.96008462e-01 ]
      - [ 5.71850300e-01, 9.68822718e-01, 8.75931561e-01, 8.72161627e-01,
          1. ]
      - [ 4.19433832e-01, 9.62102532e-01, 8.62877250e-01, 9.72451746e-01,
          7.40086734e-01 ]
      - [ 4.49084878e-01, 8.09197128e-01, 8.62493098e-01, 9.49381828e-01,
          1. ]
      - [ 2.93603808e-01, 9.39954400e-01, 6.92223132e-01, 9.06402349e-01,
          0. ]
      - [ 7.68476427e-01, 9.49215233e-01, 8.65877092e-01, 9.46715355e-01,
          4.74408686e-01 ]
      - [ 3.99082422e-01, 9.95974481e-01, 9.98976707e-01, 9.22927320e-01,
          4.74408686e-01 ]
      - [ 6.05962753e-01, 9.51108634e-01, 8.52019489e-01, 9.75256801e-01,
          5.50230920e-01 ]
      - [ 9.93850529e-01, 9.88317072e-01, 8.70745778e-01, 9.28461254e-01,
          6.93654001e-01 ]
      - [ 3.03395927e-01, 9.59702134e-01, 8.69565785e-01, 9.75791454e-01,
          1. ]
      - [ 6.21218607e-02, 9.85732913e-01, 8.79049122e-01, 9.02361810e-01,
          6.63616836e-01 ]
      - [ 2.01204225e-01, 9.62586284e-01, 8.57289612e-01, 9.64736760e-01,
          6.07452512e-01 ]
      - [ 6.48804545e-01, 9.88300323e-01, 8.20685089e-01, 9.05151248e-01,
          1. ]
      - [ 5.46681941e-01, 9.85113859e-01, 8.75707567e-01, 9.25560474e-01,
          5.51494002e-01 ]
      - [ 2.91029453e-01, 9.93993282e-01, 8.49895239e-01, 9.23991501e-01,
          6.94597781e-01 ]
      - [ 2.46650591e-01, 8.92241538e-01, 6.20541811e-01, 9.18392241e-01,
          0. ]
      - [ 8.90971959e-01, 4.45171624e-01, 6.91004872e-01, 8.62565339e-01,
          4.82762419e-02 ]
      - [ 0., 5.16122460e-01, 8.53727341e-01, 9.09761310e-01,
          4.78060305e-01 ]
      - [ 0., 5.10913789e-01, 8.48753691e-01, 8.91636848e-01,
          3.18137288e-01 ]
      - [ 6.47295237e-01, 5.22663355e-01, 8.44439387e-01, 9.63933408e-01,
          1. ]
      - [ 3.06106452e-02, 9.42578673e-01, 8.83537412e-01, 8.02560925e-01,
          2.70640180e-02 ]
      - [ 4.51133013e-01, 5.17936587e-01, 8.45627129e-01, 9.75292981e-01,
          1. ]
      - [ 4.21575516e-01, 9.99016464e-01, 8.82228911e-01, 9.12466407e-01,
          5.14672399e-01 ]
      - [ 1.81555763e-01, 9.85149562e-01, 8.82305682e-01, 9.06853259e-01,
          1. ]
      - [ 6.04209304e-01, 4.62881476e-01, 9.26684141e-01, 9.09395933e-01,
          5.62885165e-01 ]
      - [ 5.17480560e-02, 9.99470949e-01, 8.48754644e-01, 9.05057073e-01,
          1. ]
      - [ 8.95085782e-02, 9.99668479e-01, 9.98744547e-01, 8.93518865e-01,
          5.10224521e-01 ]
      - [ 1.29588516e-05, 5.11202991e-01, 8.82424712e-01, 8.96424413e-01,
          6.33338809e-01 ]
      - [ 6.41766727e-01, 9.97814775e-01, 7.99715281e-01, 8.79874408e-01,
          3.57403547e-01 ]
      - [ 9.31544323e-03, 9.96669352e-01, 8.78055930e-01, 8.71379256e-01,
          3.57403547e-01 ]
      - [ 1.12010829e-01, 9.61155653e-01, 8.20694745e-01, 6.08402193e-01,
          0. ]
      - [ 8.02360624e-02, 9.98065293e-01, 7.99219668e-01, 8.72691989e-01,
          6.17995679e-01 ]
      - [ 7.72272050e-02, 9.97296333e-01, 8.08815360e-01, 8.88218939e-01,
          3.25977176e-01 ]
      - [ 5.32897353e-01, 4.56376255e-01, 6.37383223e-01, 8.95323694e-01,
          3.52664888e-01 ]
      - [ 1.02467231e-01, 9.98990357e-01, 8.25932741e-01, 9.25870359e-01,
          3.52664888e-01 ]
      - [ 1.19909026e-01, 9.98545945e-01, 8.29529583e-01, 8.73733461e-01,
          6.76624894e-01 ]
      - [ 3.34324151e-01, 5.25040448e-01, 7.64245570e-01, 7.94203460e-01,
          6.76624894e-01 ]
      - [ 1.00948565e-01, 9.86713588e-01, 7.97806084e-01, 6.53469563e-01,
          0. ]
      - [ 4.02363718e-01, 4.56352741e-01, 6.64360344e-01, 7.27394462e-01,
          1. ]
      - [ 4.74014759e-01, 4.47545409e-01, 6.07630312e-01, 5.49053609e-01,
          0. ]
      - [ 8.78684819e-01, 8.88473868e-01, 8.42907906e-01, 7.64457107e-01,
          5.25035620e-01 ]
      - [ 1.14651032e-01, 7.62770772e-01, 9.46754575e-01, 6.84290111e-01,
          0. ]
      - [ 4.30467546e-01, 9.86205995e-01, 8.24964583e-01, 7.36141562e-01,
          5.24089575e-01 ]
      - [ 2.78247148e-03, 9.01043475e-01, 7.93995857e-01, 9.10344362e-01,
          5.65209687e-01 ]
      - [ 5.30725121e-01, 9.87864792e-01, 8.18981051e-01, 8.81259382e-01,
          5.63922226e-01 ]
      - [ 4.02616858e-01, 9.65351284e-01, 8.18230510e-01, 7.68591225e-01,
          4.86872345e-01 ]
      - [ 5.29102981e-01, 9.97294664e-01, 9.42481041e-01, 8.85748446e-01,
          0. ]
      - [ 5.37979126e-01, 9.87811923e-01, 9.43741322e-01, 8.87537181e-01,
          0. ]
      - [ 4.96439666e-01, 9.29482818e-01, 9.68210161e-01, 8.75011027e-01,
          0. ]
      - [ 3.41293514e-01, 9.97537673e-01, 8.53266954e-01, 8.74265134e-01,
          6.49818122e-01 ]
      - [ 1.45079896e-01, 9.79844630e-01, 8.54629755e-01, 9.06563520e-01,
          0. ]
      - [ 0., 9.90445971e-01, 8.68959188e-01, 5.87340415e-01,
          6.93581104e-01 ]
      - [ 5.24843395e-01, 8.74111176e-01, 9.77391481e-01, 9.29743230e-01,
          0. ]
      - [ 0., 9.46695685e-01, 6.27213120e-01, 5.37686467e-01, 1. ]
      - [ 4.22134250e-03, 9.90700364e-01, 8.55885148e-01, 9.01371658e-01,
          0. ]
      - [ 4.01260167e-01, 9.91072297e-01, 6.60991251e-01, 8.29651237e-01,
          1.21655874e-03 ]
      - [ 6.34037137e-01, 9.31132555e-01, 6.52045310e-01, 9.11677241e-01,
          1. ]
      - [ 6.39289975e-01, 8.04173589e-01, 8.14645171e-01, 8.83459508e-01,
          6.25302255e-01 ]
      - [ 5.70986748e-01, 9.20167387e-01, 8.49460483e-01, 9.29221988e-01,
          6.78206921e-01 ]
      - [ 5.40658593e-01, 7.54692018e-01, 8.38213027e-01, 7.24053085e-01,
          5.51055849e-01 ]
      - [ 1.07328713e-01, 7.76161730e-01, 8.43944252e-01, 6.69220448e-01,
          6.04316711e-01 ]
      - [ 1.24634281e-01, 9.98918831e-01, 9.98175502e-01, 9.66120899e-01,
          4.28958749e-03 ]
      - [ 9.48321640e-01, 8.88379693e-01, 8.32307220e-01, 9.58178163e-01,
          0. ]
      - [ 6.71580195e-01, 9.44287062e-01, 8.39451075e-01, 8.11773479e-01,
          7.08855331e-01 ]
      - [ 5.40592968e-01, 9.30410206e-01, 9.95535731e-01, 9.72468257e-01,
          0. ]
      - [ 9.73121166e-01, 9.63031054e-01, 7.81882167e-01, 7.03774512e-01,
          7.08855331e-01 ]
      - [ 6.49459779e-01, 9.61273789e-01, 8.48698437e-01, 8.86689603e-01,
          4.08687055e-01 ]
      - [ 4.48609859e-01, 9.92631793e-01, 6.67058110e-01, 6.48488820e-01,
          1. ]
      - [ 7.70647049e-01, 4.56344903e-01, 6.74464703e-01, 3.77090752e-01,
          0. ]
      - [ 8.63456964e-01, 9.77637410e-01, 8.32575619e-01, 9.53552067e-01,
          0. ]
      - [ 5.36796331e-01, 8.78708959e-01, 8.51203322e-01, 7.41630077e-01,
          6.78339541e-01 ]
      - [ 7.31483281e-01, 9.89528298e-01, 8.33663464e-01, 9.24491763e-01,
          0. ]
      - [ 6.03191555e-01, 9.11603391e-01, 8.51999700e-01, 7.47999132e-01,
          6.06203020e-01 ]
      - [ 9.90577281e-01, 9.90820467e-01, 8.33621502e-01, 9.25178170e-01,
          0. ]
      - [ 6.51188254e-01, 9.17449176e-01, 8.51806343e-01, 7.28451967e-01,
          6.05492473e-01 ]
      - [ 9.70731676e-01, 9.21987176e-01, 8.07274759e-01, 5.72036624e-01,
          5.38290560e-01 ]
      - [ 5.11336863e-01, 7.53933132e-01, 9.59510148e-01, 7.52639055e-01,
          0. ]
      - [ 9.70799685e-01, 9.11915779e-01, 7.80031383e-01, 4.53296214e-01,
          1. ]
      - [ 7.04603314e-01, 8.62836123e-01, 8.27045441e-01, 6.62789464e-01,
          4.16761637e-01 ]
      - [ 7.04634488e-01, 8.62482727e-01, 9.06938136e-01, 6.58037841e-01,
          3.04677635e-02 ]
      - [ 7.04614639e-01, 9.21507239e-01, 9.14179265e-01, 6.57765508e-01,
          1.54006784e-03 ]
      - [ 7.04781592e-01, 9.71825182e-01, 8.66207480e-01, 7.88089156e-01,
          4.38319839e-04 ]
      - [ 7.04614520e-01, 9.50308442e-01, 8.31996977e-01, 8.56361151e-01,
          1.66526064e-04 ]
      - [ 9.72930133e-01, 9.33797419e-01, 8.48783612e-01, 8.28476727e-01,
          6.34659052e-01 ]
      - [ 5.10340333e-01, 8.66881669e-01, 6.23844624e-01, 8.29770923e-01,
          0. ]
      - [ 5.12099922e-01, 6.62982643e-01, 6.91879630e-01, 9.29800808e-01,
          0. ]
      - [ 5.50111353e-01, 9.96149838e-01, 9.25547898e-01, 9.29157734e-01,
          0. ]
      - [ 9.18374121e-01, 9.76473033e-01, 9.98881459e-01, 9.52090383e-01,
          4.06685919e-01 ]
      - [ 9.76253331e-01, 9.93183792e-01, 9.50708151e-01, 5.61288238e-01,
          2.60082345e-10 ]
      - [ 9.76241350e-01, 9.96442378e-01, 8.65889549e-01, 7.46157825e-01,
          1.99683325e-11 ]
      - [ 9.18083310e-01, 9.96119142e-01, 8.66178632e-01, 7.87461579e-01,
          5.09682270e-12 ]
      - [ 1.60966292e-01, 9.52044845e-01, 8.84564161e-01, 9.18724716e-01,
          0. ]
      - [ 2.69570231e-01, 9.12910759e-01, 8.42345655e-01, 9.27731156e-01,
          0. ]
      - [ 0., 9.15914774e-01, 9.47633028e-01, 4.84158397e-01, 0. ]
      - [ 4.97254312e-01, 7.92905688e-01, 9.43360627e-01, 9.52586412e-01,
          0. ]
      - [ 0., 7.74598598e-01, 8.61161709e-01, 5.15828431e-01, 0. ]
      - [ 4.91694599e-01, 7.96792507e-01, 9.80849445e-01, 9.58779693e-01,
          0. ]
      - [ 9.70890403e-01, 4.26613063e-01, 8.77481699e-01, 7.42053628e-01,
          3.54919612e-01 ]
      - [ 5.94403982e-01, 4.51823145e-01, 6.81680739e-01, 8.14194322e-01,
          0. ]
      - [ 5.93069553e-01, 9.96862710e-01, 8.97059202e-01, 9.19139922e-01,
          0. ]
      - [ 8.68669271e-01, 6.48953617e-01, 8.40482771e-01, 6.03312373e-01,
          0. ]
      - [ 4.18741954e-03, 9.98293996e-01, 9.17675197e-01, 9.59735692e-01,
          0. ]
      - [ 4.80311364e-03, 9.96497512e-01, 9.18142974e-01, 9.41266060e-01,
          0. ]
      - [ 5.75745344e-01, 9.95414913e-01, 8.95641983e-01, 8.83046389e-01,
          0. ]
      - [ 1.84685305e-01, 7.38894463e-01, 8.21637750e-01, 5.84641755e-01,
          0. ]
      - [ 9.10782099e-01, 8.49490106e-01, 8.51057410e-01, 8.72745872e-01,
          3.85061800e-01 ]
      - [ 8.91108990e-01, 9.41738427e-01, 8.50546122e-01, 8.50436151e-01,
          4.51433718e-01 ]
      - [ 9.99042690e-01, 9.71633494e-01, 8.28894734e-01, 9.31467056e-01,
          4.51433718e-01 ]
      - [ 0., 8.69196177e-01, 9.34704423e-01, 5.65850139e-01, 0. ]
      - [ 2.56098270e-01, 9.39066172e-01, 8.44984710e-01, 3.90488893e-01,
          0. ]
      - [ 3.24402958e-01, 7.14907408e-01, 8.22984993e-01, 7.65997112e-01,
          1. ]
      - [ 9.40043449e-01, 8.36434662e-01, 8.41622889e-01, 7.62040854e-01,
          3.47853601e-02 ]
      - [ 7.81481087e-01, 9.88822222e-01, 8.17563891e-01, 9.75830793e-01,
          4.07312423e-01 ]
      - [ 7.94679761e-01, 9.88667965e-01, 8.18089485e-01, 9.61162567e-01,
          2.50580814e-02 ]
      - [ 8.06403399e-01, 9.88174617e-01, 8.17567527e-01, 9.56312299e-01,
          4.32824221e-04 ]
      - [ 8.02704215e-01, 9.86268222e-01, 8.16783249e-01, 9.70220983e-01,
          3.09398835e-08 ]
      - [ 9.51311052e-01, 6.97221637e-01, 8.23084891e-01, 7.61969805e-01,
          6.34920001e-01 ]
      - [ 7.97390997e-01, 9.89962041e-01, 8.16985190e-01, 9.59242642e-01,
          2.34126746e-11 ]
      - [ 2.73644537e-01, 6.87588930e-01, 8.14707518e-01, 8.04245472e-01,
          5.24748206e-01 ]
      - [ 3.35653394e-01, 8.49527955e-01, 8.12342107e-01, 9.50043261e-01,
          5.24748206e-01 ]
      - [ 7.77387142e-01, 9.92620051e-01, 7.45711505e-01, 9.61736679e-01,
          0. ]
      - [ 3.04909468e-01, 7.73239315e-01, 8.32033753e-01, 8.45236957e-01,
          2.90529519e-01 ]
      - [ 5.70896089e-01, 9.72705483e-01, 8.17145288e-01, 9.02286887e-01,
          2.90529519e-01 ]
      - [ 4.24391985e-01, 9.47678983e-01, 7.93587446e-01, 9.17464733e-01,
          2.90529519e-01 ]
      - [ 7.36106873e-01, 9.78175342e-01, 7.46128380e-01, 9.81754005e-01,
          1. ]
      - [ 7.70226955e-01, 9.76482689e-01, 8.16901505e-01, 8.62474382e-01,
          7.07675815e-01 ]
      - [ 6.13016963e-01, 5.73961079e-01, 8.41688991e-01, 7.29471028e-01,
          7.07675815e-01 ]
      - [ 7.27538526e-01, 9.83617723e-01, 8.34199071e-01, 8.47796440e-01,
          2.27550883e-02 ]
      - [ 7.36202061e-01, 9.84732687e-01, 8.46689761e-01, 8.08483303e-01,
          1.17563799e-01 ]
      - [ 9.99595046e-01, 9.63784873e-01, 8.81179035e-01, 8.11685503e-01,
          1.17563799e-01 ]
      - [ 8.61028850e-01, 9.42058563e-01, 8.69383335e-01, 7.96150327e-01,
          5.59542716e-01 ]
      - [ 7.57042527e-01, 9.44198728e-01, 8.69219124e-01, 8.75571728e-01,
          3.68356615e-01 ]
      - [ 7.23827958e-01, 9.87441778e-01, 7.83832908e-01, 6.59415245e-01,
          5.84257133e-02 ]
      - [ 7.23628819e-01, 9.36169326e-01, 8.29570711e-01, 8.32963467e-01,
          5.84257133e-02 ]
      - [ 7.33636141e-01, 9.14263308e-01, 8.30583692e-01, 8.57459247e-01,
          8.18748144e-04 ]
      - [ 9.80967104e-01, 8.93268228e-01, 8.06170821e-01, 9.32193756e-01,
          4.79177070e-05 ]
      - [ 9.80939269e-01, 8.92219901e-01, 8.06363463e-01, 9.49648201e-01,
          1.61693379e-06 ]
      - [ 9.81175900e-01, 9.36369836e-01, 8.25507522e-01, 8.42755675e-01,
          5.52398264e-01 ]
      - [ 9.76800978e-01, 9.88886058e-01, 8.71074021e-01, 9.13478613e-01,
          4.79326360e-02 ]
      - [ 8.07690442e-01, 9.92289662e-01, 8.71408045e-01, 8.49958599e-01,
          5.25363505e-01 ]
      - [ 7.81179845e-01, 9.90712881e-01, 8.72023880e-01, 8.13573182e-01,
          6.42613545e-02 ]
      - [ 8.27780962e-01, 9.89972234e-01, 8.56187046e-01, 6.54421628e-01,
          1.34113804e-03 ]
      - [ 9.74795401e-01, 8.72448683e-01, 8.28834772e-01, 6.39281869e-01,
          3.96251380e-02 ]
      - [ 8.61681759e-01, 9.91551936e-01, 8.71051192e-01, 8.30075860e-01,
          3.96251380e-02 ]
      - [ 8.27944577e-01, 9.79615569e-01, 9.58271563e-01, 8.44380736e-01,
          2.35589017e-04 ]
      - [ 9.74985719e-01, 9.90459502e-01, 8.71065974e-01, 9.00702953e-01,
          2.98692435e-01 ]
      - [ 8.14374208e-01, 9.90622044e-01, 8.71419132e-01, 8.53006721e-01,
          8.08257610e-02 ]
      - [ 8.20886672e-01, 9.90865707e-01, 8.70996296e-01, 8.45918119e-01,
          2.84722596e-01 ]
      - [ 8.29301536e-01, 9.87477243e-01, 8.78845096e-01, 8.51800799e-01,
          4.76520211e-01 ]
      - [ 9.74884748e-01, 9.92367983e-01, 8.71257961e-01, 8.89216065e-01,
          4.76520211e-01 ]
      - [ 8.31840217e-01, 9.89170611e-01, 8.77964556e-01, 8.54929209e-01,
          8.63796696e-02 ]
      - [ 8.80697906e-01, 9.90665078e-01, 8.70778620e-01, 8.40904236e-01,
          2.47119412e-01 ]
      - [ 9.44864212e-07, 9.93708253e-01, 9.66925919e-01, 8.96930695e-01,
          1.83819025e-03 ]
      - [ 9.71251130e-01, 9.90807295e-01, 8.71379673e-01, 8.98437381e-01,
          2.52604306e-01 ]
      - [ 6.47963762e-01, 9.95738149e-01, 9.67194855e-01, 9.13246214e-01,
          8.23712035e-05 ]
      - [ 8.32063913e-01, 9.88838017e-01, 8.71652424e-01, 8.52678418e-01,
          8.57061744e-02 ]
      - [ 3.97585869e-01, 9.95425105e-01, 8.19698393e-01, 9.30990577e-01,
          1.75989300e-01 ]
      - [ 8.41201663e-01, 9.86212194e-01, 8.71008396e-01, 8.26089561e-01,
          1.38689160e-01 ]
      - [ 9.73786831e-01, 9.92909670e-01, 8.71727884e-01, 9.12378669e-01,
          1.94062650e-01 ]
      - [ 9.72469568e-01, 9.92482960e-01, 8.71291876e-01, 9.14107144e-01,
          7.95262586e-03 ]
      - [ 2.17939481e-01, 9.94959235e-01, 7.52888739e-01, 8.68986368e-01,
          1.83475852e-01 ]
      - [ 8.05625692e-02, 8.65349948e-01, 7.69585192e-01, 8.57068956e-01,
          1. ]
      - [ 7.29431212e-01, 9.95022833e-01, 8.31731498e-01, 9.41135645e-01,
          7.58395065e-03 ]
      - [ 7.34150231e-01, 9.95093405e-01, 8.85255814e-01, 8.76737833e-01,
          0. ]
      - [ 7.38323271e-01, 9.92317677e-01, 8.90544355e-01, 8.57955158e-01,
          5.37608922e-01 ]
      - [ 8.69340181e-01, 9.92351353e-01, 8.89791846e-01, 8.83494973e-01,
          1. ]
      - [ 9.76621330e-01, 9.98930097e-01, 8.18863273e-01, 9.11350906e-01,
          7.39722908e-01 ]
      - [ 7.42704690e-01, 9.93472993e-01, 8.90070975e-01, 8.70959580e-01,
          7.39722908e-01 ]
      - [ 7.47029960e-01, 9.92259920e-01, 8.39606404e-01, 9.00881171e-01,
          7.12355554e-01 ]
      - [ 8.70985925e-01, 9.93719161e-01, 8.93113732e-01, 9.38469470e-01,
          5.23318768e-01 ]
      - [ 8.72409165e-01, 9.85313118e-01, 8.92661870e-01, 9.09470916e-01,
          6.35330975e-01 ]
      - [ 8.76937866e-01, 7.58778572e-01, 8.02333713e-01, 9.35946405e-01,
          6.35330975e-01 ]
      - [ 8.72280180e-01, 9.90163505e-01, 9.48382318e-01, 9.01634872e-01,
          5.00217080e-01 ]
      - [ 5.21329403e-01, 9.89594579e-01, 8.94240260e-01, 8.16550136e-01,
          3.27227503e-01 ]
      - [ 4.66137141e-01, 9.11786020e-01, 8.57446074e-01, 8.72806668e-01,
          7.39379227e-01 ]
      - [ 0., 5.63259006e-01, 5.93301356e-01, 9.16120112e-01, 0. ]
      - [ 2.44493094e-05, 9.97257292e-01, 8.53206635e-01, 8.89792383e-01,
          1.11151099e-01 ]
      - [ 2.18565929e-05, 8.64379227e-01, 8.55691075e-01, 9.34075475e-01,
          4.62505728e-01 ]
      - [ 7.64063478e-01, 7.76238739e-01, 8.55021954e-01, 9.04640675e-01,
          1.99485302e-01 ]
      - [ 7.76374340e-01, 9.88918185e-01, 8.23385715e-01, 9.11145687e-01,
          5.52216589e-01 ]
      - [ 9.05007541e-01, 9.87246454e-01, 8.19250286e-01, 6.84214771e-01,
          6.05899096e-01 ]
      - [ 8.71825635e-01, 9.52962577e-01, 6.84820235e-01, 9.43286061e-01,
          0. ]
      - [ 8.83584023e-01, 9.53345120e-01, 8.32476914e-01, 7.42290199e-01,
          5.12066763e-03 ]
      - [ 8.71863008e-01, 9.48754072e-01, 6.84962213e-01, 9.45969164e-01,
          0. ]
      - [ 8.83523345e-01, 9.53310072e-01, 8.32308352e-01, 7.49405444e-01,
          2.40206323e-03 ]
      - [ 7.62078702e-01, 9.03174996e-01, 7.94391513e-01, 9.81483161e-01,
          0. ]
      - [ 8.63663733e-01, 9.97453749e-01, 6.59236014e-01, 8.38675022e-01,
          6.52030849e-07 ]
      - [ 8.71933401e-01, 9.87681329e-01, 8.43452156e-01, 9.08156991e-01,
          0. ]
      - [ 7.50679076e-01, 9.85551536e-01, 8.86383772e-01, 9.25839603e-01,
          0. ]
      - [ 7.52524078e-01, 9.89216328e-01, 9.60184634e-01, 9.32582140e-01,
          0. ]
      - [ 7.95055032e-01, 8.68934751e-01, 8.77789617e-01, 9.50724125e-01,
          0. ]
      - [ 9.67123926e-01, 9.96166587e-01, 8.93660903e-01, 8.92409325e-01,
          1.29550621e-02 ]
      - [ 8.53374839e-01, 8.57869387e-01, 9.35845315e-01, 9.34780002e-01,
          0. ]
      - [ 8.63510251e-01, 9.93194759e-01, 8.76151323e-01, 8.98088694e-01,
          3.94078932e-04 ]
      - [ 8.56154084e-01, 9.93081987e-01, 8.76351237e-01, 9.16987717e-01,
          7.20301905e-05 ]
      - [ 2.46868022e-02, 9.90262747e-01, 8.42676997e-01, 8.64100993e-01,
          0. ]
      - [ 2.86743678e-02, 9.83921707e-01, 9.83392239e-01, 9.01982069e-01,
          0. ]
      - [ 6.47428989e-01, 9.78620470e-01, 9.61412072e-01, 8.99804294e-01,
          0. ]
      - [ 8.49004865e-01, 9.79156971e-01, 9.82379258e-01, 9.08026934e-01,
          0. ]
      - [ 5.80708146e-01, 9.78613019e-01, 9.61746335e-01, 9.01133776e-01,
          0. ]
      - [ 7.72649169e-01, 9.78274286e-01, 9.60524976e-01, 8.85900080e-01,
          0. ]
      - [ 7.92970181e-01, 9.79914606e-01, 9.61835861e-01, 8.92981529e-01,
          0. ]
      - [ 8.05363417e-01, 9.65264142e-01, 9.64689612e-01, 9.52584326e-01,
          0. ]
      - [ 7.66840100e-01, 9.81162250e-01, 9.62191701e-01, 8.94693255e-01,
          0. ]
      - [ 7.60334551e-01, 9.79986489e-01, 9.62443829e-01, 8.98152471e-01,
          0. ]
      - [ 4.93240744e-01, 8.58227015e-01, 9.63759005e-01, 9.60485399e-01,
          0. ]
      - [ 0., 5.81905723e-01, 7.73062289e-01, 9.58751082e-01, 1. ]
      - [ 4.93328661e-01, 9.43634927e-01, 9.63938475e-01, 9.72816765e-01,
          0. ]
      - [ 5.70148192e-02, 8.91025543e-01, 9.18296874e-01, 9.55683529e-01,
          0. ]
      - [ 5.95277905e-01, 8.58483315e-01, 5.89381337e-01, 8.89172077e-01,
          0. ]
      - [ 9.91670787e-01, 9.30291951e-01, 6.83024585e-01, 8.95184934e-01,
          0. ]
      - [ 5.78782678e-01, 8.38030457e-01, 7.46241987e-01, 3.95045906e-01,
          1.57773502e-24 ]
      - [ 2.23288201e-02, 6.99714303e-01, 9.85913396e-01, 8.71760607e-01,
          0. ]
      - [ 7.59902298e-01, 8.79844844e-01, 9.17830944e-01, 8.91390443e-01,
          0. ]
      - [ 2.91663677e-01, 9.34506834e-01, 6.50925100e-01, 8.35801601e-01,
          2.32460749e-22 ]
      - [ 7.10541785e-01, 9.45699453e-01, 8.88917744e-01, 9.46638346e-01,
          0. ]
      - [ 3.21875423e-01, 6.44682288e-01, 9.22737300e-01, 9.24816966e-01,
          0. ]
      - [ 9.44221377e-01, 7.99179316e-01, 7.28701949e-01, 3.68082315e-01,
          0. ]
      - [ 8.05253961e-08, 9.67684925e-01, 9.58409965e-01, 6.97220623e-01,
          6.83143745e-26 ]
      - [ 3.40060204e-01, 9.87562895e-01, 7.85335422e-01, 6.41648531e-01,
          1.30318016e-01 ]
      - [ 8.87171149e-01, 7.96927810e-01, 7.28880882e-01, 3.69517297e-01,
          0. ]
      - [ 8.18391263e-01, 5.45170605e-01, 7.52357841e-01, 5.95747828e-01,
          1. ]
      - [ 0., 9.53672051e-01, 8.28807831e-01, 7.52213895e-01,
          5.64660728e-01 ]
      - [ 7.82376707e-01, 6.56724453e-01, 9.96185899e-01, 8.56804073e-01,
          2.25324541e-01 ]
      - [ 9.55993474e-01, 5.46261430e-01, 7.52357304e-01, 5.37095249e-01,
          2.25324541e-01 ]
      - [ 6.88535094e-01, 9.93292391e-01, 8.56107831e-01, 7.92826653e-01,
          1. ]
      - [ 9.89750087e-01, 9.65099692e-01, 8.45285654e-01, 6.39721751e-01,
          3.95239174e-01 ]
      - [ 0., 9.52461243e-01, 8.40864956e-01, 7.75772154e-01,
          4.74432766e-01 ]
      - [ 6.95972800e-01, 9.95968461e-01, 8.45989645e-01, 7.59787679e-01,
          4.74432766e-01 ]
      - [ 0., 9.62905586e-01, 9.03632402e-01, 7.85843074e-01,
          4.98843968e-01 ]
      - [ 9.80578840e-01, 9.66281533e-01, 8.50303054e-01, 6.65400267e-01,
          4.98843968e-01 ]
      - [ 7.11932063e-01, 9.96508300e-01, 8.34070683e-01, 7.42145360e-01,
          2.31481120e-01 ]
      - [ 5.48072338e-01, 9.95893896e-01, 8.51543188e-01, 7.19280303e-01,
          3.71787213e-02 ]
      - [ 9.70241785e-01, 9.48190570e-01, 8.51537049e-01, 6.45021141e-01,
          1. ]
      - [ 3.85041311e-02, 9.97559965e-01, 8.65339994e-01, 8.77920568e-01,
          0. ]
      - [ 6.67470157e-01, 9.96384144e-01, 8.65077436e-01, 8.56059909e-01,
          0. ]
      - [ 9.42723393e-01, 4.57180351e-01, 8.18292975e-01, 4.21157211e-01,
          0. ]
      - [ 4.17644262e-01, 9.84710276e-01, 8.47932220e-01, 8.03833961e-01,
          1.00927234e-01 ]
      - [ 2.42699027e-01, 8.27188432e-01, 9.70414758e-01, 9.93345082e-01,
          7.39882886e-01 ]
      - [ 5.96633077e-01, 9.91830170e-01, 9.98778403e-01, 5.86643338e-01,
          3.26611549e-01 ]
      - [ 6.20120354e-02, 9.99713242e-01, 9.34458137e-01, 9.04953599e-01,
          4.38319147e-02 ]
      - [ 4.78855819e-01, 9.97902513e-01, 9.99787986e-01, 9.53074455e-01,
          4.38319147e-02 ]
      - [ 4.59804207e-01, 9.86990273e-01, 9.18698967e-01, 9.61627424e-01,
          3.18792492e-01 ]
      - [ 9.99419689e-01, 9.99804616e-01, 9.99106467e-01, 9.88899589e-01,
          0. ]
      - [ 1.58093479e-02, 9.90055799e-01, 9.97626960e-01, 9.56121743e-01,
          0. ]
      - [ 7.24312365e-01, 9.98745799e-01, 9.97903824e-01, 9.74326253e-01,
          0. ]
      - [ 0., 7.75458336e-01, 9.81724560e-01, 7.20545709e-01,
          9.71927147e-05 ]
      - [ 8.36201727e-01, 9.97962952e-01, 9.67461884e-01, 8.72532427e-01,
          9.71927147e-05 ]
      - [ 9.59758401e-01, 9.88658547e-01, 9.99109507e-01, 9.62291956e-01,
          9.71927147e-05 ]
      - [ 7.33577073e-01, 9.99076366e-01, 9.97871995e-01, 9.40583944e-01,
          9.71927147e-05 ]
      - [ 4.56803679e-01, 9.95517433e-01, 9.28573728e-01, 9.18261707e-01,
          3.35859835e-01 ]
      - [ 7.46959075e-02, 9.35234129e-01, 9.28747654e-01, 9.42283750e-01,
          3.35859835e-01 ]
      - [ 9.08872843e-01, 9.98171449e-01, 9.28458273e-01, 7.96150386e-01,
          1.00970681e-06 ]
      - [ 9.89305854e-01, 9.99531925e-01, 9.18040097e-01, 9.34365511e-01,
          4.06400800e-01 ]
      - [ 2.59435385e-01, 9.81921852e-01, 9.92403090e-01, 9.82255340e-01,
          5.51388383e-01 ]
      - [ 7.11765945e-01, 9.98619795e-01, 8.76818895e-01, 8.56373847e-01,
          5.64304292e-01 ]
      - [ 9.97440875e-01, 9.92675900e-01, 8.95638287e-01, 8.98269773e-01,
          5.23925900e-01 ]
      - [ 9.98228431e-01, 9.84439075e-01, 8.81681144e-01, 9.29826915e-01,
          6.34336710e-01 ]
      - [ 9.98548806e-01, 9.91717219e-01, 9.98239398e-01, 9.24630344e-01,
          0. ]
      - [ 3.25551093e-01, 8.78857732e-01, 9.97013867e-01, 9.47234094e-01,
          0. ]
      - [ 9.98236537e-01, 9.97481465e-01, 9.43391442e-01, 7.91240633e-01,
          2.19513737e-02 ]
      - [ 2.92229280e-02, 9.92525518e-01, 9.99332190e-01, 9.53699350e-01,
          2.19513737e-02 ]
      - [ 4.19776261e-01, 9.99929249e-01, 9.98448849e-01, 9.88095343e-01,
          2.19513737e-02 ]
      - [ 7.78660476e-01, 9.92468894e-01, 9.19226170e-01, 6.45581782e-01,
          1.65869631e-06 ]
      - [ 7.00763837e-02, 9.99993205e-01, 9.99095380e-01, 9.82662439e-01,
          9.35715798e-04 ]
      - [ 1.53269393e-05, 9.99750435e-01, 8.92020762e-01, 9.19837475e-01,
          4.17448252e-01 ]
      - [ 3.96774113e-01, 8.60387683e-01, 9.91223454e-01, 9.70995903e-01,
          4.17448252e-01 ]
      - [ 3.55963826e-01, 8.46771836e-01, 9.91907239e-01, 9.20747101e-01,
          3.43490283e-05 ]
      - [ 9.31502938e-01, 9.98900890e-01, 9.47966278e-01, 7.06350148e-01,
          2.09274112e-05 ]
      - [ 1.59272164e-01, 9.99934494e-01, 8.16307843e-01, 7.37577021e-01,
          1.37613243e-09 ]
      - [ 1.22543588e-01, 9.20518160e-01, 9.99382257e-01, 9.26657796e-01,
          7.69742201e-06 ]
      - [ 8.85430753e-01, 9.99238670e-01, 9.27278399e-01, 7.68882573e-01,
          1.01028614e-01 ]
      - [ 4.37099963e-01, 9.44727838e-01, 9.38792884e-01, 8.30394745e-01,
          1.01028614e-01 ]
      - [ 1.58788692e-02, 9.99846995e-01, 9.96855080e-01, 7.42634356e-01,
          3.95698547e-01 ]
      - [ 2.29518965e-01, 9.96739864e-01, 9.18337882e-01, 8.81119907e-01,
          7.06156313e-01 ]
      - [ 7.23858476e-01, 9.99873877e-01, 9.99303341e-01, 7.57939160e-01,
          8.51168633e-01 ]
      - [ 9.47780092e-04, 9.94099498e-01, 8.99962664e-01, 8.58493686e-01,
          4.50989455e-01 ]
      - [ 1.91688731e-01, 9.99694169e-01, 8.60247016e-01, 8.69537830e-01,
          5.65390706e-01 ]
      - [ 7.35271692e-01, 9.99801338e-01, 9.10370231e-01, 8.89402986e-01,
          3.64800483e-01 ]
      - [ 6.12295466e-03, 9.98664141e-01, 8.86954606e-01, 8.65123451e-01,
          6.48061037e-02 ]
      - [ 5.51350713e-01, 9.99937832e-01, 8.91287446e-01, 8.94742429e-01,
          4.76061076e-01 ]
      - [ 7.81718433e-01, 9.99392867e-01, 8.57481301e-01, 8.89645994e-01,
          7.24546254e-01 ]
      - [ 1.35411352e-01, 9.28291023e-01, 8.65153730e-01, 9.14903581e-01,
          1. ]
      - [ 9.90725681e-02, 9.94847476e-01, 8.90859663e-01, 9.56374586e-01,
          1. ]
      - [ 8.19132268e-01, 9.93494034e-01, 9.27644670e-01, 9.42172885e-01,
          5.50230920e-01 ]
      - [ 3.46182793e-01, 9.90624130e-01, 9.27411556e-01, 9.55178916e-01,
          6.94597781e-01 ]
      - [ 2.46565983e-01, 9.96991277e-01, 9.25134182e-01, 9.42467272e-01,
          6.94597781e-01 ]
      - [ 3.82614166e-01, 9.99766231e-01, 6.18715286e-01, 9.66098487e-01,
          0. ]
      - [ 2.89865434e-01, 9.99767363e-01, 9.17970061e-01, 8.61330509e-01,
          5.92249691e-01 ]
      - [ 6.13294542e-01, 9.97856975e-01, 8.38131189e-01, 9.44171071e-01,
          5.12426019e-01 ]
      - [ 3.83489265e-07, 9.99886334e-01, 9.53155339e-01, 9.72545028e-01,
          7.69118807e-31 ]
      - [ 6.54111564e-01, 9.96049106e-01, 8.47647369e-01, 9.39391494e-01,
          8.19343841e-04 ]
      - [ 6.04296029e-01, 9.99146938e-01, 9.29237187e-01, 9.11213875e-01,
          8.19343841e-04 ]
      - [ 2.21068244e-02, 9.99311090e-01, 8.49501848e-01, 9.16802585e-01,
          4.78060305e-01 ]
      - [ 6.33467287e-02, 9.98733521e-01, 9.99803603e-01, 6.64231598e-01,
          4.78060305e-01 ]
      - [ 1.31974434e-02, 9.99021292e-01, 8.53087008e-01, 8.80471826e-01,
          5.91413736e-01 ]
      - [ 7.19032109e-01, 9.99028742e-01, 8.22168171e-01, 9.02440786e-01,
          5.87548316e-01 ]
      - [ 3.53351116e-01, 9.98196363e-01, 8.76014233e-01, 9.50895011e-01,
          4.74156737e-01 ]
      - [ 5.45603998e-17, 5.04498541e-01, 8.81253719e-01, 8.89725149e-01,
          5.10224521e-01 ]
      - [ 4.44778707e-03, 5.02725124e-01, 8.05839241e-01, 8.68992209e-01,
          3.57403547e-01 ]
      - [ 6.13921940e-01, 9.99977767e-01, 8.06961834e-01, 8.79861355e-01,
          1. ]
      - [ 3.15529078e-01, 9.97310340e-01, 8.78247857e-01, 8.68330359e-01,
          1.77341118e-01 ]
      - [ 7.63490330e-03, 9.95801687e-01, 9.13623095e-01, 7.91562617e-01,
          7.39475906e-01 ]
      - [ 8.41741025e-01, 9.98206377e-01, 9.06021893e-01, 8.34131062e-01,
          5.25049388e-01 ]
      - [ 7.24979043e-02, 9.13202405e-01, 9.53450441e-01, 9.34054494e-01,
          5.65266848e-01 ]
      - [ 8.07709396e-01, 9.84399915e-01, 9.99473810e-01, 9.76684511e-01,
          1.76563607e-43 ]
      - [ 1.27579086e-03, 9.99331594e-01, 8.12632382e-01, 9.28171933e-01,
          0. ]
      - [ 3.73316929e-03, 9.67293680e-01, 8.83396685e-01, 9.53048050e-01,
          7.23523021e-01 ]
      - [ 4.05320287e-01, 9.82756376e-01, 9.21187162e-01, 9.53772128e-01,
          7.23523021e-01 ]
      - [ 4.53018546e-01, 9.94458020e-01, 9.05192673e-01, 8.87019038e-01,
          5.62062204e-01 ]
      - [ 7.60348022e-01, 9.61518526e-01, 8.78906667e-01, 9.16760683e-01,
          6.93581104e-01 ]
      - [ 4.88646775e-01, 9.13034141e-01, 9.13457334e-01, 8.75322342e-01,
          6.05914295e-01 ]
      - [ 3.32216918e-02, 9.65501845e-01, 8.86932433e-01, 8.22881460e-01,
          6.05914295e-01 ]
      - [ 7.19313800e-01, 8.34986448e-01, 9.14165258e-01, 8.70219588e-01,
          5.24864197e-01 ]
      - [ 1.02094688e-01, 9.87356722e-01, 8.76893878e-01, 9.71332014e-01,
          6.35116518e-01 ]
      - [ 1.58382311e-01, 9.99486923e-01, 9.99731839e-01, 9.71073985e-01,
          3.35525572e-01 ]
      - [ 1.26644135e-01, 9.88792777e-01, 8.69333506e-01, 9.08686042e-01,
          3.35525572e-01 ]
      - [ 4.17140812e-01, 9.86402810e-01, 9.38000321e-01, 9.32843506e-01,
          2.22877390e-03 ]
      - [ 6.56234026e-01, 9.74143505e-01, 9.52161551e-01, 9.31271970e-01,
          6.10202903e-07 ]
      - [ 9.61392164e-01, 9.97186542e-01, 8.39794338e-01, 8.29801679e-01,
          5.37871599e-01 ]
      - [ 9.55288529e-01, 9.86685097e-01, 8.70149791e-01, 7.00953245e-01,
          5.50932586e-01 ]
      - [ 3.62286538e-01, 7.86347508e-01, 8.94223392e-01, 7.05711603e-01,
          5.50932586e-01 ]
      - [ 9.58580375e-01, 9.83874500e-01, 9.14942324e-01, 6.56424284e-01,
          8.35532010e-01 ]
      - [ 4.11390662e-01, 7.84589291e-01, 9.06645954e-01, 9.14592206e-01,
          8.35532010e-01 ]
      - [ 9.48051095e-01, 9.99113739e-01, 9.99325693e-01, 9.63582516e-01,
          8.35532010e-01 ]
      - [ 9.59997296e-01, 9.99648809e-01, 8.92009795e-01, 7.27768421e-01,
          5.37709892e-01 ]
      - [ 9.61042702e-01, 9.39264715e-01, 8.79630744e-01, 7.25584030e-01,
          7.08956599e-01 ]
      - [ 3.27371294e-03, 9.98587251e-01, 8.84040594e-01, 6.50039077e-01,
          6.06021643e-01 ]
      - [ 9.88548577e-01, 8.95962358e-01, 8.89331400e-01, 8.43753874e-01,
          6.06021643e-01 ]
      - [ 4.88960803e-01, 9.72499251e-01, 9.14600313e-01, 6.62524998e-01,
          6.05954468e-01 ]
      - [ 9.63216424e-01, 9.94173944e-01, 8.88893545e-01, 9.60577607e-01,
          6.78206921e-01 ]
      - [ 5.04973471e-01, 8.20927322e-01, 8.85987163e-01, 7.84747958e-01,
          6.78206921e-01 ]
      - [ 9.64923203e-01, 9.41641092e-01, 9.03458953e-01, 8.47080946e-01,
          6.93227828e-01 ]
      - [ 8.60677585e-02, 9.97681856e-01, 9.99476492e-01, 9.75136757e-01,
          5.78113198e-01 ]
      - [ 5.85087121e-01, 8.93867552e-01, 9.98499572e-01, 9.17319655e-01,
          0. ]
      - [ 1.03051364e-01, 9.96781588e-01, 9.99102831e-01, 9.61757898e-01,
          0. ]
      - [ 8.88630688e-01, 9.82581854e-01, 8.13808739e-01, 8.43250990e-01,
          0. ]
      - [ 5.96152186e-01, 9.11775112e-01, 9.90315199e-01, 7.31019080e-01,
          9.87915322e-03 ]
      - [ 9.40168262e-01, 9.76771116e-01, 8.86049330e-01, 9.64034677e-01,
          6.04316711e-01 ]
      - [ 9.85402942e-01, 9.18902338e-01, 9.97248054e-01, 5.88069797e-01,
          3.75034839e-01 ]
      - [ 9.77425933e-01, 9.71232772e-01, 9.95197535e-01, 5.92976153e-01,
          0. ]
      - [ 6.27033293e-01, 9.62890148e-01, 9.85841393e-01, 9.00047243e-01,
          0. ]
      - [ 6.50548518e-01, 8.93529236e-01, 9.96044338e-01, 8.93819749e-01,
          0. ]
      - [ 9.69355285e-01, 8.67569506e-01, 8.88104439e-01, 6.51482940e-01,
          6.06203020e-01 ]
      - [ 6.86749578e-01, 9.10139501e-01, 9.12316442e-01, 7.27213085e-01,
          5.38290560e-01 ]
      - [ 4.52283710e-01, 9.87396777e-01, 8.17376673e-01, 7.98806608e-01,
          4.99058694e-01 ]
      - [ 8.36296141e-01, 9.71649110e-01, 9.35359716e-01, 5.41694403e-01,
          2.92232186e-01 ]
      - [ 7.04656780e-01, 8.61812949e-01, 9.62146342e-01, 8.08963418e-01,
          5.35082945e-05 ]
      - [ 8.79128158e-01, 9.82563436e-01, 9.20872569e-01, 5.62641203e-01,
          2.33226805e-03 ]
      - [ 5.53618312e-01, 9.92992163e-01, 9.99888837e-01, 9.58018661e-01,
          2.33226805e-03 ]
      - [ 5.73475897e-01, 9.93011534e-01, 9.98208404e-01, 9.49741721e-01,
          4.37777936e-02 ]
      - [ 8.97220612e-01, 9.79058206e-01, 9.21269059e-01, 5.85997820e-01,
          2.77035832e-02 ]
      - [ 9.01083112e-01, 9.84631479e-01, 8.89791727e-01, 7.38113403e-01,
          4.74140257e-01 ]
      - [ 7.48617887e-01, 9.43917811e-01, 9.33699429e-01, 8.28714192e-01,
          4.65533754e-04 ]
      - [ 6.01444006e-01, 9.98968542e-01, 9.98569191e-01, 9.55664992e-01,
          4.65533754e-04 ]
      - [ 7.60547340e-01, 8.87345433e-01, 9.00554180e-01, 8.49698544e-01,
          1.43254315e-02 ]
      - [ 6.89168513e-01, 9.93657410e-01, 8.28537345e-01, 9.55327034e-01,
          4.06685919e-01 ]
      - [ 9.76268172e-01, 9.34827089e-01, 8.29560697e-01, 9.02235985e-01,
          4.06685919e-01 ]
      - [ 8.42501700e-01, 9.95141685e-01, 7.98580229e-01, 8.96805167e-01,
          1.76542415e-03 ]
      - [ 7.71395862e-01, 9.75104570e-01, 8.19995046e-01, 7.20493793e-01,
          1.56799316e-01 ]
      - [ 8.54846239e-01, 9.90258694e-01, 8.41941893e-01, 9.37432528e-01,
          2.26016006e-08 ]
      - [ 9.47391629e-01, 9.99855340e-01, 6.63647532e-01, 8.98097873e-01,
          0. ]
      - [ 8.44792485e-01, 9.97097611e-01, 7.82431066e-01, 8.11126411e-01,
          0. ]
      - [ 7.33879924e-01, 9.97534990e-01, 8.71427596e-01, 8.84799182e-01,
          5.50388813e-01 ]
      - [ 6.12146080e-01, 9.77012813e-01, 9.33139741e-01, 8.77944410e-01,
          0. ]
      - [ 8.00816342e-02, 9.63601291e-01, 9.12877381e-01, 8.93646359e-01,
          2.76223533e-02 ]
      - [ 6.25346661e-01, 8.33402634e-01, 8.91692579e-01, 9.10622418e-01,
          6.34147286e-01 ]
      - [ 6.17031753e-01, 9.61471140e-01, 9.64078009e-01, 3.71564269e-01,
          0. ]
      - [ 7.42913008e-01, 8.95953119e-01, 9.40811157e-01, 4.09153044e-01,
          6.34238780e-01 ]
      - [ 2.12783366e-02, 9.98338997e-01, 9.99646127e-01, 9.51636791e-01,
          3.85234565e-01 ]
      - [ 0., 9.68703568e-01, 8.70916784e-01, 8.59001815e-01,
          1.87381953e-01 ]
      - [ 4.87915546e-01, 9.94836986e-01, 9.25994933e-01, 9.45015669e-01,
          7.23795533e-01 ]
      - [ 2.97051936e-01, 9.87443149e-01, 9.04272616e-01, 9.49663699e-01,
          5.51150739e-01 ]
      - [ 6.77410901e-01, 9.85397756e-01, 9.42218721e-01, 8.98743749e-01,
          0. ]
      - [ 9.71676409e-01, 9.33245718e-01, 8.66196394e-01, 9.48463142e-01,
          5.32649867e-02 ]
      - [ 4.76936609e-01, 9.92584705e-01, 8.68071377e-01, 9.55404878e-01,
          5.63533127e-01 ]
      - [ 9.49111342e-01, 9.75211263e-01, 8.63825560e-01, 9.42337096e-01,
          4.23336551e-02 ]
      - [ 9.04870749e-01, 8.03862214e-01, 9.03260350e-01, 5.72176993e-01,
          0. ]
      - [ 9.89702463e-01, 9.93469894e-01, 9.37129080e-01, 9.71260607e-01,
          3.17638665e-01 ]
      - [ 1.09537756e-02, 9.91263986e-01, 8.62434924e-01, 8.95402491e-01,
          3.35687264e-06 ]
      - [ 1.10135283e-02, 9.78757441e-01, 9.69467223e-01, 9.54682112e-01,
          5.86214215e-02 ]
      - [ 8.08556437e-01, 9.85891521e-01, 8.52331042e-01, 9.56775069e-01,
          3.36751044e-02 ]
      - [ 1.31203175e-01, 8.37952435e-01, 8.90803754e-01, 5.40841460e-01,
          8.55775113e-08 ]
      - [ 7.75542080e-01, 9.88600075e-01, 8.40762913e-01, 9.64025080e-01,
          4.81491350e-02 ]
      - [ 6.76368117e-01, 9.89738047e-01, 8.81976604e-01, 7.92000949e-01,
          4.50264770e-06 ]
      - [ 9.05675173e-01, 9.41598535e-01, 8.55964780e-01, 8.96805227e-01,
          1.29496129e-02 ]
      - [ 9.62698936e-01, 9.86362040e-01, 9.42887306e-01, 9.08117235e-01,
          2.52824873e-01 ]
      - [ 2.11852312e-01, 9.69621658e-01, 8.46193850e-01, 8.46028745e-01,
          1.57972015e-02 ]
      - [ 8.68292034e-01, 9.35437381e-01, 8.12305510e-01, 9.81633842e-01,
          0. ]
      - [ 9.95955586e-01, 9.98178422e-01, 9.13483500e-01, 9.12447214e-01,
          3.45348656e-01 ]
      - [ 8.94295752e-01, 9.98228967e-01, 9.35286224e-01, 9.73223865e-01,
          4.51433718e-01 ]
      - [ 7.22227097e-01, 9.55168843e-01, 8.06906641e-01, 9.49093521e-01,
          1.05488873e-09 ]
      - [ 7.74623692e-01, 9.70255792e-01, 9.36287522e-01, 9.68717575e-01,
          1.38344280e-02 ]
      - [ 7.52456725e-01, 9.07102883e-01, 8.19396555e-01, 9.07605410e-01,
          2.50580814e-02 ]
      - [ 7.70808756e-01, 9.66102600e-01, 8.24831724e-01, 9.28493321e-01,
          4.32824221e-04 ]
      - [ 2.32172832e-01, 9.97661829e-01, 9.96694922e-01, 9.45971608e-01,
          4.32824221e-04 ]
      - [ 7.69525528e-01, 9.47342932e-01, 9.63652253e-01, 9.72167194e-01,
          1.42926292e-04 ]
      - [ 4.13496308e-02, 9.99019444e-01, 9.98388946e-01, 8.71272862e-01,
          1.42926292e-04 ]
      - [ 6.82154596e-01, 9.95092630e-01, 9.91868138e-01, 9.19867694e-01,
          3.24859377e-03 ]
      - [ 1.46301127e-09, 8.92152786e-01, 9.46759164e-01, 5.49126506e-01,
          0. ]
      - [ 4.09117281e-01, 8.47242415e-01, 8.84338856e-01, 9.28621411e-01,
          8.32790607e-12 ]
      - [ 2.14822039e-01, 9.40864742e-01, 7.58614838e-01, 8.61656666e-01,
          1.14469945e-01 ]
      - [ 7.13498235e-01, 9.99365985e-01, 9.96803463e-01, 9.42736149e-01,
          0. ]
      - [ 5.78396618e-01, 9.91566956e-01, 7.96339691e-01, 7.44578660e-01,
          6.82811663e-02 ]
      - [ 3.73189032e-01, 9.90859210e-01, 8.57991517e-01, 6.93648994e-01,
          2.90529519e-01 ]
      - [ 8.79778326e-01, 9.79134023e-01, 8.82689118e-01, 6.85170174e-01,
          5.11221707e-01 ]
      - [ 7.44891107e-01, 9.97878850e-01, 9.03444290e-01, 8.30908239e-01,
          1.17563799e-01 ]
      - [ 5.84011614e-01, 9.51590657e-01, 9.84673560e-01, 6.67143404e-01,
          1.03287157e-05 ]
      - [ 7.38864958e-01, 9.74173903e-01, 9.00044262e-01, 6.76919103e-01,
          3.34878802e-01 ]
      - [ 7.33010411e-01, 9.98884439e-01, 8.84712696e-01, 8.84811401e-01,
          3.45564038e-01 ]
      - [ 8.93571377e-01, 9.73160505e-01, 9.14478183e-01, 9.14852798e-01,
          3.45564038e-01 ]
      - [ 9.14733768e-01, 9.63158190e-01, 9.51779962e-01, 9.17856276e-01,
          1.03405844e-02 ]
      - [ 8.29125583e-01, 9.78090525e-01, 9.56037641e-01, 8.71965647e-01,
          7.37201888e-03 ]
      - [ 7.65487909e-01, 9.81958270e-01, 9.60411131e-01, 9.17777777e-01,
          2.30423966e-03 ]
      - [ 7.69544542e-01, 9.85463679e-01, 9.26363468e-01, 9.12650585e-01,
          4.06985916e-02 ]
      - [ 9.66881037e-01, 9.16436791e-01, 9.10002589e-01, 9.36397195e-01,
          2.00773049e-02 ]
      - [ 9.03019249e-01, 9.18856561e-01, 8.99322033e-01, 9.47886109e-01,
          5.52398264e-01 ]
      - [ 8.12801063e-01, 9.93159413e-01, 8.03323150e-01, 6.71792924e-01,
          3.96251380e-02 ]
      - [ 8.28508854e-01, 9.99619603e-01, 7.16227055e-01, 9.39637303e-01,
          9.92291825e-06 ]
      - [ 8.32463920e-01, 9.98420298e-01, 8.77414644e-01, 8.37109685e-01,
          2.84722596e-01 ]
      - [ 8.30490410e-01, 9.94401217e-01, 8.06695640e-01, 9.04151559e-01,
          8.23712035e-05 ]
      - [ 8.36736917e-01, 9.99201536e-01, 8.97813559e-01, 9.40782428e-01,
          1.42758321e-02 ]
      - [ 9.81679618e-01, 9.64150786e-01, 8.99246275e-01, 9.09678638e-01,
          7.95262586e-03 ]
      - [ 7.24718928e-01, 9.96527016e-01, 8.88610780e-01, 9.16615188e-01,
          3.02407928e-02 ]
      - [ 7.36360908e-01, 9.98038352e-01, 8.93782496e-01, 8.08559716e-01,
          7.58395065e-03 ]
      - [ 8.59836221e-01, 9.99596238e-01, 8.81611109e-01, 9.71016347e-01,
          0. ]
      - [ 7.63315141e-01, 9.99044716e-01, 9.12710845e-01, 9.06053543e-01,
          8.34772527e-01 ]
      - [ 5.92849731e-01, 9.95089948e-01, 9.06555176e-01, 9.13559914e-01,
          7.39379227e-01 ]
      - [ 8.56786072e-02, 9.23361361e-01, 8.80539894e-01, 6.11473203e-01,
          0. ]
      - [ 7.66521692e-01, 9.59690452e-01, 8.37101996e-01, 9.74537730e-01,
          0. ]
      - [ 8.01826239e-01, 8.59589279e-01, 8.47600579e-01, 9.11327899e-01,
          5.52216589e-01 ]
      - [ 7.43742168e-01, 9.17895734e-01, 8.60506892e-01, 7.99406767e-01,
          1.40419661e-05 ]
      - [ 9.07010853e-01, 9.64101553e-01, 9.53434527e-01, 8.64644587e-01,
          1.99012570e-02 ]
      - [ 7.08932817e-01, 9.91344869e-01, 8.31074893e-01, 9.42993999e-01,
          1.09611638e-02 ]
      - [ 7.16911256e-01, 9.54538822e-01, 8.59908998e-01, 7.08336234e-01,
          4.24478874e-02 ]
      - [ 9.61093187e-01, 9.37694013e-01, 8.31813931e-01, 8.53853464e-01,
          5.13877894e-04 ]
      - [ 5.34175873e-01, 9.97902572e-01, 9.98863578e-01, 7.94733167e-01,
          5.13877894e-04 ]
      - [ 6.51652217e-01, 9.59633708e-01, 9.09293830e-01, 8.45325351e-01,
          3.71214449e-02 ]
      - [ 7.42933929e-01, 9.91412818e-01, 9.23023164e-01, 8.23698282e-01,
          1.88714087e-01 ]
      - [ 7.91837275e-01, 9.23212349e-01, 8.17090988e-01, 8.07117403e-01,
          1.44868318e-04 ]
      - [ 8.97012711e-01, 9.91963565e-01, 8.56480777e-01, 8.21394801e-01,
          2.26260236e-04 ]
      - [ 8.71466637e-01, 9.58193123e-01, 7.27986038e-01, 8.51943195e-01,
          2.72382633e-03 ]
      - [ 8.74650896e-01, 9.67641175e-01, 9.47582006e-01, 8.36332738e-01,
          2.01266399e-03 ]
      - [ 8.26391101e-01, 9.71622348e-01, 9.15678382e-01, 8.23625922e-01,
          4.86931026e-01 ]
      - [ 7.43921161e-01, 9.75065529e-01, 9.16647911e-01, 8.08478951e-01,
          6.33603275e-01 ]
      - [ 9.75826383e-01, 9.25056696e-01, 7.62294233e-01, 9.87337589e-01,
          1.55425255e-08 ]
      - [ 9.78467524e-01, 9.17670190e-01, 9.18540597e-01, 9.78652358e-01,
          8.34768042e-02 ]
      - [ 2.20482014e-02, 7.87684381e-01, 9.49632943e-01, 9.23657060e-01,
          7.20301905e-05 ]
      - [ 5.01767337e-01, 7.72156715e-01, 9.57965612e-01, 9.69676733e-01,
          3.05230524e-02 ]
      - [ 3.50585073e-01, 9.99222517e-01, 9.39280450e-01, 8.05423915e-01,
          3.05230524e-02 ]
      - [ 6.96884573e-01, 9.97962356e-01, 8.99579227e-01, 9.05208945e-01,
          0. ]
      - [ 9.34723854e-01, 9.84477758e-01, 9.18849707e-01, 8.99711013e-01,
          1.99513137e-01 ]
      - [ 9.80557799e-01, 8.01726639e-01, 9.99373496e-01, 9.16143715e-01,
          1.99513137e-01 ]
      - [ 6.73702359e-01, 9.31928575e-01, 9.18808043e-01, 8.95432293e-01,
          3.54705483e-01 ]
      - [ 6.83701038e-02, 9.90701199e-01, 9.20147419e-01, 8.52377892e-01,
          0. ]
      - [ 7.22070694e-01, 9.99232233e-01, 9.27755833e-01, 8.13744903e-01,
          2.34530158e-02 ]
      - [ 8.31620395e-01, 9.94807959e-01, 9.64813411e-01, 9.29861248e-01,
          0. ]
      - [ 9.20905054e-01, 9.76732016e-01, 8.55371714e-01, 8.69283140e-01,
          4.51363891e-01 ]
      - [ 9.86178875e-01, 9.85118508e-01, 8.94323468e-01, 8.49691093e-01,
          4.04854834e-01 ]
      - [ 8.38206768e-01, 9.29114759e-01, 8.80834818e-01, 8.53883982e-01,
          3.35955650e-01 ]
      - [ 1.60289361e-04, 8.70912611e-01, 9.28444743e-01, 8.10518682e-01,
          4.50158209e-01 ]
      - [ 6.71078172e-03, 8.04284215e-01, 9.87905025e-01, 8.11300039e-01,
          1.30318016e-01 ]
      - [ 4.90971744e-01, 9.37244833e-01, 9.15257215e-01, 8.78250659e-01,
          4.09149170e-01 ]
      - [ 4.68108803e-01, 9.99458075e-01, 9.99623299e-01, 8.68373632e-01,
          3.26984584e-01 ]
      - [ 7.10594058e-01, 9.72563326e-01, 8.30218971e-01, 8.02033603e-01,
          3.95239174e-01 ]
      - [ 2.08551306e-02, 9.91184592e-01, 9.25389946e-01, 7.33809531e-01,
          1.56908054e-02 ]
   decision_functions:
      -
         sv_count: 524
         rho: -6.8900963407173410e-01
         alpha: [ 1.7843637638180176e-01, 2.0924502403895104e-01,
             4.6437767832387511e-01, 3.5277169455670648e-01,
             1.6395200791577025e-01, 3.2150256104846597e-01,
             1.5135851115892129e-01, 1.3952169553419333e-01,
             2.0005852837029517e-01, 2.6848377555789432e-01,
             2.3841527045657790e-01, 5.5678079856957878e-02,
             1.0111520215517052e-01, 3.1002204745106225e+00,
             2.8727412571889839e+00, 3.1002204745106225e+00,
             1.4090438595027255e-01, 3.1002204745106225e+00,
             3.1002204745106225e+00, 3.1002204745106225e+00,
             3.1002204745106225e+00, 1.8285237581752942e+00,
             3.1002204745106225e+00, 3.1002204745106225e+00,
             9.4667806938863355e-02, 3.1002204745106225e+00,
             3.1002204745106225e+00, 3.1002204745106225e+00,
             3.1002204745106225e+00, 3.1002204745106225e+00,
             3.1002204745106225e+00, 3.1002204745106225e+00,
             3.1002204745106225e+00, 3.1002204745106225e+00,
             3.1002204745106225e+00, 3.1002204745106225e+00,
             3.1002204745106225e+00, 3.1002204745106225e+00,
             3.1002204745106225e+00, 9.4735069524937113e-02,
             3.1002204745106225e+00, 3.1002204745106225e+00,
             1.5119847949522971e+00, 3.1002204745106225e+00,
             2.4236772051308431e+00, 3.1002204745106225e+00,
             8.6816307086074818e-01, 3.1002204745106225e+00,
             2.0911942660599550e-01, 3.1002204745106225e+00,
             7.8496539011151334e-01, 1.1435756112450328e+00,
             3.1002204745106225e+00, 8.6493733908320225e-01,
             3.1002204745106225e+00, 1.3978480939853472e-01,
             1.0477802392003743e-01, 2.0700400543366074e-01,
             3.1002204745106225e+00, 1.2681693445308684e+00,
             3.1002204745106225e+00, 8.5123427329246892e-01,
             9.9042680930548155e-01, 3.1002204745106225e+00,
             3.1002204745106225e+00, 3.1002204745106225e+00,
             3.1002204745106225e+00, 3.6110841527716436e-01,
             3.1002204745106225e+00, 3.1002204745106225e+00,
             1.2224809477511849e+00, 3.1002204745106225e+00,
             2.4630571265376111e+00, 4.0682533353146300e-01,
             1.0036498369875001e-01, 3.0161864925532536e+00,
             1.8466084145125987e+00, 1.3646143996578763e-01,
             3.1002204745106225e+00, 3.0688708827694361e-01,
             3.1002204745106225e+00, 3.1002204745106225e+00,
             2.5063887905256160e-01, 3.1002204745106225e+00,
             3.1002204745106225e+00, 7.9760024769172821e-01,
             1.2578801756755453e+00, 3.1002204745106225e+00,
             2.0474658158791179e+00, 3.1002204745106225e+00,
             2.6497380131121813e+00, 1.8364080659195181e-01,
             3.1002204745106225e+00, 3.1002204745106225e+00,
             3.2073134828946848e-01, 1.7030598554760426e+00,
             1.2688087917731397e-01, 1.3250615069699198e-01,
             1.9978365463365404e+00, 2.7870698993255418e+00,
             1.8593381019147834e+00, 3.8848468717956569e-01,
             1.4220807067573145e+00, 3.1002204745106225e+00,
             3.1002204745106225e+00, 3.1002204745106225e+00,
             3.1002204745106225e+00, 3.1002204745106225e+00,
             3.1002204745106225e+00, 2.4805988139771600e+00,
             3.1002204745106225e+00, 1.7248306382361214e-01,
             2.4222076390245952e+00, 3.3118449995529520e-01,
             1.0105810174496198e-01, 1.0098319417550017e+00,
             3.1002204745106225e+00, 1.6387448862904270e+00,
             2.6344649864130959e-01, 3.1002204745106225e+00,
             3.1002204745106225e+00, 3.2345477121963373e-01,
             3.1002204745106225e+00, 6.9484055063319539e-01,
             3.1002204745106225e+00, 1.2088041645493704e-01,
             1.0477023395238132e-01, 3.1002204745106225e+00,
             1.6536643644505278e+00, 3.1002204745106225e+00,
             1.5827558052424970e+00, 2.3325660941581119e+00,
             1.8046682182285056e+00, 1.3277299052760092e+00,
             6.2972435119640624e-01, 1.1009740552793526e-01,
             5.9200402944384756e-01, 3.1002204745106225e+00,
             3.1002204745106225e+00, 3.1002204745106225e+00,
             2.3552911464153903e+00, 3.1002204745106225e+00,
             6.6653085401485998e-02, 1.5277061888558946e-01,
             1.1578998573091488e-01, 3.1002204745106225e+00,
             3.1002204745106225e+00, 3.1002204745106225e+00,
             3.1002204745106225e+00, 3.1002204745106225e+00,
             3.0808425509555026e+00, 2.5683869980718810e+00,
             5.0036519423692760e-01, 7.1287172051166570e-01,
             3.1002204745106225e+00, 1.1840607150001957e-01,
             1.2628471932691337e-01, 3.1002204745106225e+00,
             8.0759148586775686e-01, 3.1002204745106225e+00,
             3.1002204745106225e+00, 6.5478186668658644e-01,
             5.8649549991553662e-01, 1.8491013059038769e-01,
             1.0957038588269248e-01, 2.9374471230833747e+00,
             1.3988455559372237e+00, 6.3139963019168988e-01,
             5.8973650080451101e-01, 3.1261747597095035e-01,
             5.5924356422953192e-01, 3.1002204745106225e+00,
             3.1002204745106225e+00, 3.1002204745106225e+00,
             5.2955024935665129e-01, 3.1002204745106225e+00,
             1.4663104136195396e-01, 1.7179991389486118e-01,
             2.0945791663151332e+00, 1.4367479453906278e+00,
             6.9579214050211124e-01, 3.3747305399982036e-01,
             2.4408142370624403e-01, 2.0129625020205422e-01,
             1.9633025079565150e-01, 3.1002204745106225e+00,
             3.1002204745106225e+00, 1.1802099922757661e+00,
             3.1002204745106225e+00, 3.1002204745106225e+00,
             1.6871160380545327e+00, 1.8162802258079036e+00,
             9.0117687822063175e-01, 1.5093025950729888e+00,
             3.1002204745106225e+00, 3.1414125048875957e-01,
             3.1002204745106225e+00, 3.1002204745106225e+00,
             3.1002204745106225e+00, 3.1002204745106225e+00,
             1.2641742761008670e+00, 3.1002204745106225e+00,
             3.1002204745106225e+00, 3.1002204745106225e+00,
             3.1002204745106225e+00, 3.1002204745106225e+00,
             3.1002204745106225e+00, 3.1002204745106225e+00,
             3.1002204745106225e+00, 2.7452530364041947e+00,
             3.1002204745106225e+00, 1.4452834242834838e+00,
             3.1002204745106225e+00, 3.1002204745106225e+00,
             2.7871948761987562e+00, 6.0600044323935165e-01,
             2.2017166631848144e+00, 3.1002204745106225e+00,
             1.8791104822423004e+00, 3.6923455885891215e-01,
             3.1002204745106225e+00, 3.1002204745106225e+00,
             3.1002204745106225e+00, 5.3096609825198160e-01,
             2.4773117032258862e+00, 3.1002204745106225e+00,
             3.1002204745106225e+00, 3.1002204745106225e+00,
             3.1002204745106225e+00, 1.3914448409004867e+00,
             3.1002204745106225e+00, 3.1002204745106225e+00,
             2.8806844891338024e+00, 1.5165243547337848e-01,
             3.1002204745106225e+00, 3.1002204745106225e+00,
             1.7418790102153880e-01, 3.1002204745106225e+00,
             3.1002204745106225e+00, 3.1002204745106225e+00,
             2.2410538485009632e+00, 8.7897659041929377e-01,
             2.4238222331053234e+00, 1.6803894717348045e+00,
             3.1002204745106225e+00, 3.1002204745106225e+00,
             3.1002204745106225e+00, 3.1002204745106225e+00,
             3.1002204745106225e+00, 3.1002204745106225e+00,
             3.1002204745106225e+00, 3.1002204745106225e+00,
             3.1002204745106225e+00, 1.1786732259641640e-01,
             3.1002204745106225e+00, 3.1002204745106225e+00,
             3.1002204745106225e+00, 3.1002204745106225e+00,
             3.1002204745106225e+00, 3.1002204745106225e+00,
             3.1002204745106225e+00, 3.1002204745106225e+00,
             3.1002204745106225e+00, 1.9069504783196728e-01,
             1.1846970559772334e-01, 1.5373097786844563e+00,
             1.9544232089710913e+00, 2.1085753098251017e-01,
             6.1330596925330871e-01, 4.4797881871179507e-01,
             1.3736250411370174e+00, 3.1002204745106225e+00,
             2.2606154236639969e-01, 3.1002204745106225e+00,
             1.1564803442283575e+00, 5.4651162334795034e-01,
             2.2005962515353215e+00, 1.2354743470253444e+00,
             8.9665152047059493e-02, 2.4421921991482523e-01,
             1.9182233037396337e+00, 7.8990046639266731e-01,
             9.5687877816926295e-02, 1.1532565066511713e+00,
             1.2208433733437822e+00, 1.6002059518598379e+00,
             3.1002204745106225e+00, 3.1002204745106225e+00,
             3.1002204745106225e+00, 2.6449471931117770e+00,
             2.0435354202273133e+00, 1.1638630681926521e+00,
             3.1002204745106225e+00, 3.1002204745106225e+00,
             1.2957935426846465e-01, 3.1002204745106225e+00,
             -3.7104691022797863e-02, -6.5434486771962319e-01,
             -3.1002204745106225e+00, -3.1002204745106225e+00,
             -7.2872137899887413e-01, -2.1065020909533465e+00,
             -3.1002204745106225e+00, -2.0270751823821693e+00,
             -3.1002204745106225e+00, -3.1002204745106225e+00,
             -2.4356496421040044e+00, -2.7067223041311150e+00,
             -2.8672853301211032e+00, -2.6594660864572743e+00,
             -3.1002204745106225e+00, -3.1002204745106225e+00,
             -8.2095119758475521e-01, -3.1002204745106225e+00,
             -1.2865791773863395e+00, -3.1002204745106225e+00,
             -6.8204065811148162e-01, -1.4207401792223691e+00,
             -3.1002204745106225e+00, -3.1002204745106225e+00,
             -3.1002204745106225e+00, -3.1002204745106225e+00,
             -3.1002204745106225e+00, -3.1002204745106225e+00,
             -6.5642080051131935e-01, -3.1002204745106225e+00,
             -2.9969291370127262e+00, -3.1002204745106225e+00,
             -3.1002204745106225e+00, -3.1002204745106225e+00,
             -3.1002204745106225e+00, -1.9799291762054363e+00,
             -3.1002204745106225e+00, -1.1601559516541233e+00,
             -1.6926665595681432e+00, -3.1002204745106225e+00,
             -1.6628641503242498e+00, -3.1002204745106225e+00,
             -2.3616677519511984e+00, -3.1002204745106225e+00,
             -3.1002204745106225e+00, -3.1002204745106225e+00,
             -1.9170212376762799e+00, -1.3265781610271834e+00,
             -2.0782022119960573e+00, -3.1002204745106225e+00,
             -5.0472549904622788e-01, -3.1002204745106225e+00,
             -3.1002204745106225e+00, -3.1002204745106225e+00,
             -3.1002204745106225e+00, -3.1002204745106225e+00,
             -2.2180820062516799e+00, -3.1002204745106225e+00,
             -3.1002204745106225e+00, -1.5124080167996434e+00,
             -3.1002204745106225e+00, -3.1002204745106225e+00,
             -3.1002204745106225e+00, -1.2519719239112050e+00,
             -1.7960130267306631e+00, -3.1002204745106225e+00,
             -2.9926875468257058e-01, -1.9460341264534025e+00,
             -3.1002204745106225e+00, -1.2196661059846110e+00,
             -3.1002204745106225e+00, -1.7748835993457708e+00,
             -2.8674015440670395e+00, -5.3904943468735134e-01,
             -3.1002204745106225e+00, -6.6492813290503683e-01,
             -3.1002204745106225e+00, -4.3958081583452296e-01,
             -3.1002204745106225e+00, -3.1002204745106225e+00,
             -3.1002204745106225e+00, -3.1002204745106225e+00,
             -3.1002204745106225e+00, -2.2291283396779185e+00,
             -1.6728694390433669e+00, -2.9104281795893683e+00,
             -8.9590234162065896e-01, -1.7062314950043291e+00,
             -2.4110264728078912e+00, -3.1002204745106225e+00,
             -2.0920164485600874e+00, -2.9004774874004489e+00,
             -2.9507985121129061e+00, -3.1002204745106225e+00,
             -4.3708380351317955e-01, -5.6291767798824044e-01,
             -3.1002204745106225e+00, -3.1002204745106225e+00,
             -3.1002204745106225e+00, -1.7169089200066754e+00,
             -1.2097657488694276e+00, -9.0899103101417078e-01,
             -2.0766177163028696e+00, -3.1002204745106225e+00,
             -3.1002204745106225e+00, -2.9488763428864617e+00,
             -3.1002204745106225e+00, -3.1002204745106225e+00,
             -3.8146672265571321e-02, -3.1002204745106225e+00,
             -3.1002204745106225e+00, -3.1002204745106225e+00,
             -3.1002204745106225e+00, -3.1002204745106225e+00,
             -3.1002204745106225e+00, -3.1002204745106225e+00,
             -3.1002204745106225e+00, -3.1002204745106225e+00,
             -3.1002204745106225e+00, -3.1002204745106225e+00,
             -3.1002204745106225e+00, -3.1002204745106225e+00,
             -3.1002204745106225e+00, -3.1002204745106225e+00,
             -3.1002204745106225e+00, -3.1002204745106225e+00,
             -3.1002204745106225e+00, -3.1002204745106225e+00,
             -3.1002204745106225e+00, -2.1666733983763549e+00,
             -1.4094870297378803e+00, -1.4105183102683144e-01,
             -3.1002204745106225e+00, -8.4596264175711111e-01,
             -2.3693065951728332e+00, -3.1002204745106225e+00,
             -3.1002204745106225e+00, -3.1002204745106225e+00,
             -3.1002204745106225e+00, -3.1002204745106225e+00,
             -2.1994036446626591e-01, -3.1002204745106225e+00,
             -1.0717462070757546e+00, -3.1002204745106225e+00,
             -3.1002204745106225e+00, -3.1002204745106225e+00,
             -3.1002204745106225e+00, -3.1002204745106225e+00,
             -2.1326829521170254e-01, -3.1002204745106225e+00,
             -3.1002204745106225e+00, -3.1002204745106225e+00,
             -3.1002204745106225e+00, -3.1002204745106225e+00,
             -3.1002204745106225e+00, -3.1002204745106225e+00,
             -3.1002204745106225e+00, -2.9669617696301240e+00,
             -3.1002204745106225e+00, -3.1002204745106225e+00,
             -2.5625159216148625e+00, -3.1002204745106225e+00,
             -3.1002204745106225e+00, -3.1002204745106225e+00,
             -2.5928145792528321e+00, -3.1002204745106225e+00,
             -3.1002204745106225e+00, -3.1002204745106225e+00,
             -3.1002204745106225e+00, -3.1002204745106225e+00,
             -1.2098071993984509e+00, -3.1002204745106225e+00,
             -3.1002204745106225e+00, -3.1002204745106225e+00,
             -3.1002204745106225e+00, -3.1002204745106225e+00,
             -3.1002204745106225e+00, -3.1002204745106225e+00,
             -3.1002204745106225e+00, -3.1002204745106225e+00,
             -3.1002204745106225e+00, -3.1002204745106225e+00,
             -3.1002204745106225e+00, -3.1002204745106225e+00,
             -3.1002204745106225e+00, -3.1002204745106225e+00,
             -3.1002204745106225e+00, -3.1002204745106225e+00,
             -1.2817653598143275e+00, -2.6173727306387589e+00,
             -3.1002204745106225e+00, -3.1002204745106225e+00,
             -3.1002204745106225e+00, -3.1002204745106225e+00,
             -3.1002204745106225e+00, -3.1002204745106225e+00,
             -3.1002204745106225e+00, -3.1002204745106225e+00,
             -3.1002204745106225e+00, -3.1002204745106225e+00,
             -4.9025418437772933e-01, -3.1002204745106225e+00,
             -3.1002204745106225e+00, -3.1002204745106225e+00,
             -3.1002204745106225e+00, -1.5860065505131524e+00,
             -9.0135683756209695e-01, -3.1002204745106225e+00,
             -1.2383804012228663e+00, -3.1002204745106225e+00,
             -3.1002204745106225e+00, -3.3855586074057276e-01,
             -3.1002204745106225e+00, -3.1002204745106225e+00,
             -1.4519971611117943e-01, -1.0910607497982696e+00,
             -3.1002204745106225e+00, -3.1002204745106225e+00,
             -3.1002204745106225e+00, -3.1002204745106225e+00,
             -3.1002204745106225e+00, -3.1002204745106225e+00,
             -3.1002204745106225e+00, -2.6075319572838618e+00,
             -2.5091105396841793e+00, -2.6442977145039120e-01,
             -3.1002204745106225e+00, -3.1002204745106225e+00 ]
         index: [ 0, 1, 2, 3, 4, 5, 6, 7, 8, 9, 10, 11, 12, 13, 14, 15,
             16, 17, 18, 19, 20, 21, 22, 23, 24, 25, 26, 27, 28, 29, 30,
             31, 32, 33, 34, 35, 36, 37, 38, 39, 40, 41, 42, 43, 44, 45,
             46, 47, 48, 49, 50, 51, 52, 53, 54, 55, 56, 57, 58, 59, 60,
             61, 62, 63, 64, 65, 66, 67, 68, 69, 70, 71, 72, 73, 74, 75,
             76, 77, 78, 79, 80, 81, 82, 83, 84, 85, 86, 87, 88, 89, 90,
             91, 92, 93, 94, 95, 96, 97, 98, 99, 100, 101, 102, 103, 104,
             105, 106, 107, 108, 109, 110, 111, 112, 113, 114, 115, 116,
             117, 118, 119, 120, 121, 122, 123, 124, 125, 126, 127, 128,
             129, 130, 131, 132, 133, 134, 135, 136, 137, 138, 139, 140,
             141, 142, 143, 144, 145, 146, 147, 148, 149, 150, 151, 152,
             153, 154, 155, 156, 157, 158, 159, 160, 161, 162, 163, 164,
             165, 166, 167, 168, 169, 170, 171, 172, 173, 174, 175, 176,
             177, 178, 179, 180, 181, 182, 183, 184, 185, 186, 187, 188,
             189, 190, 191, 192, 193, 194, 195, 196, 197, 198, 199, 200,
             201, 202, 203, 204, 205, 206, 207, 208, 209, 210, 211, 212,
             213, 214, 215, 216, 217, 218, 219, 220, 221, 222, 223, 224,
             225, 226, 227, 228, 229, 230, 231, 232, 233, 234, 235, 236,
             237, 238, 239, 240, 241, 242, 243, 244, 245, 246, 247, 248,
             249, 250, 251, 252, 253, 254, 255, 256, 257, 258, 259, 260,
             261, 262, 263, 264, 265, 266, 267, 268, 269, 270, 271, 272,
             273, 274, 275, 276, 277, 278, 279, 280, 281, 282, 283, 284,
             285, 286, 287, 288, 289, 290, 291, 292, 293, 294, 295, 296,
             297, 298, 299, 300, 301, 302, 303, 304, 305, 306, 307, 308,
             309, 310, 311, 312, 313, 314, 315, 316, 317, 318, 319, 320,
             321, 322, 323, 324, 325, 326, 327, 328, 329, 330, 331, 332,
             333, 334, 335, 336, 337, 338, 339, 340, 341, 342, 343, 344,
             345, 346, 347, 348, 349, 350, 351, 352, 353, 354, 355, 356,
             357, 358, 359, 360, 361, 362, 363, 364, 365, 366, 367, 368,
             369, 370, 371, 372, 373, 374, 375, 376, 377, 378, 379, 380,
             381, 382, 383, 384, 385, 386, 387, 388, 389, 390, 391, 392,
             393, 394, 395, 396, 397, 398, 399, 400, 401, 402, 403, 404,
             405, 406, 407, 408, 409, 410, 411, 412, 413, 414, 415, 416,
             417, 418, 419, 420, 421, 422, 423, 424, 425, 426, 427, 428,
             429, 430, 431, 432, 433, 434, 435, 436, 437, 438, 439, 440,
             441, 442, 443, 444, 445, 446, 447, 448, 449, 450, 451, 452,
             453, 454, 455, 456, 457, 458, 459, 460, 461, 462, 463, 464,
             465, 466, 467, 468, 469, 470, 471, 472, 473, 474, 475, 476,
             477, 478, 479, 480, 481, 482, 483, 484, 485, 486, 487, 488,
             489, 490, 491, 492, 493, 494, 495, 496, 497, 498, 499, 500,
             501, 502, 503, 504, 505, 506, 507, 508, 509, 510, 511, 512,
             513, 514, 515, 516, 517, 518, 519, 520, 521, 522, 523 ]
