%YAML:1.0
---
opencv_ml_svm:
   format: 3
   svmType: NU_SVC
   kernel:
      type: RBF
      gamma: 5.0625000000000009e-01
   nu: 8.9999999999999997e-02
   term_criteria: { epsilon:9.9999999999999995e-07, iterations:1000 }
   var_count: 5
   class_count: 2
   class_labels: !!opencv-matrix
      rows: 2
      cols: 1
      dt: i
      data: [ 0, 1 ]
   sv_total: 381
   support_vectors:
      - [ 6.20120354e-02, 9.99713242e-01, 9.34458137e-01, 9.04953599e-01,
          4.38319147e-02 ]
      - [ 0., 7.75458336e-01, 9.81724560e-01, 7.20545709e-01,
          9.71927147e-05 ]
      - [ 7.08456993e-01, 9.97043848e-01, 9.43964064e-01, 9.11023498e-01,
          9.71927147e-05 ]
      - [ 4.11810018e-02, 9.99403298e-01, 9.99625564e-01, 9.59563375e-01,
          1.68669205e-02 ]
      - [ 5.40680170e-01, 9.93104577e-01, 9.97540534e-01, 9.14175153e-01,
          3.35859835e-01 ]
      - [ 6.21254981e-01, 9.92984831e-01, 9.97219801e-01, 9.26149845e-01,
          1.92593094e-02 ]
      - [ 5.16029835e-01, 9.79699612e-01, 9.98665333e-01, 8.99368942e-01,
          1.18141773e-03 ]
      - [ 0., 9.48109746e-01, 9.52237725e-01, 6.71778083e-01,
          4.51303393e-01 ]
      - [ 5.12896955e-01, 9.31880355e-01, 9.94317472e-01, 6.61574066e-01,
          1.18709584e-04 ]
      - [ 4.29408073e-01, 9.99247491e-01, 9.99144912e-01, 9.28244770e-01,
          4.53313805e-06 ]
      - [ 1.14557248e-37, 9.41592038e-01, 9.00845706e-01, 8.25274765e-01,
          7.23292828e-01 ]
      - [ 7.11765945e-01, 9.98619795e-01, 8.76818895e-01, 8.56373847e-01,
          5.64304292e-01 ]
      - [ 1.28713220e-01, 9.99431789e-01, 9.97148514e-01, 9.14906383e-01,
          1.66379095e-07 ]
      - [ 8.07286680e-01, 9.99666929e-01, 9.98053908e-01, 9.58456039e-01,
          5.18030419e-08 ]
      - [ 7.53340900e-01, 9.98582006e-01, 9.98829067e-01, 9.35838938e-01,
          2.57279780e-08 ]
      - [ 9.51216757e-01, 9.97225225e-01, 9.39130247e-01, 8.65798950e-01,
          1.01284865e-08 ]
      - [ 9.86748576e-01, 9.93808925e-01, 8.75016093e-01, 9.25048709e-01,
          6.33975804e-01 ]
      - [ 8.93447518e-01, 9.61230934e-01, 9.42590296e-01, 6.99911654e-01,
          5.44294039e-07 ]
      - [ 9.98228431e-01, 9.84439075e-01, 8.81681144e-01, 9.29826915e-01,
          6.34336710e-01 ]
      - [ 6.52410328e-01, 9.25285339e-01, 9.97416735e-01, 9.58678186e-01,
          0. ]
      - [ 9.98579860e-01, 9.92343605e-01, 9.99677598e-01, 9.37248766e-01,
          0. ]
      - [ 3.25551093e-01, 8.78857732e-01, 9.97013867e-01, 9.47234094e-01,
          0. ]
      - [ 1.84734762e-01, 9.91263807e-01, 9.98912334e-01, 9.88060176e-01,
          5.91686189e-01 ]
      - [ 9.11326051e-01, 9.70032215e-01, 9.97932494e-01, 7.39752710e-01,
          2.75356114e-01 ]
      - [ 9.11274016e-01, 9.81325626e-01, 9.45133030e-01, 5.74267209e-01,
          3.53737595e-03 ]
      - [ 2.92229280e-02, 9.92525518e-01, 9.99332190e-01, 9.53699350e-01,
          2.19513737e-02 ]
      - [ 7.78660476e-01, 9.92468894e-01, 9.19226170e-01, 6.45581782e-01,
          1.65869631e-06 ]
      - [ 5.61455607e-01, 9.92614686e-01, 9.96226549e-01, 9.94762659e-01,
          1.65869631e-06 ]
      - [ 7.00763837e-02, 9.99993205e-01, 9.99095380e-01, 9.82662439e-01,
          9.35715798e-04 ]
      - [ 9.17772412e-01, 9.69241321e-01, 8.52353215e-01, 8.37714672e-01,
          6.06810272e-01 ]
      - [ 4.30722266e-01, 9.99496937e-01, 8.95559192e-01, 9.03912783e-01,
          4.46899299e-04 ]
      - [ 3.55963826e-01, 8.46771836e-01, 9.91907239e-01, 9.20747101e-01,
          3.43490283e-05 ]
      - [ 1.93561420e-01, 9.59302783e-01, 9.96047020e-01, 9.60587442e-01,
          3.27300383e-12 ]
      - [ 9.97117341e-01, 9.74566460e-01, 8.33728492e-01, 8.19787145e-01,
          4.51367229e-01 ]
      - [ 8.67899239e-01, 9.80214119e-01, 9.96014774e-01, 9.51979876e-01,
          3.50451032e-13 ]
      - [ 8.58601928e-01, 9.60281789e-01, 8.46819580e-01, 6.85992718e-01,
          2.05721736e-01 ]
      - [ 8.52246583e-01, 9.79990184e-01, 9.97027457e-01, 9.56016719e-01,
          4.01807189e-14 ]
      - [ 9.97969985e-01, 9.75913942e-01, 8.46369922e-01, 8.45646024e-01,
          4.29430753e-01 ]
      - [ 9.98515248e-01, 9.61798310e-01, 8.43474388e-01, 8.56015921e-01,
          3.60918045e-02 ]
      - [ 9.75040197e-02, 9.82426703e-01, 9.94932473e-01, 9.56010699e-01,
          7.38422836e-16 ]
      - [ 7.78075159e-01, 6.10785365e-01, 9.11760807e-01, 7.10649610e-01,
          5.37811697e-01 ]
      - [ 6.93889856e-02, 9.84108210e-01, 9.95296836e-01, 9.66415346e-01,
          2.84198720e-21 ]
      - [ 9.65404868e-01, 9.87252593e-01, 9.26357388e-01, 9.49008942e-01,
          9.46521914e-22 ]
      - [ 4.71216962e-02, 6.47702813e-01, 9.49948907e-01, 9.40117300e-01,
          1.01028614e-01 ]
      - [ 4.89344634e-03, 9.99201536e-01, 6.11162961e-01, 8.35997045e-01,
          0. ]
      - [ 1.71827599e-02, 8.89543116e-01, 6.68951273e-01, 4.21525359e-01,
          0. ]
      - [ 0., 9.57169235e-01, 9.52527761e-01, 7.78631389e-01,
          2.72578091e-05 ]
      - [ 1.91688731e-01, 9.99694169e-01, 8.60247016e-01, 8.69537830e-01,
          5.65390706e-01 ]
      - [ 3.37282958e-30, 9.99947786e-01, 8.70365798e-01, 9.20510292e-01,
          5.78007162e-01 ]
      - [ 6.12295466e-03, 9.98664141e-01, 8.86954606e-01, 8.65123451e-01,
          6.48061037e-02 ]
      - [ 5.53468406e-01, 9.99947488e-01, 8.73374879e-01, 9.11654115e-01,
          5.78014910e-01 ]
      - [ 1.57610393e-05, 9.63843405e-01, 8.44321609e-01, 9.64529216e-01,
          4.61937517e-01 ]
      - [ 9.27685201e-01, 9.48858798e-01, 8.75070155e-01, 9.83218610e-01,
          3.96008462e-01 ]
      - [ 4.19433832e-01, 9.62102532e-01, 8.62877250e-01, 9.72451746e-01,
          7.40086734e-01 ]
      - [ 7.68476427e-01, 9.49215233e-01, 8.65877092e-01, 9.46715355e-01,
          4.74408686e-01 ]
      - [ 1.35411352e-01, 9.28291023e-01, 8.65153730e-01, 9.14903581e-01,
          1. ]
      - [ 3.99082422e-01, 9.95974481e-01, 9.98976707e-01, 9.22927320e-01,
          4.74408686e-01 ]
      - [ 5.54120481e-01, 9.97828901e-01, 9.97432768e-01, 6.80800080e-01,
          8.45349506e-02 ]
      - [ 9.90725681e-02, 9.94847476e-01, 8.90859663e-01, 9.56374586e-01,
          1. ]
      - [ 6.05962753e-01, 9.51108634e-01, 8.52019489e-01, 9.75256801e-01,
          5.50230920e-01 ]
      - [ 9.93850529e-01, 9.88317072e-01, 8.70745778e-01, 9.28461254e-01,
          6.93654001e-01 ]
      - [ 3.03395927e-01, 9.59702134e-01, 8.69565785e-01, 9.75791454e-01,
          1. ]
      - [ 6.21218607e-02, 9.85732913e-01, 8.79049122e-01, 9.02361810e-01,
          6.63616836e-01 ]
      - [ 1.53021792e-42, 9.39823568e-01, 8.04825187e-01, 9.86117542e-01,
          0. ]
      - [ 5.46681941e-01, 9.85113859e-01, 8.75707567e-01, 9.25560474e-01,
          5.51494002e-01 ]
      - [ 2.66276090e-03, 8.94879699e-01, 6.20504797e-01, 9.28385019e-01,
          0. ]
      - [ 6.45843148e-01, 9.92359161e-01, 8.48278165e-01, 8.47178936e-01,
          0. ]
      - [ 8.01962242e-02, 9.99912202e-01, 9.41957414e-01, 9.81303751e-01,
          4.82762419e-02 ]
      - [ 2.16791198e-01, 9.96185660e-01, 9.58563268e-01, 8.83066714e-01,
          7.69118807e-31 ]
      - [ 2.20376939e-01, 9.88188624e-01, 6.71567082e-01, 6.01024628e-01,
          0. ]
      - [ 3.83489265e-07, 9.99886334e-01, 9.53155339e-01, 9.72545028e-01,
          7.69118807e-31 ]
      - [ 9.45860054e-03, 9.98770177e-01, 8.23388040e-01, 6.86724067e-01,
          8.19343841e-04 ]
      - [ 6.54111564e-01, 9.96049106e-01, 8.47647369e-01, 9.39391494e-01,
          8.19343841e-04 ]
      - [ 0., 5.16122460e-01, 8.53727341e-01, 9.09761310e-01,
          4.78060305e-01 ]
      - [ 2.21068244e-02, 9.99311090e-01, 8.49501848e-01, 9.16802585e-01,
          4.78060305e-01 ]
      - [ 0., 9.90033746e-01, 9.64461088e-01, 6.35649443e-01, 0. ]
      - [ 1.31974434e-02, 9.99021292e-01, 8.53087008e-01, 8.80471826e-01,
          5.91413736e-01 ]
      - [ 4.09338176e-02, 9.40380335e-01, 8.82584095e-01, 8.88909936e-01,
          1. ]
      - [ 5.23017459e-02, 9.97484446e-01, 9.99407470e-01, 9.44916546e-01,
          2.70640180e-02 ]
      - [ 1.81555763e-01, 9.85149562e-01, 8.82305682e-01, 9.06853259e-01,
          1. ]
      - [ 6.04209304e-01, 4.62881476e-01, 9.26684141e-01, 9.09395933e-01,
          5.62885165e-01 ]
      - [ 5.17480560e-02, 9.99470949e-01, 8.48754644e-01, 9.05057073e-01,
          1. ]
      - [ 5.09381533e-01, 9.98926640e-01, 8.35914135e-01, 8.83502007e-01,
          5.10224521e-01 ]
      - [ 5.45603998e-17, 5.04498541e-01, 8.81253719e-01, 8.89725149e-01,
          5.10224521e-01 ]
      - [ 8.95085782e-02, 9.99668479e-01, 9.98744547e-01, 8.93518865e-01,
          5.10224521e-01 ]
      - [ 1.92898307e-02, 9.94680882e-01, 8.82359982e-01, 8.53393197e-01,
          1. ]
      - [ 1.29588516e-05, 5.11202991e-01, 8.82424712e-01, 8.96424413e-01,
          6.33338809e-01 ]
      - [ 3.65488291e-01, 9.98908579e-01, 8.31012011e-01, 8.89534295e-01,
          6.33338809e-01 ]
      - [ 4.59713012e-01, 9.60646331e-01, 8.20837975e-01, 6.06276512e-01,
          0. ]
      - [ 4.44778707e-03, 5.02725124e-01, 8.05839241e-01, 8.68992209e-01,
          3.57403547e-01 ]
      - [ 9.31544323e-03, 9.96669352e-01, 8.78055930e-01, 8.71379256e-01,
          3.57403547e-01 ]
      - [ 3.15529078e-01, 9.97310340e-01, 8.78247857e-01, 8.68330359e-01,
          1.77341118e-01 ]
      - [ 7.72272050e-02, 9.97296333e-01, 8.08815360e-01, 8.88218939e-01,
          3.25977176e-01 ]
      - [ 1.02467231e-01, 9.98990357e-01, 8.25932741e-01, 9.25870359e-01,
          3.52664888e-01 ]
      - [ 1.19909026e-01, 9.98545945e-01, 8.29529583e-01, 8.73733461e-01,
          6.76624894e-01 ]
      - [ 7.63490330e-03, 9.95801687e-01, 9.13623095e-01, 7.91562617e-01,
          7.39475906e-01 ]
      - [ 3.58987540e-01, 9.22104001e-01, 9.99377906e-01, 9.03813660e-01,
          1.76563607e-43 ]
      - [ 0., 9.96162951e-01, 8.57497633e-01, 5.56230426e-01,
          6.09949589e-01 ]
      - [ 5.37979126e-01, 9.87811923e-01, 9.43741322e-01, 8.87537181e-01,
          0. ]
      - [ 4.96439666e-01, 9.29482818e-01, 9.68210161e-01, 8.75011027e-01,
          0. ]
      - [ 4.14209766e-03, 9.55006063e-01, 8.84457886e-01, 8.93957496e-01,
          0. ]
      - [ 3.73316929e-03, 9.67293680e-01, 8.83396685e-01, 9.53048050e-01,
          7.23523021e-01 ]
      - [ 3.41293514e-01, 9.97537673e-01, 8.53266954e-01, 8.74265134e-01,
          6.49818122e-01 ]
      - [ 7.60348022e-01, 9.61518526e-01, 8.78906667e-01, 9.16760683e-01,
          6.93581104e-01 ]
      - [ 4.41860035e-03, 9.75239515e-01, 8.67661595e-01, 9.01830196e-01,
          0. ]
      - [ 4.01522547e-01, 9.25248206e-01, 9.13831949e-01, 8.76744568e-01,
          0. ]
      - [ 5.24843395e-01, 8.74111176e-01, 9.77391481e-01, 9.29743230e-01,
          0. ]
      - [ 4.16236231e-03, 9.00316834e-01, 9.13316548e-01, 9.26843762e-01,
          0. ]
      - [ 4.15785192e-03, 9.65964615e-01, 8.91233444e-01, 9.30352807e-01,
          0. ]
      - [ 4.22134250e-03, 9.90700364e-01, 8.55885148e-01, 9.01371658e-01,
          0. ]
      - [ 0., 9.47513759e-01, 9.19193864e-01, 5.77724874e-01,
          2.76047111e-01 ]
      - [ 4.17140812e-01, 9.86402810e-01, 9.38000321e-01, 9.32843506e-01,
          2.22877390e-03 ]
      - [ 2.93977141e-01, 9.99882877e-01, 9.99857366e-01, 9.70386446e-01,
          2.22877390e-03 ]
      - [ 0., 9.00504112e-01, 8.93036604e-01, 6.00583613e-01,
          6.20043516e-01 ]
      - [ 6.56234026e-01, 9.74143505e-01, 9.52161551e-01, 9.31271970e-01,
          6.10202903e-07 ]
      - [ 9.55288529e-01, 9.86685097e-01, 8.70149791e-01, 7.00953245e-01,
          5.50932586e-01 ]
      - [ 9.58580375e-01, 9.83874500e-01, 9.14942324e-01, 6.56424284e-01,
          8.35532010e-01 ]
      - [ 9.61042702e-01, 9.39264715e-01, 8.79630744e-01, 7.25584030e-01,
          7.08956599e-01 ]
      - [ 3.27371294e-03, 9.98587251e-01, 8.84040594e-01, 6.50039077e-01,
          6.06021643e-01 ]
      - [ 9.88548577e-01, 8.95962358e-01, 8.89331400e-01, 8.43753874e-01,
          6.06021643e-01 ]
      - [ 9.63216424e-01, 9.94173944e-01, 8.88893545e-01, 9.60577607e-01,
          6.78206921e-01 ]
      - [ 5.04973471e-01, 8.20927322e-01, 8.85987163e-01, 7.84747958e-01,
          6.78206921e-01 ]
      - [ 9.64923203e-01, 9.41641092e-01, 9.03458953e-01, 8.47080946e-01,
          6.93227828e-01 ]
      - [ 9.75831270e-01, 9.35355127e-01, 8.98278654e-01, 6.50130808e-01,
          5.78113198e-01 ]
      - [ 9.82580483e-01, 9.17086542e-01, 8.91687155e-01, 5.84321439e-01,
          5.51055849e-01 ]
      - [ 5.85087121e-01, 8.93867552e-01, 9.98499572e-01, 9.17319655e-01,
          0. ]
      - [ 8.88630688e-01, 9.82581854e-01, 8.13808739e-01, 8.43250990e-01,
          0. ]
      - [ 1.24634281e-01, 9.98918831e-01, 9.98175502e-01, 9.66120899e-01,
          4.28958749e-03 ]
      - [ 1.07229203e-01, 9.98192489e-01, 9.98616397e-01, 9.64681804e-01,
          9.91654000e-04 ]
      - [ 5.57016969e-01, 9.31197584e-01, 9.93905783e-01, 9.58218217e-01,
          0. ]
      - [ 4.45411261e-03, 9.46565032e-01, 9.92545843e-01, 9.77141500e-01,
          0. ]
      - [ 9.48321640e-01, 8.88379693e-01, 8.32307220e-01, 9.58178163e-01,
          0. ]
      - [ 5.40592968e-01, 9.30410206e-01, 9.95535731e-01, 9.72468257e-01,
          0. ]
      - [ 6.49459779e-01, 9.61273789e-01, 8.48698437e-01, 8.86689603e-01,
          4.08687055e-01 ]
      - [ 5.15956938e-01, 9.70440328e-01, 9.59065855e-01, 7.73607910e-01,
          0. ]
      - [ 4.45732951e-01, 8.83573651e-01, 9.94616151e-01, 8.09367478e-01,
          0. ]
      - [ 9.90577281e-01, 9.90820467e-01, 8.33621502e-01, 9.25178170e-01,
          0. ]
      - [ 6.17683642e-02, 9.88052070e-01, 8.49416196e-01, 9.19842064e-01,
          0. ]
      - [ 6.88010275e-01, 9.22353268e-01, 8.52516890e-01, 7.40489483e-01,
          6.06051743e-01 ]
      - [ 4.92470682e-01, 9.92986560e-01, 8.48841727e-01, 7.37513900e-01,
          0. ]
      - [ 4.52283710e-01, 9.87396777e-01, 8.17376673e-01, 7.98806608e-01,
          4.99058694e-01 ]
      - [ 7.04620183e-01, 8.74165773e-01, 9.05897796e-01, 6.71279430e-01,
          1.60960868e-01 ]
      - [ 7.04634488e-01, 8.62482727e-01, 9.06938136e-01, 6.58037841e-01,
          3.04677635e-02 ]
      - [ 7.04632699e-01, 8.69220555e-01, 9.69839096e-01, 6.49225175e-01,
          8.96651577e-03 ]
      - [ 7.04614639e-01, 9.21507239e-01, 9.14179265e-01, 6.57765508e-01,
          1.54006784e-03 ]
      - [ 5.47362506e-01, 9.90620017e-01, 9.02686477e-01, 9.43317115e-01,
          0. ]
      - [ 9.72930133e-01, 9.33797419e-01, 8.48783612e-01, 8.28476727e-01,
          6.34659052e-01 ]
      - [ 8.97220612e-01, 9.79058206e-01, 9.21269059e-01, 5.85997820e-01,
          2.77035832e-02 ]
      - [ 5.50111353e-01, 9.96149838e-01, 9.25547898e-01, 9.29157734e-01,
          0. ]
      - [ 6.89168513e-01, 9.93657410e-01, 8.28537345e-01, 9.55327034e-01,
          4.06685919e-01 ]
      - [ 9.76268172e-01, 9.34827089e-01, 8.29560697e-01, 9.02235985e-01,
          4.06685919e-01 ]
      - [ 9.18374121e-01, 9.76473033e-01, 9.98881459e-01, 9.52090383e-01,
          4.06685919e-01 ]
      - [ 8.42501700e-01, 9.95141685e-01, 7.98580229e-01, 8.96805167e-01,
          1.76542415e-03 ]
      - [ 9.76358235e-01, 9.80672956e-01, 8.20283771e-01, 6.52148843e-01,
          3.05730885e-09 ]
      - [ 7.71395862e-01, 9.75104570e-01, 8.19995046e-01, 7.20493793e-01,
          1.56799316e-01 ]
      - [ 9.18094575e-01, 9.95922446e-01, 9.49867964e-01, 5.89509249e-01,
          6.63847935e-11 ]
      - [ 9.76241350e-01, 9.96442378e-01, 8.65889549e-01, 7.46157825e-01,
          1.99683325e-11 ]
      - [ 9.18083310e-01, 9.96119142e-01, 8.66178632e-01, 7.87461579e-01,
          5.09682270e-12 ]
      - [ 6.75804496e-01, 9.78528142e-01, 8.98088813e-01, 8.79219532e-01,
          0. ]
      - [ 8.54846239e-01, 9.90258694e-01, 8.41941893e-01, 9.37432528e-01,
          2.26016006e-08 ]
      - [ 7.99075902e-01, 9.94866848e-01, 8.12440157e-01, 8.66247177e-01,
          0. ]
      - [ 8.44792485e-01, 9.97097611e-01, 7.82431066e-01, 8.11126411e-01,
          0. ]
      - [ 0., 9.53051567e-01, 8.33708525e-01, 6.67407572e-01, 0. ]
      - [ 2.70745050e-24, 9.98295724e-01, 8.86394083e-01, 8.60575080e-01,
          6.47928894e-01 ]
      - [ 1.43706129e-04, 9.20487940e-01, 8.93456697e-01, 7.01556861e-01,
          0. ]
      - [ 7.33879924e-01, 9.97534990e-01, 8.71427596e-01, 8.84799182e-01,
          5.50388813e-01 ]
      - [ 0., 9.50271904e-01, 8.09579730e-01, 6.66586399e-01, 0. ]
      - [ 0., 6.95996761e-01, 9.55780685e-01, 6.89602613e-01, 0. ]
      - [ 4.91676480e-01, 9.60087836e-01, 7.61328638e-01, 8.05189431e-01,
          0. ]
      - [ 6.12146080e-01, 9.77012813e-01, 9.33139741e-01, 8.77944410e-01,
          0. ]
      - [ 4.91634220e-01, 9.44810510e-01, 7.61302650e-01, 8.37711632e-01,
          0. ]
      - [ 4.92749393e-01, 9.93306041e-01, 7.48301804e-01, 8.85697603e-01,
          0. ]
      - [ 1.06008025e-02, 9.47757065e-01, 8.23885918e-01, 8.53517175e-01,
          2.83310086e-01 ]
      - [ 4.99626130e-01, 9.66976583e-01, 8.58690441e-01, 9.20272768e-01,
          0. ]
      - [ 8.00816342e-02, 9.63601291e-01, 9.12877381e-01, 8.93646359e-01,
          2.76223533e-02 ]
      - [ 5.10130048e-01, 9.57042933e-01, 8.83822381e-01, 9.09644961e-01,
          0. ]
      - [ 7.74170220e-01, 9.29953396e-01, 8.82491767e-01, 8.53514075e-01,
          0. ]
      - [ 2.69570231e-01, 9.12910759e-01, 8.42345655e-01, 9.27731156e-01,
          0. ]
      - [ 1.15824848e-01, 9.15016532e-01, 9.22943413e-01, 8.65750730e-01,
          4.24298123e-02 ]
      - [ 0., 9.49019909e-01, 6.23512685e-01, 8.62754703e-01, 0. ]
      - [ 0., 9.15914774e-01, 9.47633028e-01, 4.84158397e-01, 0. ]
      - [ 4.97254312e-01, 7.92905688e-01, 9.43360627e-01, 9.52586412e-01,
          0. ]
      - [ 6.25346661e-01, 8.33402634e-01, 8.91692579e-01, 9.10622418e-01,
          6.34147286e-01 ]
      - [ 6.17031753e-01, 9.61471140e-01, 9.64078009e-01, 3.71564269e-01,
          0. ]
      - [ 4.91820216e-01, 8.79486978e-01, 9.81126666e-01, 9.53444004e-01,
          0. ]
      - [ 4.91652459e-01, 9.77948844e-01, 9.35829222e-01, 9.37976241e-01,
          0. ]
      - [ 0., 9.54989970e-01, 8.15368235e-01, 8.56069326e-01, 0. ]
      - [ 0., 9.68703568e-01, 8.70916784e-01, 8.59001815e-01,
          1.87381953e-01 ]
      - [ 4.95348871e-01, 9.53943968e-01, 8.18939269e-01, 9.18778121e-01,
          0. ]
      - [ 5.05205870e-01, 9.91953254e-01, 8.95824969e-01, 8.86140704e-01,
          0. ]
      - [ 5.93069553e-01, 9.96862710e-01, 8.97059202e-01, 9.19139922e-01,
          0. ]
      - [ 9.71676409e-01, 9.33245718e-01, 8.66196394e-01, 9.48463142e-01,
          5.32649867e-02 ]
      - [ 4.76936609e-01, 9.92584705e-01, 8.68071377e-01, 9.55404878e-01,
          5.63533127e-01 ]
      - [ 9.49111342e-01, 9.75211263e-01, 8.63825560e-01, 9.42337096e-01,
          4.23336551e-02 ]
      - [ 9.04870749e-01, 8.03862214e-01, 9.03260350e-01, 5.72176993e-01,
          0. ]
      - [ 1.09537756e-02, 9.91263986e-01, 8.62434924e-01, 8.95402491e-01,
          3.35687264e-06 ]
      - [ 1.40168741e-01, 9.73818719e-01, 8.48405302e-01, 9.58842099e-01,
          2.86514554e-02 ]
      - [ 4.80311364e-03, 9.96497512e-01, 9.18142974e-01, 9.41266060e-01,
          0. ]
      - [ 1.58710238e-02, 9.90030289e-01, 9.99372244e-01, 8.74250531e-01,
          5.86214215e-02 ]
      - [ 8.08556437e-01, 9.85891521e-01, 8.52331042e-01, 9.56775069e-01,
          3.36751044e-02 ]
      - [ 1.31203175e-01, 8.37952435e-01, 8.90803754e-01, 5.40841460e-01,
          8.55775113e-08 ]
      - [ 7.75542080e-01, 9.88600075e-01, 8.40762913e-01, 9.64025080e-01,
          4.81491350e-02 ]
      - [ 6.76368117e-01, 9.89738047e-01, 8.81976604e-01, 7.92000949e-01,
          4.50264770e-06 ]
      - [ 5.45786440e-01, 9.94342387e-01, 8.97311807e-01, 8.65116179e-01,
          0. ]
      - [ 5.75745344e-01, 9.95414913e-01, 8.95641983e-01, 8.83046389e-01,
          0. ]
      - [ 2.11852312e-01, 9.69621658e-01, 8.46193850e-01, 8.46028745e-01,
          1.57972015e-02 ]
      - [ 5.00641227e-01, 9.94740188e-01, 8.95774662e-01, 8.37619722e-01,
          0. ]
      - [ 8.68292034e-01, 9.35437381e-01, 8.12305510e-01, 9.81633842e-01,
          0. ]
      - [ 9.00587380e-01, 8.31034780e-01, 8.79612982e-01, 8.82797837e-01,
          5.24873435e-01 ]
      - [ 8.91108990e-01, 9.41738427e-01, 8.50546122e-01, 8.50436151e-01,
          4.51433718e-01 ]
      - [ 9.99042690e-01, 9.71633494e-01, 8.28894734e-01, 9.31467056e-01,
          4.51433718e-01 ]
      - [ 9.59752679e-01, 9.38640773e-01, 9.19827759e-01, 9.32912052e-01,
          9.52511670e-09 ]
      - [ 7.40070283e-01, 8.73028994e-01, 8.33186865e-01, 8.50366175e-01,
          1.76686123e-01 ]
      - [ 2.56098270e-01, 9.39066172e-01, 8.44984710e-01, 3.90488893e-01,
          0. ]
      - [ 7.70808756e-01, 9.66102600e-01, 8.24831724e-01, 9.28493321e-01,
          4.32824221e-04 ]
      - [ 2.32172832e-01, 9.97661829e-01, 9.96694922e-01, 9.45971608e-01,
          4.32824221e-04 ]
      - [ 7.69525528e-01, 9.47342932e-01, 9.63652253e-01, 9.72167194e-01,
          1.42926292e-04 ]
      - [ 1.46301127e-09, 8.92152786e-01, 9.46759164e-01, 5.49126506e-01,
          0. ]
      - [ 4.09117281e-01, 8.47242415e-01, 8.84338856e-01, 9.28621411e-01,
          8.32790607e-12 ]
      - [ 2.14822039e-01, 9.40864742e-01, 7.58614838e-01, 8.61656666e-01,
          1.14469945e-01 ]
      - [ 1.03392102e-01, 9.49388444e-01, 9.99145925e-01, 8.56168270e-01,
          0. ]
      - [ 5.78396618e-01, 9.91566956e-01, 7.96339691e-01, 7.44578660e-01,
          6.82811663e-02 ]
      - [ 3.73189032e-01, 9.90859210e-01, 8.57991517e-01, 6.93648994e-01,
          2.90529519e-01 ]
      - [ 8.79778326e-01, 9.79134023e-01, 8.82689118e-01, 6.85170174e-01,
          5.11221707e-01 ]
      - [ 7.30565548e-01, 9.98797596e-01, 9.23256516e-01, 8.89566481e-01,
          2.27550883e-02 ]
      - [ 9.99595046e-01, 9.63784873e-01, 8.81179035e-01, 8.11685503e-01,
          1.17563799e-01 ]
      - [ 7.64039934e-01, 9.40504909e-01, 8.80290389e-01, 8.34902644e-01,
          1. ]
      - [ 8.56209099e-01, 9.79432285e-01, 8.27596903e-01, 8.31736684e-01,
          5.59542716e-01 ]
      - [ 8.61028850e-01, 9.42058563e-01, 8.69383335e-01, 7.96150327e-01,
          5.59542716e-01 ]
      - [ 7.57042527e-01, 9.44198728e-01, 8.69219124e-01, 8.75571728e-01,
          3.68356615e-01 ]
      - [ 1.81043622e-04, 9.78978515e-01, 7.92179048e-01, 8.79904926e-01,
          3.68356615e-01 ]
      - [ 7.49214709e-01, 9.69202518e-01, 8.67191315e-01, 9.41383004e-01,
          3.98532301e-01 ]
      - [ 9.03019249e-01, 9.18856561e-01, 8.99322033e-01, 9.47886109e-01,
          5.52398264e-01 ]
      - [ 7.56246209e-01, 9.93980169e-01, 8.61885905e-01, 8.20220828e-01,
          4.36071306e-02 ]
      - [ 9.76800978e-01, 9.88886058e-01, 8.71074021e-01, 9.13478613e-01,
          4.79326360e-02 ]
      - [ 8.12801063e-01, 9.93159413e-01, 8.03323150e-01, 6.71792924e-01,
          3.96251380e-02 ]
      - [ 8.61681759e-01, 9.91551936e-01, 8.71051192e-01, 8.30075860e-01,
          3.96251380e-02 ]
      - [ 8.27946723e-01, 9.81205523e-01, 9.59128439e-01, 8.41840863e-01,
          9.92291825e-06 ]
      - [ 8.14374208e-01, 9.90622044e-01, 8.71419132e-01, 8.53006721e-01,
          8.08257610e-02 ]
      - [ 8.32463920e-01, 9.98420298e-01, 8.77414644e-01, 8.37109685e-01,
          2.84722596e-01 ]
      - [ 8.29301536e-01, 9.87477243e-01, 8.78845096e-01, 8.51800799e-01,
          4.76520211e-01 ]
      - [ 9.74884748e-01, 9.92367983e-01, 8.71257961e-01, 8.89216065e-01,
          4.76520211e-01 ]
      - [ 8.31840217e-01, 9.89170611e-01, 8.77964556e-01, 8.54929209e-01,
          8.63796696e-02 ]
      - [ 1.19755134e-01, 9.93372619e-01, 9.54045653e-01, 9.01079237e-01,
          1.26469359e-02 ]
      - [ 8.80697906e-01, 9.90665078e-01, 8.70778620e-01, 8.40904236e-01,
          2.47119412e-01 ]
      - [ 9.71251130e-01, 9.90807295e-01, 8.71379673e-01, 8.98437381e-01,
          2.52604306e-01 ]
      - [ 6.47963762e-01, 9.95738149e-01, 9.67194855e-01, 9.13246214e-01,
          8.23712035e-05 ]
      - [ 8.32063913e-01, 9.88838017e-01, 8.71652424e-01, 8.52678418e-01,
          8.57061744e-02 ]
      - [ 8.30490410e-01, 9.94401217e-01, 8.06695640e-01, 9.04151559e-01,
          8.23712035e-05 ]
      - [ 8.34987819e-01, 9.88017976e-01, 8.71248841e-01, 8.25955987e-01,
          3.07788193e-01 ]
      - [ 8.40547085e-01, 9.88982618e-01, 8.70877683e-01, 8.13080072e-01,
          1.75989300e-01 ]
      - [ 9.72469568e-01, 9.92482960e-01, 8.71291876e-01, 9.14107144e-01,
          7.95262586e-03 ]
      - [ 9.81679618e-01, 9.64150786e-01, 8.99246275e-01, 9.09678638e-01,
          7.95262586e-03 ]
      - [ 8.53264689e-01, 9.82953608e-01, 8.32647383e-01, 9.29528356e-01,
          3.35366815e-01 ]
      - [ 7.24718928e-01, 9.96527016e-01, 8.88610780e-01, 9.16615188e-01,
          3.02407928e-02 ]
      - [ 7.36360908e-01, 9.98038352e-01, 8.93782496e-01, 8.08559716e-01,
          7.58395065e-03 ]
      - [ 8.59836221e-01, 9.99596238e-01, 8.81611109e-01, 9.71016347e-01,
          0. ]
      - [ 7.34150231e-01, 9.95093405e-01, 8.85255814e-01, 8.76737833e-01,
          0. ]
      - [ 8.87174666e-01, 9.89489615e-01, 8.89926553e-01, 8.74822438e-01,
          1. ]
      - [ 7.38323271e-01, 9.92317677e-01, 8.90544355e-01, 8.57955158e-01,
          5.37608922e-01 ]
      - [ 8.69809628e-01, 9.91109014e-01, 8.89838278e-01, 8.59236717e-01,
          1. ]
      - [ 8.77791286e-01, 9.92112815e-01, 8.87496173e-01, 8.55369627e-01,
          6.27274990e-01 ]
      - [ 8.72409165e-01, 9.85313118e-01, 8.92661870e-01, 9.09470916e-01,
          6.35330975e-01 ]
      - [ 8.72280180e-01, 9.90163505e-01, 9.48382318e-01, 9.01634872e-01,
          5.00217080e-01 ]
      - [ 7.63315141e-01, 9.99044716e-01, 9.12710845e-01, 9.06053543e-01,
          8.34772527e-01 ]
      - [ 5.21329403e-01, 9.89594579e-01, 8.94240260e-01, 8.16550136e-01,
          3.27227503e-01 ]
      - [ 5.92849731e-01, 9.95089948e-01, 9.06555176e-01, 9.13559914e-01,
          7.39379227e-01 ]
      - [ 0., 5.63259006e-01, 5.93301356e-01, 9.16120112e-01, 0. ]
      - [ 8.56786072e-02, 9.23361361e-01, 8.80539894e-01, 6.11473203e-01,
          0. ]
      - [ 2.44493094e-05, 9.97257292e-01, 8.53206635e-01, 8.89792383e-01,
          1.11151099e-01 ]
      - [ 2.18565929e-05, 8.64379227e-01, 8.55691075e-01, 9.34075475e-01,
          4.62505728e-01 ]
      - [ 8.90090823e-01, 9.87245321e-01, 8.18933666e-01, 7.81009614e-01,
          4.62505728e-01 ]
      - [ 5.03255963e-01, 9.18166339e-01, 7.86729157e-01, 7.70734251e-01,
          3.84800956e-02 ]
      - [ 9.51546609e-01, 9.89005923e-01, 8.23242426e-01, 8.17294478e-01,
          4.39174235e-01 ]
      - [ 8.01826239e-01, 8.59589279e-01, 8.47600579e-01, 9.11327899e-01,
          5.52216589e-01 ]
      - [ 8.88581097e-01, 9.95372832e-01, 9.98954356e-01, 7.76709259e-01,
          1.40419661e-05 ]
      - [ 7.43742168e-01, 9.17895734e-01, 8.60506892e-01, 7.99406767e-01,
          1.40419661e-05 ]
      - [ 3.66466165e-01, 9.48000073e-01, 7.82741070e-01, 8.74357045e-01,
          1.24259847e-09 ]
      - [ 9.07010853e-01, 9.64101553e-01, 9.53434527e-01, 8.64644587e-01,
          1.99012570e-02 ]
      - [ 8.89851093e-01, 9.78741527e-01, 9.16008949e-01, 9.13915992e-01,
          6.05899096e-01 ]
      - [ 8.90044034e-01, 9.95548427e-01, 9.95382547e-01, 7.30100393e-01,
          4.38463849e-06 ]
      - [ 3.84881124e-02, 9.25833881e-01, 8.25658500e-01, 9.00048137e-01,
          6.44977391e-03 ]
      - [ 9.44553852e-01, 9.91298258e-01, 9.98391807e-01, 9.05381024e-01,
          6.44977391e-03 ]
      - [ 9.76412058e-01, 9.96213317e-01, 8.22499692e-01, 9.27485228e-01,
          1.09611638e-02 ]
      - [ 8.89237583e-01, 9.98939991e-01, 9.93457437e-01, 7.88798273e-01,
          3.56576675e-05 ]
      - [ 7.08932817e-01, 9.91344869e-01, 8.31074893e-01, 9.42993999e-01,
          1.09611638e-02 ]
      - [ 7.16911256e-01, 9.54538822e-01, 8.59908998e-01, 7.08336234e-01,
          4.24478874e-02 ]
      - [ 9.86495972e-01, 9.93010938e-01, 9.98882353e-01, 9.44553554e-01,
          2.38964960e-04 ]
      - [ 9.61093187e-01, 9.37694013e-01, 8.31813931e-01, 8.53853464e-01,
          5.13877894e-04 ]
      - [ 6.51652217e-01, 9.59633708e-01, 9.09293830e-01, 8.45325351e-01,
          3.71214449e-02 ]
      - [ 7.42933929e-01, 9.91412818e-01, 9.23023164e-01, 8.23698282e-01,
          1.88714087e-01 ]
      - [ 9.87044334e-01, 9.96592820e-01, 8.26537907e-01, 9.29241121e-01,
          1.78980599e-07 ]
      - [ 9.78160501e-01, 9.95500028e-01, 8.25711071e-01, 9.03722703e-01,
          8.88981475e-08 ]
      - [ 8.90724242e-01, 9.97285724e-01, 9.93463099e-01, 8.36294591e-01,
          4.37803045e-02 ]
      - [ 9.74292755e-01, 9.79138613e-01, 7.81915247e-01, 9.16717529e-01,
          1.98954542e-09 ]
      - [ 9.72667098e-01, 9.96108651e-01, 8.31631720e-01, 8.67836595e-01,
          3.64683867e-01 ]
      - [ 7.91837275e-01, 9.23212349e-01, 8.17090988e-01, 8.07117403e-01,
          1.44868318e-04 ]
      - [ 9.74418461e-01, 9.67481494e-01, 9.99468327e-01, 8.98594499e-01,
          2.86134779e-02 ]
      - [ 8.42953801e-01, 9.40256476e-01, 9.20939684e-01, 7.98641682e-01,
          6.78655982e-01 ]
      - [ 8.83584023e-01, 9.53345120e-01, 8.32476914e-01, 7.42290199e-01,
          5.12066763e-03 ]
      - [ 8.97012711e-01, 9.91963565e-01, 8.56480777e-01, 8.21394801e-01,
          2.26260236e-04 ]
      - [ 9.51072795e-24, 8.71336877e-01, 8.94772470e-01, 6.83475912e-01,
          0. ]
      - [ 9.07496512e-01, 9.95851219e-01, 9.63292301e-01, 8.07204068e-01,
          2.85739787e-02 ]
      - [ 2.74675971e-23, 8.72101188e-01, 8.95493031e-01, 6.85761571e-01,
          0. ]
      - [ 8.26249063e-01, 8.96784067e-01, 7.68486738e-01, 7.87247896e-01,
          0. ]
      - [ 7.56263673e-01, 9.72257495e-01, 9.24423158e-01, 8.30322683e-01,
          6.63160086e-01 ]
      - [ 8.90711546e-01, 8.54255199e-01, 7.96082199e-01, 8.19272637e-01,
          0. ]
      - [ 0., 9.53998148e-01, 8.61392438e-01, 6.52465105e-01, 0. ]
      - [ 8.26391101e-01, 9.71622348e-01, 9.15678382e-01, 8.23625922e-01,
          4.86931026e-01 ]
      - [ 0., 9.39478040e-01, 9.22624826e-01, 6.67947888e-01, 0. ]
      - [ 7.43921161e-01, 9.75065529e-01, 9.16647911e-01, 8.08478951e-01,
          6.33603275e-01 ]
      - [ 8.42854261e-01, 8.69904876e-01, 7.94078887e-01, 8.14650774e-01,
          0. ]
      - [ 9.75826383e-01, 9.25056696e-01, 7.62294233e-01, 9.87337589e-01,
          1.55425255e-08 ]
      - [ 7.52524078e-01, 9.89216328e-01, 9.60184634e-01, 9.32582140e-01,
          0. ]
      - [ 9.78467524e-01, 9.17670190e-01, 9.18540597e-01, 9.78652358e-01,
          8.34768042e-02 ]
      - [ 5.59278667e-01, 9.98303413e-01, 9.97712433e-01, 6.80717349e-01,
          2.59201787e-02 ]
      - [ 9.67123926e-01, 9.96166587e-01, 8.93660903e-01, 8.92409325e-01,
          1.29550621e-02 ]
      - [ 7.52019763e-01, 9.93829846e-01, 9.42196190e-01, 9.25463557e-01,
          5.64807002e-03 ]
      - [ 8.53374839e-01, 8.57869387e-01, 9.35845315e-01, 9.34780002e-01,
          0. ]
      - [ 6.56174183e-01, 9.96195853e-01, 9.42686439e-01, 9.36512291e-01,
          2.46112607e-03 ]
      - [ 5.50118148e-01, 9.76434290e-01, 8.76231909e-01, 6.44277573e-01,
          0. ]
      - [ 8.63510251e-01, 9.93194759e-01, 8.76151323e-01, 8.98088694e-01,
          3.94078932e-04 ]
      - [ 9.55431223e-01, 9.98212397e-01, 9.21136796e-01, 8.48880291e-01,
          2.75796473e-01 ]
      - [ 6.47428989e-01, 9.78620470e-01, 9.61412072e-01, 8.99804294e-01,
          0. ]
      - [ 5.01767337e-01, 7.72156715e-01, 9.57965612e-01, 9.69676733e-01,
          3.05230524e-02 ]
      - [ 3.50585073e-01, 9.99222517e-01, 9.39280450e-01, 8.05423915e-01,
          3.05230524e-02 ]
      - [ 8.49004865e-01, 9.79156971e-01, 9.82379258e-01, 9.08026934e-01,
          0. ]
      - [ 5.80708146e-01, 9.78613019e-01, 9.61746335e-01, 9.01133776e-01,
          0. ]
      - [ 4.52203631e-01, 7.79888213e-01, 9.72454906e-01, 9.22908783e-01,
          3.95618200e-01 ]
      - [ 7.92970181e-01, 9.79914606e-01, 9.61835861e-01, 8.92981529e-01,
          0. ]
      - [ 8.05363417e-01, 9.65264142e-01, 9.64689612e-01, 9.52584326e-01,
          0. ]
      - [ 7.66840100e-01, 9.81162250e-01, 9.62191701e-01, 8.94693255e-01,
          0. ]
      - [ 5.97840905e-01, 9.98959124e-01, 6.52850151e-01, 9.28340018e-01,
          0. ]
      - [ 9.72417653e-01, 8.00272226e-01, 9.99460876e-01, 9.19741929e-01,
          1.26070172e-01 ]
      - [ 4.93240744e-01, 8.58227015e-01, 9.63759005e-01, 9.60485399e-01,
          0. ]
      - [ 6.68754280e-01, 8.98691833e-01, 9.98457313e-01, 9.15384114e-01,
          1.26070172e-01 ]
      - [ 6.21276677e-01, 9.97594655e-01, 8.51901591e-01, 9.45269883e-01,
          0. ]
      - [ 8.36273849e-01, 9.96162832e-01, 9.00565505e-01, 9.83401418e-01,
          3.54705483e-01 ]
      - [ 2.33339161e-01, 9.97578025e-01, 8.91335607e-01, 9.18619394e-01,
          4.87322927e-01 ]
      - [ 5.70148192e-02, 8.91025543e-01, 9.18296874e-01, 9.55683529e-01,
          0. ]
      - [ 4.54167426e-02, 9.99074221e-01, 9.31235492e-01, 8.87493193e-01,
          4.18434709e-01 ]
      - [ 7.50928521e-01, 9.99622047e-01, 9.98364687e-01, 8.94075334e-01,
          2.67048422e-02 ]
      - [ 6.71835482e-01, 9.12654698e-01, 9.96831596e-01, 8.85258913e-01,
          2.47494318e-04 ]
      - [ 2.51936257e-01, 8.47198427e-01, 5.90343058e-01, 8.96906018e-01,
          0. ]
      - [ 5.04234910e-01, 9.77265477e-01, 9.72924292e-01, 8.08313966e-01,
          0. ]
      - [ 1.82360203e-11, 8.44588101e-01, 5.90415061e-01, 9.15207684e-01,
          0. ]
      - [ 8.88456523e-01, 9.51388001e-01, 9.23734725e-01, 8.08058858e-01,
          0. ]
      - [ 6.16924107e-01, 9.99450684e-01, 9.98995245e-01, 9.00349319e-01,
          1.65200981e-05 ]
      - [ 9.63825226e-01, 9.86540139e-01, 9.93017256e-01, 9.40890610e-01,
          1.65200981e-05 ]
      - [ 6.97577477e-01, 8.78739655e-01, 9.98887956e-01, 9.01583374e-01,
          1.65200981e-05 ]
      - [ 2.91235238e-01, 9.99749303e-01, 9.99142468e-01, 8.92328322e-01,
          1.65200981e-05 ]
      - [ 7.22070694e-01, 9.99232233e-01, 9.27755833e-01, 8.13744903e-01,
          2.34530158e-02 ]
      - [ 9.43114638e-01, 9.58888352e-01, 9.97767389e-01, 8.22183490e-01,
          2.34530158e-02 ]
      - [ 8.62874210e-01, 9.99836206e-01, 9.28771138e-01, 9.08431470e-01,
          4.87353683e-01 ]
      - [ 9.04845595e-01, 9.99462306e-01, 9.98130143e-01, 9.00207162e-01,
          3.78739694e-03 ]
      - [ 5.57499751e-03, 9.90122437e-01, 9.99613285e-01, 7.71801531e-01,
          3.78739694e-03 ]
      - [ 9.20905054e-01, 9.76732016e-01, 8.55371714e-01, 8.69283140e-01,
          4.51363891e-01 ]
      - [ 9.86178875e-01, 9.85118508e-01, 8.94323468e-01, 8.49691093e-01,
          4.04854834e-01 ]
      - [ 7.25958228e-01, 9.31747437e-01, 9.10503030e-01, 9.00320947e-01,
          1.17819667e-01 ]
      - [ 1.60289361e-04, 8.70912611e-01, 9.28444743e-01, 8.10518682e-01,
          4.50158209e-01 ]
      - [ 0., 9.48051035e-01, 9.28878605e-01, 8.68058741e-01,
          1.34154886e-01 ]
      - [ 4.56870288e-01, 9.89751518e-01, 9.98901367e-01, 7.65313804e-01,
          1.30318016e-01 ]
      - [ 6.73274577e-01, 8.91034305e-01, 9.99010146e-01, 8.97557020e-01,
          1.76928937e-01 ]
      - [ 3.98172736e-01, 6.37997627e-01, 9.22554672e-01, 9.07241523e-01,
          0. ]
      - [ 7.82376707e-01, 6.56724453e-01, 9.96185899e-01, 8.56804073e-01,
          2.25324541e-01 ]
      - [ 9.78328049e-01, 9.92607653e-01, 8.73967528e-01, 6.62107170e-01,
          4.87990230e-01 ]
      - [ 9.47213829e-01, 5.21406174e-01, 9.80569780e-01, 8.37480426e-01,
          7.14620081e-14 ]
      - [ 2.92230714e-02, 9.99462008e-01, 9.12418783e-01, 9.54621851e-01,
          4.74432766e-01 ]
      - [ 6.95972800e-01, 9.95968461e-01, 8.45989645e-01, 7.59787679e-01,
          4.74432766e-01 ]
      - [ 6.26498222e-01, 9.96774912e-01, 9.22427416e-01, 9.49253380e-01,
          4.98843968e-01 ]
      - [ 0., 9.62905586e-01, 9.03632402e-01, 7.85843074e-01,
          4.98843968e-01 ]
      - [ 9.80578840e-01, 9.66281533e-01, 8.50303054e-01, 6.65400267e-01,
          4.98843968e-01 ]
      - [ 9.80875373e-01, 9.97341931e-01, 9.01942611e-01, 7.64591455e-01,
          8.33650753e-02 ]
      - [ 7.23362505e-01, 9.84619260e-01, 9.97680545e-01, 8.93878698e-01,
          3.48461233e-02 ]
      - [ 5.48072338e-01, 9.95893896e-01, 8.51543188e-01, 7.19280303e-01,
          3.71787213e-02 ]
      - [ 4.05299008e-01, 9.98660147e-01, 7.27256298e-01, 5.94928503e-01,
          6.71515067e-04 ]
      - [ 7.26960778e-01, 9.70121801e-01, 9.98454690e-01, 8.80445957e-01,
          3.71787213e-02 ]
      - [ 7.77936280e-01, 9.87554073e-01, 9.99456167e-01, 8.32500994e-01,
          3.71787213e-02 ]
      - [ 7.39769697e-01, 9.76993740e-01, 9.97937739e-01, 8.94714594e-01,
          7.31936693e-02 ]
      - [ 4.17644262e-01, 9.84710276e-01, 8.47932220e-01, 8.03833961e-01,
          1.00927234e-01 ]
      - [ 3.27803254e-01, 9.93393004e-01, 9.99471247e-01, 7.49540389e-01,
          1.00927234e-01 ]
   decision_functions:
      -
         sv_count: 381
         rho: 1.2087882917538542e+00
         alpha: [ 2.1496695374017006e+02, 3.9155642697815850e+01,
             1.1489192669038709e+02, 2.1496695374017006e+02,
             2.1496695374017006e+02, 2.1496695374017006e+02,
             2.1496695374017006e+02, 2.1496695374017006e+02,
             2.1496695374017006e+02, 2.1496695374017006e+02,
             2.1496695374017006e+02, 2.1496695374017006e+02,
             2.1496695374017006e+02, 7.0734873910761905e+01,
             2.1496695374017006e+02, 2.1496695374017006e+02,
             2.1496695374017006e+02, 2.1496695374017006e+02,
             2.1496695374017006e+02, 2.1496695374017006e+02,
             2.1496695374017006e+02, 2.1496695374017006e+02,
             2.0561426545959500e+02, 2.1496695374017006e+02,
             2.1496695374017006e+02, 2.1496695374017006e+02,
             2.1496695374017006e+02, 2.1496695374017006e+02,
             1.3256937942444980e+01, 2.1496695374017006e+02,
             1.1320344619418481e+02, 2.1496695374017006e+02,
             2.1496695374017006e+02, 8.8061070040379519e+01,
             2.1496695374017006e+02, 2.3996159927992217e+01,
             2.1496695374017006e+02, 2.1496695374017006e+02,
             1.1919211930841337e+02, 2.1496695374017006e+02,
             2.1496695374017006e+02, 2.1496695374017006e+02,
             2.1496695374017006e+02, 2.1496695374017006e+02,
             2.1496695374017006e+02, 2.1496695374017006e+02,
             2.1496695374017006e+02, 2.1496695374017006e+02,
             4.9497564218348053e+01, 2.1496695374017006e+02,
             8.7150056558471434e+01, 2.1496695374017006e+02,
             9.6873682546830793e+00, 2.1496695374017006e+02,
             1.4916732738471049e+02, 2.1496695374017006e+02,
             2.1496695374017006e+02, 2.1496695374017006e+02,
             2.1496695374017006e+02, 2.1496695374017006e+02,
             2.1496695374017006e+02, 2.1496695374017006e+02,
             2.1496695374017006e+02, 2.1496695374017006e+02,
             2.1496695374017006e+02, 2.1496695374017006e+02,
             2.1496695374017006e+02, 1.3162421126935880e+02,
             2.1496695374017006e+02, 2.1496695374017006e+02,
             2.1496695374017006e+02, 2.1496695374017006e+02,
             2.1496695374017006e+02, 2.1496695374017006e+02,
             2.1496695374017006e+02, 2.1496695374017006e+02,
             2.1496695374017006e+02, 1.2953959945123154e+01,
             2.1496695374017006e+02, 1.4028585279377290e+02,
             2.1496695374017006e+02, 2.1496695374017006e+02,
             2.1496695374017006e+02, 2.1496695374017006e+02,
             5.6993455723335433e+00, 2.1496695374017006e+02,
             2.1496695374017006e+02, 2.1496695374017006e+02,
             2.1496695374017006e+02, 2.1496695374017006e+02,
             2.1496695374017006e+02, 2.1496695374017006e+02,
             2.1496695374017006e+02, 2.1496695374017006e+02,
             2.1496695374017006e+02, 2.1496695374017006e+02,
             2.1496695374017006e+02, 2.1496695374017006e+02,
             2.1496695374017006e+02, 2.1496695374017006e+02,
             2.1496695374017006e+02, 2.1496695374017006e+02,
             2.1496695374017006e+02, 2.1496695374017006e+02,
             2.1496695374017006e+02, 2.1496695374017006e+02,
             3.0585914147069516e+01, 1.0499224452163912e+02,
             9.1433045847724642e+01, 2.1496695374017006e+02,
             4.6710677736718395e+01, 2.1496695374017006e+02,
             2.1496695374017006e+02, 2.1117894521677567e+02,
             9.0866010939677722e+01, 2.1496695374017006e+02,
             2.1496695374017006e+02, 2.1496695374017006e+02,
             2.1496695374017006e+02, 2.1496695374017006e+02,
             2.1496695374017006e+02, 2.1496695374017006e+02,
             2.1496695374017006e+02, 1.4521275637956768e+02,
             2.1496695374017006e+02, 1.3901591750052964e+02,
             2.1496695374017006e+02, 2.1496695374017006e+02,
             2.1496695374017006e+02, 2.1496695374017006e+02,
             8.7084321850524645e+01, 2.1496695374017006e+02,
             1.0109436935052083e+01, 2.1496695374017006e+02,
             4.4671115514140510e+01, 4.3101636468775425e+01,
             2.1496695374017006e+02, 2.1496695374017006e+02,
             2.1496695374017006e+02, 2.1496695374017006e+02,
             2.1496695374017006e+02, 2.1496695374017006e+02,
             2.1496695374017006e+02, 2.1496695374017006e+02,
             1.4946109023282122e+02, 9.8322403065518429e+01,
             2.1496695374017006e+02, 2.1496695374017006e+02,
             2.1496695374017006e+02, 2.1496695374017006e+02,
             2.1496695374017006e+02, 2.1496695374017006e+02,
             2.1496695374017006e+02, 2.1496695374017006e+02,
             2.1496695374017006e+02, 2.1496695374017006e+02,
             2.1496695374017006e+02, 2.1496695374017006e+02,
             2.1496695374017006e+02, 2.1496695374017006e+02,
             2.1496695374017006e+02, 2.1496695374017006e+02,
             2.1496695374017006e+02, 2.1496695374017006e+02,
             2.1496695374017006e+02, 6.9424220446766100e+01,
             2.6128891253706744e+01, 2.1496695374017006e+02,
             2.1496695374017006e+02, 2.1496695374017006e+02,
             2.1496695374017006e+02, 2.1496695374017006e+02,
             2.1496695374017006e+02, 2.1496695374017006e+02,
             7.5969580788843160e+01, 3.1918469518284951e+01,
             2.1496695374017006e+02, 2.1496695374017006e+02,
             2.1496695374017006e+02, 2.3777138465080732e+01,
             1.0940513726499011e+01, 2.1496695374017006e+02,
             2.1496695374017006e+02, 2.1496695374017006e+02,
             1.7107182681488916e+02, 1.1249129911458947e+02,
             1.2928177046983993e+02, 2.1496695374017006e+02,
             2.1496695374017006e+02, 2.1496695374017006e+02,
             2.1496695374017006e+02, 2.1496695374017006e+02,
             6.3808265106860553e+01, 7.1542147104975484e+01,
             2.1496695374017006e+02, 2.1496695374017006e+02,
             7.6961878810905047e+00, -2.1496695374017006e+02,
             -2.1496695374017006e+02, -2.1496695374017006e+02,
             -2.1496695374017006e+02, -2.1496695374017006e+02,
             -2.7238953244956852e+00, -2.1496695374017006e+02,
             -2.1496695374017006e+02, -2.1496695374017006e+02,
             -2.1496695374017006e+02, -2.1496695374017006e+02,
             -2.1496695374017006e+02, -2.1496695374017006e+02,
             -2.1496695374017006e+02, -2.1496695374017006e+02,
             -2.1496695374017006e+02, -2.1496695374017006e+02,
             -2.1496695374017006e+02, -2.1496695374017006e+02,
             -2.1496695374017006e+02, -2.1496695374017006e+02,
             -2.1496695374017006e+02, -2.1496695374017006e+02,
             -2.1496695374017006e+02, -2.1496695374017006e+02,
             -2.1496695374017006e+02, -2.1496695374017006e+02,
             -2.1496695374017006e+02, -1.7124051971479807e+02,
             -2.1496695374017006e+02, -2.1496695374017006e+02,
             -2.1496695374017006e+02, -2.1496695374017006e+02,
             -2.1496695374017006e+02, -2.1496695374017006e+02,
             -2.1496695374017006e+02, -2.1496695374017006e+02,
             -2.1496695374017006e+02, -2.1496695374017006e+02,
             -2.1496695374017006e+02, -2.1496695374017006e+02,
             -1.9585178191721255e+02, -2.1496695374017006e+02,
             -2.1496695374017006e+02, -2.1496695374017006e+02,
             -2.1496695374017006e+02, -4.8994174194054906e+01,
             -2.1496695374017006e+02, -2.1496695374017006e+02,
             -2.1496695374017006e+02, -2.1496695374017006e+02,
             -2.1496695374017006e+02, -2.1496695374017006e+02,
             -2.1496695374017006e+02, -1.9008269754063886e+02,
             -2.1496695374017006e+02, -2.1496695374017006e+02,
             -2.1496695374017006e+02, -2.1496695374017006e+02,
             -2.1496695374017006e+02, -1.3888008768951647e+02,
             -2.1496695374017006e+02, -2.1496695374017006e+02,
             -2.1496695374017006e+02, -2.1496695374017006e+02,
             -2.1496695374017006e+02, -2.1496695374017006e+02,
             -2.1496695374017006e+02, -2.1496695374017006e+02,
             -2.1496695374017006e+02, -7.2445689793934619e+01,
             -2.1496695374017006e+02, -2.1496695374017006e+02,
             -2.1496695374017006e+02, -2.1496695374015783e+01,
             -1.2900765755245871e+02, -2.1248181233888283e+02,
             -2.1496695374017006e+02, -1.8339848359837580e+02,
             -2.1496695374017006e+02, -2.1496695374017006e+02,
             -2.1496695374017006e+02, -2.1496695374017006e+02,
             -2.1496695374017006e+02, -2.1496695374017006e+02,
             -2.1496695374017006e+02, -2.1496695374017006e+02,
             -2.1496695374017006e+02, -2.1496695374017006e+02,
             -2.1496695374017006e+02, -2.1496695374017006e+02,
             -2.1496695374017006e+02, -2.1496695374017006e+02,
             -2.1496695374017006e+02, -2.1496695374017006e+02,
             -2.1496695374017006e+02, -6.8928770357844735e+00,
             -2.1496695374017006e+02, -2.1496695374017006e+02,
             -1.4358824194178024e+02, -2.1496695374017006e+02,
             -2.1496695374017006e+02, -8.5147853417078124e+01,
             -2.1496695374017006e+02, -2.1496695374017006e+02,
             -5.8325590085311013e+01, -2.1496695374017006e+02,
             -2.1496695374017006e+02, -4.0658271257277754e+01,
             -2.1496695374017006e+02, -4.6862923568178552e+01,
             -2.1496695374017006e+02, -2.1496695374017006e+02,
             -2.1496695374017006e+02, -2.1496695374017006e+02,
             -2.1496695374017006e+02, -2.1496695374017006e+02,
             -2.1496695374017006e+02, -8.9784067047506952e+01,
             -2.1496695374017006e+02, -2.1496695374017006e+02,
             -2.1496695374017006e+02, -2.1496695374017006e+02,
             -7.6443850068522821e+00, -2.1496695374017006e+02,
             -2.1496695374017006e+02, -2.1496695374017006e+02,
             -2.1496695374017006e+02, -2.1496695374017006e+02,
             -2.1496695374017006e+02, -2.1496695374017006e+02,
             -1.0025481963176144e+02, -1.3676265599257184e+02,
             -2.1496695374017006e+02, -2.1496695374017006e+02,
             -2.1496695374017006e+02, -2.1496695374017006e+02,
             -2.1496695374017006e+02, -2.1496695374017006e+02,
             -2.1496695374017006e+02, -2.1496695374017006e+02,
             -1.2886541236346574e+02, -2.1496695374017006e+02,
             -2.1496695374017006e+02, -2.1496695374017006e+02,
             -2.1496695374017006e+02, -2.1496695374017006e+02,
             -2.1496695374017006e+02, -2.1496695374017006e+02,
             -2.1496695374017006e+02, -2.1496695374017006e+02,
             -2.0043314475689314e+02, -2.1496695374017006e+02,
             -1.1933338328180852e+02, -2.1496695374017006e+02,
             -4.3048315018731032e+01, -2.1496695374017006e+02,
             -2.1496695374017006e+02, -2.1496695374017006e+02,
             -2.1496695374017006e+02, -2.1496695374017006e+02,
             -2.1496695374017006e+02, -2.1496695374017006e+02,
             -2.1496695374017006e+02, -2.1496695374017006e+02,
             -2.1496695374017006e+02, -2.1496695374017006e+02,
             -2.1496695374017006e+02, -2.1496695374017006e+02,
             -1.6643783574145854e+02, -2.1496695374017006e+02,
             -2.1496695374017006e+02, -2.1496695374017006e+02,
             -2.1496695374017006e+02, -2.1496695374017006e+02,
             -2.1496695374017006e+02, -2.1496695374017006e+02,
             -2.1496695374017006e+02, -2.1496695374017006e+02,
             -2.1496695374017006e+02, -2.1496695374017006e+02,
             -2.1496695374017006e+02, -7.5423822811382863e+01,
             -2.1496695374017006e+02 ]
         index: [ 303, 179, 180, 181, 176, 177, 186, 188, 299, 184, 301,
             185, 307, 167, 168, 170, 171, 309, 160, 311, 162, 164, 166,
             175, 304, 173, 306, 206, 292, 203, 204, 209, 210, 208, 291,
             189, 197, 295, 190, 158, 331, 137, 334, 138, 143, 144, 330,
             329, 139, 141, 142, 129, 131, 132, 339, 133, 134, 127, 128,
             136, 316, 319, 318, 317, 148, 313, 151, 153, 155, 156, 157,
             145, 146, 326, 327, 321, 323, 233, 234, 271, 270, 269, 238,
             240, 267, 236, 265, 237, 261, 253, 260, 257, 258, 259, 262,
             246, 247, 245, 249, 241, 242, 243, 263, 244, 251, 250, 283,
             213, 227, 225, 226, 228, 229, 273, 230, 43, 42, 46, 24, 27,
             29, 36, 37, 38, 39, 40, 41, 32, 33, 34, 35, 64, 65, 62, 63,
             61, 51, 52, 59, 60, 54, 53, 56, 57, 374, 379, 364, 13, 14,
             15, 22, 19, 20, 23, 12, 17, 370, 6, 4, 5, 371, 9, 7, 8, 368,
             366, 105, 106, 102, 107, 104, 109, 110, 108, 97, 100, 99,
             98, 113, 343, 345, 87, 84, 86, 88, 80, 81, 90, 82, 94, 93,
             92, 73, 69, 77, 79, 75, 278, 276, 305, 310, 377, 340, 336,
             275, 353, 324, 312, 380, 337, 293, 338, 290, 274, 341, 314,
             362, 363, 359, 277, 378, 294, 308, 351, 369, 328, 357, 350,
             365, 284, 266, 322, 320, 285, 344, 372, 356, 347, 367, 346,
             325, 280, 281, 361, 300, 348, 302, 349, 282, 268, 355, 333,
             315, 288, 279, 332, 373, 297, 342, 375, 296, 335, 289, 376,
             352, 286, 360, 287, 272, 264, 354, 298, 358, 95, 96, 91, 74,
             72, 71, 70, 68, 67, 66, 89, 85, 83, 78, 76, 120, 119, 118,
             117, 121, 116, 115, 114, 112, 130, 126, 125, 111, 124, 123,
             122, 103, 101, 3, 2, 1, 16, 11, 10, 0, 50, 49, 48, 47, 45,
             58, 55, 26, 28, 30, 25, 21, 18, 44, 31, 224, 223, 222, 221,
             220, 231, 212, 219, 218, 217, 216, 215, 214, 252, 248, 256,
             255, 254, 232, 239, 211, 235, 147, 165, 163, 161, 159, 154,
             152, 150, 149, 135, 140, 194, 202, 201, 200, 199, 198, 196,
             195, 193, 192, 191, 207, 205, 178, 174, 172, 169, 187, 183,
             182 ]
