%YAML:1.0
my_svm: !!opencv-ml-svm
   svm_type: NU_SVC
   kernel: { type:RBF, gamma:20. }
   nu: 1.0000000000000001e-01
   term_criteria: { epsilon:9.9999999747524271e-07, iterations:1000 }
   var_all: 5
   var_count: 5
   class_count: 2
   class_labels: !!opencv-matrix
      rows: 1
      cols: 2
      dt: i
      data: [ 0, 1 ]
   sv_total: 538
   support_vectors:
      - [ 0., 4.24805969e-01, 7.49216497e-01, 6.43100977e-01,
          7.08573341e-01 ]
      - [ 6.17147097e-03, 5.22237301e-01, 7.91688561e-01, 8.87056828e-01,
          3.85352999e-01 ]
      - [ 0., 4.41851735e-01, 9.18612480e-01, 6.12962842e-01,
          3.95718753e-01 ]
      - [ 0., 4.68216807e-01, 9.22668457e-01, 5.32138526e-01,
          1.51941583e-01 ]
      - [ 1.17096240e-02, 5.05207598e-01, 7.21725047e-01, 9.59419429e-01,
          1. ]
      - [ 0., 4.45175409e-01, 8.79353344e-01, 7.54783034e-01, 1. ]
      - [ 0., 4.43723708e-01, 8.56649876e-01, 6.09026670e-01, 1. ]
      - [ 9.19746101e-01, 5.02188623e-01, 6.77088141e-01, 9.12565947e-01,
          1. ]
      - [ 3.22962135e-01, 5.15380323e-01, 6.58139706e-01, 9.62584913e-01,
          9.71927147e-05 ]
      - [ 0., 7.67666578e-01, 8.99257720e-01, 6.87936902e-01, 1. ]
      - [ 0., 4.49280322e-01, 6.00785494e-01, 6.97952390e-01, 1. ]
      - [ 0., 4.49402601e-01, 6.00813150e-01, 6.70424342e-01,
          1.68669205e-02 ]
      - [ 5.40680170e-01, 9.93104577e-01, 9.97540534e-01, 9.14175153e-01,
          3.35859835e-01 ]
      - [ 0., 8.18624914e-01, 9.60123301e-01, 7.77232587e-01,
          1.65383084e-04 ]
      - [ 0., 6.89757884e-01, 6.26385272e-01, 7.62809157e-01, 1. ]
      - [ 4.99842554e-01, 9.20843482e-01, 9.92466450e-01, 5.96171916e-01,
          4.78392513e-03 ]
      - [ 5.16029835e-01, 9.79699612e-01, 9.98665333e-01, 8.99368942e-01,
          1.18141773e-03 ]
      - [ 0., 4.35080737e-01, 7.61426151e-01, 7.68968105e-01,
          3.95521134e-01 ]
      - [ 0., 9.48109746e-01, 9.52237725e-01, 6.71778083e-01,
          4.51303393e-01 ]
      - [ 5.12896955e-01, 9.31880355e-01, 9.94317472e-01, 6.61574066e-01,
          1.18709584e-04 ]
      - [ 0., 9.26933110e-01, 8.88902366e-01, 6.76410198e-01,
          2.05687359e-01 ]
      - [ 1.40875083e-04, 5.98844945e-01, 8.04847538e-01, 7.35155821e-01,
          2.05687359e-01 ]
      - [ 8.11709166e-01, 9.95366216e-01, 9.92639184e-01, 5.87616861e-01,
          4.66991187e-05 ]
      - [ 8.63193512e-01, 9.96748745e-01, 9.91995454e-01, 5.98218262e-01,
          1.19094493e-05 ]
      - [ 5.91516316e-01, 9.80077744e-01, 9.99303401e-01, 9.17395651e-01,
          2.56816088e-06 ]
      - [ 1.28713220e-01, 9.99431789e-01, 9.97148514e-01, 9.14906383e-01,
          1.66379095e-07 ]
      - [ 8.07286680e-01, 9.99666929e-01, 9.98053908e-01, 9.58456039e-01,
          5.18030419e-08 ]
      - [ 7.53340900e-01, 9.98582006e-01, 9.98829067e-01, 9.35838938e-01,
          2.57279780e-08 ]
      - [ 8.93447518e-01, 9.61230934e-01, 9.42590296e-01, 6.99911654e-01,
          5.44294039e-07 ]
      - [ 6.52410328e-01, 9.25285339e-01, 9.97416735e-01, 9.58678186e-01,
          0. ]
      - [ 9.98579860e-01, 9.92343605e-01, 9.99677598e-01, 9.37248766e-01,
          0. ]
      - [ 9.11971390e-01, 9.76086617e-01, 9.98551309e-01, 7.14330077e-01,
          5.91686189e-01 ]
      - [ 3.97125855e-02, 9.96348023e-01, 9.97380793e-01, 9.90826845e-01,
          2.75356114e-01 ]
      - [ 9.11326051e-01, 9.70032215e-01, 9.97932494e-01, 7.39752710e-01,
          2.75356114e-01 ]
      - [ 9.11274016e-01, 9.81325626e-01, 9.45133030e-01, 5.74267209e-01,
          3.53737595e-03 ]
      - [ 9.21893537e-01, 7.18728125e-01, 8.04400027e-01, 7.06579983e-01,
          3.53737595e-03 ]
      - [ 2.49771047e-02, 9.31442916e-01, 9.96844828e-01, 9.76849854e-01,
          3.53737595e-03 ]
      - [ 7.10686982e-01, 9.66314256e-01, 9.13868546e-01, 8.41791987e-01,
          9.35715798e-04 ]
      - [ 3.29103887e-01, 6.66818440e-01, 8.69985700e-01, 7.14309514e-01,
          1. ]
      - [ 0., 5.04825294e-01, 8.27608824e-01, 5.50548494e-01, 1. ]
      - [ 4.87030089e-01, 6.84149265e-01, 8.69262874e-01, 7.13046730e-01,
          6.06810272e-01 ]
      - [ 9.17772412e-01, 9.69241321e-01, 8.52353215e-01, 8.37714672e-01,
          6.06810272e-01 ]
      - [ 0., 4.80796188e-01, 9.36093986e-01, 5.76252103e-01, 0. ]
      - [ 0., 4.95507419e-01, 6.96959138e-01, 5.59908569e-01,
          4.17448252e-01 ]
      - [ 7.56638348e-01, 9.68473792e-01, 9.95379925e-01, 9.51973200e-01,
          1.90570006e-07 ]
      - [ 8.78513992e-01, 9.68906939e-01, 8.51465166e-01, 8.62206340e-01,
          4.17448252e-01 ]
      - [ 8.29842865e-01, 9.66201663e-01, 8.56762826e-01, 7.35769808e-01,
          4.46899299e-04 ]
      - [ 7.43352115e-01, 6.05613232e-01, 8.68525028e-01, 7.00121880e-01,
          1. ]
      - [ 9.75040197e-02, 9.82426703e-01, 9.94932473e-01, 9.56010699e-01,
          7.38422836e-16 ]
      - [ 7.78075159e-01, 6.10785365e-01, 9.11760807e-01, 7.10649610e-01,
          5.37811697e-01 ]
      - [ 6.93889856e-02, 9.84108210e-01, 9.95296836e-01, 9.66415346e-01,
          2.84198720e-21 ]
      - [ 3.43284220e-01, 6.27406120e-01, 9.32238102e-01, 9.20612872e-01,
          4.99680430e-01 ]
      - [ 1.47537261e-01, 9.70011711e-01, 7.71691263e-01, 6.65050089e-01,
          4.71132360e-08 ]
      - [ 9.65404868e-01, 9.87252593e-01, 9.26357388e-01, 9.49008942e-01,
          9.46521914e-22 ]
      - [ 9.34991956e-01, 9.91235316e-01, 8.82603824e-01, 8.90736759e-01,
          3.47633431e-22 ]
      - [ 0., 9.57169235e-01, 9.52527761e-01, 7.78631389e-01,
          2.72578091e-05 ]
      - [ 6.15863025e-01, 4.54051018e-01, 8.48957837e-01, 3.53955090e-01,
          0. ]
      - [ 6.27981436e-08, 6.93800449e-01, 6.43159389e-01, 4.19751853e-01,
          2.17304041e-04 ]
      - [ 0., 6.98283672e-01, 8.06055605e-01, 4.12654698e-01,
          7.29831299e-06 ]
      - [ 3.98671925e-01, 4.60185140e-01, 7.19038665e-01, 3.91926855e-01,
          0. ]
      - [ 7.66044080e-01, 4.58747745e-01, 9.13246334e-01, 4.24498826e-01,
          0. ]
      - [ 6.58521831e-01, 9.79337990e-01, 8.30632031e-01, 9.21320081e-01,
          1. ]
      - [ 1.57610393e-05, 9.63843405e-01, 8.44321609e-01, 9.64529216e-01,
          4.61937517e-01 ]
      - [ 9.27685201e-01, 9.48858798e-01, 8.75070155e-01, 9.83218610e-01,
          3.96008462e-01 ]
      - [ 0., 9.00297642e-01, 6.28501296e-01, 4.14153457e-01, 0. ]
      - [ 7.68476427e-01, 9.49215233e-01, 8.65877092e-01, 9.46715355e-01,
          4.74408686e-01 ]
      - [ 3.99082422e-01, 9.95974481e-01, 9.98976707e-01, 9.22927320e-01,
          4.74408686e-01 ]
      - [ 5.54120481e-01, 9.97828901e-01, 9.97432768e-01, 6.80800080e-01,
          8.45349506e-02 ]
      - [ 3.03395927e-01, 9.59702134e-01, 8.69565785e-01, 9.75791454e-01,
          1. ]
      - [ 2.01204225e-01, 9.62586284e-01, 8.57289612e-01, 9.64736760e-01,
          6.07452512e-01 ]
      - [ 6.24053240e-01, 9.19440150e-01, 6.99084103e-01, 9.22215521e-01,
          0. ]
      - [ 3.26264262e-01, 9.16265905e-01, 6.98982298e-01, 9.26312208e-01,
          0. ]
      - [ 5.46681941e-01, 9.85113859e-01, 8.75707567e-01, 9.25560474e-01,
          5.51494002e-01 ]
      - [ 2.91029453e-01, 9.93993282e-01, 8.49895239e-01, 9.23991501e-01,
          6.94597781e-01 ]
      - [ 1.15722269e-01, 9.92179632e-01, 7.96367168e-01, 9.59818423e-01,
          6.22012913e-01 ]
      - [ 3.78204137e-01, 9.88154829e-01, 8.20869386e-01, 7.18277633e-01,
          5.64514399e-01 ]
      - [ 8.90971959e-01, 4.45171624e-01, 6.91004872e-01, 8.62565339e-01,
          4.82762419e-02 ]
      - [ 0., 7.04397380e-01, 9.75247800e-01, 7.61206567e-01, 0. ]
      - [ 2.20376939e-01, 9.88188624e-01, 6.71567082e-01, 6.01024628e-01,
          0. ]
      - [ 3.06106452e-02, 9.42578673e-01, 8.83537412e-01, 8.02560925e-01,
          2.70640180e-02 ]
      - [ 4.21575516e-01, 9.99016464e-01, 8.82228911e-01, 9.12466407e-01,
          5.14672399e-01 ]
      - [ 9.52085294e-03, 9.86909568e-01, 9.16327178e-01, 6.43397808e-01,
          0. ]
      - [ 3.47416461e-01, 9.62905586e-01, 7.61322618e-01, 6.21570051e-01,
          0. ]
      - [ 1.81555763e-01, 9.85149562e-01, 8.82305682e-01, 9.06853259e-01,
          1. ]
      - [ 6.24261260e-01, 4.65423852e-01, 8.44370425e-01, 7.50637770e-01,
          1. ]
      - [ 7.63263126e-23, 9.99400795e-01, 8.77931118e-01, 7.18261600e-01,
          5.62885165e-01 ]
      - [ 9.80342627e-01, 4.93204862e-01, 8.21478784e-01, 8.45218480e-01,
          5.62885165e-01 ]
      - [ 6.04209304e-01, 4.62881476e-01, 9.26684141e-01, 9.09395933e-01,
          5.62885165e-01 ]
      - [ 4.04417634e-01, 4.57352132e-01, 8.74344409e-01, 9.13724899e-01,
          1. ]
      - [ 8.92706029e-03, 9.97743368e-01, 8.30615342e-01, 9.12857652e-01,
          1. ]
      - [ 6.41766727e-01, 9.97814775e-01, 7.99715281e-01, 8.79874408e-01,
          3.57403547e-01 ]
      - [ 9.31544323e-03, 9.96669352e-01, 8.78055930e-01, 8.71379256e-01,
          3.57403547e-01 ]
      - [ 8.02360624e-02, 9.98065293e-01, 7.99219668e-01, 8.72691989e-01,
          6.17995679e-01 ]
      - [ 5.60336769e-01, 4.60831523e-01, 6.18144751e-01, 8.94870937e-01,
          1. ]
      - [ 8.99209261e-01, 4.67705250e-01, 6.86771154e-01, 7.90527463e-01,
          3.52664888e-01 ]
      - [ 5.32897353e-01, 4.56376255e-01, 6.37383223e-01, 8.95323694e-01,
          3.52664888e-01 ]
      - [ 9.53878999e-01, 4.67549503e-01, 8.12313557e-01, 8.15260291e-01,
          3.52664888e-01 ]
      - [ 5.94757348e-02, 9.99105275e-01, 8.40816736e-01, 8.88726056e-01,
          1. ]
      - [ 4.74207878e-01, 4.52155501e-01, 6.51373506e-01, 8.92952502e-01,
          6.76624894e-01 ]
      - [ 1.19909026e-01, 9.98545945e-01, 8.29529583e-01, 8.73733461e-01,
          6.76624894e-01 ]
      - [ 1.88931990e-02, 4.54377353e-01, 6.51118159e-01, 8.89242589e-01,
          1. ]
      - [ 6.49287343e-01, 9.98807132e-01, 7.96255529e-01, 8.93429756e-01,
          5.72973490e-01 ]
      - [ 4.02363718e-01, 4.56352741e-01, 6.64360344e-01, 7.27394462e-01,
          1. ]
      - [ 4.74014759e-01, 4.47545409e-01, 6.07630312e-01, 5.49053609e-01,
          0. ]
      - [ 9.64277685e-01, 9.19163942e-01, 8.19289923e-01, 9.45060611e-01,
          5.25035620e-01 ]
      - [ 8.01219523e-01, 9.37811732e-01, 8.17958772e-01, 9.58563745e-01,
          7.39475906e-01 ]
      - [ 1.14651032e-01, 7.62770772e-01, 9.46754575e-01, 6.84290111e-01,
          0. ]
      - [ 4.30467546e-01, 9.86205995e-01, 8.24964583e-01, 7.36141562e-01,
          5.24089575e-01 ]
      - [ 4.26549584e-01, 8.24052930e-01, 8.24528694e-01, 7.97882974e-01,
          1. ]
      - [ 2.78247148e-03, 9.01043475e-01, 7.93995857e-01, 9.10344362e-01,
          5.65209687e-01 ]
      - [ 5.30725121e-01, 9.87864792e-01, 8.18981051e-01, 8.81259382e-01,
          5.63922226e-01 ]
      - [ 1.72156766e-01, 9.88369882e-01, 8.18397105e-01, 8.75632286e-01,
          1.76563607e-43 ]
      - [ 4.31115210e-01, 9.47903812e-01, 8.17965031e-01, 7.82030404e-01,
          3.55231881e-01 ]
      - [ 5.29102981e-01, 9.97294664e-01, 9.42481041e-01, 8.85748446e-01,
          0. ]
      - [ 0., 9.47116494e-01, 8.56926978e-01, 5.62811077e-01, 1. ]
      - [ 4.14209766e-03, 9.55006063e-01, 8.84457886e-01, 8.93957496e-01,
          0. ]
      - [ 0., 9.90090609e-01, 8.39929044e-01, 5.78241885e-01,
          6.49818122e-01 ]
      - [ 1.45079896e-01, 9.79844630e-01, 8.54629755e-01, 9.06563520e-01,
          0. ]
      - [ 2.64025964e-02, 9.78931069e-01, 8.54357541e-01, 7.79720545e-01,
          1. ]
      - [ 4.01522547e-01, 9.25248206e-01, 9.13831949e-01, 8.76744568e-01,
          0. ]
      - [ 5.24843395e-01, 8.74111176e-01, 9.77391481e-01, 9.29743230e-01,
          0. ]
      - [ 4.16236231e-03, 9.00316834e-01, 9.13316548e-01, 9.26843762e-01,
          0. ]
      - [ 0., 4.38294709e-01, 6.38283551e-01, 9.01255310e-01, 0. ]
      - [ 3.10821086e-01, 9.90210772e-01, 6.60892785e-01, 8.11745763e-01,
          6.25373721e-02 ]
      - [ 0., 9.84620094e-01, 6.50389314e-01, 5.60422421e-01, 1. ]
      - [ 5.14625967e-01, 9.90855932e-01, 6.61489904e-01, 8.09409857e-01,
          4.95337183e-03 ]
      - [ 0., 9.00504112e-01, 8.93036604e-01, 6.00583613e-01,
          6.20043516e-01 ]
      - [ 5.57818234e-01, 9.83223200e-01, 6.58293247e-01, 8.32847476e-01,
          1. ]
      - [ 6.31346762e-01, 8.21001947e-01, 8.19759488e-01, 9.25739288e-01,
          6.20093107e-01 ]
      - [ 5.70986748e-01, 9.20167387e-01, 8.49460483e-01, 9.29221988e-01,
          6.78206921e-01 ]
      - [ 5.66520810e-01, 9.89602089e-01, 8.08888197e-01, 8.92966330e-01,
          7.08612621e-01 ]
      - [ 5.40658593e-01, 7.54692018e-01, 8.38213027e-01, 7.24053085e-01,
          5.51055849e-01 ]
      - [ 5.33523500e-01, 8.51853013e-01, 6.54616952e-01, 6.16866708e-01,
          1. ]
      - [ 1.43669444e-04, 9.97237146e-01, 5.97581446e-01, 5.78761220e-01,
          9.87915322e-03 ]
      - [ 9.70608950e-01, 9.81427908e-01, 5.96998394e-01, 5.67491591e-01,
          1. ]
      - [ 1.76865637e-01, 9.60006952e-01, 8.43884110e-01, 8.04736495e-01,
          1. ]
      - [ 1.07328713e-01, 7.76161730e-01, 8.43944252e-01, 6.69220448e-01,
          6.04316711e-01 ]
      - [ 1.24634281e-01, 9.98918831e-01, 9.98175502e-01, 9.66120899e-01,
          4.28958749e-03 ]
      - [ 7.59945095e-01, 9.91515756e-01, 8.36097896e-01, 9.45971072e-01,
          0. ]
      - [ 5.57016969e-01, 9.31197584e-01, 9.93905783e-01, 9.58218217e-01,
          0. ]
      - [ 9.48321640e-01, 8.88379693e-01, 8.32307220e-01, 9.58178163e-01,
          0. ]
      - [ 6.71580195e-01, 9.44287062e-01, 8.39451075e-01, 8.11773479e-01,
          7.08855331e-01 ]
      - [ 5.40592968e-01, 9.30410206e-01, 9.95535731e-01, 9.72468257e-01,
          0. ]
      - [ 9.73121166e-01, 9.63031054e-01, 7.81882167e-01, 7.03774512e-01,
          7.08855331e-01 ]
      - [ 5.13363242e-01, 9.94410157e-01, 6.56095743e-01, 6.35079563e-01,
          0. ]
      - [ 3.18785042e-01, 9.96462762e-01, 6.56910479e-01, 6.52447820e-01,
          1. ]
      - [ 5.15956938e-01, 9.70440328e-01, 9.59065855e-01, 7.73607910e-01,
          0. ]
      - [ 5.11585832e-01, 9.85583603e-01, 8.38521719e-01, 7.19049990e-01,
          0. ]
      - [ 4.46129620e-01, 9.78714585e-01, 8.48206818e-01, 7.34160006e-01,
          1. ]
      - [ 9.58884776e-01, 8.69455159e-01, 8.33411753e-01, 9.53680098e-01,
          0. ]
      - [ 5.11130989e-01, 7.87278295e-01, 9.54661787e-01, 7.93365717e-01,
          0. ]
      - [ 6.03191555e-01, 9.11603391e-01, 8.51999700e-01, 7.47999132e-01,
          6.06203020e-01 ]
      - [ 9.90577281e-01, 9.90820467e-01, 8.33621502e-01, 9.25178170e-01,
          0. ]
      - [ 9.70731676e-01, 9.21987176e-01, 8.07274759e-01, 5.72036624e-01,
          5.38290560e-01 ]
      - [ 7.04603314e-01, 8.62836123e-01, 8.27045441e-01, 6.62789464e-01,
          4.16761637e-01 ]
      - [ 7.04620183e-01, 8.74165773e-01, 9.05897796e-01, 6.71279430e-01,
          1.60960868e-01 ]
      - [ 7.04634488e-01, 8.62482727e-01, 9.06938136e-01, 6.58037841e-01,
          3.04677635e-02 ]
      - [ 7.04632699e-01, 8.69220555e-01, 9.69839096e-01, 6.49225175e-01,
          8.96651577e-03 ]
      - [ 7.04614639e-01, 9.21507239e-01, 9.14179265e-01, 6.57765508e-01,
          1.54006784e-03 ]
      - [ 7.04781592e-01, 9.71825182e-01, 8.66207480e-01, 7.88089156e-01,
          4.38319839e-04 ]
      - [ 9.72930133e-01, 9.33797419e-01, 8.48783612e-01, 8.28476727e-01,
          6.34659052e-01 ]
      - [ 9.74749267e-01, 9.24506068e-01, 7.98901260e-01, 5.59606850e-01,
          4.37777936e-02 ]
      - [ 8.88899684e-01, 9.82921422e-01, 8.09104085e-01, 6.90780342e-01,
          3.95391107e-01 ]
      - [ 6.39372945e-01, 9.99557018e-01, 8.81087422e-01, 9.04038250e-01,
          0. ]
      - [ 9.79051411e-01, 9.31217015e-01, 8.30195725e-01, 9.02135611e-01,
          1.43254315e-02 ]
      - [ 5.50111353e-01, 9.96149838e-01, 9.25547898e-01, 9.29157734e-01,
          0. ]
      - [ 9.18374121e-01, 9.76473033e-01, 9.98881459e-01, 9.52090383e-01,
          4.06685919e-01 ]
      - [ 0., 8.24777782e-01, 9.43658590e-01, 5.73012829e-01,
          1.76542415e-03 ]
      - [ 9.76253331e-01, 9.93183792e-01, 9.50708151e-01, 5.61288238e-01,
          2.60082345e-10 ]
      - [ 9.18094575e-01, 9.95922446e-01, 9.49867964e-01, 5.89509249e-01,
          6.63847935e-11 ]
      - [ 9.76241350e-01, 9.96442378e-01, 8.65889549e-01, 7.46157825e-01,
          1.99683325e-11 ]
      - [ 0., 6.96236491e-01, 9.54913020e-01, 6.79873645e-01, 0. ]
      - [ 1.60966292e-01, 9.52044845e-01, 8.84564161e-01, 9.18724716e-01,
          0. ]
      - [ 9.52198148e-01, 4.16205794e-01, 8.07574570e-01, 6.36652291e-01,
          0. ]
      - [ 2.69570231e-01, 9.12910759e-01, 8.42345655e-01, 9.27731156e-01,
          0. ]
      - [ 0., 9.15914774e-01, 9.47633028e-01, 4.84158397e-01, 0. ]
      - [ 9.93116856e-01, 5.14939666e-01, 6.74481809e-01, 8.77524793e-01,
          1. ]
      - [ 0., 6.95672631e-01, 6.13376975e-01, 5.69346011e-01,
          6.34238780e-01 ]
      - [ 4.91694599e-01, 7.96792507e-01, 9.80849445e-01, 9.58779693e-01,
          0. ]
      - [ 4.91820216e-01, 8.79486978e-01, 9.81126666e-01, 9.53444004e-01,
          0. ]
      - [ 4.91652459e-01, 9.77948844e-01, 9.35829222e-01, 9.37976241e-01,
          0. ]
      - [ 5.83800906e-03, 5.29331446e-01, 7.88979352e-01, 9.45337176e-01,
          7.98974812e-01 ]
      - [ 6.94191933e-01, 9.50159967e-01, 8.44687223e-01, 8.39681745e-01,
          0. ]
      - [ 9.85650599e-01, 5.38737118e-01, 6.22536719e-01, 8.79331172e-01,
          5.51150739e-01 ]
      - [ 5.94403982e-01, 4.51823145e-01, 6.81680739e-01, 8.14194322e-01,
          0. ]
      - [ 2.38140956e-01, 5.16373932e-01, 6.22788191e-01, 8.49051416e-01,
          1. ]
      - [ 8.68669271e-01, 6.48953617e-01, 8.40482771e-01, 6.03312373e-01,
          0. ]
      - [ 6.58610278e-44, 9.11832750e-01, 8.35617602e-01, 4.02796924e-01,
          0. ]
      - [ 0., 8.93066704e-01, 7.66058028e-01, 3.86909336e-01, 0. ]
      - [ 4.18741954e-03, 9.98293996e-01, 9.17675197e-01, 9.59735692e-01,
          0. ]
      - [ 5.75745344e-01, 9.95414913e-01, 8.95641983e-01, 8.83046389e-01,
          0. ]
      - [ 9.00587380e-01, 8.31034780e-01, 8.79612982e-01, 8.82797837e-01,
          5.24873435e-01 ]
      - [ 9.10782099e-01, 8.49490106e-01, 8.51057410e-01, 8.72745872e-01,
          3.85061800e-01 ]
      - [ 9.99042690e-01, 9.71633494e-01, 8.28894734e-01, 9.31467056e-01,
          4.51433718e-01 ]
      - [ 2.56098270e-01, 9.39066172e-01, 8.44984710e-01, 3.90488893e-01,
          0. ]
      - [ 7.28326023e-01, 8.40729058e-01, 8.40968251e-01, 9.04070675e-01,
          1.38344280e-02 ]
      - [ 7.81481087e-01, 9.88822222e-01, 8.17563891e-01, 9.75830793e-01,
          4.07312423e-01 ]
      - [ 3.37460786e-01, 7.13635325e-01, 8.16342711e-01, 9.80898857e-01,
          1. ]
      - [ 8.06403399e-01, 9.88174617e-01, 8.17567527e-01, 9.56312299e-01,
          4.32824221e-04 ]
      - [ 8.02704215e-01, 9.86268222e-01, 8.16783249e-01, 9.70220983e-01,
          3.09398835e-08 ]
      - [ 7.98405468e-01, 9.90411758e-01, 8.17034841e-01, 9.58460271e-01,
          5.03373211e-11 ]
      - [ 7.97390997e-01, 9.89962041e-01, 8.16985190e-01, 9.59242642e-01,
          2.34126746e-11 ]
      - [ 4.87364829e-01, 7.11953461e-01, 8.16805661e-01, 9.48902428e-01,
          1. ]
      - [ 1.20319210e-05, 8.51491749e-01, 8.14287603e-01, 9.41381037e-01,
          1. ]
      - [ 8.62566710e-01, 9.89785314e-01, 6.96177542e-01, 4.02490318e-01,
          0. ]
      - [ 7.70512640e-01, 9.58656371e-01, 8.16579998e-01, 9.13836658e-01,
          4.28379238e-01 ]
      - [ 6.44903898e-01, 9.45745528e-01, 7.93278456e-01, 9.12221074e-01,
          2.90966928e-01 ]
      - [ 2.99534023e-01, 8.52814376e-01, 7.69573271e-01, 8.23380709e-01,
          2.90529519e-01 ]
      - [ 4.24391985e-01, 9.47678983e-01, 7.93587446e-01, 9.17464733e-01,
          2.90529519e-01 ]
      - [ 3.58443618e-01, 9.76288855e-01, 8.16811562e-01, 8.45987618e-01,
          5.11221707e-01 ]
      - [ 7.27538526e-01, 9.83617723e-01, 8.34199071e-01, 8.47796440e-01,
          2.27550883e-02 ]
      - [ 7.36202061e-01, 9.84732687e-01, 8.46689761e-01, 8.08483303e-01,
          1.17563799e-01 ]
      - [ 9.99595046e-01, 9.63784873e-01, 8.81179035e-01, 8.11685503e-01,
          1.17563799e-01 ]
      - [ 8.61028850e-01, 9.42058563e-01, 8.69383335e-01, 7.96150327e-01,
          5.59542716e-01 ]
      - [ 1.81043622e-04, 9.78978515e-01, 7.92179048e-01, 8.79904926e-01,
          3.68356615e-01 ]
      - [ 7.23317325e-01, 9.29116070e-01, 8.29389215e-01, 8.64116609e-01,
          1.48656955e-02 ]
      - [ 9.81175900e-01, 9.36369836e-01, 8.25507522e-01, 8.42755675e-01,
          5.52398264e-01 ]
      - [ 7.56246209e-01, 9.93980169e-01, 8.61885905e-01, 8.20220828e-01,
          4.36071306e-02 ]
      - [ 8.07690442e-01, 9.92289662e-01, 8.71408045e-01, 8.49958599e-01,
          5.25363505e-01 ]
      - [ 8.27944577e-01, 9.79615569e-01, 9.58271563e-01, 8.44380736e-01,
          2.35589017e-04 ]
      - [ 9.74985719e-01, 9.90459502e-01, 8.71065974e-01, 9.00702953e-01,
          2.98692435e-01 ]
      - [ 8.27946723e-01, 9.81205523e-01, 9.59128439e-01, 8.41840863e-01,
          9.92291825e-06 ]
      - [ 8.14374208e-01, 9.90622044e-01, 8.71419132e-01, 8.53006721e-01,
          8.08257610e-02 ]
      - [ 9.74884748e-01, 9.92367983e-01, 8.71257961e-01, 8.89216065e-01,
          4.76520211e-01 ]
      - [ 8.31840217e-01, 9.89170611e-01, 8.77964556e-01, 8.54929209e-01,
          8.63796696e-02 ]
      - [ 8.08793902e-01, 9.88310158e-01, 8.71553302e-01, 8.17844152e-01,
          8.63796696e-02 ]
      - [ 8.80697906e-01, 9.90665078e-01, 8.70778620e-01, 8.40904236e-01,
          2.47119412e-01 ]
      - [ 9.44864212e-07, 9.93708253e-01, 9.66925919e-01, 8.96930695e-01,
          1.83819025e-03 ]
      - [ 4.76819495e-12, 8.80302846e-01, 7.67880619e-01, 8.99046123e-01,
          2.52604306e-01 ]
      - [ 9.71251130e-01, 9.90807295e-01, 8.71379673e-01, 8.98437381e-01,
          2.52604306e-01 ]
      - [ 8.32063913e-01, 9.88838017e-01, 8.71652424e-01, 8.52678418e-01,
          8.57061744e-02 ]
      - [ 8.34987819e-01, 9.88017976e-01, 8.71248841e-01, 8.25955987e-01,
          3.07788193e-01 ]
      - [ 3.42737705e-01, 8.82403910e-01, 7.67923176e-01, 8.71324420e-01,
          1.75989300e-01 ]
      - [ 8.41201663e-01, 9.86212194e-01, 8.71008396e-01, 8.26089561e-01,
          1.38689160e-01 ]
      - [ 2.17939481e-01, 9.94959235e-01, 7.52888739e-01, 8.68986368e-01,
          1.83475852e-01 ]
      - [ 1.30590045e-08, 9.95142162e-01, 7.53660560e-01, 7.96820283e-01,
          1.13929614e-01 ]
      - [ 7.29431212e-01, 9.95022833e-01, 8.31731498e-01, 9.41135645e-01,
          7.58395065e-03 ]
      - [ 7.34150231e-01, 9.95093405e-01, 8.85255814e-01, 8.76737833e-01,
          0. ]
      - [ 7.38323271e-01, 9.92317677e-01, 8.90544355e-01, 8.57955158e-01,
          5.37608922e-01 ]
      - [ 8.69340181e-01, 9.92351353e-01, 8.89791846e-01, 8.83494973e-01,
          1. ]
      - [ 9.76621330e-01, 9.98930097e-01, 8.18863273e-01, 9.11350906e-01,
          7.39722908e-01 ]
      - [ 7.42704690e-01, 9.93472993e-01, 8.90070975e-01, 8.70959580e-01,
          7.39722908e-01 ]
      - [ 8.77791286e-01, 9.92112815e-01, 8.87496173e-01, 8.55369627e-01,
          6.27274990e-01 ]
      - [ 8.70985925e-01, 9.93719161e-01, 8.93113732e-01, 9.38469470e-01,
          5.23318768e-01 ]
      - [ 8.72409165e-01, 9.85313118e-01, 8.92661870e-01, 9.09470916e-01,
          6.35330975e-01 ]
      - [ 9.75352943e-01, 8.72793615e-01, 8.41622055e-01, 8.99037898e-01,
          8.34772527e-01 ]
      - [ 4.66137141e-01, 9.11786020e-01, 8.57446074e-01, 8.72806668e-01,
          7.39379227e-01 ]
      - [ 2.44493094e-05, 9.97257292e-01, 8.53206635e-01, 8.89792383e-01,
          1.11151099e-01 ]
      - [ 7.64063478e-01, 7.76238739e-01, 8.55021954e-01, 9.04640675e-01,
          1.99485302e-01 ]
      - [ 7.62364388e-01, 7.79617906e-01, 8.54835451e-01, 9.18053925e-01,
          8.63072425e-02 ]
      - [ 9.31848228e-01, 9.93989468e-01, 8.23808610e-01, 9.12545383e-01,
          6.91711577e-03 ]
      - [ 8.87073338e-01, 9.88853753e-01, 8.23497295e-01, 9.25839424e-01,
          1.24259847e-09 ]
      - [ 7.68326223e-01, 7.95808256e-01, 8.55377495e-01, 8.20061862e-01,
          3.29254828e-23 ]
      - [ 9.05007541e-01, 9.87246454e-01, 8.19250286e-01, 6.84214771e-01,
          6.05899096e-01 ]
      - [ 9.76412058e-01, 9.96213317e-01, 8.22499692e-01, 9.27485228e-01,
          1.09611638e-02 ]
      - [ 3.43181401e-01, 9.73871529e-01, 8.23095024e-01, 8.92534196e-01,
          1.71786223e-06 ]
      - [ 8.72163236e-01, 9.57711160e-01, 6.84607089e-01, 9.37272549e-01,
          0. ]
      - [ 8.71922910e-01, 9.48944092e-01, 6.84386969e-01, 9.45957303e-01,
          0. ]
      - [ 8.83584023e-01, 9.53345120e-01, 8.32476914e-01, 7.42290199e-01,
          5.12066763e-03 ]
      - [ 8.63663733e-01, 9.97453749e-01, 6.59236014e-01, 8.38675022e-01,
          6.52030849e-07 ]
      - [ 9.12702560e-01, 9.98730958e-01, 6.57407582e-01, 8.27433944e-01,
          1.55425255e-08 ]
      - [ 8.71933401e-01, 9.87681329e-01, 8.43452156e-01, 9.08156991e-01,
          0. ]
      - [ 7.50679076e-01, 9.85551536e-01, 8.86383772e-01, 9.25839603e-01,
          0. ]
      - [ 7.95055032e-01, 8.68934751e-01, 8.77789617e-01, 9.50724125e-01,
          0. ]
      - [ 9.67123926e-01, 9.96166587e-01, 8.93660903e-01, 8.92409325e-01,
          1.29550621e-02 ]
      - [ 9.78024960e-01, 8.59124422e-01, 9.35158193e-01, 9.81392264e-01,
          0. ]
      - [ 6.56174183e-01, 9.96195853e-01, 9.42686439e-01, 9.36512291e-01,
          2.46112607e-03 ]
      - [ 0., 8.40501130e-01, 9.34367836e-01, 9.24561262e-01, 0. ]
      - [ 2.44181044e-02, 7.54897296e-01, 8.67581367e-01, 8.59844089e-01,
          1. ]
      - [ 6.47428989e-01, 9.78620470e-01, 9.61412072e-01, 8.99804294e-01,
          0. ]
      - [ 9.86141384e-01, 9.85960066e-01, 8.42294455e-01, 8.75652611e-01,
          0. ]
      - [ 5.80708146e-01, 9.78613019e-01, 9.61746335e-01, 9.01133776e-01,
          0. ]
      - [ 7.72649169e-01, 9.78274286e-01, 9.60524976e-01, 8.85900080e-01,
          0. ]
      - [ 8.05363417e-01, 9.65264142e-01, 9.64689612e-01, 9.52584326e-01,
          0. ]
      - [ 0., 6.15129054e-01, 7.71931529e-01, 9.57122564e-01,
          1.99513137e-01 ]
      - [ 7.66840100e-01, 9.81162250e-01, 9.62191701e-01, 8.94693255e-01,
          0. ]
      - [ 7.60334551e-01, 9.79986489e-01, 9.62443829e-01, 8.98152471e-01,
          0. ]
      - [ 5.70148192e-02, 8.91025543e-01, 9.18296874e-01, 9.55683529e-01,
          0. ]
      - [ 5.95277905e-01, 8.58483315e-01, 5.89381337e-01, 8.89172077e-01,
          0. ]
      - [ 9.91670787e-01, 9.30291951e-01, 6.83024585e-01, 8.95184934e-01,
          0. ]
      - [ 2.51936257e-01, 8.47198427e-01, 5.90343058e-01, 8.96906018e-01,
          0. ]
      - [ 3.39961529e-01, 9.96212780e-01, 8.32458973e-01, 9.17488694e-01,
          0. ]
      - [ 5.21779716e-01, 9.94949460e-01, 8.13609302e-01, 9.36653793e-01,
          1. ]
      - [ 7.90647447e-01, 9.20252025e-01, 6.28935635e-01, 9.20177579e-01,
          0. ]
      - [ 2.23288201e-02, 6.99714303e-01, 9.85913396e-01, 8.71760607e-01,
          0. ]
      - [ 5.23865581e-01, 7.85293460e-01, 8.09514344e-01, 4.06599581e-01,
          0. ]
      - [ 7.59902298e-01, 8.79844844e-01, 9.17830944e-01, 8.91390443e-01,
          0. ]
      - [ 8.55488598e-01, 4.94272768e-01, 6.03868961e-01, 6.43008113e-01,
          0. ]
      - [ 7.58499622e-01, 9.97836471e-01, 7.78614581e-01, 6.10289097e-01,
          4.04854834e-01 ]
      - [ 2.91663677e-01, 9.34506834e-01, 6.50925100e-01, 8.35801601e-01,
          2.32460749e-22 ]
      - [ 4.00396466e-01, 5.39346635e-01, 8.40207100e-01, 6.97533727e-01,
          3.35955650e-01 ]
      - [ 3.21875423e-01, 6.44682288e-01, 9.22737300e-01, 9.24816966e-01,
          0. ]
      - [ 9.44221377e-01, 7.99179316e-01, 7.28701949e-01, 3.68082315e-01,
          0. ]
      - [ 0., 8.81795287e-01, 9.55161095e-01, 7.52932072e-01,
          9.80111258e-25 ]
      - [ 8.09018314e-01, 5.36673248e-01, 7.32655585e-01, 6.03150904e-01,
          1. ]
      - [ 9.48937416e-01, 5.57304978e-01, 7.28340745e-01, 6.82703316e-01,
          1. ]
      - [ 8.87171149e-01, 7.96927810e-01, 7.28880882e-01, 3.69517297e-01,
          0. ]
      - [ 7.82376707e-01, 6.56724453e-01, 9.96185899e-01, 8.56804073e-01,
          2.25324541e-01 ]
      - [ 9.55993474e-01, 5.46261430e-01, 7.52357304e-01, 5.37095249e-01,
          2.25324541e-01 ]
      - [ 6.88535094e-01, 9.93292391e-01, 8.56107831e-01, 7.92826653e-01,
          1. ]
      - [ 9.89750087e-01, 9.65099692e-01, 8.45285654e-01, 6.39721751e-01,
          3.95239174e-01 ]
      - [ 9.47213829e-01, 5.21406174e-01, 9.80569780e-01, 8.37480426e-01,
          7.14620081e-14 ]
      - [ 0., 9.52461243e-01, 8.40864956e-01, 7.75772154e-01,
          4.74432766e-01 ]
      - [ 6.95972800e-01, 9.95968461e-01, 8.45989645e-01, 7.59787679e-01,
          4.74432766e-01 ]
      - [ 0., 9.62905586e-01, 9.03632402e-01, 7.85843074e-01,
          4.98843968e-01 ]
      - [ 7.11932063e-01, 9.96508300e-01, 8.34070683e-01, 7.42145360e-01,
          2.31481120e-01 ]
      - [ 5.48072338e-01, 9.95893896e-01, 8.51543188e-01, 7.19280303e-01,
          3.71787213e-02 ]
      - [ 9.70241785e-01, 9.48190570e-01, 8.51537049e-01, 6.45021141e-01,
          1. ]
      - [ 3.85041311e-02, 9.97559965e-01, 8.65339994e-01, 8.77920568e-01,
          0. ]
      - [ 6.67470157e-01, 9.96384144e-01, 8.65077436e-01, 8.56059909e-01,
          0. ]
      - [ 2.73656435e-02, 9.83532846e-01, 8.47774148e-01, 8.11742902e-01,
          3.44592184e-01 ]
      - [ 4.17644262e-01, 9.84710276e-01, 8.47932220e-01, 8.03833961e-01,
          1.00927234e-01 ]
      - [ 5.19615650e-01, 9.99926507e-01, 9.99236405e-01, 9.76142168e-01,
          8.18530023e-01 ]
      - [ 9.97672081e-01, 9.99289215e-01, 9.99391615e-01, 9.83151853e-01,
          8.18530023e-01 ]
      - [ 2.42699027e-01, 8.27188432e-01, 9.70414758e-01, 9.93345082e-01,
          7.39882886e-01 ]
      - [ 5.96633077e-01, 9.91830170e-01, 9.98778403e-01, 5.86643338e-01,
          3.26611549e-01 ]
      - [ 9.97362494e-01, 9.99912024e-01, 9.98418033e-01, 9.86575007e-01,
          0. ]
      - [ 4.85956877e-01, 9.94682252e-01, 9.99631107e-01, 9.71744835e-01,
          3.85352999e-01 ]
      - [ 4.02197521e-03, 9.85268891e-01, 9.99373794e-01, 8.63903701e-01,
          4.38319147e-02 ]
      - [ 4.78855819e-01, 9.97902513e-01, 9.99787986e-01, 9.53074455e-01,
          4.38319147e-02 ]
      - [ 4.59804207e-01, 9.86990273e-01, 9.18698967e-01, 9.61627424e-01,
          3.18792492e-01 ]
      - [ 1.28398361e-02, 9.97660935e-01, 9.52432394e-01, 9.03733909e-01,
          3.18792492e-01 ]
      - [ 7.24312365e-01, 9.98745799e-01, 9.97903824e-01, 9.74326253e-01,
          0. ]
      - [ 0., 7.75458336e-01, 9.81724560e-01, 7.20545709e-01,
          9.71927147e-05 ]
      - [ 8.36201727e-01, 9.97962952e-01, 9.67461884e-01, 8.72532427e-01,
          9.71927147e-05 ]
      - [ 7.46959075e-02, 9.35234129e-01, 9.28747654e-01, 9.42283750e-01,
          3.35859835e-01 ]
      - [ 9.89305854e-01, 9.99531925e-01, 9.18040097e-01, 9.34365511e-01,
          4.06400800e-01 ]
      - [ 1.14557248e-37, 9.41592038e-01, 9.00845706e-01, 8.25274765e-01,
          7.23292828e-01 ]
      - [ 9.86748576e-01, 9.93808925e-01, 8.75016093e-01, 9.25048709e-01,
          6.33975804e-01 ]
      - [ 9.96196985e-01, 9.87944245e-01, 9.64481354e-01, 8.90996933e-01,
          1.13774456e-06 ]
      - [ 9.97440875e-01, 9.92675900e-01, 8.95638287e-01, 8.98269773e-01,
          5.23925900e-01 ]
      - [ 9.98228431e-01, 9.84439075e-01, 8.81681144e-01, 9.29826915e-01,
          6.34336710e-01 ]
      - [ 8.93497586e-01, 9.68410969e-01, 9.42880154e-01, 7.12764382e-01,
          0. ]
      - [ 2.92229280e-02, 9.92525518e-01, 9.99332190e-01, 9.53699350e-01,
          2.19513737e-02 ]
      - [ 4.19776261e-01, 9.99929249e-01, 9.98448849e-01, 9.88095343e-01,
          2.19513737e-02 ]
      - [ 7.78660476e-01, 9.92468894e-01, 9.19226170e-01, 6.45581782e-01,
          1.65869631e-06 ]
      - [ 7.00763837e-02, 9.99993205e-01, 9.99095380e-01, 9.82662439e-01,
          9.35715798e-04 ]
      - [ 4.30722266e-01, 9.99496937e-01, 8.95559192e-01, 9.03912783e-01,
          4.46899299e-04 ]
      - [ 3.55963826e-01, 8.46771836e-01, 9.91907239e-01, 9.20747101e-01,
          3.43490283e-05 ]
      - [ 8.31853867e-01, 9.98557746e-01, 9.66747820e-01, 7.23030448e-01,
          1.30274682e-04 ]
      - [ 8.83399427e-01, 9.96044695e-01, 9.91485178e-01, 6.21279895e-01,
          1.25959337e-01 ]
      - [ 1.59272164e-01, 9.99934494e-01, 8.16307843e-01, 7.37577021e-01,
          1.37613243e-09 ]
      - [ 8.85430753e-01, 9.99238670e-01, 9.27278399e-01, 7.68882573e-01,
          1.01028614e-01 ]
      - [ 4.37099963e-01, 9.44727838e-01, 9.38792884e-01, 8.30394745e-01,
          1.01028614e-01 ]
      - [ 1.58788692e-02, 9.99846995e-01, 9.96855080e-01, 7.42634356e-01,
          3.95698547e-01 ]
      - [ 2.29518965e-01, 9.96739864e-01, 9.18337882e-01, 8.81119907e-01,
          7.06156313e-01 ]
      - [ 1.86438248e-01, 9.91191626e-01, 9.14101958e-01, 9.18493867e-01,
          8.51168633e-01 ]
      - [ 7.23858476e-01, 9.99873877e-01, 9.99303341e-01, 7.57939160e-01,
          8.51168633e-01 ]
      - [ 1.71827599e-02, 8.89543116e-01, 6.68951273e-01, 4.21525359e-01,
          0. ]
      - [ 9.47780092e-04, 9.94099498e-01, 8.99962664e-01, 8.58493686e-01,
          4.50989455e-01 ]
      - [ 6.12295466e-03, 9.98664141e-01, 8.86954606e-01, 8.65123451e-01,
          6.48061037e-02 ]
      - [ 5.53468406e-01, 9.99947488e-01, 8.73374879e-01, 9.11654115e-01,
          5.78014910e-01 ]
      - [ 5.51350713e-01, 9.99937832e-01, 8.91287446e-01, 8.94742429e-01,
          4.76061076e-01 ]
      - [ 7.81718433e-01, 9.99392867e-01, 8.57481301e-01, 8.89645994e-01,
          7.24546254e-01 ]
      - [ 6.63154900e-01, 9.86487865e-01, 9.52290654e-01, 3.90406728e-01,
          0. ]
      - [ 3.72961350e-02, 9.85271394e-01, 8.85263443e-01, 9.22403336e-01,
          4.74408686e-01 ]
      - [ 1.35411352e-01, 9.28291023e-01, 8.65153730e-01, 9.14903581e-01,
          1. ]
      - [ 3.79950762e-01, 9.55743074e-01, 9.97284710e-01, 6.62302315e-01,
          2.48565853e-01 ]
      - [ 8.75734508e-01, 9.87991214e-01, 8.96023750e-01, 9.66411471e-01,
          6.93654001e-01 ]
      - [ 2.33550876e-01, 9.96560872e-01, 9.18947518e-01, 9.55753148e-01,
          6.07452512e-01 ]
      - [ 9.16895568e-01, 9.98591721e-01, 9.03560996e-01, 9.77997005e-01,
          5.51494002e-01 ]
      - [ 3.46182793e-01, 9.90624130e-01, 9.27411556e-01, 9.55178916e-01,
          6.94597781e-01 ]
      - [ 3.18739325e-01, 9.86047208e-01, 9.12350774e-01, 7.33559906e-01,
          5.64514399e-01 ]
      - [ 6.45843148e-01, 9.92359161e-01, 8.48278165e-01, 8.47178936e-01,
          0. ]
      - [ 3.82614166e-01, 9.99766231e-01, 6.18715286e-01, 9.66098487e-01,
          0. ]
      - [ 2.89865434e-01, 9.99767363e-01, 9.17970061e-01, 8.61330509e-01,
          5.92249691e-01 ]
      - [ 8.01962242e-02, 9.99912202e-01, 9.41957414e-01, 9.81303751e-01,
          4.82762419e-02 ]
      - [ 6.13294542e-01, 9.97856975e-01, 8.38131189e-01, 9.44171071e-01,
          5.12426019e-01 ]
      - [ 9.15591598e-01, 9.98666823e-01, 8.89439046e-01, 9.74782825e-01,
          7.69118807e-31 ]
      - [ 2.16791198e-01, 9.96185660e-01, 9.58563268e-01, 8.83066714e-01,
          7.69118807e-31 ]
      - [ 3.83489265e-07, 9.99886334e-01, 9.53155339e-01, 9.72545028e-01,
          7.69118807e-31 ]
      - [ 9.45860054e-03, 9.98770177e-01, 8.23388040e-01, 6.86724067e-01,
          8.19343841e-04 ]
      - [ 6.54111564e-01, 9.96049106e-01, 8.47647369e-01, 9.39391494e-01,
          8.19343841e-04 ]
      - [ 6.04296029e-01, 9.99146938e-01, 9.29237187e-01, 9.11213875e-01,
          8.19343841e-04 ]
      - [ 2.21068244e-02, 9.99311090e-01, 8.49501848e-01, 9.16802585e-01,
          4.78060305e-01 ]
      - [ 6.33467287e-02, 9.98733521e-01, 9.99803603e-01, 6.64231598e-01,
          4.78060305e-01 ]
      - [ 1.90439343e-04, 9.99813199e-01, 8.32130492e-01, 7.17788219e-01,
          3.18137288e-01 ]
      - [ 1.31974434e-02, 9.99021292e-01, 8.53087008e-01, 8.80471826e-01,
          5.91413736e-01 ]
      - [ 7.19032109e-01, 9.99028742e-01, 8.22168171e-01, 9.02440786e-01,
          5.87548316e-01 ]
      - [ 3.53351116e-01, 9.98196363e-01, 8.76014233e-01, 9.50895011e-01,
          4.74156737e-01 ]
      - [ 5.23017459e-02, 9.97484446e-01, 9.99407470e-01, 9.44916546e-01,
          2.70640180e-02 ]
      - [ 3.48184556e-01, 9.93845522e-01, 9.21612382e-01, 8.94684911e-01,
          5.10224521e-01 ]
      - [ 4.44778707e-03, 5.02725124e-01, 8.05839241e-01, 8.68992209e-01,
          3.57403547e-01 ]
      - [ 6.13921940e-01, 9.99977767e-01, 8.06961834e-01, 8.79861355e-01,
          1. ]
      - [ 7.63490330e-03, 9.95801687e-01, 9.13623095e-01, 7.91562617e-01,
          7.39475906e-01 ]
      - [ 8.41741025e-01, 9.98206377e-01, 9.06021893e-01, 8.34131062e-01,
          5.25049388e-01 ]
      - [ 9.07591403e-01, 9.14290905e-01, 9.17774260e-01, 8.97213578e-01,
          5.63922226e-01 ]
      - [ 1.27579086e-03, 9.99331594e-01, 8.12632382e-01, 9.28171933e-01,
          0. ]
      - [ 9.60151494e-01, 9.29594517e-01, 8.75520051e-01, 9.64502811e-01,
          4.88141268e-01 ]
      - [ 4.05320287e-01, 9.82756376e-01, 9.21187162e-01, 9.53772128e-01,
          7.23523021e-01 ]
      - [ 4.87088352e-01, 9.82896745e-01, 8.90954375e-01, 9.01155770e-01,
          6.49818122e-01 ]
      - [ 7.60348022e-01, 9.61518526e-01, 8.78906667e-01, 9.16760683e-01,
          6.93581104e-01 ]
      - [ 5.20629108e-01, 9.78984952e-01, 8.78982782e-01, 7.11864054e-01,
          5.78154147e-01 ]
      - [ 3.32216918e-02, 9.65501845e-01, 8.86932433e-01, 8.22881460e-01,
          6.05914295e-01 ]
      - [ 7.19313800e-01, 8.34986448e-01, 9.14165258e-01, 8.70219588e-01,
          5.24864197e-01 ]
      - [ 1.02094688e-01, 9.87356722e-01, 8.76893878e-01, 9.71332014e-01,
          6.35116518e-01 ]
      - [ 1.26644135e-01, 9.88792777e-01, 8.69333506e-01, 9.08686042e-01,
          3.35525572e-01 ]
      - [ 2.93977141e-01, 9.99882877e-01, 9.99857366e-01, 9.70386446e-01,
          2.22877390e-03 ]
      - [ 6.56234026e-01, 9.74143505e-01, 9.52161551e-01, 9.31271970e-01,
          6.10202903e-07 ]
      - [ 9.55288529e-01, 9.86685097e-01, 8.70149791e-01, 7.00953245e-01,
          5.50932586e-01 ]
      - [ 3.62286538e-01, 7.86347508e-01, 8.94223392e-01, 7.05711603e-01,
          5.50932586e-01 ]
      - [ 9.58580375e-01, 9.83874500e-01, 9.14942324e-01, 6.56424284e-01,
          8.35532010e-01 ]
      - [ 4.11390662e-01, 7.84589291e-01, 9.06645954e-01, 9.14592206e-01,
          8.35532010e-01 ]
      - [ 4.33599412e-01, 7.35747695e-01, 9.25253510e-01, 8.84646118e-01,
          5.37709892e-01 ]
      - [ 9.60062504e-01, 9.07303751e-01, 9.13806915e-01, 5.25246918e-01,
          6.20093107e-01 ]
      - [ 4.91956800e-01, 9.90483224e-01, 9.01432097e-01, 7.56117880e-01,
          7.08956599e-01 ]
      - [ 9.61042702e-01, 9.39264715e-01, 8.79630744e-01, 7.25584030e-01,
          7.08956599e-01 ]
      - [ 3.27371294e-03, 9.98587251e-01, 8.84040594e-01, 6.50039077e-01,
          6.06021643e-01 ]
      - [ 9.88548577e-01, 8.95962358e-01, 8.89331400e-01, 8.43753874e-01,
          6.06021643e-01 ]
      - [ 4.88960803e-01, 9.72499251e-01, 9.14600313e-01, 6.62524998e-01,
          6.05954468e-01 ]
      - [ 5.04973471e-01, 8.20927322e-01, 8.85987163e-01, 7.84747958e-01,
          6.78206921e-01 ]
      - [ 9.64083433e-01, 9.34111953e-01, 8.89241695e-01, 8.77211571e-01,
          7.08612621e-01 ]
      - [ 9.64923203e-01, 9.41641092e-01, 9.03458953e-01, 8.47080946e-01,
          6.93227828e-01 ]
      - [ 9.82580483e-01, 9.17086542e-01, 8.91687155e-01, 5.84321439e-01,
          5.51055849e-01 ]
      - [ 5.85087121e-01, 8.93867552e-01, 9.98499572e-01, 9.17319655e-01,
          0. ]
      - [ 8.88630688e-01, 9.82581854e-01, 8.13808739e-01, 8.43250990e-01,
          0. ]
      - [ 9.91173506e-01, 9.38945055e-01, 9.88608003e-01, 5.87114871e-01,
          9.87915322e-03 ]
      - [ 5.96152186e-01, 9.11775112e-01, 9.90315199e-01, 7.31019080e-01,
          9.87915322e-03 ]
      - [ 9.85402942e-01, 9.18902338e-01, 9.97248054e-01, 5.88069797e-01,
          3.75034839e-01 ]
      - [ 9.77425933e-01, 9.71232772e-01, 9.95197535e-01, 5.92976153e-01,
          0. ]
      - [ 6.27033293e-01, 9.62890148e-01, 9.85841393e-01, 9.00047243e-01,
          0. ]
      - [ 6.50548518e-01, 8.93529236e-01, 9.96044338e-01, 8.93819749e-01,
          0. ]
      - [ 4.45732951e-01, 8.83573651e-01, 9.94616151e-01, 8.09367478e-01,
          0. ]
      - [ 7.66588092e-01, 9.35203493e-01, 9.24209297e-01, 5.82101166e-01,
          5.24964929e-01 ]
      - [ 4.52283710e-01, 9.87396777e-01, 8.17376673e-01, 7.98806608e-01,
          4.99058694e-01 ]
      - [ 8.36296141e-01, 9.71649110e-01, 9.35359716e-01, 5.41694403e-01,
          2.92232186e-01 ]
      - [ 7.04656780e-01, 8.61812949e-01, 9.62146342e-01, 8.08963418e-01,
          5.35082945e-05 ]
      - [ 8.79128158e-01, 9.82563436e-01, 9.20872569e-01, 5.62641203e-01,
          2.33226805e-03 ]
      - [ 8.84588778e-01, 9.79847431e-01, 9.97903764e-01, 5.76267779e-01,
          4.37777936e-02 ]
      - [ 7.35544860e-01, 9.63455915e-01, 9.40562069e-01, 6.41033053e-01,
          2.77035832e-02 ]
      - [ 5.75868011e-01, 9.96591270e-01, 9.99525547e-01, 9.57231998e-01,
          2.77035832e-02 ]
      - [ 9.01083112e-01, 9.84631479e-01, 8.89791727e-01, 7.38113403e-01,
          4.74140257e-01 ]
      - [ 7.48617887e-01, 9.43917811e-01, 9.33699429e-01, 8.28714192e-01,
          4.65533754e-04 ]
      - [ 7.60547340e-01, 8.87345433e-01, 9.00554180e-01, 8.49698544e-01,
          1.43254315e-02 ]
      - [ 6.17116928e-01, 9.94623125e-01, 9.99738038e-01, 9.56628859e-01,
          1.43254315e-02 ]
      - [ 6.89168513e-01, 9.93657410e-01, 8.28537345e-01, 9.55327034e-01,
          4.06685919e-01 ]
      - [ 9.76268172e-01, 9.34827089e-01, 8.29560697e-01, 9.02235985e-01,
          4.06685919e-01 ]
      - [ 8.42501700e-01, 9.95141685e-01, 7.98580229e-01, 8.96805167e-01,
          1.76542415e-03 ]
      - [ 7.74789870e-01, 9.80427563e-01, 8.73433769e-01, 8.95497143e-01,
          1.42605141e-01 ]
      - [ 9.47391629e-01, 9.99855340e-01, 6.63647532e-01, 8.98097873e-01,
          0. ]
      - [ 8.44792485e-01, 9.97097611e-01, 7.82431066e-01, 8.11126411e-01,
          0. ]
      - [ 7.33879924e-01, 9.97534990e-01, 8.71427596e-01, 8.84799182e-01,
          5.50388813e-01 ]
      - [ 1.06008025e-02, 9.47757065e-01, 8.23885918e-01, 8.53517175e-01,
          2.83310086e-01 ]
      - [ 8.65851641e-01, 9.98611152e-01, 9.31649685e-01, 9.05275524e-01,
          8.61867070e-02 ]
      - [ 6.25346661e-01, 8.33402634e-01, 8.91692579e-01, 9.10622418e-01,
          6.34147286e-01 ]
      - [ 6.17031753e-01, 9.61471140e-01, 9.64078009e-01, 3.71564269e-01,
          0. ]
      - [ 0., 9.68703568e-01, 8.70916784e-01, 8.59001815e-01,
          1.87381953e-01 ]
      - [ 6.77410901e-01, 9.85397756e-01, 9.42218721e-01, 8.98743749e-01,
          0. ]
      - [ 4.76936609e-01, 9.92584705e-01, 8.68071377e-01, 9.55404878e-01,
          5.63533127e-01 ]
      - [ 9.04870749e-01, 8.03862214e-01, 9.03260350e-01, 5.72176993e-01,
          0. ]
      - [ 1.40168741e-01, 9.73818719e-01, 8.48405302e-01, 9.58842099e-01,
          2.86514554e-02 ]
      - [ 8.08556437e-01, 9.85891521e-01, 8.52331042e-01, 9.56775069e-01,
          3.36751044e-02 ]
      - [ 6.76368117e-01, 9.89738047e-01, 8.81976604e-01, 7.92000949e-01,
          4.50264770e-06 ]
      - [ 9.05675173e-01, 9.41598535e-01, 8.55964780e-01, 8.96805227e-01,
          1.29496129e-02 ]
      - [ 2.11852312e-01, 9.69621658e-01, 8.46193850e-01, 8.46028745e-01,
          1.57972015e-02 ]
      - [ 6.71644807e-01, 9.90280390e-01, 8.81159365e-01, 7.73845613e-01,
          3.57338104e-05 ]
      - [ 8.68292034e-01, 9.35437381e-01, 8.12305510e-01, 9.81633842e-01,
          0. ]
      - [ 9.95955586e-01, 9.98178422e-01, 9.13483500e-01, 9.12447214e-01,
          3.45348656e-01 ]
      - [ 9.59752679e-01, 9.38640773e-01, 9.19827759e-01, 9.32912052e-01,
          9.52511670e-09 ]
      - [ 7.22227097e-01, 9.55168843e-01, 8.06906641e-01, 9.49093521e-01,
          1.05488873e-09 ]
      - [ 7.40070283e-01, 8.73028994e-01, 8.33186865e-01, 8.50366175e-01,
          1.76686123e-01 ]
      - [ 9.59057748e-01, 9.97951567e-01, 9.20484006e-01, 9.22787845e-01,
          6.26009598e-04 ]
      - [ 8.89087498e-01, 9.19380546e-01, 8.14241230e-01, 8.10502112e-01,
          3.47853601e-02 ]
      - [ 9.95566368e-01, 9.99224544e-01, 9.52415347e-01, 9.14863467e-01,
          1.38344280e-02 ]
      - [ 7.52456725e-01, 9.07102883e-01, 8.19396555e-01, 9.07605410e-01,
          2.50580814e-02 ]
      - [ 7.70808756e-01, 9.66102600e-01, 8.24831724e-01, 9.28493321e-01,
          4.32824221e-04 ]
      - [ 2.32172832e-01, 9.97661829e-01, 9.96694922e-01, 9.45971608e-01,
          4.32824221e-04 ]
      - [ 7.69525528e-01, 9.47342932e-01, 9.63652253e-01, 9.72167194e-01,
          1.42926292e-04 ]
      - [ 4.13496308e-02, 9.99019444e-01, 9.98388946e-01, 8.71272862e-01,
          1.42926292e-04 ]
      - [ 7.80102611e-01, 9.19278562e-01, 9.58340466e-01, 9.72252727e-01,
          3.24859377e-03 ]
      - [ 1.46301127e-09, 8.92152786e-01, 9.46759164e-01, 5.49126506e-01,
          0. ]
      - [ 4.09117281e-01, 8.47242415e-01, 8.84338856e-01, 9.28621411e-01,
          8.32790607e-12 ]
      - [ 2.14822039e-01, 9.40864742e-01, 7.58614838e-01, 8.61656666e-01,
          1.14469945e-01 ]
      - [ 1.03392102e-01, 9.49388444e-01, 9.99145925e-01, 8.56168270e-01,
          0. ]
      - [ 7.13498235e-01, 9.99365985e-01, 9.96803463e-01, 9.42736149e-01,
          0. ]
      - [ 5.78396618e-01, 9.91566956e-01, 7.96339691e-01, 7.44578660e-01,
          6.82811663e-02 ]
      - [ 8.79778326e-01, 9.79134023e-01, 8.82689118e-01, 6.85170174e-01,
          5.11221707e-01 ]
      - [ 7.30565548e-01, 9.98797596e-01, 9.23256516e-01, 8.89566481e-01,
          2.27550883e-02 ]
      - [ 7.44891107e-01, 9.97878850e-01, 9.03444290e-01, 8.30908239e-01,
          1.17563799e-01 ]
      - [ 9.97336805e-01, 9.95326400e-01, 9.97742951e-01, 7.63109922e-01,
          2.60304362e-01 ]
      - [ 7.38864958e-01, 9.74173903e-01, 9.00044262e-01, 6.76919103e-01,
          3.34878802e-01 ]
      - [ 7.49214709e-01, 9.69202518e-01, 8.67191315e-01, 9.41383004e-01,
          3.98532301e-01 ]
      - [ 6.47991061e-01, 9.62200105e-01, 9.99016047e-01, 6.54343605e-01,
          1.03707038e-01 ]
      - [ 7.33010411e-01, 9.98884439e-01, 8.84712696e-01, 8.84811401e-01,
          3.45564038e-01 ]
      - [ 7.65487909e-01, 9.81958270e-01, 9.60411131e-01, 9.17777777e-01,
          2.30423966e-03 ]
      - [ 7.69544542e-01, 9.85463679e-01, 9.26363468e-01, 9.12650585e-01,
          4.06985916e-02 ]
      - [ 9.66881037e-01, 9.16436791e-01, 9.10002589e-01, 9.36397195e-01,
          2.00773049e-02 ]
      - [ 8.28508854e-01, 9.99619603e-01, 7.16227055e-01, 9.39637303e-01,
          9.92291825e-06 ]
      - [ 8.32463920e-01, 9.98420298e-01, 8.77414644e-01, 8.37109685e-01,
          2.84722596e-01 ]
      - [ 8.37719560e-01, 9.97756064e-01, 9.10730124e-01, 8.53097260e-01,
          4.76520211e-01 ]
      - [ 8.30490410e-01, 9.94401217e-01, 8.06695640e-01, 9.04151559e-01,
          8.23712035e-05 ]
      - [ 8.36736917e-01, 9.99201536e-01, 8.97813559e-01, 9.40782428e-01,
          1.42758321e-02 ]
      - [ 9.81679618e-01, 9.64150786e-01, 8.99246275e-01, 9.09678638e-01,
          7.95262586e-03 ]
      - [ 9.76271033e-01, 9.79871452e-01, 9.05198455e-01, 9.46412623e-01,
          1.83475852e-01 ]
      - [ 7.24718928e-01, 9.96527016e-01, 8.88610780e-01, 9.16615188e-01,
          3.02407928e-02 ]
      - [ 7.36360908e-01, 9.98038352e-01, 8.93782496e-01, 8.08559716e-01,
          7.58395065e-03 ]
      - [ 7.63315141e-01, 9.99044716e-01, 9.12710845e-01, 9.06053543e-01,
          8.34772527e-01 ]
      - [ 5.03255963e-01, 9.18166339e-01, 7.86729157e-01, 7.70734251e-01,
          3.84800956e-02 ]
      - [ 8.01826239e-01, 8.59589279e-01, 8.47600579e-01, 9.11327899e-01,
          5.52216589e-01 ]
      - [ 3.66466165e-01, 9.48000073e-01, 7.82741070e-01, 8.74357045e-01,
          1.24259847e-09 ]
      - [ 9.91469979e-01, 9.80527997e-01, 9.90637064e-01, 6.47390544e-01,
          1.99012570e-02 ]
      - [ 7.16911256e-01, 9.54538822e-01, 8.59908998e-01, 7.08336234e-01,
          4.24478874e-02 ]
      - [ 5.34175873e-01, 9.97902572e-01, 9.98863578e-01, 7.94733167e-01,
          5.13877894e-04 ]
      - [ 4.57274973e-01, 9.63174880e-01, 9.20576394e-01, 8.26618552e-01,
          3.00360352e-01 ]
      - [ 7.42933929e-01, 9.91412818e-01, 9.23023164e-01, 8.23698282e-01,
          1.88714087e-01 ]
      - [ 9.74292755e-01, 9.79138613e-01, 7.81915247e-01, 9.16717529e-01,
          1.98954542e-09 ]
      - [ 8.97012711e-01, 9.91963565e-01, 8.56480777e-01, 8.21394801e-01,
          2.26260236e-04 ]
      - [ 8.71466637e-01, 9.58193123e-01, 7.27986038e-01, 8.51943195e-01,
          2.72382633e-03 ]
      - [ 8.74650896e-01, 9.67641175e-01, 9.47582006e-01, 8.36332738e-01,
          2.01266399e-03 ]
      - [ 8.26391101e-01, 9.71622348e-01, 9.15678382e-01, 8.23625922e-01,
          4.86931026e-01 ]
      - [ 7.43921161e-01, 9.75065529e-01, 9.16647911e-01, 8.08478951e-01,
          6.33603275e-01 ]
      - [ 9.75826383e-01, 9.25056696e-01, 7.62294233e-01, 9.87337589e-01,
          1.55425255e-08 ]
      - [ 5.59278667e-01, 9.98303413e-01, 9.97712433e-01, 6.80717349e-01,
          2.59201787e-02 ]
      - [ 9.37739551e-01, 9.99050975e-01, 9.05402780e-01, 8.65790665e-01,
          6.63588405e-01 ]
      - [ 5.50118148e-01, 9.76434290e-01, 8.76231909e-01, 6.44277573e-01,
          0. ]
      - [ 2.20482014e-02, 7.87684381e-01, 9.49632943e-01, 9.23657060e-01,
          7.20301905e-05 ]
      - [ 5.01767337e-01, 7.72156715e-01, 9.57965612e-01, 9.69676733e-01,
          3.05230524e-02 ]
      - [ 3.50585073e-01, 9.99222517e-01, 9.39280450e-01, 8.05423915e-01,
          3.05230524e-02 ]
      - [ 9.16501343e-01, 7.79361129e-01, 9.57971871e-01, 9.30090725e-01,
          3.64833832e-01 ]
      - [ 4.52203631e-01, 7.79888213e-01, 9.72454906e-01, 9.22908783e-01,
          3.95618200e-01 ]
      - [ 6.96884573e-01, 9.97962356e-01, 8.99579227e-01, 9.05208945e-01,
          0. ]
      - [ 9.34723854e-01, 9.84477758e-01, 9.18849707e-01, 8.99711013e-01,
          1.99513137e-01 ]
      - [ 5.97840905e-01, 9.98959124e-01, 6.52850151e-01, 9.28340018e-01,
          0. ]
      - [ 9.72417653e-01, 8.00272226e-01, 9.99460876e-01, 9.19741929e-01,
          1.26070172e-01 ]
      - [ 8.36273849e-01, 9.96162832e-01, 9.00565505e-01, 9.83401418e-01,
          3.54705483e-01 ]
      - [ 2.33339161e-01, 9.97578025e-01, 8.91335607e-01, 9.18619394e-01,
          4.87322927e-01 ]
      - [ 5.04234910e-01, 9.77265477e-01, 9.72924292e-01, 8.08313966e-01,
          0. ]
      - [ 6.16924107e-01, 9.99450684e-01, 9.98995245e-01, 9.00349319e-01,
          1.65200981e-05 ]
      - [ 6.97577477e-01, 8.78739655e-01, 9.98887956e-01, 9.01583374e-01,
          1.65200981e-05 ]
      - [ 8.31620395e-01, 9.94807959e-01, 9.64813411e-01, 9.29861248e-01,
          0. ]
      - [ 5.57499751e-03, 9.90122437e-01, 9.99613285e-01, 7.71801531e-01,
          3.78739694e-03 ]
      - [ 8.38206768e-01, 9.29114759e-01, 8.80834818e-01, 8.53883982e-01,
          3.35955650e-01 ]
      - [ 0., 9.48051035e-01, 9.28878605e-01, 8.68058741e-01,
          1.34154886e-01 ]
      - [ 6.71078172e-03, 8.04284215e-01, 9.87905025e-01, 8.11300039e-01,
          1.30318016e-01 ]
      - [ 7.96949212e-03, 8.77381444e-01, 9.99029636e-01, 7.85618246e-01,
          4.50350106e-01 ]
      - [ 9.78328049e-01, 9.92607653e-01, 8.73967528e-01, 6.62107170e-01,
          4.87990230e-01 ]
      - [ 7.10594058e-01, 9.72563326e-01, 8.30218971e-01, 8.02033603e-01,
          3.95239174e-01 ]
      - [ 4.05299008e-01, 9.98660147e-01, 7.27256298e-01, 5.94928503e-01,
          6.71515067e-04 ]
   decision_functions:
      -
         sv_count: 538
         rho: -6.4468926403215887e-01
         alpha: [ 1.9694183349270925e-01, 1.7899275855029320e+00,
             2.0087073450832699e-01, 1.4430837006849179e-01,
             1.2080372239650247e-01, 4.1008407638419064e-02,
             1.4534307377242892e-01, 2.1002818974404214e-01,
             1.5961885381717211e-01, 1.3967586626710743e-01,
             1.7913750703411324e-01, 2.3267593272331763e-01,
             2.0843342673444676e+00, 2.0050062109623941e+00,
             5.5863928116066885e-02, 1.2334646160570679e+00,
             2.0843342673444676e+00, 4.3264852220080480e-01,
             2.0843342673444676e+00, 2.0843342673444676e+00,
             2.0843342673444676e+00, 1.4746526379616240e-01,
             2.0843342673444676e+00, 2.0843342673444676e+00,
             2.0843342673444676e+00, 2.0843342673444676e+00,
             2.0843342673444676e+00, 2.0843342673444676e+00,
             2.0843342673444676e+00, 2.0843342673444676e+00,
             2.0843342673444676e+00, 2.0843342673444676e+00,
             2.0843342673444676e+00, 2.0843342673444676e+00,
             2.0843342673444676e+00, 3.1818811534894903e-01,
             2.0843342673444676e+00, 2.0843342673444676e+00,
             3.2570022776942598e-01, 8.3047219067346315e-02,
             2.0843342673444676e+00, 2.0843342673444676e+00,
             1.2349474147610648e-01, 5.6333184841635790e-02,
             2.0843342673444676e+00, 2.0843342673444676e+00,
             2.0843342673444676e+00, 3.4917253604320839e-02,
             2.0843342673444676e+00, 1.5833115786150384e-01,
             2.0843342673444676e+00, 2.0843342673444676e+00,
             1.3719764310189946e+00, 2.0843342673444676e+00,
             2.0843342673444676e+00, 2.0843342673444676e+00,
             1.6675912424064848e-01, 1.5030606399714180e-01,
             2.3303326522021614e-01, 1.6553275240137039e-01,
             1.4540224753945613e-01, 1.6317976508479406e+00,
             2.0843342673444676e+00, 2.0843342673444676e+00,
             1.8914325640234302e+00, 2.0843342673444676e+00,
             2.0843342673444676e+00, 2.0843342673444676e+00,
             6.7172780210171013e-01, 2.0843342673444676e+00,
             4.0169942651104612e-01, 7.1239897902943450e-01,
             2.0843342673444676e+00, 2.0843342673444676e+00,
             8.5757165414693814e-01, 2.0843342673444676e+00,
             1.2050466236313623e-01, 5.3679125358700883e-02,
             1.0771543067729972e-01, 2.0843342673444676e+00,
             2.0843342673444676e+00, 1.7990852262187076e+00,
             1.4404882557145464e+00, 2.0843342673444676e+00,
             1.4751249626108803e-01, 2.0843342673444676e+00,
             1.9126822784072775e-01, 1.0894508485650516e-01,
             1.0139718171015122e-01, 4.3674661855533914e-01,
             2.0843342673444676e+00, 2.0843342673444676e+00,
             2.0843342673444676e+00, 1.6422563510732233e-01,
             3.4255884921247294e-02, 2.0520106870798116e-01,
             9.4413669175404738e-02, 2.2917697542345128e-01,
             1.4246802853610507e-01, 2.0843342673444676e+00,
             3.5863848625871150e-02, 1.8440872316622778e+00,
             1.2051557557647914e-01, 2.1399289623494147e-01,
             7.6103032867935594e-01, 2.0843342673444676e+00,
             5.4063588978214505e-01, 2.0843342673444676e+00,
             8.8231844576901586e-02, 8.2081479150957604e-01,
             2.0843342673444676e+00, 4.3154894505863967e-01,
             7.2211143374696096e-01, 2.0843342673444676e+00,
             9.5546959093364178e-02, 6.2123841190586859e-01,
             7.9966790858675019e-01, 2.0843342673444676e+00,
             5.7403337795630088e-02, 2.0843342673444676e+00,
             2.0843342673444676e+00, 9.2033378860327433e-02,
             1.8832037069377286e-01, 1.0173036573479982e-01,
             2.2314854080871860e-01, 1.2371143116368561e+00,
             3.5343042769704963e-01, 8.3824464081314387e-02,
             2.0843342673444676e+00, 2.0843342673444676e+00,
             2.3220455696611264e-01, 4.5437943450998786e-01,
             1.4378308520236482e-01, 1.3522021795432806e-01,
             9.3616819586045175e-02, 1.3738494833986559e-01,
             4.7822290216870078e-01, 2.0843342673444676e+00,
             2.0843342673444676e+00, 2.0843342673444676e+00,
             2.0843342673444676e+00, 1.5769740329954378e+00,
             2.0843342673444676e+00, 7.6861337983201505e-01,
             9.7596956882529062e-01, 7.1619106455469178e-02,
             2.0843342673444676e+00, 2.0769769612620470e+00,
             2.9463279100314055e-01, 1.7598440896433094e+00,
             2.0474657576363042e+00, 2.0843342673444676e+00,
             2.0843342673444676e+00, 2.0843342673444676e+00,
             5.4490682481463670e-01, 2.0843342673444676e+00,
             1.5543491333833015e+00, 2.0843342673444676e+00,
             2.0843342673444676e+00, 2.0843342673444676e+00,
             2.0843342673444676e+00, 3.0804963545645259e-01,
             6.4387014701739173e-02, 2.0843342673444676e+00,
             4.5604464624412172e-01, 1.0232046508908659e+00,
             2.0843342673444676e+00, 4.1890426994320706e-01,
             2.0843342673444676e+00, 2.0843342673444676e+00,
             1.6073020218041876e+00, 1.4526329196114215e-01,
             2.0843342673444676e+00, 6.6202727612121579e-02,
             2.0843342673444676e+00, 8.2506085620225178e-01,
             5.4608539168450605e-02, 9.7973141908983430e-02,
             1.0931427956044033e+00, 2.0843342673444676e+00,
             1.9983406774276116e+00, 1.4017279966243953e-01,
             2.0843342673444676e+00, 1.3439160494619679e-01,
             1.3528085261133946e-01, 5.8531516440928993e-02,
             4.9993557425360174e-01, 3.4443026482300043e-01,
             9.2368415865782844e-02, 2.0843342673444676e+00,
             2.0843342673444676e+00, 2.0843342673444676e+00,
             1.3064036504881509e+00, 2.0843342673444676e+00,
             2.0904399658775927e-01, 5.0349152630274108e-01,
             2.0843342673444676e+00, 5.2727648082764433e-01,
             2.0843342673444676e+00, 2.0843342673444676e+00,
             1.9700331682093902e-01, 2.0843342673444676e+00,
             3.7855617516448936e-01, 4.8021704394498238e-01,
             2.0924085743301196e-01, 1.2188901938107819e+00,
             1.7387474307553825e+00, 1.4486729735779880e-01,
             1.7580666199210828e+00, 1.2945387781747935e+00,
             2.0843342673444676e+00, 2.0843342673444676e+00,
             2.0843342673444676e+00, 2.0843342673444676e+00,
             1.4911366367149039e+00, 4.5782244771382424e-01,
             7.6780650282501306e-01, 2.0843342673444676e+00,
             2.0843342673444676e+00, 2.0843342673444676e+00,
             2.0843342673444676e+00, 2.0843342673444676e+00,
             2.0843342673444676e+00, 2.0843342673444676e+00,
             2.0843342673444676e+00, 2.0843342673444676e+00,
             2.0843342673444676e+00, 2.0843342673444676e+00,
             9.8950361260146968e-01, 2.0843342673444676e+00,
             2.0843342673444676e+00, 2.0843342673444676e+00,
             1.5824894665897016e-01, 1.9745816621534680e+00,
             2.0843342673444676e+00, 7.9083105210011573e-01,
             2.0843342673444676e+00, 2.0843342673444676e+00,
             2.0843342673444676e+00, 4.2130801574214233e-01,
             2.0843342673444676e+00, 2.0843342673444676e+00,
             2.0843342673444676e+00, 2.0843342673444676e+00,
             2.0843342673444676e+00, 1.2605859753942086e+00,
             2.0843342673444676e+00, 2.0843342673444676e+00,
             1.5594342401132966e+00, 3.9962923208911749e-01,
             2.0843342673444676e+00, 2.0843342673444676e+00,
             1.5057130309940532e-02, 2.0843342673444676e+00,
             1.6807990544086049e+00, 8.8821573417178867e-01,
             1.0155422269493628e+00, 2.0843342673444676e+00,
             1.1163519735378524e+00, 2.0843342673444676e+00,
             1.1268128949836739e-01, 2.0843342673444676e+00,
             2.0843342673444676e+00, 2.0843342673444676e+00,
             2.0843342673444676e+00, 2.0843342673444676e+00,
             2.0843342673444676e+00, 2.0476072899678360e-01,
             2.2525177974850769e-01, 2.0843342673444676e+00,
             2.0843342673444676e+00, 2.0843342673444676e+00,
             2.0843342673444676e+00, 2.0843342673444676e+00,
             3.0118337719206656e-01, 2.0843342673444676e+00,
             2.0843342673444676e+00, 1.0084323216987585e-01,
             9.9041974156914725e-01, 2.4631656313537967e-01,
             4.3041688527998984e-01, 2.0843342673444676e+00,
             2.4761359387029289e-01, 5.2566482793363928e-02,
             1.6584634717765219e+00, 4.6071383828233287e-01,
             2.0843342673444676e+00, 8.5861718706608345e-02,
             9.0493538120786510e-01, 2.0656902994425458e-01,
             5.5539908843501365e-02, 8.8236229189504944e-01,
             4.5608727243411373e-01, 7.8685365566592813e-01,
             2.1877078011108103e-01, 4.1647299566990870e-02,
             3.8585617707432615e-02, 8.0700726682264068e-01,
             1.4468984176916608e-01, 9.7313716768694547e-01,
             2.0843342673444676e+00, 1.1577205131664346e-01,
             9.6992961362059571e-01, 2.0843342673444676e+00,
             2.0843342673444676e+00, 1.3330392611410771e+00,
             2.0843342673444676e+00, 1.1362528556467077e+00,
             2.0843342673444676e+00, 2.0843342673444676e+00,
             2.0843342673444676e+00, 2.0843342673444676e+00,
             -4.8650263127294496e-01, -5.1864326464538046e-01,
             -9.1922149926234292e-02, -5.0663871911266978e-01,
             -3.5775861086759114e-01, -1.5933434865182927e-01,
             -8.1250540806480442e-01, -2.0843342673444676e+00,
             -2.0843342673444676e+00, -4.0547940382099512e-01,
             -2.0843342673444676e+00, -2.0843342673444676e+00,
             -1.4386373927615821e+00, -2.0017756523457725e-01,
             -2.0843342673444676e+00, -9.3384158224859781e-01,
             -2.0843342673444676e+00, -2.0843342673444676e+00,
             -1.8013304646415185e+00, -6.1666022394413533e-01,
             -2.0843342673444676e+00, -2.0843342673444676e+00,
             -2.0843342673444676e+00, -2.0843342673444676e+00,
             -2.0843342673444676e+00, -2.0843342673444676e+00,
             -2.0843342673444676e+00, -2.0843342673444676e+00,
             -6.1641287144080037e-01, -2.0843342673444676e+00,
             -2.0843342673444676e+00, -2.0843342673444676e+00,
             -6.9345366616277426e-01, -8.2455370789733706e-01,
             -2.0843342673444676e+00, -6.4768269036989778e-01,
             -2.0843342673444676e+00, -2.0843342673444676e+00,
             -2.0843342673444676e+00, -2.0843342673444676e+00,
             -6.7652968075990050e-01, -2.0843342673444676e+00,
             -7.3834768864690731e-02, -1.4919706390610612e+00,
             -2.0843342673444676e+00, -7.6669074004585935e-01,
             -1.0799542461233007e+00, -1.7305848143212053e+00,
             -2.0843342673444676e+00, -2.5755512814333714e-01,
             -2.0843342673444676e+00, -2.0843342673444676e+00,
             -2.0843342673444676e+00, -1.1553524082123429e-01,
             -2.0843342673444676e+00, -2.0843342673444676e+00,
             -2.0843342673444676e+00, -2.0843342673444676e+00,
             -2.0843342673444676e+00, -2.0843342673444676e+00,
             -2.0843342673444676e+00, -2.0843342673444676e+00,
             -2.0843342673444676e+00, -2.0843342673444676e+00,
             -2.0843342673444676e+00, -2.0843342673444676e+00,
             -2.0843342673444676e+00, -2.0843342673444676e+00,
             -2.0843342673444676e+00, -1.2011457058936735e-01,
             -2.0843342673444676e+00, -2.0843342673444676e+00,
             -4.3238132273858546e-02, -2.0843342673444676e+00,
             -1.3446740053531971e+00, -2.0843342673444676e+00,
             -2.0843342673444676e+00, -3.9077632290967562e-01,
             -2.0843342673444676e+00, -2.0843342673444676e+00,
             -2.0843342673444676e+00, -2.0843342673444676e+00,
             -1.2380758813144648e+00, -2.0843342673444676e+00,
             -2.0843342673444676e+00, -4.9883752435735140e-01,
             -2.0843342673444676e+00, -2.0843342673444676e+00,
             -2.0330250333727875e+00, -1.7695905624012034e+00,
             -2.0843342673444676e+00, -2.0843342673444676e+00,
             -1.0965976732514031e+00, -1.2937108258686394e+00,
             -2.0843342673444676e+00, -2.0843342673444676e+00,
             -2.0843342673444676e+00, -3.4490847787281403e-01,
             -2.0843342673444676e+00, -2.0843342673444676e+00,
             -1.5194669812845424e-01, -5.7041449947179079e-01,
             -2.0843342673444676e+00, -2.0843342673444676e+00,
             -1.9366067077707245e+00, -2.0843342673444676e+00,
             -3.3101984028289727e-01, -2.0843342673444676e+00,
             -2.0843342673444676e+00, -2.0843342673444676e+00,
             -2.0843342673444676e+00, -6.5594288420964197e-01,
             -2.0843342673444676e+00, -8.5237166583339374e-01,
             -2.0843342673444676e+00, -2.0843342673444676e+00,
             -2.0843342673444676e+00, -2.0843342673444676e+00,
             -2.0843342673444676e+00, -2.0843342673444676e+00,
             -2.0843342673444676e+00, -2.0843342673444676e+00,
             -2.0843342673444676e+00, -2.0843342673444676e+00,
             -2.0843342673444676e+00, -2.0843342673444676e+00,
             -2.0843342673444676e+00, -2.0843342673444676e+00,
             -2.0843342673444676e+00, -2.0843342673444676e+00,
             -2.0843342673444676e+00, -1.1135027356666904e+00,
             -2.0843342673444676e+00, -2.0843342673444676e+00,
             -2.0843342673444676e+00, -2.0843342673444676e+00,
             -2.0843342673444676e+00, -2.0843342673444676e+00,
             -2.0843342673444676e+00, -2.0843342673444676e+00,
             -2.0843342673444676e+00, -2.0843342673444676e+00,
             -2.0843342673444676e+00, -2.0843342673444676e+00,
             -2.0843342673444676e+00, -2.0843342673444676e+00,
             -2.0843342673444676e+00, -2.0843342673444676e+00,
             -2.0843342673444676e+00, -2.0843342673444676e+00,
             -2.0843342673444676e+00, -2.0843342673444676e+00,
             -2.0843342673444676e+00, -2.0843342673444676e+00,
             -5.5939774704308609e-01, -2.0843342673444676e+00,
             -2.0843342673444676e+00, -2.0843342673444676e+00,
             -2.0843342673444676e+00, -2.0843342673444676e+00,
             -2.0843342673444676e+00, -2.0843342673444676e+00,
             -3.2951046270584300e-01, -2.0843342673444676e+00,
             -2.0843342673444676e+00, -2.0843342673444676e+00,
             -2.0843342673444676e+00, -1.7136571145588630e+00,
             -2.0843342673444676e+00, -2.0843342673444676e+00,
             -1.0517005725429507e+00, -1.3079906263943162e+00,
             -2.0843342673444676e+00, -2.0843342673444676e+00,
             -2.0843342673444676e+00, -2.0843342673444676e+00,
             -2.0843342673444676e+00, -2.0843342673444676e+00,
             -2.0843342673444676e+00, -2.0843342673444676e+00,
             -2.0843342673444676e+00, -2.0843342673444676e+00,
             -2.0843342673444676e+00, -2.0843342673444676e+00,
             -2.0843342673444676e+00, -2.0843342673444676e+00,
             -2.0843342673444676e+00, -2.0843342673444676e+00,
             -8.2000885297843162e-01, -2.0843342673444676e+00,
             -2.0788852100786439e+00, -1.9357068603014078e+00,
             -9.4723602961309283e-01, -2.0843342673444676e+00,
             -2.0843342673444676e+00, -2.0843342673444676e+00,
             -2.0843342673444676e+00, -8.1141228405248469e-02,
             -2.0843342673444676e+00, -2.0843342673444676e+00,
             -2.0843342673444676e+00, -2.1488045369083394e-01,
             -2.0843342673444676e+00, -2.0843342673444676e+00,
             -2.0843342673444676e+00, -7.5341483645569729e-01,
             -2.0843342673444676e+00, -5.9402757228201453e-01,
             -2.0843342673444676e+00, -2.0843342673444676e+00,
             -2.0843342673444676e+00, -7.5909002223313815e-01,
             -2.0843342673444676e+00, -1.7237029718967720e-01,
             -2.0843342673444676e+00, -2.0843342673444676e+00,
             -1.3501141781782833e+00, -2.0843342673444676e+00,
             -2.0843342673444676e+00, -2.0843342673444676e+00,
             -8.1720102047815624e-01, -2.0843342673444676e+00,
             -1.4481453310049237e+00, -2.0843342673444676e+00,
             -2.0843342673444676e+00, -2.0843342673444676e+00 ]
         index: [ 0, 1, 2, 3, 4, 5, 6, 7, 8, 9, 10, 11, 12, 13, 14, 15,
             16, 17, 18, 19, 20, 21, 22, 23, 24, 25, 26, 27, 28, 29, 30,
             31, 32, 33, 34, 35, 36, 37, 38, 39, 40, 41, 42, 43, 44, 45,
             46, 47, 48, 49, 50, 51, 52, 53, 54, 55, 56, 57, 58, 59, 60,
             61, 62, 63, 64, 65, 66, 67, 68, 69, 70, 71, 72, 73, 74, 75,
             76, 77, 78, 79, 80, 81, 82, 83, 84, 85, 86, 87, 88, 89, 90,
             91, 92, 93, 94, 95, 96, 97, 98, 99, 100, 101, 102, 103, 104,
             105, 106, 107, 108, 109, 110, 111, 112, 113, 114, 115, 116,
             117, 118, 119, 120, 121, 122, 123, 124, 125, 126, 127, 128,
             129, 130, 131, 132, 133, 134, 135, 136, 137, 138, 139, 140,
             141, 142, 143, 144, 145, 146, 147, 148, 149, 150, 151, 152,
             153, 154, 155, 156, 157, 158, 159, 160, 161, 162, 163, 164,
             165, 166, 167, 168, 169, 170, 171, 172, 173, 174, 175, 176,
             177, 178, 179, 180, 181, 182, 183, 184, 185, 186, 187, 188,
             189, 190, 191, 192, 193, 194, 195, 196, 197, 198, 199, 200,
             201, 202, 203, 204, 205, 206, 207, 208, 209, 210, 211, 212,
             213, 214, 215, 216, 217, 218, 219, 220, 221, 222, 223, 224,
             225, 226, 227, 228, 229, 230, 231, 232, 233, 234, 235, 236,
             237, 238, 239, 240, 241, 242, 243, 244, 245, 246, 247, 248,
             249, 250, 251, 252, 253, 254, 255, 256, 257, 258, 259, 260,
             261, 262, 263, 264, 265, 266, 267, 268, 269, 270, 271, 272,
             273, 274, 275, 276, 277, 278, 279, 280, 281, 282, 283, 284,
             285, 286, 287, 288, 289, 290, 291, 292, 293, 294, 295, 296,
             297, 298, 299, 300, 301, 302, 303, 304, 305, 306, 307, 308,
             309, 310, 311, 312, 313, 314, 315, 316, 317, 318, 319, 320,
             321, 322, 323, 324, 325, 326, 327, 328, 329, 330, 331, 332,
             333, 334, 335, 336, 337, 338, 339, 340, 341, 342, 343, 344,
             345, 346, 347, 348, 349, 350, 351, 352, 353, 354, 355, 356,
             357, 358, 359, 360, 361, 362, 363, 364, 365, 366, 367, 368,
             369, 370, 371, 372, 373, 374, 375, 376, 377, 378, 379, 380,
             381, 382, 383, 384, 385, 386, 387, 388, 389, 390, 391, 392,
             393, 394, 395, 396, 397, 398, 399, 400, 401, 402, 403, 404,
             405, 406, 407, 408, 409, 410, 411, 412, 413, 414, 415, 416,
             417, 418, 419, 420, 421, 422, 423, 424, 425, 426, 427, 428,
             429, 430, 431, 432, 433, 434, 435, 436, 437, 438, 439, 440,
             441, 442, 443, 444, 445, 446, 447, 448, 449, 450, 451, 452,
             453, 454, 455, 456, 457, 458, 459, 460, 461, 462, 463, 464,
             465, 466, 467, 468, 469, 470, 471, 472, 473, 474, 475, 476,
             477, 478, 479, 480, 481, 482, 483, 484, 485, 486, 487, 488,
             489, 490, 491, 492, 493, 494, 495, 496, 497, 498, 499, 500,
             501, 502, 503, 504, 505, 506, 507, 508, 509, 510, 511, 512,
             513, 514, 515, 516, 517, 518, 519, 520, 521, 522, 523, 524,
             525, 526, 527, 528, 529, 530, 531, 532, 533, 534, 535, 536,
             537 ]
