%YAML:1.0
---
opencv_ml_svm:
   format: 3
   svmType: NU_SVR
   kernel:
      type: RBF
      gamma: 20.
   C: 7.
   nu: 1.0000000000000001e-01
   term_criteria: { epsilon:9.9999999999999995e-07, iterations:1000 }
   var_count: 5
   sv_total: 758
   support_vectors:
      - [ 5.19615650e-01, 9.99926507e-01, 9.99236405e-01, 9.76142168e-01,
          8.18530023e-01 ]
      - [ 9.93024230e-01, 9.99886453e-01, 9.98630643e-01, 9.36061203e-01,
          8.18530023e-01 ]
      - [ 9.98235464e-01, 9.99792099e-01, 9.99628842e-01, 9.83462095e-01,
          6.93681061e-01 ]
      - [ 2.11766441e-04, 9.96057451e-01, 9.57731903e-01, 9.44247961e-01,
          7.08573341e-01 ]
      - [ 9.73438978e-01, 8.90953302e-01, 9.50777650e-01, 9.52989876e-01,
          7.39882886e-01 ]
      - [ 0., 4.38888669e-01, 7.54692197e-01, 6.74632192e-01, 1. ]
      - [ 2.42699027e-01, 8.27188432e-01, 9.70414758e-01, 9.93345082e-01,
          7.39882886e-01 ]
      - [ 5.79727232e-01, 9.09880996e-01, 9.60154235e-01, 9.40485418e-01,
          7.38742471e-01 ]
      - [ 0., 4.22868520e-01, 7.56690204e-01, 6.51573002e-01, 1. ]
      - [ 0., 5.19055307e-01, 7.32253373e-01, 6.53884590e-01,
          5.64590514e-01 ]
      - [ 9.96807873e-01, 9.99990046e-01, 9.99853313e-01, 9.86670077e-01,
          5.64590514e-01 ]
      - [ 9.23084095e-02, 9.79528069e-01, 9.98696327e-01, 9.59461749e-01,
          3.85382682e-01 ]
      - [ 9.99830723e-01, 9.99986529e-01, 9.99347568e-01, 9.74301219e-01,
          3.85382682e-01 ]
      - [ 0., 5.18671334e-01, 7.31381774e-01, 6.59074426e-01,
          4.28232700e-01 ]
      - [ 5.53752184e-01, 9.75250959e-01, 9.99223232e-01, 9.59765851e-01,
          4.28232700e-01 ]
      - [ 6.84544861e-01, 9.89162505e-01, 9.98250365e-01, 5.95110714e-01,
          5.24896264e-01 ]
      - [ 0., 5.96239388e-01, 7.77970910e-01, 7.99043775e-01,
          5.24896264e-01 ]
      - [ 9.97672081e-01, 9.99611139e-01, 9.94753957e-01, 9.77283120e-01,
          5.24896264e-01 ]
      - [ 5.96633077e-01, 9.91830170e-01, 9.98778403e-01, 5.86643338e-01,
          3.26611549e-01 ]
      - [ 2.83577323e-01, 9.91081536e-01, 9.99351323e-01, 9.48073566e-01,
          3.26611549e-01 ]
      - [ 1.57871604e-01, 5.23594141e-01, 8.14970791e-01, 8.50602269e-01,
          0. ]
      - [ 1.57455221e-01, 5.18105209e-01, 8.16107631e-01, 8.62010181e-01,
          1. ]
      - [ 0., 8.90950799e-01, 6.51373804e-01, 7.52581239e-01, 1. ]
      - [ 0., 4.33750153e-01, 8.56909811e-01, 6.30970776e-01,
          3.85352999e-01 ]
      - [ 0., 8.79091263e-01, 6.72888577e-01, 6.71713412e-01,
          3.85352999e-01 ]
      - [ 3.91003378e-02, 9.99836981e-01, 9.25383925e-01, 8.99298728e-01,
          3.85352999e-01 ]
      - [ 9.73304451e-01, 9.96261179e-01, 9.99144733e-01, 9.85242367e-01,
          3.85352999e-01 ]
      - [ 5.77133633e-02, 5.30838072e-01, 7.91278601e-01, 8.62358093e-01,
          1. ]
      - [ 4.85956877e-01, 9.94682252e-01, 9.99631107e-01, 9.71744835e-01,
          3.85352999e-01 ]
      - [ 2.01218382e-12, 5.11748672e-01, 7.63403833e-01, 9.17745650e-01,
          4.38319147e-02 ]
      - [ 6.20120354e-02, 9.99713242e-01, 9.34458137e-01, 9.04953599e-01,
          4.38319147e-02 ]
      - [ 0., 4.34315771e-01, 9.00971770e-01, 8.12156856e-01, 1. ]
      - [ 0., 5.03682673e-01, 7.36950457e-01, 9.38506126e-01,
          3.95718753e-01 ]
      - [ 1.88360870e-01, 9.98378932e-01, 9.44721520e-01, 8.73632729e-01,
          3.95718753e-01 ]
      - [ 0., 5.55841029e-01, 7.73797095e-01, 6.14541173e-01,
          3.95718753e-01 ]
      - [ 0., 4.47517425e-01, 7.58356094e-01, 6.42506957e-01,
          3.95718753e-01 ]
      - [ 4.16474074e-01, 9.12350953e-01, 9.98973012e-01, 9.55648959e-01,
          3.95718753e-01 ]
      - [ 0., 6.84690237e-01, 7.03214288e-01, 7.58805215e-01, 1. ]
      - [ 0., 4.68216807e-01, 9.22668457e-01, 5.32138526e-01,
          1.51941583e-01 ]
      - [ 0., 8.93998504e-01, 7.24683166e-01, 5.90546608e-01,
          4.99979347e-01 ]
      - [ 0., 5.24508595e-01, 7.33681619e-01, 6.95268691e-01,
          4.99979347e-01 ]
      - [ 1.17096240e-02, 5.05207598e-01, 7.21725047e-01, 9.59419429e-01,
          1. ]
      - [ 0., 4.40254807e-01, 8.77027392e-01, 6.23013318e-01,
          3.29475962e-02 ]
      - [ 0., 8.81711125e-01, 7.39684463e-01, 6.85851634e-01,
          3.38492572e-01 ]
      - [ 0., 4.78624731e-01, 7.95452535e-01, 6.06464088e-01,
          3.18792492e-01 ]
      - [ 4.59804207e-01, 9.86990273e-01, 9.18698967e-01, 9.61627424e-01,
          3.18792492e-01 ]
      - [ 0., 9.25889969e-01, 7.41121292e-01, 7.01764703e-01,
          3.18792492e-01 ]
      - [ 9.56107080e-01, 5.08401811e-01, 6.75134003e-01, 8.93409550e-01,
          3.18792492e-01 ]
      - [ 0., 8.89999390e-01, 7.52779841e-01, 6.91264451e-01, 1. ]
      - [ 1.28398361e-02, 9.97660935e-01, 9.52432394e-01, 9.03733909e-01,
          3.18792492e-01 ]
      - [ 9.99419689e-01, 9.99804616e-01, 9.99106467e-01, 9.88899589e-01,
          0. ]
      - [ 1.58093479e-02, 9.90055799e-01, 9.97626960e-01, 9.56121743e-01,
          0. ]
      - [ 0., 9.23528612e-01, 7.54094601e-01, 6.92973495e-01, 0. ]
      - [ 0., 4.45364654e-01, 8.55592728e-01, 7.20113277e-01, 0. ]
      - [ 0., 4.43723708e-01, 8.56649876e-01, 6.09026670e-01, 1. ]
      - [ 9.19746101e-01, 5.02188623e-01, 6.77088141e-01, 9.12565947e-01,
          1. ]
      - [ 0., 8.97631884e-01, 7.54206121e-01, 6.67524636e-01, 1. ]
      - [ 9.96772349e-02, 9.97201920e-01, 9.98051882e-01, 8.68022621e-01,
          0. ]
      - [ 0., 4.39609468e-01, 5.86207509e-01, 7.19253600e-01,
          2.38412604e-01 ]
      - [ 2.05594227e-01, 9.97843266e-01, 9.97719109e-01, 8.59593153e-01,
          2.38412604e-01 ]
      - [ 0., 4.89847869e-01, 6.69133246e-01, 6.68088019e-01, 1. ]
      - [ 0., 5.45259237e-01, 6.77369237e-01, 8.23446453e-01,
          9.71927147e-05 ]
      - [ 0., 7.75458336e-01, 9.81724560e-01, 7.20545709e-01,
          9.71927147e-05 ]
      - [ 8.36201727e-01, 9.97962952e-01, 9.67461884e-01, 8.72532427e-01,
          9.71927147e-05 ]
      - [ 9.59758401e-01, 9.88658547e-01, 9.99109507e-01, 9.62291956e-01,
          9.71927147e-05 ]
      - [ 0., 9.37694013e-01, 7.53587723e-01, 6.97635591e-01,
          9.71927147e-05 ]
      - [ 0., 4.49280322e-01, 6.00785494e-01, 6.97952390e-01, 1. ]
      - [ 0., 9.38712656e-01, 7.85816073e-01, 7.05373049e-01,
          1.68669205e-02 ]
      - [ 4.11810018e-02, 9.99403298e-01, 9.99625564e-01, 9.59563375e-01,
          1.68669205e-02 ]
      - [ 0., 9.04373825e-01, 7.86036432e-01, 6.80002570e-01, 1. ]
      - [ 2.38039106e-01, 9.97136354e-01, 9.99497771e-01, 8.84919286e-01,
          1.68669205e-02 ]
      - [ 1.09268047e-04, 5.23631454e-01, 6.80973232e-01, 8.82697940e-01,
          3.42718279e-03 ]
      - [ 0., 9.02152061e-01, 8.34108114e-01, 7.11772323e-01,
          3.35859835e-01 ]
      - [ 4.56803679e-01, 9.95517433e-01, 9.28573728e-01, 9.18261707e-01,
          3.35859835e-01 ]
      - [ 0., 7.16353834e-01, 7.82377005e-01, 6.79100513e-01, 1. ]
      - [ 0., 5.65747738e-01, 7.72427857e-01, 7.96787977e-01,
          3.42718279e-03 ]
      - [ 5.40680170e-01, 9.93104577e-01, 9.97540534e-01, 9.14175153e-01,
          3.35859835e-01 ]
      - [ 0., 4.35664475e-01, 8.20626199e-01, 7.59935498e-01, 1. ]
      - [ 9.90023613e-02, 9.96366024e-01, 9.97908533e-01, 8.70209396e-01,
          9.19263512e-02 ]
      - [ 0., 5.60600817e-01, 7.72421420e-01, 7.92538226e-01,
          4.07849111e-05 ]
      - [ 9.84920382e-01, 5.26413083e-01, 6.84758961e-01, 9.13846910e-01,
          4.07849111e-05 ]
      - [ 4.99842554e-01, 9.20843482e-01, 9.92466450e-01, 5.96171916e-01,
          4.78392513e-03 ]
      - [ 4.91659436e-03, 5.66000640e-01, 8.04056883e-01, 7.22813487e-01,
          3.95521134e-01 ]
      - [ 0., 8.20915878e-01, 9.59802508e-01, 7.31513679e-01,
          1.00540692e-05 ]
      - [ 5.16029835e-01, 9.79699612e-01, 9.98665333e-01, 8.99368942e-01,
          1.18141773e-03 ]
      - [ 0., 8.11565697e-01, 9.60067630e-01, 7.53841519e-01,
          3.46491447e-06 ]
      - [ 7.44784355e-01, 9.77707982e-01, 9.97693121e-01, 8.57812285e-01,
          4.07306041e-04 ]
      - [ 9.08872843e-01, 9.98171449e-01, 9.28458273e-01, 7.96150386e-01,
          1.00970681e-06 ]
      - [ 0., 9.48109746e-01, 9.52237725e-01, 6.71778083e-01,
          4.51303393e-01 ]
      - [ 0., 9.26933110e-01, 8.88902366e-01, 6.76410198e-01,
          2.05687359e-01 ]
      - [ 8.11709166e-01, 9.95366216e-01, 9.92639184e-01, 5.87616861e-01,
          4.66991187e-05 ]
      - [ 8.63193512e-01, 9.96748745e-01, 9.91995454e-01, 5.98218262e-01,
          1.19094493e-05 ]
      - [ 6.73763931e-01, 9.76045012e-01, 9.99135017e-01, 6.47934496e-01,
          4.06400800e-01 ]
      - [ 4.29408073e-01, 9.99247491e-01, 9.99144912e-01, 9.28244770e-01,
          4.53313805e-06 ]
      - [ 5.91516316e-01, 9.80077744e-01, 9.99303401e-01, 9.17395651e-01,
          2.56816088e-06 ]
      - [ 9.82606649e-01, 9.97387648e-01, 9.40577149e-01, 9.24567938e-01,
          2.83004969e-01 ]
      - [ 7.11765945e-01, 9.98619795e-01, 8.76818895e-01, 8.56373847e-01,
          5.64304292e-01 ]
      - [ 1.28713220e-01, 9.99431789e-01, 9.97148514e-01, 9.14906383e-01,
          1.66379095e-07 ]
      - [ 0., 9.30453241e-01, 6.33698523e-01, 8.00108731e-01,
          4.35277361e-05 ]
      - [ 7.53340900e-01, 9.98582006e-01, 9.98829067e-01, 9.35838938e-01,
          2.57279780e-08 ]
      - [ 7.93655813e-01, 9.96439517e-01, 8.22457552e-01, 8.55292082e-01,
          4.70066031e-09 ]
      - [ 9.86748576e-01, 9.93808925e-01, 8.75016093e-01, 9.25048709e-01,
          6.33975804e-01 ]
      - [ 8.93201172e-01, 9.81332302e-01, 8.31243277e-01, 7.07538307e-01,
          1.17181014e-06 ]
      - [ 4.64126825e-01, 9.15846944e-01, 9.98787522e-01, 9.31197882e-01,
          6.34336710e-01 ]
      - [ 9.98579860e-01, 9.92343605e-01, 9.99677598e-01, 9.37248766e-01,
          0. ]
      - [ 9.11971390e-01, 9.76086617e-01, 9.98551309e-01, 7.14330077e-01,
          5.91686189e-01 ]
      - [ 3.97125855e-02, 9.96348023e-01, 9.97380793e-01, 9.90826845e-01,
          2.75356114e-01 ]
      - [ 9.11326051e-01, 9.70032215e-01, 9.97932494e-01, 7.39752710e-01,
          2.75356114e-01 ]
      - [ 9.11274016e-01, 9.81325626e-01, 9.45133030e-01, 5.74267209e-01,
          3.53737595e-03 ]
      - [ 9.98236537e-01, 9.97481465e-01, 9.43391442e-01, 7.91240633e-01,
          2.19513737e-02 ]
      - [ 2.49771047e-02, 9.31442916e-01, 9.96844828e-01, 9.76849854e-01,
          3.53737595e-03 ]
      - [ 4.19776261e-01, 9.99929249e-01, 9.98448849e-01, 9.88095343e-01,
          2.19513737e-02 ]
      - [ 7.78660476e-01, 9.92468894e-01, 9.19226170e-01, 6.45581782e-01,
          1.65869631e-06 ]
      - [ 7.10686982e-01, 9.66314256e-01, 9.13868546e-01, 8.41791987e-01,
          9.35715798e-04 ]
      - [ 8.84564281e-01, 9.92275655e-01, 8.51937592e-01, 6.66499496e-01,
          1. ]
      - [ 9.98561680e-01, 9.95942950e-01, 9.25165236e-01, 8.62282038e-01,
          9.35715798e-04 ]
      - [ 9.39531505e-01, 8.97013187e-01, 9.98930633e-01, 9.55541134e-01,
          9.35715798e-04 ]
      - [ 5.61455607e-01, 9.92614686e-01, 9.96226549e-01, 9.94762659e-01,
          1.65869631e-06 ]
      - [ 7.00763837e-02, 9.99993205e-01, 9.99095380e-01, 9.82662439e-01,
          9.35715798e-04 ]
      - [ 4.87030089e-01, 6.84149265e-01, 8.69262874e-01, 7.13046730e-01,
          6.06810272e-01 ]
      - [ 3.48026395e-01, 9.91007864e-01, 9.95823562e-01, 9.87157881e-01,
          7.22453194e-07 ]
      - [ 9.17772412e-01, 9.69241321e-01, 8.52353215e-01, 8.37714672e-01,
          6.06810272e-01 ]
      - [ 7.56638348e-01, 9.68473792e-01, 9.95379925e-01, 9.51973200e-01,
          1.90570006e-07 ]
      - [ 1.93026140e-01, 9.72838342e-01, 8.58651161e-01, 7.79872358e-01,
          4.17287707e-01 ]
      - [ 8.29842865e-01, 9.66201663e-01, 8.56762826e-01, 7.35769808e-01,
          4.46899299e-04 ]
      - [ 3.55963826e-01, 8.46771836e-01, 9.91907239e-01, 9.20747101e-01,
          3.43490283e-05 ]
      - [ 1.93561420e-01, 9.59302783e-01, 9.96047020e-01, 9.60587442e-01,
          3.27300383e-12 ]
      - [ 9.97117341e-01, 9.74566460e-01, 8.33728492e-01, 8.19787145e-01,
          4.51367229e-01 ]
      - [ 8.45062017e-01, 9.96260762e-01, 9.80445802e-01, 6.60371661e-01,
          1.93434745e-01 ]
      - [ 8.67899239e-01, 9.80214119e-01, 9.96014774e-01, 9.51979876e-01,
          3.50451032e-13 ]
      - [ 8.58601928e-01, 9.60281789e-01, 8.46819580e-01, 6.85992718e-01,
          2.05721736e-01 ]
      - [ 8.59867275e-01, 9.98625338e-01, 9.99030411e-01, 6.60098612e-01,
          2.05721736e-01 ]
      - [ 8.52246583e-01, 9.79990184e-01, 9.97027457e-01, 9.56016719e-01,
          4.01807189e-14 ]
      - [ 8.75265598e-01, 9.88888800e-01, 9.96366858e-01, 9.63766634e-01,
          1.09863587e-14 ]
      - [ 9.75040197e-02, 9.82426703e-01, 9.94932473e-01, 9.56010699e-01,
          7.38422836e-16 ]
      - [ 9.31502938e-01, 9.98900890e-01, 9.47966278e-01, 7.06350148e-01,
          2.09274112e-05 ]
      - [ 1.59272164e-01, 9.99934494e-01, 8.16307843e-01, 7.37577021e-01,
          1.37613243e-09 ]
      - [ 1.22543588e-01, 9.20518160e-01, 9.99382257e-01, 9.26657796e-01,
          7.69742201e-06 ]
      - [ 7.78075159e-01, 6.10785365e-01, 9.11760807e-01, 7.10649610e-01,
          5.37811697e-01 ]
      - [ 6.93889856e-02, 9.84108210e-01, 9.95296836e-01, 9.66415346e-01,
          2.84198720e-21 ]
      - [ 3.43284220e-01, 6.27406120e-01, 9.32238102e-01, 9.20612872e-01,
          4.99680430e-01 ]
      - [ 1.47537261e-01, 9.70011711e-01, 7.71691263e-01, 6.65050089e-01,
          4.71132360e-08 ]
      - [ 9.65404868e-01, 9.87252593e-01, 9.26357388e-01, 9.49008942e-01,
          9.46521914e-22 ]
      - [ 4.96862948e-01, 9.99918878e-01, 9.97968793e-01, 7.42643833e-01,
          4.99680430e-01 ]
      - [ 9.63583410e-01, 9.99478638e-01, 9.36102808e-01, 7.62132704e-01,
          5.37236035e-01 ]
      - [ 2.52323076e-02, 6.96809947e-01, 9.64849949e-01, 9.38248158e-01,
          3.47633431e-22 ]
      - [ 4.37099963e-01, 9.44727838e-01, 9.38792884e-01, 8.30394745e-01,
          1.01028614e-01 ]
      - [ 6.11969829e-01, 9.99863803e-01, 9.99347568e-01, 7.50980854e-01,
          1.01028614e-01 ]
      - [ 4.89344634e-03, 9.99201536e-01, 6.11162961e-01, 8.35997045e-01,
          0. ]
      - [ 1.58788692e-02, 9.99846995e-01, 9.96855080e-01, 7.42634356e-01,
          3.95698547e-01 ]
      - [ 2.29518965e-01, 9.96739864e-01, 9.18337882e-01, 8.81119907e-01,
          7.06156313e-01 ]
      - [ 4.94973540e-01, 9.99917984e-01, 9.99671400e-01, 7.53137112e-01,
          3.08990568e-01 ]
      - [ 1.86438248e-01, 9.91191626e-01, 9.14101958e-01, 9.18493867e-01,
          8.51168633e-01 ]
      - [ 2.42223061e-04, 9.94111657e-01, 9.99503970e-01, 9.10699129e-01,
          1.34131372e-01 ]
      - [ 0., 9.57169235e-01, 9.52527761e-01, 7.78631389e-01,
          2.72578091e-05 ]
      - [ 1.91688731e-01, 9.99694169e-01, 8.60247016e-01, 8.69537830e-01,
          5.65390706e-01 ]
      - [ 0., 9.63206470e-01, 9.50427532e-01, 7.13545024e-01,
          1.07426031e-05 ]
      - [ 6.12295466e-03, 9.98664141e-01, 8.86954606e-01, 8.65123451e-01,
          6.48061037e-02 ]
      - [ 5.53468406e-01, 9.99947488e-01, 8.73374879e-01, 9.11654115e-01,
          5.78014910e-01 ]
      - [ 7.81718433e-01, 9.99392867e-01, 8.57481301e-01, 8.89645994e-01,
          7.24546254e-01 ]
      - [ 6.58521831e-01, 9.79337990e-01, 8.30632031e-01, 9.21320081e-01,
          1. ]
      - [ 1.57610393e-05, 9.63843405e-01, 8.44321609e-01, 9.64529216e-01,
          4.61937517e-01 ]
      - [ 1.03789880e-05, 9.96335566e-01, 9.14197385e-01, 9.55187261e-01,
          4.61937517e-01 ]
      - [ 7.55451024e-01, 9.99460161e-01, 9.98487175e-01, 9.85809863e-01,
          4.61937517e-01 ]
      - [ 7.68476427e-01, 9.49215233e-01, 8.65877092e-01, 9.46715355e-01,
          4.74408686e-01 ]
      - [ 3.99082422e-01, 9.95974481e-01, 9.98976707e-01, 9.22927320e-01,
          4.74408686e-01 ]
      - [ 5.54120481e-01, 9.97828901e-01, 9.97432768e-01, 6.80800080e-01,
          8.45349506e-02 ]
      - [ 9.90725681e-02, 9.94847476e-01, 8.90859663e-01, 9.56374586e-01,
          1. ]
      - [ 3.23076963e-01, 9.54293430e-01, 8.90276313e-01, 9.62893426e-01,
          8.45349506e-02 ]
      - [ 8.75734508e-01, 9.87991214e-01, 8.96023750e-01, 9.66411471e-01,
          6.93654001e-01 ]
      - [ 6.21218607e-02, 9.85732913e-01, 8.79049122e-01, 9.02361810e-01,
          6.63616836e-01 ]
      - [ 8.73233005e-02, 8.43945563e-01, 8.00306261e-01, 9.66626704e-01,
          0. ]
      - [ 2.01204225e-01, 9.62586284e-01, 8.57289612e-01, 9.64736760e-01,
          6.07452512e-01 ]
      - [ 0., 9.33051944e-01, 7.61904538e-01, 7.06939161e-01, 0. ]
      - [ 1.53021792e-42, 9.39823568e-01, 8.04825187e-01, 9.86117542e-01,
          0. ]
      - [ 6.48804545e-01, 9.88300323e-01, 8.20685089e-01, 9.05151248e-01,
          1. ]
      - [ 5.46681941e-01, 9.85113859e-01, 8.75707567e-01, 9.25560474e-01,
          5.51494002e-01 ]
      - [ 2.91029453e-01, 9.93993282e-01, 8.49895239e-01, 9.23991501e-01,
          6.94597781e-01 ]
      - [ 2.46565983e-01, 9.96991277e-01, 9.25134182e-01, 9.42467272e-01,
          6.94597781e-01 ]
      - [ 4.52573210e-01, 9.71220851e-01, 8.90597701e-01, 3.91475618e-01,
          8.93646793e-05 ]
      - [ 2.87042081e-01, 9.98482764e-01, 9.95688558e-01, 8.88434410e-01,
          6.94597781e-01 ]
      - [ 1.26245737e-01, 9.93149579e-01, 9.19035435e-01, 9.22320306e-01,
          6.22012913e-01 ]
      - [ 2.46650591e-01, 8.92241538e-01, 6.20541811e-01, 9.18392241e-01,
          0. ]
      - [ 3.78204137e-01, 9.88154829e-01, 8.20869386e-01, 7.18277633e-01,
          5.64514399e-01 ]
      - [ 3.18739325e-01, 9.86047208e-01, 9.12350774e-01, 7.33559906e-01,
          5.64514399e-01 ]
      - [ 5.08611739e-01, 9.76056814e-01, 8.20471168e-01, 8.64830017e-01,
          3.95287126e-01 ]
      - [ 3.82614166e-01, 9.99766231e-01, 6.18715286e-01, 9.66098487e-01,
          0. ]
      - [ 8.01962242e-02, 9.99912202e-01, 9.41957414e-01, 9.81303751e-01,
          4.82762419e-02 ]
      - [ 6.13294542e-01, 9.97856975e-01, 8.38131189e-01, 9.44171071e-01,
          5.12426019e-01 ]
      - [ 2.16791198e-01, 9.96185660e-01, 9.58563268e-01, 8.83066714e-01,
          7.69118807e-31 ]
      - [ 3.83489265e-07, 9.99886334e-01, 9.53155339e-01, 9.72545028e-01,
          7.69118807e-31 ]
      - [ 5.07184982e-01, 9.59880531e-01, 7.75194705e-01, 6.65312648e-01,
          0. ]
      - [ 6.04296029e-01, 9.99146938e-01, 9.29237187e-01, 9.11213875e-01,
          8.19343841e-04 ]
      - [ 2.21068244e-02, 9.99311090e-01, 8.49501848e-01, 9.16802585e-01,
          4.78060305e-01 ]
      - [ 4.92617071e-01, 9.82435346e-01, 7.07543671e-01, 6.71764672e-01,
          0. ]
      - [ 6.71454845e-03, 9.58233118e-01, 7.75327384e-01, 6.61702156e-01,
          0. ]
      - [ 6.33467287e-02, 9.98733521e-01, 9.99803603e-01, 6.64231598e-01,
          4.78060305e-01 ]
      - [ 1.90439343e-04, 9.99813199e-01, 8.32130492e-01, 7.17788219e-01,
          3.18137288e-01 ]
      - [ 1.31974434e-02, 9.99021292e-01, 8.53087008e-01, 8.80471826e-01,
          5.91413736e-01 ]
      - [ 3.04097563e-01, 9.99875307e-01, 9.99250412e-01, 9.01961684e-01,
          5.87548316e-01 ]
      - [ 0., 5.24544597e-01, 8.44629467e-01, 8.63912642e-01,
          4.74156737e-01 ]
      - [ 5.02912939e-01, 9.99690533e-01, 9.09565091e-01, 8.80873024e-01,
          4.74156737e-01 ]
      - [ 3.06106452e-02, 9.42578673e-01, 8.83537412e-01, 8.02560925e-01,
          2.70640180e-02 ]
      - [ 1.57789662e-01, 9.99748945e-01, 9.98650908e-01, 8.95675302e-01,
          2.70640180e-02 ]
      - [ 4.09338176e-02, 9.40380335e-01, 8.82584095e-01, 8.88909936e-01,
          1. ]
      - [ 9.52085294e-03, 9.86909568e-01, 9.16327178e-01, 6.43397808e-01,
          0. ]
      - [ 3.47416461e-01, 9.62905586e-01, 7.61322618e-01, 6.21570051e-01,
          0. ]
      - [ 8.86634514e-02, 9.98996913e-01, 9.98990059e-01, 8.84995401e-01,
          5.14672399e-01 ]
      - [ 1.81555763e-01, 9.85149562e-01, 8.82305682e-01, 9.06853259e-01,
          1. ]
      - [ 3.80950570e-02, 9.99612093e-01, 9.45566833e-01, 9.00245428e-01,
          5.14672399e-01 ]
      - [ 7.63263126e-23, 9.99400795e-01, 8.77931118e-01, 7.18261600e-01,
          5.62885165e-01 ]
      - [ 5.17480560e-02, 9.99470949e-01, 8.48754644e-01, 9.05057073e-01,
          1. ]
      - [ 3.53471488e-01, 9.90558267e-01, 8.98905456e-01, 8.71038616e-01,
          5.62885165e-01 ]
      - [ 5.09381533e-01, 9.98926640e-01, 8.35914135e-01, 8.83502007e-01,
          5.10224521e-01 ]
      - [ 3.13158589e-03, 9.96445298e-01, 8.30934107e-01, 8.94838750e-01,
          1. ]
      - [ 5.45603998e-17, 5.04498541e-01, 8.81253719e-01, 8.89725149e-01,
          5.10224521e-01 ]
      - [ 1.92898307e-02, 9.94680882e-01, 8.82359982e-01, 8.53393197e-01,
          1. ]
      - [ 3.65488291e-01, 9.98908579e-01, 8.31012011e-01, 8.89534295e-01,
          6.33338809e-01 ]
      - [ 2.74206311e-01, 8.95130575e-01, 7.91438758e-01, 6.19905949e-01,
          0. ]
      - [ 4.59713012e-01, 9.60646331e-01, 8.20837975e-01, 6.06276512e-01,
          0. ]
      - [ 9.31544323e-03, 9.96669352e-01, 8.78055930e-01, 8.71379256e-01,
          3.57403547e-01 ]
      - [ 6.13921940e-01, 9.99977767e-01, 8.06961834e-01, 8.79861355e-01,
          1. ]
      - [ 3.15529078e-01, 9.97310340e-01, 8.78247857e-01, 8.68330359e-01,
          1.77341118e-01 ]
      - [ 1.12010829e-01, 9.61155653e-01, 8.20694745e-01, 6.08402193e-01,
          0. ]
      - [ 7.72272050e-02, 9.97296333e-01, 8.08815360e-01, 8.88218939e-01,
          3.25977176e-01 ]
      - [ 1.19462326e-01, 9.99001026e-01, 9.01726007e-01, 9.03046489e-01,
          3.52664888e-01 ]
      - [ 1.00948565e-01, 9.86713588e-01, 7.97806084e-01, 6.53469563e-01,
          0. ]
      - [ 7.90211499e-01, 9.86242890e-01, 7.97783673e-01, 6.54308677e-01,
          0. ]
      - [ 9.86744702e-01, 9.98203754e-01, 9.99433517e-01, 9.87833619e-01,
          5.77929199e-01 ]
      - [ 8.01219523e-01, 9.37811732e-01, 8.17958772e-01, 9.58563745e-01,
          7.39475906e-01 ]
      - [ 9.61936235e-01, 9.09753025e-01, 7.49856532e-01, 8.54608417e-01,
          5.25049388e-01 ]
      - [ 5.90832174e-01, 7.38035560e-01, 7.89839506e-01, 8.14374864e-01,
          6.34162664e-01 ]
      - [ 9.77256298e-01, 9.37984407e-01, 7.93536484e-01, 9.22740996e-01,
          6.34162664e-01 ]
      - [ 1.70244217e-01, 7.03630626e-01, 9.24916863e-01, 6.74421251e-01,
          0. ]
      - [ 8.50434065e-01, 8.60126793e-01, 9.41979349e-01, 9.21629727e-01,
          5.24089575e-01 ]
      - [ 4.30467546e-01, 9.86205995e-01, 8.24964583e-01, 7.36141562e-01,
          5.24089575e-01 ]
      - [ 4.33436453e-01, 9.81857896e-01, 6.86538756e-01, 7.76741266e-01,
          5.65209687e-01 ]
      - [ 5.30725121e-01, 9.87864792e-01, 8.18981051e-01, 8.81259382e-01,
          5.63922226e-01 ]
      - [ 0., 8.71847153e-01, 9.26229060e-01, 5.61791658e-01, 0. ]
      - [ 3.58987540e-01, 9.22104001e-01, 9.99377906e-01, 9.03813660e-01,
          1.76563607e-43 ]
      - [ 8.07709396e-01, 9.84399915e-01, 9.99473810e-01, 9.76684511e-01,
          1.76563607e-43 ]
      - [ 1.27579086e-03, 9.99331594e-01, 8.12632382e-01, 9.28171933e-01,
          0. ]
      - [ 9.60151494e-01, 9.29594517e-01, 8.75520051e-01, 9.64502811e-01,
          4.88141268e-01 ]
      - [ 6.06364012e-01, 9.99402583e-01, 9.32210267e-01, 9.58538175e-01,
          6.09949589e-01 ]
      - [ 4.86432314e-01, 9.48832691e-01, 7.07427442e-01, 8.81255329e-01,
          6.19574010e-01 ]
      - [ 4.96439666e-01, 9.29482818e-01, 9.68210161e-01, 8.75011027e-01,
          0. ]
      - [ 4.14209766e-03, 9.55006063e-01, 8.84457886e-01, 8.93957496e-01,
          0. ]
      - [ 3.73316929e-03, 9.67293680e-01, 8.83396685e-01, 9.53048050e-01,
          7.23523021e-01 ]
      - [ 4.53018546e-01, 9.94458020e-01, 9.05192673e-01, 8.87019038e-01,
          5.62062204e-01 ]
      - [ 9.98543561e-01, 9.77351487e-01, 7.99995959e-01, 8.56509268e-01,
          5.62062204e-01 ]
      - [ 8.29870999e-01, 9.59432006e-01, 7.23433375e-01, 9.47652400e-01,
          5.62062204e-01 ]
      - [ 3.41293514e-01, 9.97537673e-01, 8.53266954e-01, 8.74265134e-01,
          6.49818122e-01 ]
      - [ 9.27527025e-02, 9.50691283e-01, 7.24948347e-01, 8.47771168e-01,
          6.49818122e-01 ]
      - [ 2.64025964e-02, 9.78931069e-01, 8.54357541e-01, 7.79720545e-01,
          1. ]
      - [ 4.01522547e-01, 9.25248206e-01, 9.13831949e-01, 8.76744568e-01,
          0. ]
      - [ 5.20629108e-01, 9.78984952e-01, 8.78982782e-01, 7.11864054e-01,
          5.78154147e-01 ]
      - [ 5.24843395e-01, 8.74111176e-01, 9.77391481e-01, 9.29743230e-01,
          0. ]
      - [ 5.31447828e-02, 9.39861298e-01, 9.12202716e-01, 8.89478147e-01,
          4.40104306e-01 ]
      - [ 8.95334542e-01, 9.41447258e-01, 7.23164678e-01, 9.25818980e-01,
          4.40104306e-01 ]
      - [ 7.19313800e-01, 8.34986448e-01, 9.14165258e-01, 8.70219588e-01,
          5.24864197e-01 ]
      - [ 7.46148050e-01, 9.41659451e-01, 7.01537371e-01, 9.06696260e-01,
          5.12028873e-01 ]
      - [ 4.22134250e-03, 9.90700364e-01, 8.55885148e-01, 9.01371658e-01,
          0. ]
      - [ 3.86134744e-01, 9.57627118e-01, 7.42822349e-01, 7.77864635e-01,
          6.25373721e-02 ]
      - [ 9.65438962e-01, 9.99233365e-01, 9.99047935e-01, 9.69750345e-01,
          3.95993769e-01 ]
      - [ 4.17140812e-01, 9.86402810e-01, 9.38000321e-01, 9.32843506e-01,
          2.22877390e-03 ]
      - [ 9.60178733e-01, 9.94815350e-01, 9.99066353e-01, 9.28511679e-01,
          2.22877390e-03 ]
      - [ 2.93977141e-01, 9.99882877e-01, 9.99857366e-01, 9.70386446e-01,
          2.22877390e-03 ]
      - [ 6.56234026e-01, 9.74143505e-01, 9.52161551e-01, 9.31271970e-01,
          6.10202903e-07 ]
      - [ 9.61392164e-01, 9.97186542e-01, 8.39794338e-01, 8.29801679e-01,
          5.37871599e-01 ]
      - [ 3.87566209e-01, 9.82457399e-01, 7.56528020e-01, 7.15143323e-01,
          6.34287536e-01 ]
      - [ 3.87553960e-01, 8.54515433e-01, 9.16341722e-01, 7.39420235e-01,
          6.34287536e-01 ]
      - [ 9.58580375e-01, 9.83874500e-01, 9.14942324e-01, 6.56424284e-01,
          8.35532010e-01 ]
      - [ 4.11390662e-01, 7.84589291e-01, 9.06645954e-01, 9.14592206e-01,
          8.35532010e-01 ]
      - [ 4.34096187e-01, 9.74039257e-01, 7.44243383e-01, 7.60705411e-01,
          5.37709892e-01 ]
      - [ 4.33599412e-01, 7.35747695e-01, 9.25253510e-01, 8.84646118e-01,
          5.37709892e-01 ]
      - [ 4.93236274e-01, 9.45511281e-01, 7.65731871e-01, 8.11328173e-01,
          1. ]
      - [ 6.31346762e-01, 8.21001947e-01, 8.19759488e-01, 9.25739288e-01,
          6.20093107e-01 ]
      - [ 2.17244308e-02, 9.72806513e-01, 8.19600999e-01, 8.25030267e-01,
          1. ]
      - [ 4.91956800e-01, 9.90483224e-01, 9.01432097e-01, 7.56117880e-01,
          7.08956599e-01 ]
      - [ 9.61261988e-01, 9.78267133e-01, 7.50110209e-01, 9.77975488e-01,
          7.08956599e-01 ]
      - [ 6.14294946e-01, 8.02980721e-01, 6.51513040e-01, 7.45804846e-01,
          7.08956599e-01 ]
      - [ 9.61042702e-01, 9.39264715e-01, 8.79630744e-01, 7.25584030e-01,
          7.08956599e-01 ]
      - [ 6.76427589e-05, 9.86837268e-01, 7.31141567e-01, 8.67422938e-01,
          6.06021643e-01 ]
      - [ 5.87098777e-01, 7.95776486e-01, 7.97288835e-01, 7.95607507e-01,
          6.05954468e-01 ]
      - [ 9.64273885e-03, 9.80162203e-01, 6.59417748e-01, 7.95846403e-01,
          1. ]
      - [ 5.05526271e-03, 9.62836623e-01, 7.98172057e-01, 9.37829196e-01,
          1. ]
      - [ 5.70986748e-01, 9.20167387e-01, 8.49460483e-01, 9.29221988e-01,
          6.78206921e-01 ]
      - [ 6.43628061e-01, 9.98820364e-01, 9.99639690e-01, 9.72084880e-01,
          6.78206921e-01 ]
      - [ 9.64083433e-01, 9.34111953e-01, 8.89241695e-01, 8.77211571e-01,
          7.08612621e-01 ]
      - [ 9.65672672e-01, 8.72306049e-01, 7.73997724e-01, 7.03644633e-01,
          5.51055849e-01 ]
      - [ 9.82580483e-01, 9.17086542e-01, 8.91687155e-01, 5.84321439e-01,
          5.51055849e-01 ]
      - [ 5.85087121e-01, 8.93867552e-01, 9.98499572e-01, 9.17319655e-01,
          0. ]
      - [ 1.03051364e-01, 9.96781588e-01, 9.99102831e-01, 9.61757898e-01,
          0. ]
      - [ 5.45743736e-04, 9.67200935e-01, 6.55695558e-01, 9.13415909e-01,
          1. ]
      - [ 3.12825926e-02, 9.86710608e-01, 7.32251346e-01, 7.78548002e-01,
          0. ]
      - [ 8.88630688e-01, 9.82581854e-01, 8.13808739e-01, 8.43250990e-01,
          0. ]
      - [ 1.79157883e-01, 9.56002831e-01, 6.92445695e-01, 6.01573527e-01,
          9.87915322e-03 ]
      - [ 9.91173506e-01, 9.38945055e-01, 9.88608003e-01, 5.87114871e-01,
          9.87915322e-03 ]
      - [ 5.96152186e-01, 9.11775112e-01, 9.90315199e-01, 7.31019080e-01,
          9.87915322e-03 ]
      - [ 5.26601374e-01, 9.99152541e-01, 9.98534083e-01, 9.75447416e-01,
          9.87915322e-03 ]
      - [ 5.11137068e-01, 7.55177200e-01, 8.44397128e-01, 6.53514743e-01,
          4.28958749e-03 ]
      - [ 1.10689469e-03, 9.57718432e-01, 8.44343603e-01, 8.15906823e-01,
          1. ]
      - [ 1.24634281e-01, 9.98918831e-01, 9.98175502e-01, 9.66120899e-01,
          4.28958749e-03 ]
      - [ 6.10850632e-01, 9.99943256e-01, 9.99329865e-01, 9.86312926e-01,
          6.04316711e-01 ]
      - [ 7.59945095e-01, 9.91515756e-01, 8.36097896e-01, 9.45971072e-01,
          0. ]
      - [ 9.85402942e-01, 9.18902338e-01, 9.97248054e-01, 5.88069797e-01,
          3.75034839e-01 ]
      - [ 6.16176128e-01, 9.02392328e-01, 9.98584867e-01, 7.43345201e-01,
          3.75034839e-01 ]
      - [ 1.07229203e-01, 9.98192489e-01, 9.98616397e-01, 9.64681804e-01,
          9.91654000e-04 ]
      - [ 9.77425933e-01, 9.71232772e-01, 9.95197535e-01, 5.92976153e-01,
          0. ]
      - [ 6.27033293e-01, 9.62890148e-01, 9.85841393e-01, 9.00047243e-01,
          0. ]
      - [ 5.57016969e-01, 9.31197584e-01, 9.93905783e-01, 9.58218217e-01,
          0. ]
      - [ 4.45411261e-03, 9.46565032e-01, 9.92545843e-01, 9.77141500e-01,
          0. ]
      - [ 9.48321640e-01, 8.88379693e-01, 8.32307220e-01, 9.58178163e-01,
          0. ]
      - [ 7.55926013e-01, 9.01371419e-01, 9.91756201e-01, 9.26908791e-01,
          0. ]
      - [ 5.13529360e-01, 9.82446909e-01, 8.38859975e-01, 7.42283762e-01,
          0. ]
      - [ 9.73121166e-01, 9.63031054e-01, 7.81882167e-01, 7.03774512e-01,
          7.08855331e-01 ]
      - [ 5.15956938e-01, 9.70440328e-01, 9.59065855e-01, 7.73607910e-01,
          0. ]
      - [ 9.69946623e-01, 9.53126609e-01, 7.82012165e-01, 6.98654830e-01,
          4.08687055e-01 ]
      - [ 5.14429986e-01, 9.96643603e-01, 6.56147480e-01, 6.31261706e-01,
          0. ]
      - [ 9.68703866e-01, 9.52216148e-01, 9.86512959e-01, 6.13304138e-01,
          0. ]
      - [ 6.50548518e-01, 8.93529236e-01, 9.96044338e-01, 8.93819749e-01,
          0. ]
      - [ 5.11130989e-01, 7.87278295e-01, 9.54661787e-01, 7.93365717e-01,
          0. ]
      - [ 8.63456964e-01, 9.77637410e-01, 8.32575619e-01, 9.53552067e-01,
          0. ]
      - [ 9.20528948e-01, 9.82777059e-01, 9.96873558e-01, 9.29228246e-01,
          0. ]
      - [ 6.58815503e-01, 9.11866188e-01, 7.83271968e-01, 7.45145440e-01,
          6.78339541e-01 ]
      - [ 7.31483281e-01, 9.89528298e-01, 8.33663464e-01, 9.24491763e-01,
          0. ]
      - [ 9.69355285e-01, 8.67569506e-01, 8.88104439e-01, 6.51482940e-01,
          6.06203020e-01 ]
      - [ 6.66054368e-01, 8.92751098e-01, 9.98503447e-01, 8.71579587e-01,
          6.06203020e-01 ]
      - [ 5.10530531e-01, 7.62091637e-01, 8.39062214e-01, 7.28776097e-01,
          0. ]
      - [ 6.03191555e-01, 9.11603391e-01, 8.51999700e-01, 7.47999132e-01,
          6.06203020e-01 ]
      - [ 6.51188254e-01, 9.17449176e-01, 8.51806343e-01, 7.28451967e-01,
          6.05492473e-01 ]
      - [ 6.17683642e-02, 9.88052070e-01, 8.49416196e-01, 9.19842064e-01,
          0. ]
      - [ 2.34477237e-01, 9.79251564e-01, 9.26491678e-01, 9.21862304e-01,
          6.05492473e-01 ]
      - [ 9.70731676e-01, 9.21987176e-01, 8.07274759e-01, 5.72036624e-01,
          5.38290560e-01 ]
      - [ 9.70852256e-01, 8.46014023e-01, 9.98787105e-01, 8.65684152e-01,
          5.38290560e-01 ]
      - [ 6.93559468e-01, 9.25588191e-01, 9.09725785e-01, 7.76291788e-01,
          6.04807138e-01 ]
      - [ 7.74245322e-01, 9.17421281e-01, 7.36122787e-01, 8.21919739e-01,
          6.04807138e-01 ]
      - [ 7.66588092e-01, 9.35203493e-01, 9.24209297e-01, 5.82101166e-01,
          5.24964929e-01 ]
      - [ 5.11633337e-01, 6.62026107e-01, 7.41621137e-01, 8.82373750e-01,
          0. ]
      - [ 9.73088861e-01, 8.61190021e-01, 9.98460650e-01, 8.78017724e-01,
          5.24964929e-01 ]
      - [ 7.04620183e-01, 8.74165773e-01, 9.05897796e-01, 6.71279430e-01,
          1.60960868e-01 ]
      - [ 7.04634488e-01, 8.62482727e-01, 9.06938136e-01, 6.58037841e-01,
          3.04677635e-02 ]
      - [ 7.04632699e-01, 8.69220555e-01, 9.69839096e-01, 6.49225175e-01,
          8.96651577e-03 ]
      - [ 9.54415262e-01, 8.76875997e-01, 9.98966753e-01, 8.90478730e-01,
          4.50953811e-01 ]
      - [ 7.04614639e-01, 9.21507239e-01, 9.14179265e-01, 6.57765508e-01,
          1.54006784e-03 ]
      - [ 4.91999149e-01, 9.84473050e-01, 9.99530315e-01, 9.21428859e-01,
          2.92232186e-01 ]
      - [ 7.04781592e-01, 9.71825182e-01, 8.66207480e-01, 7.88089156e-01,
          4.38319839e-04 ]
      - [ 9.72103775e-01, 9.92370546e-01, 6.76073730e-01, 6.14181459e-01,
          4.42918062e-01 ]
      - [ 9.72236693e-01, 9.78621244e-01, 6.73006535e-01, 6.73196375e-01,
          5.50585389e-01 ]
      - [ 7.04656780e-01, 8.61812949e-01, 9.62146342e-01, 8.08963418e-01,
          5.35082945e-05 ]
      - [ 8.70922267e-01, 9.89782691e-01, 9.35714245e-01, 9.08748209e-01,
          4.51311648e-01 ]
      - [ 9.72930133e-01, 9.33797419e-01, 8.48783612e-01, 8.28476727e-01,
          6.34659052e-01 ]
      - [ 8.78366590e-01, 9.90663946e-01, 9.45320547e-01, 9.26991463e-01,
          6.34659052e-01 ]
      - [ 8.79128158e-01, 9.82563436e-01, 9.20872569e-01, 5.62641203e-01,
          2.33226805e-03 ]
      - [ 5.53618312e-01, 9.92992163e-01, 9.99888837e-01, 9.58018661e-01,
          2.33226805e-03 ]
      - [ 7.22001255e-01, 8.79915953e-01, 9.36659038e-01, 7.25484371e-01,
          5.22527989e-05 ]
      - [ 8.85584235e-01, 9.64155734e-01, 7.86299586e-01, 5.88853419e-01,
          4.37777936e-02 ]
      - [ 8.88899684e-01, 9.82921422e-01, 8.09104085e-01, 6.90780342e-01,
          3.95391107e-01 ]
      - [ 8.95164549e-01, 9.63077962e-01, 7.41497636e-01, 8.19231153e-01,
          3.95391107e-01 ]
      - [ 7.35544860e-01, 9.63455915e-01, 9.40562069e-01, 6.41033053e-01,
          2.77035832e-02 ]
      - [ 8.97323489e-01, 9.95619059e-01, 7.80560672e-01, 7.98588872e-01,
          2.77035832e-02 ]
      - [ 9.74146247e-01, 9.41665471e-01, 7.99576700e-01, 5.40792227e-01,
          2.77035832e-02 ]
      - [ 8.97220612e-01, 9.79058206e-01, 9.21269059e-01, 5.85997820e-01,
          2.77035832e-02 ]
      - [ 5.75868011e-01, 9.96591270e-01, 9.99525547e-01, 9.57231998e-01,
          2.77035832e-02 ]
      - [ 7.40118265e-01, 9.18302119e-01, 7.92941451e-01, 9.07385468e-01,
          4.74140257e-01 ]
      - [ 5.81006169e-01, 9.95873690e-01, 9.98156250e-01, 9.49102402e-01,
          4.74140257e-01 ]
      - [ 5.10350525e-01, 8.70520532e-01, 6.22350693e-01, 8.16867709e-01,
          0. ]
      - [ 9.05516505e-01, 9.89594340e-01, 9.16796327e-01, 7.54043221e-01,
          4.62554306e-01 ]
      - [ 7.48617887e-01, 9.43917811e-01, 9.33699429e-01, 8.28714192e-01,
          4.65533754e-04 ]
      - [ 9.74932015e-01, 9.52666104e-01, 8.30051243e-01, 7.71813452e-01,
          4.65533754e-04 ]
      - [ 0., 8.45626712e-01, 6.59829259e-01, 6.16620600e-01, 1. ]
      - [ 9.75186229e-01, 9.67075348e-01, 8.28743815e-01, 7.89628446e-01,
          3.00117850e-01 ]
      - [ 0., 9.18901861e-01, 9.10568535e-01, 5.62300026e-01, 0. ]
      - [ 9.86579657e-01, 9.33585763e-01, 8.30277801e-01, 8.82271349e-01,
          7.14362189e-02 ]
      - [ 9.23840165e-01, 9.75514054e-01, 9.61841047e-01, 9.26780760e-01,
          7.14362189e-02 ]
      - [ 6.39372945e-01, 9.99557018e-01, 8.81087422e-01, 9.04038250e-01,
          0. ]
      - [ 7.89727271e-01, 9.95164394e-01, 9.99229074e-01, 9.50855911e-01,
          7.14362189e-02 ]
      - [ 7.60547340e-01, 8.87345433e-01, 9.00554180e-01, 8.49698544e-01,
          1.43254315e-02 ]
      - [ 9.79051411e-01, 9.31217015e-01, 8.30195725e-01, 9.02135611e-01,
          1.43254315e-02 ]
      - [ 6.17116928e-01, 9.94623125e-01, 9.99738038e-01, 9.56628859e-01,
          1.43254315e-02 ]
      - [ 0., 8.70175183e-01, 6.60506785e-01, 6.13213658e-01, 1. ]
      - [ 5.50111353e-01, 9.96149838e-01, 9.25547898e-01, 9.29157734e-01,
          0. ]
      - [ 7.64276683e-01, 8.72327626e-01, 9.90312159e-01, 7.95813978e-01,
          4.06685919e-01 ]
      - [ 9.76268172e-01, 9.34827089e-01, 8.29560697e-01, 9.02235985e-01,
          4.06685919e-01 ]
      - [ 9.18374121e-01, 9.76473033e-01, 9.98881459e-01, 9.52090383e-01,
          4.06685919e-01 ]
      - [ 6.67837977e-01, 9.95408177e-01, 7.56314337e-01, 8.24201167e-01,
          0. ]
      - [ 0., 8.24777782e-01, 9.43658590e-01, 5.73012829e-01,
          1.76542415e-03 ]
      - [ 7.67972946e-01, 9.80738282e-01, 9.72599030e-01, 8.16286743e-01,
          3.05730885e-09 ]
      - [ 7.71395862e-01, 9.75104570e-01, 8.19995046e-01, 7.20493793e-01,
          1.56799316e-01 ]
      - [ 9.18094575e-01, 9.95922446e-01, 9.49867964e-01, 5.89509249e-01,
          6.63847935e-11 ]
      - [ 7.74789870e-01, 9.80427563e-01, 8.73433769e-01, 8.95497143e-01,
          1.42605141e-01 ]
      - [ 5.10341644e-01, 8.28380346e-01, 6.63671553e-01, 7.70184636e-01,
          0. ]
      - [ 9.76241350e-01, 9.96442378e-01, 8.65889549e-01, 7.46157825e-01,
          1.99683325e-11 ]
      - [ 6.75804496e-01, 9.78528142e-01, 8.98088813e-01, 8.79219532e-01,
          0. ]
      - [ 8.54846239e-01, 9.90258694e-01, 8.41941893e-01, 9.37432528e-01,
          2.26016006e-08 ]
      - [ 9.47391629e-01, 9.99855340e-01, 6.63647532e-01, 8.98097873e-01,
          0. ]
      - [ 0., 6.96236491e-01, 9.54913020e-01, 6.79873645e-01, 0. ]
      - [ 7.33879924e-01, 9.97534990e-01, 8.71427596e-01, 8.84799182e-01,
          5.50388813e-01 ]
      - [ 0., 6.95996761e-01, 9.55780685e-01, 6.89602613e-01, 0. ]
      - [ 4.91634220e-01, 9.44810510e-01, 7.61302650e-01, 8.37711632e-01,
          0. ]
      - [ 6.25103474e-01, 9.95528936e-01, 8.88903737e-01, 8.17737639e-01,
          1.71375811e-01 ]
      - [ 1.06008025e-02, 9.47757065e-01, 8.23885918e-01, 8.53517175e-01,
          2.83310086e-01 ]
      - [ 8.65851641e-01, 9.98611152e-01, 9.31649685e-01, 9.05275524e-01,
          8.61867070e-02 ]
      - [ 1.60966292e-01, 9.52044845e-01, 8.84564161e-01, 9.18724716e-01,
          0. ]
      - [ 8.00816342e-02, 9.63601291e-01, 9.12877381e-01, 8.93646359e-01,
          2.76223533e-02 ]
      - [ 8.29329014e-01, 9.99053955e-01, 9.99025524e-01, 9.01883185e-01,
          8.61867070e-02 ]
      - [ 7.34707832e-01, 9.98863220e-01, 9.99229670e-01, 8.93247843e-01,
          2.67936677e-01 ]
      - [ 7.23894417e-01, 9.99244690e-01, 9.98867571e-01, 8.88096571e-01,
          1.87966600e-01 ]
      - [ 5.05314171e-01, 9.99222934e-01, 9.98849332e-01, 9.01848376e-01,
          2.83551306e-01 ]
      - [ 2.69570231e-01, 9.12910759e-01, 8.42345655e-01, 9.27731156e-01,
          0. ]
      - [ 5.36171794e-01, 9.99331832e-01, 9.99659419e-01, 9.00404513e-01,
          6.06915355e-01 ]
      - [ 7.71679044e-01, 9.96612489e-01, 8.98044586e-01, 8.85152936e-01,
          6.20699346e-01 ]
      - [ 0., 9.15914774e-01, 9.47633028e-01, 4.84158397e-01, 0. ]
      - [ 4.97254312e-01, 7.92905688e-01, 9.43360627e-01, 9.52586412e-01,
          0. ]
      - [ 6.25346661e-01, 8.33402634e-01, 8.91692579e-01, 9.10622418e-01,
          6.34147286e-01 ]
      - [ 0., 9.48257446e-01, 6.23874068e-01, 7.99127936e-01, 0. ]
      - [ 4.91694599e-01, 7.96792507e-01, 9.80849445e-01, 9.58779693e-01,
          0. ]
      - [ 6.33065820e-01, 9.92340207e-01, 9.20823634e-01, 8.72798204e-01,
          3.85234565e-01 ]
      - [ 0., 9.46398020e-01, 6.23695791e-01, 8.04458380e-01, 0. ]
      - [ 8.91719878e-01, 9.98989880e-01, 9.04730201e-01, 9.03177500e-01,
          5.78173637e-01 ]
      - [ 0., 9.54989970e-01, 8.15368235e-01, 8.56069326e-01, 0. ]
      - [ 0., 9.68703568e-01, 8.70916784e-01, 8.59001815e-01,
          1.87381953e-01 ]
      - [ 1.11054094e-03, 5.23227096e-01, 7.89360940e-01, 9.53882635e-01,
          6.48501933e-01 ]
      - [ 5.03442585e-01, 9.56010342e-01, 8.44258189e-01, 8.21016669e-01,
          0. ]
      - [ 6.77410901e-01, 9.85397756e-01, 9.42218721e-01, 8.98743749e-01,
          0. ]
      - [ 9.71676409e-01, 9.33245718e-01, 8.66196394e-01, 9.48463142e-01,
          5.32649867e-02 ]
      - [ 4.76936609e-01, 9.92584705e-01, 8.68071377e-01, 9.55404878e-01,
          5.63533127e-01 ]
      - [ 9.49111342e-01, 9.75211263e-01, 8.63825560e-01, 9.42337096e-01,
          4.23336551e-02 ]
      - [ 9.04870749e-01, 8.03862214e-01, 9.03260350e-01, 5.72176993e-01,
          0. ]
      - [ 5.56365192e-01, 9.83968854e-01, 9.60996985e-01, 9.70485151e-01,
          4.99405414e-01 ]
      - [ 4.18741954e-03, 9.98293996e-01, 9.17675197e-01, 9.59735692e-01,
          0. ]
      - [ 1.09537756e-02, 9.91263986e-01, 8.62434924e-01, 8.95402491e-01,
          3.35687264e-06 ]
      - [ 8.08556437e-01, 9.85891521e-01, 8.52331042e-01, 9.56775069e-01,
          3.36751044e-02 ]
      - [ 1.31203175e-01, 8.37952435e-01, 8.90803754e-01, 5.40841460e-01,
          8.55775113e-08 ]
      - [ 7.55893588e-01, 9.91926312e-01, 9.52356696e-01, 9.50512290e-01,
          1.66152149e-01 ]
      - [ 6.17298961e-01, 9.90520954e-01, 9.38448489e-01, 9.51278329e-01,
          6.05749369e-01 ]
      - [ 7.75542080e-01, 9.88600075e-01, 8.40762913e-01, 9.64025080e-01,
          4.81491350e-02 ]
      - [ 6.76368117e-01, 9.89738047e-01, 8.81976604e-01, 7.92000949e-01,
          4.50264770e-06 ]
      - [ 8.32397580e-01, 5.21020710e-01, 7.51076460e-01, 4.10887241e-01,
          1.15095452e-06 ]
      - [ 9.62698936e-01, 9.86362040e-01, 9.42887306e-01, 9.08117235e-01,
          2.52824873e-01 ]
      - [ 5.00641227e-01, 9.94740188e-01, 8.95774662e-01, 8.37619722e-01,
          0. ]
      - [ 6.71644807e-01, 9.90280390e-01, 8.81159365e-01, 7.73845613e-01,
          3.57338104e-05 ]
      - [ 8.68292034e-01, 9.35437381e-01, 8.12305510e-01, 9.81633842e-01,
          0. ]
      - [ 0., 5.95350087e-01, 8.82811010e-01, 9.40726995e-01, 0. ]
      - [ 9.00587380e-01, 8.31034780e-01, 8.79612982e-01, 8.82797837e-01,
          5.24873435e-01 ]
      - [ 9.95955586e-01, 9.98178422e-01, 9.13483500e-01, 9.12447214e-01,
          3.45348656e-01 ]
      - [ 9.10782099e-01, 8.49490106e-01, 8.51057410e-01, 8.72745872e-01,
          3.85061800e-01 ]
      - [ 9.99504209e-01, 9.99610841e-01, 9.99340534e-01, 9.43934202e-01,
          4.51433718e-01 ]
      - [ 9.98562455e-01, 9.98946846e-01, 9.99063551e-01, 9.82125640e-01,
          3.75556648e-01 ]
      - [ 9.59752679e-01, 9.38640773e-01, 9.19827759e-01, 9.32912052e-01,
          9.52511670e-09 ]
      - [ 9.96538579e-01, 9.99676466e-01, 9.98936951e-01, 9.41853046e-01,
          9.52511670e-09 ]
      - [ 9.97022569e-01, 9.79996026e-01, 7.94934392e-01, 9.11910355e-01,
          9.52511670e-09 ]
      - [ 0., 8.69196177e-01, 9.34704423e-01, 5.65850139e-01, 0. ]
      - [ 7.22227097e-01, 9.55168843e-01, 8.06906641e-01, 9.49093521e-01,
          1.05488873e-09 ]
      - [ 9.94532764e-01, 9.64178622e-01, 7.56921887e-01, 8.47734749e-01,
          1.99411750e-01 ]
      - [ 9.94614482e-01, 9.92398202e-01, 7.18359470e-01, 8.68472636e-01,
          1.99411750e-01 ]
      - [ 8.84895921e-01, 9.93184865e-01, 7.18206227e-01, 8.46544325e-01,
          1.56359538e-01 ]
      - [ 9.97666001e-01, 9.80857372e-01, 7.95723796e-01, 9.26576138e-01,
          1.86103433e-02 ]
      - [ 0., 8.51537764e-01, 9.01090860e-01, 5.56411803e-01, 0. ]
      - [ 7.22288899e-03, 9.92739379e-01, 7.18294621e-01, 8.54721963e-01,
          5.11907399e-01 ]
      - [ 9.59057748e-01, 9.97951567e-01, 9.20484006e-01, 9.22787845e-01,
          6.26009598e-04 ]
      - [ 2.56098270e-01, 9.39066172e-01, 8.44984710e-01, 3.90488893e-01,
          0. ]
      - [ 1.56026317e-10, 9.72679973e-01, 7.93996930e-01, 9.25854504e-01,
          1. ]
      - [ 7.87375331e-01, 9.75286961e-01, 7.92723954e-01, 9.55107808e-01,
          2.99668819e-01 ]
      - [ 8.49737048e-01, 9.72815931e-01, 7.72129655e-01, 9.17270005e-01,
          2.99668819e-01 ]
      - [ 9.90148783e-01, 9.97887254e-01, 9.49596345e-01, 9.02572930e-01,
          2.99668819e-01 ]
      - [ 7.84511268e-01, 8.96750748e-01, 9.99398410e-01, 8.48714471e-01,
          2.99668819e-01 ]
      - [ 8.89087498e-01, 9.19380546e-01, 8.14241230e-01, 8.10502112e-01,
          3.47853601e-02 ]
      - [ 9.40043449e-01, 8.36434662e-01, 8.41622889e-01, 7.62040854e-01,
          3.47853601e-02 ]
      - [ 8.95090163e-01, 7.25447476e-01, 8.23790073e-01, 9.13107395e-01,
          2.46552110e-04 ]
      - [ 7.28326023e-01, 8.40729058e-01, 8.40968251e-01, 9.04070675e-01,
          1.38344280e-02 ]
      - [ 7.80066967e-01, 9.99759138e-01, 9.99314010e-01, 8.91558528e-01,
          1.38344280e-02 ]
      - [ 8.18146229e-01, 9.82270181e-01, 7.65762806e-01, 8.49838078e-01,
          2.46552110e-04 ]
      - [ 7.81481087e-01, 9.88822222e-01, 8.17563891e-01, 9.75830793e-01,
          4.07312423e-01 ]
      - [ 8.82677913e-01, 8.89922321e-01, 7.57834077e-01, 7.20447719e-01,
          4.07312423e-01 ]
      - [ 8.14806759e-01, 9.82156157e-01, 7.65717626e-01, 8.37282836e-01,
          6.30587965e-05 ]
      - [ 7.52456725e-01, 9.07102883e-01, 8.19396555e-01, 9.07605410e-01,
          2.50580814e-02 ]
      - [ 3.37460786e-01, 7.13635325e-01, 8.16342711e-01, 9.80898857e-01,
          1. ]
      - [ 7.94679761e-01, 9.88667965e-01, 8.18089485e-01, 9.61162567e-01,
          2.50580814e-02 ]
      - [ 7.70808756e-01, 9.66102600e-01, 8.24831724e-01, 9.28493321e-01,
          4.32824221e-04 ]
      - [ 2.32172832e-01, 9.97661829e-01, 9.96694922e-01, 9.45971608e-01,
          4.32824221e-04 ]
      - [ 7.69525528e-01, 9.47342932e-01, 9.63652253e-01, 9.72167194e-01,
          1.42926292e-04 ]
      - [ 8.02704215e-01, 9.86268222e-01, 8.16783249e-01, 9.70220983e-01,
          3.09398835e-08 ]
      - [ 4.13496308e-02, 9.99019444e-01, 9.98388946e-01, 8.71272862e-01,
          1.42926292e-04 ]
      - [ 1.46301127e-09, 8.92152786e-01, 9.46759164e-01, 5.49126506e-01,
          0. ]
      - [ 7.97390997e-01, 9.89962041e-01, 8.16985190e-01, 9.59242642e-01,
          2.34126746e-11 ]
      - [ 9.96235609e-01, 9.94759321e-01, 9.99672890e-01, 8.62408221e-01,
          6.34920001e-01 ]
      - [ 6.48830712e-01, 9.98498082e-01, 9.91669476e-01, 8.42786729e-01,
          6.34920001e-01 ]
      - [ 4.09117281e-01, 8.47242415e-01, 8.84338856e-01, 9.28621411e-01,
          8.32790607e-12 ]
      - [ 3.35653394e-01, 8.49527955e-01, 8.12342107e-01, 9.50043261e-01,
          5.24748206e-01 ]
      - [ 2.14822039e-01, 9.40864742e-01, 7.58614838e-01, 8.61656666e-01,
          1.14469945e-01 ]
      - [ 1.20319210e-05, 8.51491749e-01, 8.14287603e-01, 9.41381037e-01,
          1. ]
      - [ 5.79114735e-01, 8.79781902e-01, 8.14265430e-01, 7.28925705e-01,
          1.93537042e-01 ]
      - [ 7.79145181e-01, 8.79591525e-01, 9.99209762e-01, 9.55350995e-01,
          0. ]
      - [ 6.07423842e-01, 8.80359113e-01, 7.46040285e-01, 8.64912868e-01,
          1. ]
      - [ 7.13498235e-01, 9.99365985e-01, 9.96803463e-01, 9.42736149e-01,
          0. ]
      - [ 6.42188430e-01, 8.61330569e-01, 8.13783884e-01, 9.52715635e-01,
          1.46733239e-01 ]
      - [ 7.70512640e-01, 9.58656371e-01, 8.16579998e-01, 9.13836658e-01,
          4.28379238e-01 ]
      - [ 5.14668107e-01, 9.76726711e-01, 8.16917062e-01, 8.68306398e-01,
          2.90966928e-01 ]
      - [ 7.83406913e-01, 9.68106806e-01, 8.17684233e-01, 9.02157247e-01,
          3.43846411e-01 ]
      - [ 1.55180037e-01, 8.80372226e-01, 7.46033251e-01, 8.62321973e-01,
          3.43846411e-01 ]
      - [ 5.78396618e-01, 9.91566956e-01, 7.96339691e-01, 7.44578660e-01,
          6.82811663e-02 ]
      - [ 3.04909468e-01, 7.73239315e-01, 8.32033753e-01, 8.45236957e-01,
          2.90529519e-01 ]
      - [ 3.73189032e-01, 9.90859210e-01, 8.57991517e-01, 6.93648994e-01,
          2.90529519e-01 ]
      - [ 5.81141412e-01, 9.99152958e-01, 9.99497235e-01, 9.38620389e-01,
          2.90529519e-01 ]
      - [ 5.27406931e-01, 8.75215828e-01, 7.46276915e-01, 8.79964590e-01,
          2.90529519e-01 ]
      - [ 8.79778326e-01, 9.79134023e-01, 8.82689118e-01, 6.85170174e-01,
          5.11221707e-01 ]
      - [ 9.47642386e-01, 8.76507580e-01, 7.46258259e-01, 8.83174598e-01,
          7.07675815e-01 ]
      - [ 7.30565548e-01, 9.98797596e-01, 9.23256516e-01, 8.89566481e-01,
          2.27550883e-02 ]
      - [ 8.04458857e-01, 9.41543162e-01, 9.98609006e-01, 9.52325106e-01,
          2.27550883e-02 ]
      - [ 7.36202061e-01, 9.84732687e-01, 8.46689761e-01, 8.08483303e-01,
          1.17563799e-01 ]
      - [ 7.44891107e-01, 9.97878850e-01, 9.03444290e-01, 8.30908239e-01,
          1.17563799e-01 ]
      - [ 9.99595046e-01, 9.63784873e-01, 8.81179035e-01, 8.11685503e-01,
          1.17563799e-01 ]
      - [ 7.44661748e-01, 9.69347417e-01, 7.46694028e-01, 9.50546205e-01,
          1.17563799e-01 ]
      - [ 9.55327213e-01, 9.48034763e-01, 9.99673367e-01, 9.58525717e-01,
          1.17563799e-01 ]
      - [ 8.61028850e-01, 9.42058563e-01, 8.69383335e-01, 7.96150327e-01,
          5.59542716e-01 ]
      - [ 8.60182464e-01, 8.74831140e-01, 7.46453702e-01, 8.74240994e-01,
          5.59542716e-01 ]
      - [ 7.57042527e-01, 9.44198728e-01, 8.69219124e-01, 8.75571728e-01,
          3.68356615e-01 ]
      - [ 5.72292566e-01, 9.75539446e-01, 7.92939663e-01, 8.56417716e-01,
          1. ]
      - [ 9.95010138e-01, 9.79028106e-01, 6.62835717e-01, 8.01638246e-01,
          2.60304362e-01 ]
      - [ 7.38864958e-01, 9.74173903e-01, 9.00044262e-01, 6.76919103e-01,
          3.34878802e-01 ]
      - [ 7.49214709e-01, 9.69202518e-01, 8.67191315e-01, 9.41383004e-01,
          3.98532301e-01 ]
      - [ 7.23317325e-01, 9.29116070e-01, 8.29389215e-01, 8.64116609e-01,
          1.48656955e-02 ]
      - [ 9.97205436e-01, 9.97030258e-01, 9.99190629e-01, 8.85764420e-01,
          3.98532301e-01 ]
      - [ 7.54070759e-01, 9.69054699e-01, 9.99179482e-01, 9.23275888e-01,
          1.03707038e-01 ]
      - [ 9.98081625e-01, 8.81820977e-01, 7.89935768e-01, 9.16765034e-01,
          1.03707038e-01 ]
      - [ 7.27584660e-01, 9.93267298e-01, 9.90516782e-01, 8.93877625e-01,
          8.18748144e-04 ]
      - [ 7.79102981e-01, 8.95504236e-01, 7.70699680e-01, 7.85210609e-01,
          1.42891124e-01 ]
      - [ 7.73195028e-01, 8.64063859e-01, 7.45361686e-01, 7.84125388e-01,
          5.37040889e-01 ]
      - [ 7.63975739e-01, 9.88475800e-01, 6.91879749e-01, 8.38785648e-01,
          5.49384505e-02 ]
      - [ 7.80348539e-01, 9.28367674e-01, 7.28780389e-01, 9.63816702e-01,
          5.49384505e-02 ]
      - [ 9.56685007e-01, 9.94984984e-01, 9.99252379e-01, 9.14454877e-01,
          1.13912478e-01 ]
      - [ 9.88245726e-01, 9.43913877e-01, 7.94360280e-01, 8.30978990e-01,
          1.15441099e-01 ]
      - [ 7.39926696e-01, 9.77901161e-01, 9.98966277e-01, 6.64844513e-01,
          1.15441099e-01 ]
      - [ 9.40304756e-01, 9.97304142e-01, 9.99198616e-01, 9.10496712e-01,
          1.15441099e-01 ]
      - [ 8.29125583e-01, 9.78090525e-01, 9.56037641e-01, 8.71965647e-01,
          7.37201888e-03 ]
      - [ 7.82960415e-01, 9.85769391e-01, 6.80604398e-01, 9.37719405e-01,
          2.30423966e-03 ]
      - [ 9.45380330e-01, 9.79333222e-01, 6.62749171e-01, 8.17060173e-01,
          2.30423966e-03 ]
      - [ 7.69544542e-01, 9.85463679e-01, 9.26363468e-01, 9.12650585e-01,
          4.06985916e-02 ]
      - [ 9.57605124e-01, 9.82520700e-01, 6.62244380e-01, 8.07371497e-01,
          4.79177070e-05 ]
      - [ 7.75291502e-01, 9.85368073e-01, 9.99534547e-01, 9.34964836e-01,
          6.52835146e-02 ]
      - [ 7.80790925e-01, 9.87589836e-01, 9.99461055e-01, 9.30748045e-01,
          2.00773049e-02 ]
      - [ 9.81175900e-01, 9.36369836e-01, 8.25507522e-01, 8.42755675e-01,
          5.52398264e-01 ]
      - [ 9.03019249e-01, 9.18856561e-01, 8.99322033e-01, 9.47886109e-01,
          5.52398264e-01 ]
      - [ 7.52778471e-01, 7.99336195e-01, 7.45467901e-01, 7.92262137e-01,
          2.69295603e-01 ]
      - [ 8.20635676e-01, 8.95336688e-01, 7.74063349e-01, 9.36547399e-01,
          4.79326360e-02 ]
      - [ 9.76800978e-01, 9.88886058e-01, 8.71074021e-01, 9.13478613e-01,
          4.79326360e-02 ]
      - [ 8.12801063e-01, 9.93159413e-01, 8.03323150e-01, 6.71792924e-01,
          3.96251380e-02 ]
      - [ 9.21335936e-01, 7.68334210e-01, 7.65460372e-01, 9.48160768e-01,
          1.34113804e-03 ]
      - [ 8.61681759e-01, 9.91551936e-01, 8.71051192e-01, 8.30075860e-01,
          3.96251380e-02 ]
      - [ 8.16794038e-01, 9.80845153e-01, 8.88422132e-01, 9.57192719e-01,
          2.98692435e-01 ]
      - [ 9.74985719e-01, 9.90459502e-01, 8.71065974e-01, 9.00702953e-01,
          2.98692435e-01 ]
      - [ 7.81884968e-01, 9.74919379e-01, 9.99493897e-01, 7.68424034e-01,
          2.98692435e-01 ]
      - [ 8.27946723e-01, 9.81205523e-01, 9.59128439e-01, 8.41840863e-01,
          9.92291825e-06 ]
      - [ 9.74750102e-01, 9.11843359e-01, 8.03791285e-01, 9.18905914e-01,
          8.08257610e-02 ]
      - [ 8.14374208e-01, 9.90622044e-01, 8.71419132e-01, 8.53006721e-01,
          8.08257610e-02 ]
      - [ 8.32463920e-01, 9.98420298e-01, 8.77414644e-01, 8.37109685e-01,
          2.84722596e-01 ]
      - [ 9.76043224e-01, 8.99492145e-01, 7.56408453e-01, 8.33361208e-01,
          4.76520211e-01 ]
      - [ 9.74884748e-01, 9.92367983e-01, 8.71257961e-01, 8.89216065e-01,
          4.76520211e-01 ]
      - [ 8.31840217e-01, 9.89170611e-01, 8.77964556e-01, 8.54929209e-01,
          8.63796696e-02 ]
      - [ 9.74920511e-01, 9.00626183e-01, 7.56099939e-01, 8.29551041e-01,
          8.63796696e-02 ]
      - [ 9.80145514e-01, 9.58763003e-01, 9.99045968e-01, 8.60178769e-01,
          8.63796696e-02 ]
      - [ 8.08793902e-01, 9.88310158e-01, 8.71553302e-01, 8.17844152e-01,
          8.63796696e-02 ]
      - [ 1.19755134e-01, 9.93372619e-01, 9.54045653e-01, 9.01079237e-01,
          1.26469359e-02 ]
      - [ 1.02144346e-01, 8.92018735e-01, 7.69642651e-01, 8.86149466e-01,
          2.47119412e-01 ]
      - [ 1.23070396e-01, 7.99780726e-01, 7.44707584e-01, 7.56781220e-01,
          2.47119412e-01 ]
      - [ 8.80697906e-01, 9.90665078e-01, 8.70778620e-01, 8.40904236e-01,
          2.47119412e-01 ]
      - [ 9.44864212e-07, 9.93708253e-01, 9.66925919e-01, 8.96930695e-01,
          1.83819025e-03 ]
      - [ 9.71251130e-01, 9.90807295e-01, 8.71379673e-01, 8.98437381e-01,
          2.52604306e-01 ]
      - [ 6.47963762e-01, 9.95738149e-01, 9.67194855e-01, 9.13246214e-01,
          8.23712035e-05 ]
      - [ 6.63274825e-01, 9.99252439e-01, 9.99301493e-01, 8.88684571e-01,
          8.57061744e-02 ]
      - [ 8.32063913e-01, 9.88838017e-01, 8.71652424e-01, 8.52678418e-01,
          8.57061744e-02 ]
      - [ 3.97585869e-01, 9.95425105e-01, 8.19698393e-01, 9.30990577e-01,
          1.75989300e-01 ]
      - [ 3.42737705e-01, 8.82403910e-01, 7.67923176e-01, 8.71324420e-01,
          1.75989300e-01 ]
      - [ 8.36736917e-01, 9.99201536e-01, 8.97813559e-01, 9.40782428e-01,
          1.42758321e-02 ]
      - [ 8.41201663e-01, 9.86212194e-01, 8.71008396e-01, 8.26089561e-01,
          1.38689160e-01 ]
      - [ 1.90380335e-01, 9.99138415e-01, 9.99219418e-01, 8.03651094e-01,
          1.38689160e-01 ]
      - [ 6.83965683e-01, 9.99230862e-01, 9.98568714e-01, 8.73143554e-01,
          1.94062650e-01 ]
      - [ 9.73786831e-01, 9.92909670e-01, 8.71727884e-01, 9.12378669e-01,
          1.94062650e-01 ]
      - [ 9.81679618e-01, 9.64150786e-01, 8.99246275e-01, 9.09678638e-01,
          7.95262586e-03 ]
      - [ 9.76271033e-01, 9.79871452e-01, 9.05198455e-01, 9.46412623e-01,
          1.83475852e-01 ]
      - [ 1.93432730e-03, 9.96979535e-01, 9.97977853e-01, 8.08606207e-01,
          1.13929614e-01 ]
      - [ 9.23491791e-02, 9.94647980e-01, 7.53023624e-01, 8.53917062e-01,
          1.78795587e-02 ]
      - [ 7.24344790e-01, 9.95423019e-01, 7.44016290e-01, 7.88354814e-01,
          1.41616493e-01 ]
      - [ 9.71856058e-01, 8.81142020e-01, 7.62008190e-01, 7.70116568e-01,
          1.41616493e-01 ]
      - [ 8.51324856e-01, 9.88357484e-01, 8.17714512e-01, 7.83373952e-01,
          1.41616493e-01 ]
      - [ 8.53264689e-01, 9.82953608e-01, 8.32647383e-01, 9.29528356e-01,
          3.35366815e-01 ]
      - [ 7.24718928e-01, 9.96527016e-01, 8.88610780e-01, 9.16615188e-01,
          3.02407928e-02 ]
      - [ 8.52317214e-01, 8.11932802e-01, 6.37449622e-01, 7.38193989e-01,
          3.35366815e-01 ]
      - [ 8.52898240e-01, 9.89641726e-01, 8.17362130e-01, 7.85955012e-01,
          3.35366815e-01 ]
      - [ 7.29407012e-01, 9.94749784e-01, 8.31542611e-01, 8.76874864e-01,
          1.87545598e-01 ]
      - [ 9.72984910e-01, 8.55402470e-01, 7.61393249e-01, 9.33138967e-01,
          7.09605217e-02 ]
      - [ 8.59836221e-01, 9.99596238e-01, 8.81611109e-01, 9.71016347e-01,
          0. ]
      - [ 7.55590916e-01, 9.99117970e-01, 9.87537563e-01, 8.73888552e-01,
          0. ]
      - [ 9.98224378e-01, 8.77262950e-01, 7.31800854e-01, 8.53671491e-01,
          0. ]
      - [ 7.42704690e-01, 9.93472993e-01, 8.90070975e-01, 8.70959580e-01,
          7.39722908e-01 ]
      - [ 8.67265582e-01, 8.37030113e-01, 6.63032472e-01, 7.61646390e-01,
          7.12355554e-01 ]
      - [ 8.77791286e-01, 9.92112815e-01, 8.87496173e-01, 8.55369627e-01,
          6.27274990e-01 ]
      - [ 7.62006104e-01, 9.93980169e-01, 8.58354867e-01, 9.15732026e-01,
          1. ]
      - [ 9.78340864e-01, 8.64682317e-01, 8.02552164e-01, 9.54500556e-01,
          5.23318768e-01 ]
      - [ 8.72409165e-01, 9.85313118e-01, 8.92661870e-01, 9.09470916e-01,
          6.35330975e-01 ]
      - [ 8.76937866e-01, 7.58778572e-01, 8.02333713e-01, 9.35946405e-01,
          6.35330975e-01 ]
      - [ 8.78700912e-01, 9.94533181e-01, 9.99758482e-01, 8.00753117e-01,
          6.35330975e-01 ]
      - [ 8.72280180e-01, 9.90163505e-01, 9.48382318e-01, 9.01634872e-01,
          5.00217080e-01 ]
      - [ 7.63315141e-01, 9.99044716e-01, 9.12710845e-01, 9.06053543e-01,
          8.34772527e-01 ]
      - [ 9.75352943e-01, 8.72793615e-01, 8.41622055e-01, 8.99037898e-01,
          8.34772527e-01 ]
      - [ 8.84491324e-01, 9.95802939e-01, 9.98548865e-01, 7.99163163e-01,
          8.34772527e-01 ]
      - [ 5.21329403e-01, 9.89594579e-01, 8.94240260e-01, 8.16550136e-01,
          3.27227503e-01 ]
      - [ 8.56786072e-02, 9.23361361e-01, 8.80539894e-01, 6.11473203e-01,
          0. ]
      - [ 8.85454714e-01, 9.88227427e-01, 8.18022609e-01, 8.04183245e-01,
          7.39379227e-01 ]
      - [ 2.44493094e-05, 9.97257292e-01, 8.53206635e-01, 8.89792383e-01,
          1.11151099e-01 ]
      - [ 7.66521692e-01, 9.59690452e-01, 8.37101996e-01, 9.74537730e-01,
          0. ]
      - [ 8.94800663e-01, 9.86813605e-01, 8.19437325e-01, 7.74450123e-01,
          8.63072425e-02 ]
      - [ 5.03255963e-01, 9.18166339e-01, 7.86729157e-01, 7.70734251e-01,
          3.84800956e-02 ]
      - [ 9.80613887e-01, 9.91862178e-01, 8.23231876e-01, 9.22134340e-01,
          3.84800956e-02 ]
      - [ 8.85516584e-01, 9.95629907e-01, 9.95168328e-01, 7.69254267e-01,
          1.76792732e-03 ]
      - [ 8.01826239e-01, 8.59589279e-01, 8.47600579e-01, 9.11327899e-01,
          5.52216589e-01 ]
      - [ 7.76374340e-01, 9.88918185e-01, 8.23385715e-01, 9.11145687e-01,
          5.52216589e-01 ]
      - [ 8.55456769e-01, 9.98237193e-01, 9.98785555e-01, 7.75953114e-01,
          5.52216589e-01 ]
      - [ 9.76995826e-01, 9.98090863e-01, 9.98913050e-01, 7.91580319e-01,
          1.24259847e-09 ]
      - [ 8.89851093e-01, 9.78741527e-01, 9.16008949e-01, 9.13915992e-01,
          6.05899096e-01 ]
      - [ 9.05007541e-01, 9.87246454e-01, 8.19250286e-01, 6.84214771e-01,
          6.05899096e-01 ]
      - [ 9.10068452e-01, 9.71685529e-01, 9.86417532e-01, 7.68795431e-01,
          6.05899096e-01 ]
      - [ 7.62166262e-01, 7.99217701e-01, 8.54522467e-01, 8.29047382e-01,
          2.14093221e-24 ]
      - [ 9.46031392e-01, 9.04572845e-01, 8.54078889e-01, 9.11199570e-01,
          6.74294060e-05 ]
      - [ 9.63613093e-01, 9.88376617e-01, 8.25590789e-01, 8.22515965e-01,
          6.44977391e-03 ]
      - [ 7.08932817e-01, 9.91344869e-01, 8.31074893e-01, 9.42993999e-01,
          1.09611638e-02 ]
      - [ 9.61093187e-01, 9.37694013e-01, 8.31813931e-01, 8.53853464e-01,
          5.13877894e-04 ]
      - [ 6.32945597e-01, 8.75695169e-01, 7.06926048e-01, 9.44718838e-01,
          7.17219166e-39 ]
      - [ 6.51652217e-01, 9.59633708e-01, 9.09293830e-01, 8.45325351e-01,
          3.71214449e-02 ]
      - [ 9.33478475e-01, 9.92660761e-01, 9.98200834e-01, 7.71993637e-01,
          3.71214449e-02 ]
      - [ 3.43181401e-01, 9.73871529e-01, 8.23095024e-01, 8.92534196e-01,
          1.71786223e-06 ]
      - [ 4.57274973e-01, 9.63174880e-01, 9.20576394e-01, 8.26618552e-01,
          3.00360352e-01 ]
      - [ 9.87044334e-01, 9.96592820e-01, 8.26537907e-01, 9.29241121e-01,
          1.78980599e-07 ]
      - [ 7.14977622e-01, 9.86972034e-01, 9.55537975e-01, 8.43076587e-01,
          6.63719296e-01 ]
      - [ 9.78160501e-01, 9.95500028e-01, 8.25711071e-01, 9.03722703e-01,
          8.88981475e-08 ]
      - [ 8.83787096e-01, 9.96328354e-01, 9.98088002e-01, 7.69045413e-01,
          6.63719296e-01 ]
      - [ 9.74292755e-01, 9.79138613e-01, 7.81915247e-01, 9.16717529e-01,
          1.98954542e-09 ]
      - [ 9.72667098e-01, 9.96108651e-01, 8.31631720e-01, 8.67836595e-01,
          3.64683867e-01 ]
      - [ 7.91837275e-01, 9.23212349e-01, 8.17090988e-01, 8.07117403e-01,
          1.44868318e-04 ]
      - [ 8.83485436e-01, 9.48989570e-01, 8.31651807e-01, 7.40138710e-01,
          2.86134779e-02 ]
      - [ 8.42953801e-01, 9.40256476e-01, 9.20939684e-01, 7.98641682e-01,
          6.78655982e-01 ]
      - [ 8.72163236e-01, 9.57711160e-01, 6.84607089e-01, 9.37272549e-01,
          0. ]
      - [ 8.83827567e-01, 9.45483387e-01, 8.31906557e-01, 7.38009453e-01,
          1.47991618e-02 ]
      - [ 8.97012711e-01, 9.91963565e-01, 8.56480777e-01, 8.21394801e-01,
          2.26260236e-04 ]
      - [ 8.71466637e-01, 9.58193123e-01, 7.27986038e-01, 8.51943195e-01,
          2.72382633e-03 ]
      - [ 9.25997257e-01, 9.98003483e-01, 6.89307928e-01, 9.06678915e-01,
          1.74248479e-02 ]
      - [ 9.80380177e-01, 9.97745574e-01, 9.61251974e-01, 7.72658467e-01,
          7.54969180e-01 ]
      - [ 9.97073352e-01, 9.89780903e-01, 7.40493894e-01, 7.81336963e-01,
          4.04634140e-03 ]
      - [ 9.05377567e-01, 9.76405144e-01, 9.02828336e-01, 6.59955502e-01,
          3.74856085e-01 ]
      - [ 8.26249063e-01, 8.96784067e-01, 7.68486738e-01, 7.87247896e-01,
          0. ]
      - [ 9.31045234e-01, 9.97686625e-01, 7.25204766e-01, 8.05891871e-01,
          4.08431970e-06 ]
      - [ 9.76467073e-01, 9.90797400e-01, 9.71767426e-01, 6.75130248e-01,
          2.01266399e-03 ]
      - [ 7.57724941e-01, 8.68579626e-01, 7.87912667e-01, 8.20455790e-01,
          0. ]
      - [ 9.84985471e-01, 9.98355389e-01, 6.90398574e-01, 8.29954326e-01,
          2.02609203e-06 ]
      - [ 8.95724177e-01, 9.98188019e-01, 9.42172647e-01, 6.94454014e-01,
          6.63160086e-01 ]
      - [ 7.56263673e-01, 9.72257495e-01, 9.24423158e-01, 8.30322683e-01,
          6.63160086e-01 ]
      - [ 8.26391101e-01, 9.71622348e-01, 9.15678382e-01, 8.23625922e-01,
          4.86931026e-01 ]
      - [ 7.43921161e-01, 9.75065529e-01, 9.16647911e-01, 8.08478951e-01,
          6.33603275e-01 ]
      - [ 9.12702560e-01, 9.98730958e-01, 6.57407582e-01, 8.27433944e-01,
          1.55425255e-08 ]
      - [ 8.71933401e-01, 9.87681329e-01, 8.43452156e-01, 9.08156991e-01,
          0. ]
      - [ 7.50679076e-01, 9.85551536e-01, 8.86383772e-01, 9.25839603e-01,
          0. ]
      - [ 9.75826383e-01, 9.25056696e-01, 7.62294233e-01, 9.87337589e-01,
          1.55425255e-08 ]
      - [ 7.52524078e-01, 9.89216328e-01, 9.60184634e-01, 9.32582140e-01,
          0. ]
      - [ 8.90174031e-01, 8.92629623e-01, 8.09966326e-01, 8.38516772e-01,
          8.34768042e-02 ]
      - [ 7.71713674e-01, 8.68663907e-01, 7.93482721e-01, 8.19048226e-01,
          0. ]
      - [ 5.59278667e-01, 9.98303413e-01, 9.97712433e-01, 6.80717349e-01,
          2.59201787e-02 ]
      - [ 7.95055032e-01, 8.68934751e-01, 8.77789617e-01, 9.50724125e-01,
          0. ]
      - [ 5.50118148e-01, 9.76434290e-01, 8.76231909e-01, 6.44277573e-01,
          0. ]
      - [ 8.90454650e-01, 8.23679566e-01, 8.62132907e-01, 9.67607439e-01,
          0. ]
      - [ 8.63510251e-01, 9.93194759e-01, 8.76151323e-01, 8.98088694e-01,
          3.94078932e-04 ]
      - [ 9.55431223e-01, 9.98212397e-01, 9.21136796e-01, 8.48880291e-01,
          2.75796473e-01 ]
      - [ 8.98105502e-01, 8.28600049e-01, 8.62340510e-01, 9.60838079e-01,
          0. ]
      - [ 2.86743678e-02, 9.83921707e-01, 9.83392239e-01, 9.01982069e-01,
          0. ]
      - [ 2.20482014e-02, 7.87684381e-01, 9.49632943e-01, 9.23657060e-01,
          7.20301905e-05 ]
      - [ 6.47428989e-01, 9.78620470e-01, 9.61412072e-01, 8.99804294e-01,
          0. ]
      - [ 3.50585073e-01, 9.99222517e-01, 9.39280450e-01, 8.05423915e-01,
          3.05230524e-02 ]
      - [ 9.86141384e-01, 9.85960066e-01, 8.42294455e-01, 8.75652611e-01,
          0. ]
      - [ 8.49004865e-01, 9.79156971e-01, 9.82379258e-01, 9.08026934e-01,
          0. ]
      - [ 5.80708146e-01, 9.78613019e-01, 9.61746335e-01, 9.01133776e-01,
          0. ]
      - [ 4.52203631e-01, 7.79888213e-01, 9.72454906e-01, 9.22908783e-01,
          3.95618200e-01 ]
      - [ 4.96856868e-01, 7.34827757e-01, 8.38156879e-01, 8.55943620e-01,
          3.95618200e-01 ]
      - [ 8.85439068e-02, 8.65510464e-01, 7.91359842e-01, 7.84553170e-01,
          0. ]
      - [ 8.97452235e-01, 9.84603167e-01, 8.19931388e-01, 8.41071248e-01,
          0. ]
      - [ 7.72649169e-01, 9.78274286e-01, 9.60524976e-01, 8.85900080e-01,
          0. ]
      - [ 7.92970181e-01, 9.79914606e-01, 9.61835861e-01, 8.92981529e-01,
          0. ]
      - [ 8.05363417e-01, 9.65264142e-01, 9.64689612e-01, 9.52584326e-01,
          0. ]
      - [ 9.34723854e-01, 9.84477758e-01, 9.18849707e-01, 8.99711013e-01,
          1.99513137e-01 ]
      - [ 8.90704870e-01, 9.87701893e-01, 8.21551859e-01, 8.51977766e-01,
          0. ]
      - [ 7.66840100e-01, 9.81162250e-01, 9.62191701e-01, 8.94693255e-01,
          0. ]
      - [ 9.72417653e-01, 8.00272226e-01, 9.99460876e-01, 9.19741929e-01,
          1.26070172e-01 ]
      - [ 6.68754280e-01, 8.98691833e-01, 9.98457313e-01, 9.15384114e-01,
          1.26070172e-01 ]
      - [ 6.21276677e-01, 9.97594655e-01, 8.51901591e-01, 9.45269883e-01,
          0. ]
      - [ 6.33669078e-01, 9.98556077e-01, 9.98569548e-01, 8.98049235e-01,
          6.05822563e-01 ]
      - [ 5.94497025e-01, 9.99524057e-01, 9.99165893e-01, 9.21389759e-01,
          3.54705483e-01 ]
      - [ 8.36273849e-01, 9.96162832e-01, 9.00565505e-01, 9.83401418e-01,
          3.54705483e-01 ]
      - [ 5.70148192e-02, 8.91025543e-01, 9.18296874e-01, 9.55683529e-01,
          0. ]
      - [ 6.50772229e-02, 9.93498027e-01, 8.86431515e-01, 9.09282327e-01,
          0. ]
      - [ 6.83701038e-02, 9.90701199e-01, 9.20147419e-01, 8.52377892e-01,
          0. ]
      - [ 5.04234910e-01, 9.77265477e-01, 9.72924292e-01, 8.08313966e-01,
          0. ]
      - [ 4.06139910e-01, 9.49651718e-01, 8.13294709e-01, 7.95803368e-01,
          5.38725436e-01 ]
      - [ 7.65571177e-01, 9.50616539e-01, 7.89493918e-01, 5.79582989e-01,
          0. ]
      - [ 1.17805772e-01, 9.99745488e-01, 9.99582827e-01, 8.85739326e-01,
          5.38725436e-01 ]
      - [ 8.88456523e-01, 9.51388001e-01, 9.23734725e-01, 8.08058858e-01,
          0. ]
      - [ 6.16924107e-01, 9.99450684e-01, 9.98995245e-01, 9.00349319e-01,
          1.65200981e-05 ]
      - [ 6.97577477e-01, 8.78739655e-01, 9.98887956e-01, 9.01583374e-01,
          1.65200981e-05 ]
      - [ 7.22070694e-01, 9.99232233e-01, 9.27755833e-01, 8.13744903e-01,
          2.34530158e-02 ]
      - [ 9.43114638e-01, 9.58888352e-01, 9.97767389e-01, 8.22183490e-01,
          2.34530158e-02 ]
      - [ 1.94844142e-01, 9.99788642e-01, 9.99588728e-01, 8.84941876e-01,
          2.34530158e-02 ]
      - [ 8.62874210e-01, 9.99836206e-01, 9.28771138e-01, 9.08431470e-01,
          4.87353683e-01 ]
      - [ 8.07168603e-01, 9.99734104e-01, 9.93954659e-01, 8.87583315e-01,
          4.87353683e-01 ]
      - [ 7.59902298e-01, 8.79844844e-01, 9.17830944e-01, 8.91390443e-01,
          0. ]
      - [ 8.92486598e-04, 9.77416515e-01, 8.96467149e-01, 9.14171517e-01,
          6.33831799e-01 ]
      - [ 9.85570610e-01, 9.82811213e-01, 6.65189326e-01, 6.74875379e-01,
          3.78739694e-03 ]
      - [ 8.31620395e-01, 9.94807959e-01, 9.64813411e-01, 9.29861248e-01,
          0. ]
      - [ 5.57499751e-03, 9.90122437e-01, 9.99613285e-01, 7.71801531e-01,
          3.78739694e-03 ]
      - [ 7.58499622e-01, 9.97836471e-01, 7.78614581e-01, 6.10289097e-01,
          4.04854834e-01 ]
      - [ 9.86178875e-01, 9.85118508e-01, 8.94323468e-01, 8.49691093e-01,
          4.04854834e-01 ]
      - [ 9.85762477e-01, 9.79812026e-01, 9.91270661e-01, 8.03178251e-01,
          3.95683199e-01 ]
      - [ 9.99601185e-01, 9.84659135e-01, 9.35952127e-01, 6.93337083e-01,
          5.50414264e-01 ]
      - [ 2.91663677e-01, 9.34506834e-01, 6.50925100e-01, 8.35801601e-01,
          2.32460749e-22 ]
      - [ 8.38206768e-01, 9.29114759e-01, 8.80834818e-01, 8.53883982e-01,
          3.35955650e-01 ]
      - [ 3.21875423e-01, 6.44682288e-01, 9.22737300e-01, 9.24816966e-01,
          0. ]
      - [ 1.58435330e-01, 7.05176592e-01, 8.97933722e-01, 9.21135545e-01,
          0. ]
      - [ 1.60289361e-04, 8.70912611e-01, 9.28444743e-01, 8.10518682e-01,
          4.50158209e-01 ]
      - [ 7.53417730e-01, 9.82862413e-01, 9.83057737e-01, 9.14650917e-01,
          4.50158209e-01 ]
      - [ 1.72454029e-01, 5.08674324e-01, 8.00645292e-01, 8.61409605e-01,
          5.13091834e-07 ]
      - [ 6.71078172e-03, 8.04284215e-01, 9.87905025e-01, 8.11300039e-01,
          1.30318016e-01 ]
      - [ 8.05253961e-08, 9.67684925e-01, 9.58409965e-01, 6.97220623e-01,
          6.83143745e-26 ]
      - [ 4.56870288e-01, 9.89751518e-01, 9.98901367e-01, 7.65313804e-01,
          1.30318016e-01 ]
      - [ 3.40060204e-01, 9.87562895e-01, 7.85335422e-01, 6.41648531e-01,
          1.30318016e-01 ]
      - [ 4.90971744e-01, 9.37244833e-01, 9.15257215e-01, 8.78250659e-01,
          4.09149170e-01 ]
      - [ 9.80696797e-01, 9.91963029e-01, 9.99473989e-01, 7.80254483e-01,
          3.26984584e-01 ]
      - [ 4.92051750e-01, 9.75757778e-01, 8.63789439e-01, 8.36166978e-01,
          0. ]
      - [ 2.18651947e-02, 9.99615312e-01, 9.42091346e-01, 9.88748252e-01,
          1.76928937e-01 ]
      - [ 3.98172736e-01, 6.37997627e-01, 9.22554672e-01, 9.07241523e-01,
          0. ]
      - [ 8.08923244e-01, 7.02941477e-01, 8.98108006e-01, 9.15455043e-01,
          0. ]
      - [ 9.96136427e-01, 9.93801177e-01, 9.96554911e-01, 7.76833236e-01,
          1.76928937e-01 ]
      - [ 9.85047698e-01, 9.94117737e-01, 9.96754825e-01, 6.27399862e-01,
          5.64660728e-01 ]
      - [ 7.82376707e-01, 6.56724453e-01, 9.96185899e-01, 8.56804073e-01,
          2.25324541e-01 ]
      - [ 9.78328049e-01, 9.92607653e-01, 8.73967528e-01, 6.62107170e-01,
          4.87990230e-01 ]
      - [ 0., 9.52461243e-01, 8.40864956e-01, 7.75772154e-01,
          4.74432766e-01 ]
      - [ 6.95972800e-01, 9.95968461e-01, 8.45989645e-01, 7.59787679e-01,
          4.74432766e-01 ]
      - [ 6.67455554e-01, 9.82155442e-01, 8.64154100e-01, 7.69023538e-01,
          0. ]
      - [ 0., 9.62905586e-01, 9.03632402e-01, 7.85843074e-01,
          4.98843968e-01 ]
      - [ 9.80578840e-01, 9.66281533e-01, 8.50303054e-01, 6.65400267e-01,
          4.98843968e-01 ]
      - [ 0., 9.50195312e-01, 8.31953764e-01, 7.63508797e-01,
          2.31481120e-01 ]
      - [ 7.11932063e-01, 9.96508300e-01, 8.34070683e-01, 7.42145360e-01,
          2.31481120e-01 ]
      - [ 6.96284235e-01, 9.95749831e-01, 9.99503136e-01, 8.22403491e-01,
          2.31481120e-01 ]
      - [ 7.12868810e-01, 9.85937834e-01, 9.97050464e-01, 8.73742104e-01,
          2.31481120e-01 ]
      - [ 4.05299008e-01, 9.98660147e-01, 7.27256298e-01, 5.94928503e-01,
          6.71515067e-04 ]
      - [ 3.85041311e-02, 9.97559965e-01, 8.65339994e-01, 8.77920568e-01,
          0. ]
      - [ 8.31722081e-01, 9.99868393e-01, 9.99819994e-01, 9.83698308e-01,
          7.31936693e-02 ]
      - [ 2.73656435e-02, 9.83532846e-01, 8.47774148e-01, 8.11742902e-01,
          3.44592184e-01 ]
      - [ 2.08551306e-02, 9.91184592e-01, 9.25389946e-01, 7.33809531e-01,
          1.56908054e-02 ]
      - [ 0., 9.97064352e-01, 7.72543252e-01, 6.18969083e-01,
          3.44592184e-01 ]
      - [ 1.32320285e-01, 9.78494644e-01, 7.73212016e-01, 6.31480396e-01,
          1.00927234e-01 ]
      - [ 4.17644262e-01, 9.84710276e-01, 8.47932220e-01, 8.03833961e-01,
          1.00927234e-01 ]
   decision_functions:
      -
         sv_count: 758
         rho: -2.6248327746546951e-01
         alpha: [ 4.5094835260456689e-01, 9.7440795886801634e-01,
             -6.0611360157116501e-01, 1., 2.0050962789764415e-01,
             4.5057178137477771e-01, 3.8455090952131488e-01, 1.,
             -5.0000000000015432e-01, -6.2837711726611956e-01,
             6.3839405811726664e+00, 6.7869373993601945e-01,
             -8.7818446055215049e-02, -7.9943392863361162e-02, 1.,
             2.9454198761948436e-02, 3.4224927860212939e-01,
             -6.4422931019003093e-01, 3.8028517962626956e-01,
             -2.6563200461893421e-02, 1., -3.4858134399593399e-01,
             2.5507036933771987e-02, -3.0312145260790280e-01,
             4.5388578476978658e-01, 1., 1.2492509487501886e+00,
             4.6290607165566633e-01, 1., -6.3402415683614421e-01, 7.,
             -3.7207287362117447e-01, 1.2702376328439025e-01, -1.,
             -5.1194769639263060e-01, 3.2630114172992042e-01,
             -1.3104592536814977e-01, -5.2417336361531230e-01,
             -7.8050981092450233e-02, 3.2572388500958849e-01,
             5.6304038810081836e-01, -2.4234278701144885e-01,
             4.1470954172046892e-01, -4.9480773359036612e-02,
             -2.2666378842980062e-02, 8.2755361507069380e-01, -1.,
             -4.6181140747293958e-02, 1., 1., 1., 7.,
             2.5449358160571711e-01, -4.8009797874134619e-01,
             -2.9658479657437520e-01, -1.3755893121037532e-02,
             6.5496946130546330e-01, 1., -1.2702376328439025e-01,
             -5.6573547401806390e-01, 2.5861636714475766e-01,
             -9.9174428923860947e-01, 7., 7., 6.0678142645128053e-01, 3.,
             -2.7177767118250995e-01, 5.6436911061866579e-01, 1., -1.,
             -4.3333164969944693e-01, 4.9250097031555196e-01, -1., 1.,
             2.4117556575197363e-01, 6., -7., 2.9629307576911801e-01,
             -2., -5., -7.2139936939851712e-02, -9.9336324231024664e-01,
             1., -5., -2., -1., -3., 4.3379583702584146e+00, -1., -1.,
             -1., -1., -3.8455090952131488e-01, -6., -1.,
             1.9513211633000767e+00, 3., -6., 4.4416936870370571e-01,
             -5., 1., 8.6721354087157232e-01, -6.3066775134379571e-01,
             -8.9875824846672625e-01, -5., -6., -1., -1., -6., 1., -1.,
             1., 1., -5.8149465368545084e+00, -3.8857961756996368e-01,
             1., 3.6277484485342504e-01, -4., 1.,
             -3.6214915622232496e-01, -1., -1., -6., -1., -1., 1., -6.,
             -1., 6.3066775134379571e-01, -6., -8.8132175255497236e-01,
             5.9137569966035319e-01, -3., -1., -1.,
             2.5122064220687790e-01, 1., 6., -3.6233437024368098e-01,
             -5., -1., -9.4529235740207440e-01, -6.,
             -6.1053738296791427e-01, 2.3746915089303648e+00, -1.,
             5.5327099887240272e-01, -3.8041389585169838e-01, 1.,
             -2.3934454483086132e-01, 1., 1., 1., -2.,
             -2.9629307576911795e-01, 1., -5.6931565865573197e-01, 1.,
             6.4803503002406009e+00, 4.4636463365180941e+00,
             -1.1166038364338640e+00, -5., 4.1754764127252675e-01,
             3.3902270178399885e-01, -1., -1., -6.0063823754687178e+00,
             1., -1.8476435163345117e+00, 5.7953454171036523e-01, -6.,
             6.1757905068502139e-01, -2., 1., -1.,
             -9.7445600689844403e-01, -5., -1., 1., 1., -1.,
             3.9188845312852150e-01, -6.7137163144105616e-01, -1.,
             3.2053656367293681e-01, -9.6641797367038518e-01, 1., 5., 1.,
             1., 1., -1., 6., 5., -1.4147095417204691e+00, -3., 2., 5.,
             4., -1., -5., 3.5989826369442746e-01, -1., 1., -1.,
             -4.5596163151773011e-01, -1., -1., -7.4965689855629158e-01,
             -3.8996994838364191e-01, -1., -4., 3.1975207015155205e-01,
             -1., -3.6738243539441777e+00, 5., 6.6064101747401534e+00,
             -1., -6.8394690132118652e-01, -1., -4.,
             6.6340241568361442e+00, 2.8942216445326918e-01, -1., -4.,
             3., -1., -1., -5.3874170824351992e+00,
             -7.3185144266742830e-01, 1., -4.8683432856553105e-01,
             -1.5497102565267409e+00, -1., 7.3238213053335111e-01, -1.,
             6.6287975901221463e-01, -4., -1., 1.,
             6.9851109487486198e+00, 6., 1., -1.4538857847697866e+00, 1.,
             -3.1687109275797820e-01, -4., 1., 4., -1.,
             5.8978373425908814e-01, -1., 3.3029550743680242e-01, -1.,
             -1., 3.3450305386945365e+00, -1., 1.,
             2.8921846798419903e-01, 8.4358828018330034e-01,
             6.6715624126121731e-01, -1., -7.8744579470161058e-01, 1.,
             6., 1.4406388417880706e-01, 6., 4.2800751690918037e+00, 6.,
             -5.3780928262738559e-01, 8.9331739073220173e-01,
             3.2184938555515769e-01, 4.9567422011514911e-01,
             9.1189400748071558e-01, 1., 1., -1., 6.,
             4.8009797874134619e-01, -2.0432818746188064e-01,
             -2.5317576194280372e-01, 3.6911945812201608e+00,
             -3.9388639842883505e-01, 1., -4.6290607165566633e-01, 1.,
             -1., 9.2284545992496214e-01, 1., 4.2975637588796167e-01, 1.,
             1., 1., -1.2852939215453674e-01, -1., 1.,
             4.0435957399067579e-01, 1., 2.7398941077776728e-01, -1.,
             4.1077158039464851e-01, -6., -3., 1., -1.,
             4.3108416793461968e-01, 5.2417336361531230e-01, -1., 1., 4.,
             -1., 8.6566124495917207e-01, -5.9539409728055119e+00, 6.,
             -1.5264916490545870e+00, -1., -1., 1.,
             -9.5381885925270604e-01, 7.2740102416188002e-01, 1.,
             -4.5057178137477771e-01, -6., 6., 1., -1., 1., -1.,
             -8.1015209116624509e-01, -4.1480997816805525e+00, -1., -4.,
             2.9235950980729131e+00, -1.1294488962332827e-01, 2., 1., 1.,
             6.0688652613091365e-01, -6.1684414799877185e-02, -1., -1.,
             -3.4476234209652024e-01, -1., 6.1866654793995557e-02, -1.,
             1., -1., 3.7558581558059229e-01, 1.7571749140238302e-01, 1.,
             1., -1., -4., 6., 1., 1., -6.7194433000379838e-01, -1.,
             4.5235880605505818e-02, 8.9307226613488622e-01,
             4.6117930165691401e-01, -3.5577068980996907e-01, 3., 6.,
             -1., 3.8830350705340272e-01, -6.6367576897533587e-03,
             7.2996338201520983e-01, 1., -4., 5.1194769639263082e-01,
             -1., -1., -6., -8.4855385723180876e-01, -6., -1., 1.,
             -5.5520869098206715e-01, 1., -1., -1.,
             2.1215339167867509e-01, 1., -1., 6.8024792984844806e-01,
             -3.0689229613714286e-01, 1., 1., -3.7653885271869587e+00,
             3., -4.2033977040627968e-01, -1., -1., 1.,
             6.0148890512513802e+00, -1., 3., -1., -1., 1.,
             4.7994903721023556e+00, 4.3508433141857665e+00, -1., 6.,
             -2.3903522953007900e-01, 1., -3., 1., -1.,
             -7.5375123602725291e-01, 1., -8.1562610399308111e-01,
             -4.0392499031960316e-01, 2., -1., -7.1850424882855912e-01,
             6.8563464309699373e-01, -1., 6., 5.0507920249657423e-01, 1.,
             -1., -1., 1., 4.6476270855250847e+00, 1.,
             5.8589126442927810e+00, 1., -7.9444627176252725e-01, -1.,
             4., 6., 9.9640586092561723e-01, -1., -1.,
             2.9192033291764137e+00, 3., -8.3031825845466534e-02,
             7.6014687693139860e-01, -1., 1., 6., 3.6475234957703384e-01,
             -1., 1., -1., -1., -1., 6.3524765042296616e-01, 3.,
             9.5789053334372876e-01, -1., 1., 1.2111038875400899e+00,
             4.2109466656271244e-02, 1., 1., -4.2993685089813194e-01,
             -2.3461147281304129e-01, 5.4968355745485764e-01, -1., 1.,
             -1., 4.1831981013013841e+00, -1., 2.7022656623865343e-01,
             4.9238520487099455e+00, -1., 2.6561927419643261e-01,
             -3.2300891255645198e-01, 6.8168018986986159e+00,
             4.2666573018909204e-01, -1., 1., 1., 6.9288201792026456e+00,
             -4.3036631044526397e-01, -6., 5., 1.,
             9.7036476670096461e-01, -1., 1., 3.,
             -5.9862441068789627e+00, -3.0973288434546881e-01,
             -2.3008159457453603e-02, 1., -3.2467957538699893e-01,
             3.7343807258035673e+00, 4.0591569969556573e-01,
             -9.3901967882089277e-01, 1., 8.6764788333185139e-01, 5.,
             -1., -1., -1., -1., 7.9737904357541156e-01, 1.,
             -2.0555372823747275e-01, 1., 1., 1., 3.7457929152512390e+00,
             9.5271686964559077e-01, 5.2725989758381200e+00,
             6.0811154687147839e-01, -6.1186782474450272e+00, 6., -1.,
             -5.9582610197113195e-01, -1., -6.7786043617364138e+00,
             7.1992483090819570e-01, -1., -6., -1.,
             6.2360902204079083e-01, 6., -6., -1., -1.,
             -6.7186360512317145e-01, 1., 2.9386364089542721e-01,
             3.2343280080464565e-01, 4.0862430033964681e-01,
             -9.9916203328789244e-01, -1., 4.1024159230383459e+00, 1.,
             -1., 6., 7.2344704313682406e-01, -3.3768571307719970e+00,
             1., -1., -1., 1., -1., 1., 2.6457156190771747e-01, -1., -1.,
             1., 1., -1., 3.9321857354871942e-01, -1., -1., -5., -1.,
             -4., 6., 3.1436535690300632e-01, -6., -1.,
             3.9067798988184688e-01, -1.8490411606763157e-01, -5., -1.,
             -1., -2.4624876397274709e-01, -6., -6., -1., -6., -1., -1.,
             -1., -1., 1., -6.1447392458359174e-01, -1., -1., -3., 6.,
             1., 2.1535968480250034e+00, -7.6065545516913868e-01,
             3.0154147613371218e-01, 3.7012103294805643e-02, 1.,
             -6.1898479088337552e+00, 1., -5.1102093422785433e-01,
             -3.8830350705340266e-01, -1., -2.0985829374527831e-01, 6.,
             1., 4.1772885140550975e-01, -6.7522663824328024e+00,
             -3.5989826369442746e-01, -6., -7.5765721298855115e-01,
             -6.7869373993601945e-01, -1., -6.7699108744354808e-01, 1.,
             -6., 1., -8.9480474517738173e-01, 7.1236683119535671e-01,
             -1., 4.9908186471147546e+00, -1.9269514227792295e-01, -6.,
             5., 1., 6.9705458012380515e+00, -5., -1., 1., -5.,
             6.0932201011815312e-01, -4.0272462381952268e-01, 6., -1.,
             1., -6.0342578392741542e-02, 5., -1., 1., 1.,
             -5.7058054219166754e-01, 4.8298064963376035e+00,
             -1.6549137264964333e+00, -5.3127761486949632e-01, 1., -1.,
             1., -3.4889790657721456e+00, 1., 1., -1., 6.,
             -1.5235648366548815e-01, 1., -4., -1.5291365052484904e+00,
             6., 1., -3.8946261703208573e-01, -2.,
             1.7643719589538760e+00, 4.5321331482379235e-01, -1., 1., 1.,
             -1., -6.9310770386285725e-01, 6.2530849106963493e-01, 1.,
             1., 4.2749742004060415e-01, -2.8942216445326918e-01, -1.,
             -5.8522725840162204e+00, 1., -1., -9.1696817415453347e-01,
             -5.6267561678136357e-01, 6., -1., 1., -1., -6., 1.,
             -1.9769918405425466e+00, -1., 1., -1., 1., -1., -6.,
             -4.8801804381527329e+00, 3.7281450313289460e-01,
             -5.9588451938015141e-01, -2.0556267888867552e-01, -1., -6.,
             -6., -6., 3., -4., -1., 8.0332802715282203e-01,
             -3.8106817491449940e-01, 1., -1., 1., 1., -1., -5., 1., 1.,
             -4.2796394881191796e-01, -1., -3.4224927860212945e-01, 1.,
             1., 3.1689818206633769e-01, 1., -4.4080908417190234e-01, 1.,
             1., 7.4877935779312210e-01, -5., 1., 6.5953879208556787e-01,
             6., 1., -5.3155035597031197e-01, 6.,
             -2.9197374378455654e-01, 1., -2.7347082526455863e-01, 1.,
             -1., -4.2348962092561404e-01, 1., -3.,
             -8.0134867885273686e-01, 3.2730212619165078e-01, -4., 1.,
             -1., 1., -3.8394058117266672e-01, -1.,
             3.6233437024368098e-01, 1., 9.1813528852451309e-03, 1.,
             6.5309802974901376e-01, -2.3053552702666213e-01, 1., -1.,
             -1., -1., -1., -6.9024318156221378e+00, -1.,
             -6.8132907280613608e-01, 1., 1., 3.8691863623195806e+00,
             -1., -4.6754561752586021e-01, -1., 4.,
             -9.9361762453128222e-01, -6.8170640674923733e-01, -1. ]
