%YAML:1.0
my_svm: !!opencv-ml-svm
   svm_type: C_SVC
   kernel: { type:POLY, degree:3.4300000000000002e+00,
       gamma:1.0000000000000001e-05, coef0:1.0000000000000001e-01 }
   C: 3.1250000000000000e+02
   term_criteria: { epsilon:9.9999999747524271e-07, iterations:100000 }
   var_all: 3
   var_count: 3
   class_count: 15
   class_labels: !!opencv-matrix
      rows: 1
      cols: 15
      dt: i
      data: [ 0, 1, 2, 3, 4, 5, 6, 7, 8, 9, 10, 11, 12, 13, 14 ]
   sv_total: 398
   support_vectors:
      - [ 29., 47., 255. ]
      - [ 21., 55., 239. ]
      - [ 25., 116., 238. ]
      - [ 60., 15., 255. ]
      - [ 24., 35., 255. ]
      - [ 17., 36., 250. ]
      - [ 24., 76., 243. ]
      - [ 0., 5., 255. ]
      - [ 18., 82., 255. ]
      - [ 0., 0., 245. ]
      - [ 120., 7., 255. ]
      - [ 23., 87., 194. ]
      - [ 90., 15., 255. ]
      - [ 90., 15., 255. ]
      - [ 20., 29., 227. ]
      - [ 0., 0., 245. ]
      - [ 24., 76., 243. ]
      - [ 104., 15., 255. ]
      - [ 170., 15., 255. ]
      - [ 23., 87., 194. ]
      - [ 60., 4., 116. ]
      - [ 153., 27., 170. ]
      - [ 14., 78., 72. ]
      - [ 0., 0., 52. ]
      - [ 14., 78., 72. ]
      - [ 30., 4., 132. ]
      - [ 90., 103., 79. ]
      - [ 152., 27., 170. ]
      - [ 0., 0., 220. ]
      - [ 108., 120., 182. ]
      - [ 105., 128., 204. ]
      - [ 20., 3., 229. ]
      - [ 114., 47., 172. ]
      - [ 105., 57., 153. ]
      - [ 103., 45., 176. ]
      - [ 100., 67., 57. ]
      - [ 14., 78., 72. ]
      - [ 0., 0., 128. ]
      - [ 114., 47., 172. ]
      - [ 0., 0., 105. ]
      - [ 3., 31., 229. ]
      - [ 68., 16., 190. ]
      - [ 177., 20., 138. ]
      - [ 0., 0., 85. ]
      - [ 105., 128., 204. ]
      - [ 6., 49., 152. ]
      - [ 102., 81., 79. ]
      - [ 105., 57., 144. ]
      - [ 5., 247., 61. ]
      - [ 3., 98., 26. ]
      - [ 35., 26., 60. ]
      - [ 48., 36., 93. ]
      - [ 75., 168., 53. ]
      - [ 0., 0., 85. ]
      - [ 0., 0., 105. ]
      - [ 95., 37., 76. ]
      - [ 0., 0., 52. ]
      - [ 102., 81., 79. ]
      - [ 15., 143., 75. ]
      - [ 68., 77., 53. ]
      - [ 150., 21., 36. ]
      - [ 14., 78., 72. ]
      - [ 14., 78., 72. ]
      - [ 120., 198., 112. ]
      - [ 14., 78., 72. ]
      - [ 98., 18., 57. ]
      - [ 150., 255., 255. ]
      - [ 163., 255., 255. ]
      - [ 164., 144., 159. ]
      - [ 167., 175., 208. ]
      - [ 158., 240., 252. ]
      - [ 156., 177., 254. ]
      - [ 155., 120., 249. ]
      - [ 154., 131., 142. ]
      - [ 150., 255., 139. ]
      - [ 150., 191., 204. ]
      - [ 160., 116., 207. ]
      - [ 156., 226., 255. ]
      - [ 150., 255., 255. ]
      - [ 150., 144., 255. ]
      - [ 150., 64., 204. ]
      - [ 158., 204., 255. ]
      - [ 169., 151., 142. ]
      - [ 151., 124., 218. ]
      - [ 150., 144., 255. ]
      - [ 167., 191., 207. ]
      - [ 164., 216., 202. ]
      - [ 171., 197., 171. ]
      - [ 166., 170., 255. ]
      - [ 165., 255., 255. ]
      - [ 2., 131., 248. ]
      - [ 162., 52., 153. ]
      - [ 164., 255., 228. ]
      - [ 12., 36., 241. ]
      - [ 168., 37., 255. ]
      - [ 164., 235., 255. ]
      - [ 177., 33., 250. ]
      - [ 174., 157., 251. ]
      - [ 2., 131., 248. ]
      - [ 171., 162., 231. ]
      - [ 169., 161., 222. ]
      - [ 164., 170., 215. ]
      - [ 164., 235., 255. ]
      - [ 1., 30., 196. ]
      - [ 176., 151., 137. ]
      - [ 165., 255., 255. ]
      - [ 150., 144., 255. ]
      - [ 1., 104., 215. ]
      - [ 160., 34., 255. ]
      - [ 178., 129., 228. ]
      - [ 150., 144., 255. ]
      - [ 0., 52., 244. ]
      - [ 156., 45., 216. ]
      - [ 164., 217., 224. ]
      - [ 161., 123., 207. ]
      - [ 159., 163., 255. ]
      - [ 166., 128., 222. ]
      - [ 1., 67., 222. ]
      - [ 174., 186., 230. ]
      - [ 165., 150., 255. ]
      - [ 1., 59., 247. ]
      - [ 178., 129., 228. ]
      - [ 158., 240., 252. ]
      - [ 166., 128., 222. ]
      - [ 166., 128., 222. ]
      - [ 150., 191., 204. ]
      - [ 0., 52., 244. ]
      - [ 2., 158., 255. ]
      - [ 8., 127., 229. ]
      - [ 0., 206., 178. ]
      - [ 2., 131., 248. ]
      - [ 10., 255., 192. ]
      - [ 5., 152., 226. ]
      - [ 0., 127., 165. ]
      - [ 0., 217., 179. ]
      - [ 0., 255., 255. ]
      - [ 3., 128., 164. ]
      - [ 0., 141., 205. ]
      - [ 2., 251., 124. ]
      - [ 2., 197., 227. ]
      - [ 3., 139., 250. ]
      - [ 2., 131., 248. ]
      - [ 0., 191., 255. ]
      - [ 5., 210., 194. ]
      - [ 169., 236., 224. ]
      - [ 175., 63., 255. ]
      - [ 176., 190., 234. ]
      - [ 177., 255., 101. ]
      - [ 173., 223., 255. ]
      - [ 173., 221., 238. ]
      - [ 162., 166., 166. ]
      - [ 176., 150., 114. ]
      - [ 16., 114., 193. ]
      - [ 0., 190., 165. ]
      - [ 26., 180., 102. ]
      - [ 0., 190., 165. ]
      - [ 4., 188., 138. ]
      - [ 22., 188., 203. ]
      - [ 0., 61., 188. ]
      - [ 13., 255., 205. ]
      - [ 15., 193., 205. ]
      - [ 19., 65., 195. ]
      - [ 10., 255., 192. ]
      - [ 14., 78., 72. ]
      - [ 13., 219., 210. ]
      - [ 30., 26., 245. ]
      - [ 21., 216., 150. ]
      - [ 21., 216., 150. ]
      - [ 0., 153., 50. ]
      - [ 14., 78., 72. ]
      - [ 15., 213., 204. ]
      - [ 2., 189., 131. ]
      - [ 17., 107., 133. ]
      - [ 11., 75., 159. ]
      - [ 14., 78., 72. ]
      - [ 17., 155., 102. ]
      - [ 12., 125., 61. ]
      - [ 17., 85., 210. ]
      - [ 15., 255., 123. ]
      - [ 25., 117., 240. ]
      - [ 13., 219., 210. ]
      - [ 14., 155., 244. ]
      - [ 13., 219., 210. ]
      - [ 13., 67., 237. ]
      - [ 0., 190., 165. ]
      - [ 15., 77., 254. ]
      - [ 2., 197., 227. ]
      - [ 23., 189., 212. ]
      - [ 19., 237., 255. ]
      - [ 19., 42., 255. ]
      - [ 10., 207., 233. ]
      - [ 3., 161., 254. ]
      - [ 16., 219., 237. ]
      - [ 5., 184., 255. ]
      - [ 5., 201., 255. ]
      - [ 13., 152., 217. ]
      - [ 20., 238., 228. ]
      - [ 15., 64., 255. ]
      - [ 19., 255., 255. ]
      - [ 0., 52., 244. ]
      - [ 13., 255., 205. ]
      - [ 2., 239., 186. ]
      - [ 2., 131., 248. ]
      - [ 3., 74., 253. ]
      - [ 14., 234., 196. ]
      - [ 15., 255., 150. ]
      - [ 12., 255., 204. ]
      - [ 2., 131., 248. ]
      - [ 19., 255., 255. ]
      - [ 19., 255., 255. ]
      - [ 8., 235., 251. ]
      - [ 12., 75., 251. ]
      - [ 15., 128., 236. ]
      - [ 179., 150., 191. ]
      - [ 30., 104., 253. ]
      - [ 21., 218., 218. ]
      - [ 24., 255., 255. ]
      - [ 24., 125., 248. ]
      - [ 23., 189., 212. ]
      - [ 22., 204., 255. ]
      - [ 27., 131., 228. ]
      - [ 27., 50., 255. ]
      - [ 30., 255., 128. ]
      - [ 23., 205., 244. ]
      - [ 24., 255., 255. ]
      - [ 23., 255., 252. ]
      - [ 22., 255., 255. ]
      - [ 30., 255., 128. ]
      - [ 25., 182., 207. ]
      - [ 25., 138., 233. ]
      - [ 30., 64., 255. ]
      - [ 24., 125., 248. ]
      - [ 30., 31., 255. ]
      - [ 25., 117., 240. ]
      - [ 19., 65., 195. ]
      - [ 30., 255., 128. ]
      - [ 83., 166., 69. ]
      - [ 79., 214., 172. ]
      - [ 42., 67., 76. ]
      - [ 81., 101., 121. ]
      - [ 48., 40., 186. ]
      - [ 90., 255., 128. ]
      - [ 68., 156., 77. ]
      - [ 60., 255., 255. ]
      - [ 88., 151., 120. ]
      - [ 70., 153., 200. ]
      - [ 64., 111., 94. ]
      - [ 62., 60., 225. ]
      - [ 30., 255., 128. ]
      - [ 38., 51., 151. ]
      - [ 60., 75., 146. ]
      - [ 71., 44., 93. ]
      - [ 94., 255., 83. ]
      - [ 36., 127., 191. ]
      - [ 87., 164., 132. ]
      - [ 27., 152., 134. ]
      - [ 81., 255., 168. ]
      - [ 35., 157., 83. ]
      - [ 50., 51., 240. ]
      - [ 59., 57., 89. ]
      - [ 81., 166., 77. ]
      - [ 42., 208., 255. ]
      - [ 82., 194., 171. ]
      - [ 88., 253., 121. ]
      - [ 87., 255., 166. ]
      - [ 79., 250., 50. ]
      - [ 60., 101., 251. ]
      - [ 64., 111., 94. ]
      - [ 80., 129., 130. ]
      - [ 108., 190., 156. ]
      - [ 90., 255., 255. ]
      - [ 105., 162., 191. ]
      - [ 90., 255., 255. ]
      - [ 85., 89., 217. ]
      - [ 90., 255., 128. ]
      - [ 90., 255., 204. ]
      - [ 95., 116., 235. ]
      - [ 105., 231., 180. ]
      - [ 88., 209., 178. ]
      - [ 94., 255., 83. ]
      - [ 96., 237., 186. ]
      - [ 90., 85., 153. ]
      - [ 90., 255., 139. ]
      - [ 98., 255., 167. ]
      - [ 90., 255., 255. ]
      - [ 105., 145., 180. ]
      - [ 90., 47., 43. ]
      - [ 80., 128., 255. ]
      - [ 100., 223., 194. ]
      - [ 85., 171., 176. ]
      - [ 98., 255., 167. ]
      - [ 97., 255., 235. ]
      - [ 83., 226., 124. ]
      - [ 91., 130., 255. ]
      - [ 90., 31., 255. ]
      - [ 90., 77., 255. ]
      - [ 89., 160., 179. ]
      - [ 80., 129., 130. ]
      - [ 90., 77., 255. ]
      - [ 80., 255., 153. ]
      - [ 76., 54., 255. ]
      - [ 98., 255., 255. ]
      - [ 106., 255., 71. ]
      - [ 101., 255., 165. ]
      - [ 95., 255., 175. ]
      - [ 98., 255., 255. ]
      - [ 99., 255., 189. ]
      - [ 96., 255., 255. ]
      - [ 96., 70., 255. ]
      - [ 104., 15., 255. ]
      - [ 120., 51., 255. ]
      - [ 113., 56., 208. ]
      - [ 113., 75., 207. ]
      - [ 98., 219., 128. ]
      - [ 110., 145., 65. ]
      - [ 102., 114., 168. ]
      - [ 105., 193., 156. ]
      - [ 122., 237., 143. ]
      - [ 98., 255., 167. ]
      - [ 93., 60., 230. ]
      - [ 97., 79., 237. ]
      - [ 103., 104., 193. ]
      - [ 99., 109., 235. ]
      - [ 120., 198., 112. ]
      - [ 90., 15., 255. ]
      - [ 95., 115., 230. ]
      - [ 113., 164., 81. ]
      - [ 100., 179., 232. ]
      - [ 105., 140., 149. ]
      - [ 120., 170., 153. ]
      - [ 98., 255., 167. ]
      - [ 120., 255., 255. ]
      - [ 102., 114., 168. ]
      - [ 115., 77., 109. ]
      - [ 120., 51., 255. ]
      - [ 118., 127., 167. ]
      - [ 120., 255., 128. ]
      - [ 95., 116., 235. ]
      - [ 76., 34., 163. ]
      - [ 99., 255., 148. ]
      - [ 67., 64., 200. ]
      - [ 107., 53., 222. ]
      - [ 127., 255., 255. ]
      - [ 90., 15., 255. ]
      - [ 19., 216., 86. ]
      - [ 150., 116., 238. ]
      - [ 148., 75., 136. ]
      - [ 144., 78., 190. ]
      - [ 137., 255., 255. ]
      - [ 154., 115., 91. ]
      - [ 141., 255., 211. ]
      - [ 139., 255., 255. ]
      - [ 139., 248., 206. ]
      - [ 135., 102., 255. ]
      - [ 138., 79., 255. ]
      - [ 137., 255., 255. ]
      - [ 132., 177., 130. ]
      - [ 144., 89., 92. ]
      - [ 150., 116., 238. ]
      - [ 138., 109., 220. ]
      - [ 144., 89., 92. ]
      - [ 135., 179., 77. ]
      - [ 135., 255., 255. ]
      - [ 136., 187., 168. ]
      - [ 145., 83., 142. ]
      - [ 138., 79., 255. ]
      - [ 163., 250., 102. ]
      - [ 130., 102., 190. ]
      - [ 144., 255., 197. ]
      - [ 151., 124., 218. ]
      - [ 164., 158., 197. ]
      - [ 139., 221., 240. ]
      - [ 130., 125., 219. ]
      - [ 118., 100., 128. ]
      - [ 146., 255., 255. ]
      - [ 133., 181., 131. ]
      - [ 166., 128., 222. ]
      - [ 146., 255., 255. ]
      - [ 156., 177., 254. ]
      - [ 146., 132., 52. ]
      - [ 133., 133., 169. ]
      - [ 129., 217., 122. ]
      - [ 150., 30., 216. ]
      - [ 155., 162., 112. ]
      - [ 139., 221., 240. ]
      - [ 166., 128., 222. ]
      - [ 143., 140., 255. ]
      - [ 154., 157., 104. ]
      - [ 161., 228., 199. ]
      - [ 164., 204., 120. ]
      - [ 131., 123., 214. ]
      - [ 143., 255., 255. ]
      - [ 145., 83., 142. ]
      - [ 158., 110., 183. ]
      - [ 166., 128., 222. ]
      - [ 162., 102., 217. ]
      - [ 144., 141., 174. ]
      - [ 161., 228., 199. ]
   decision_functions:
      -
         sv_count: 10
         rho: 5.8862764898554518e+00
         alpha: [ 3.1250000000000000e+02, 3.1250000000000000e+02,
             1.8901057279105433e+02, 1.2082310141555293e+02,
             3.4274570530195732e+01, 5.7418204905068961e+01,
             -2.7500013747264359e+02, -3.1250000000000000e+02,
             -3.1250000000000000e+02, -1.2652631216922852e+02 ]
         index: [ 9, 11, 14, 15, 18, 19, 28, 31, 40, 44 ]
      -
         sv_count: 5
         rho: 1.2870016242748661e+00
         alpha: [ 2.3236670167066357e+01, -7.0220185751668103e+00,
             -9.8415690559466071e+00, -1.8895067014478013e+00,
             -4.4835758345051335e+00 ]
         index: [ 11, 51, 54, 58, 63 ]
      -
         sv_count: 3
         rho: -2.0246881020582067e-01
         alpha: [ 2.1989378828123400e+01, 2.0941454525185513e+01,
             -4.2930833353308920e+01 ]
         index: [ 11, 18, 80 ]
      -
         sv_count: 21
         rho: 6.2373235279574368e-01
         alpha: [ 3.1250000000000000e+02, 3.0977421112910974e+02,
             2.1300866928590580e+02, 3.1250000000000000e+02,
             2.3232864408938516e+02, 3.1250000000000000e+02,
             1.6089222292367870e+02, 3.1250000000000000e+02,
             3.1250000000000000e+02, -1.3507809789007798e-06,
             -3.1250000000000000e+02, -1.1973983242670596e+02,
             -2.1535679138764028e+01, -3.1250000000000000e+02,
             -3.1250000000000000e+02, -3.1250000000000000e+02,
             -3.1250000000000000e+02, -1.3673052911491288e+02,
             -3.1250000000000000e+02, -1.2997705396915482e+01,
             -3.1250000000000000e+02 ]
         index: [ 1, 6, 7, 8, 9, 11, 16, 18, 19, 90, 93, 94, 98, 103,
             107, 108, 111, 117, 120, 122, 126 ]
      -
         sv_count: 3
         rho: -2.3492120042464881e-01
         alpha: [ 1.9505313036640820e+02, 2.1045454167437985e+01,
             -2.1609858453384618e+02 ]
         index: [ 2, 11, 128 ]
      -
         sv_count: 4
         rho: -2.3998999113524242e+00
         alpha: [ 2.9817684738390602e+00, 1.9159596770067061e+01,
             -1.9724929575496699e+01, -2.4164356684094246e+00 ]
         index: [ 2, 18, 145, 151 ]
      -
         sv_count: 16
         rho: 1.6745645806501159e+00
         alpha: [ 3.1250000000000000e+02, 3.1250000000000000e+02,
             8.7856621140886404e+01, 8.2304380716503232e+01,
             4.2918525721679011e+01, 3.1250000000000000e+02,
             3.1250000000000000e+02, 3.1250000000000000e+02,
             -9.7063987834501916e+01, -1.0819715624267393e+02,
             -3.1250000000000000e+02, -3.1250000000000000e+02,
             -3.1250000000000000e+02, -3.1250000000000000e+02,
             -7.8183835018932299e+00, -3.1250000000000000e+02 ]
         index: [ 1, 2, 6, 8, 9, 11, 14, 19, 152, 158, 161, 165, 177,
             179, 181, 183 ]
      -
         sv_count: 14
         rho: -5.6979236204580062e+00
         alpha: [ 3.1250000000000000e+02, 1.2249087555975085e+02,
             3.1250000000000000e+02, 3.1250000000000000e+02,
             3.1250000000000000e+02, 3.1250000000000000e+02,
             -2.5198522425562794e+02, -3.1250000000000000e+02,
             -1.3374409748467332e+02, -3.1250000000000000e+02,
             -3.1250000000000000e+02, -5.9116473942468692e+00,
             -3.1250000000000000e+02, -4.3349906425202526e+01 ]
         index: [ 2, 5, 6, 7, 8, 16, 185, 189, 195, 197, 199, 205, 211,
             213 ]
      -
         sv_count: 16
         rho: -2.2388069459949178e+00
         alpha: [ 3.1250000000000000e+02, 3.1250000000000000e+02,
             9.5907163827784473e+01, 5.1290519386448679e+01,
             3.1250000000000000e+02, 3.1250000000000000e+02,
             1.9664811952073200e+02, 3.4386863336065304e+01,
             3.1250000000000000e+02, -3.1250000000000000e+02,
             -6.5732666071030692e+01, -3.1250000000000000e+02,
             -3.1250000000000000e+02, -3.1250000000000000e+02,
             -3.1250000000000000e+02, -3.1250000000000000e+02 ]
         index: [ 0, 2, 3, 4, 6, 8, 11, 12, 16, 214, 220, 221, 230, 232,
             233, 234 ]
      -
         sv_count: 11
         rho: 1.2494198059420507e+00
         alpha: [ 1.2870197916466122e+02, 3.1250000000000000e+02,
             5.9315714841844759e+01, 5.2021924257020522e+01,
             1.9238299230853468e+02, 3.1250000000000000e+02,
             -3.1250000000000000e+02, -2.8065945111903119e+02,
             -1.1885093735678927e+02, -3.1250000000000000e+02,
             -3.2912222096241003e+01 ]
         index: [ 2, 11, 12, 14, 17, 19, 240, 247, 253, 258, 261 ]
      -
         sv_count: 10
         rho: 4.1368954609126313e-01
         alpha: [ 2.4023464953262732e+01, 3.1250000000000000e+02,
             1.0696911703883544e+02, 3.1250000000000000e+02,
             1.0177557525549622e+01, 8.3307865859209933e+00,
             -1.8678423415911655e+02, -3.1250000000000000e+02,
             -4.8286713257740734e+00, -2.7038802061867767e+02 ]
         index: [ 6, 11, 12, 17, 18, 19, 286, 294, 299, 300 ]
      -
         sv_count: 13
         rho: 7.0311560823064578e-01
         alpha: [ 3.1738213346618188e+01, 3.1075553127245973e+02,
             3.1250000000000000e+02, 3.1250000000000000e+02,
             3.1250000000000000e+02, 4.8835927636251022e+01,
             -1.0527612788406917e+00, -4.6312094235793730e+01,
             -3.1250000000000000e+02, -3.1250000000000000e+02,
             -3.1464816740694385e+01, -3.1250000000000000e+02,
             -3.1250000000000000e+02 ]
         index: [ 10, 11, 12, 13, 17, 18, 307, 308, 309, 324, 338, 340,
             343 ]
      -
         sv_count: 6
         rho: -7.7568851355862733e-01
         alpha: [ 5.5790745585409578e+00, 2.5790450546581319e+01,
             1.9453398450801672e+01, -6.8084637008451194e+00,
             -2.7475997741103551e+01, -1.6538462113975285e+01 ]
         index: [ 2, 11, 18, 344, 354, 360 ]
      -
         sv_count: 4
         rho: 1.0985947761936341e+00
         alpha: [ 6.6215216335000918e+01, 9.9764322179842836e+01,
             -2.7297825105021744e+01, -1.3868171340982209e+02 ]
         index: [ 11, 18, 365, 382 ]
      -
         sv_count: 24
         rho: 1.3553625252815169e+00
         alpha: [ 3.1250000000000000e+02, 3.1250000000000000e+02,
             3.1250000000000000e+02, 3.1250000000000000e+02,
             3.1250000000000000e+02, 3.1250000000000000e+02,
             3.1250000000000000e+02, 2.1767483502067404e+02,
             3.1250000000000000e+02, 3.1250000000000000e+02,
             3.1250000000000000e+02, -3.1250000000000000e+02,
             -3.1250000000000000e+02, -3.1250000000000000e+02,
             -3.1250000000000000e+02, -3.1250000000000000e+02,
             -1.8954030620454850e+02, -3.1250000000000000e+02,
             -1.3167879793015098e+02, -3.1250000000000000e+02,
             -3.1250000000000000e+02, -5.7532904164486538e+01,
             -3.1250000000000000e+02, -1.5142282672148755e+02 ]
         index: [ 20, 22, 23, 24, 26, 35, 36, 37, 39, 43, 46, 50, 51, 53,
             54, 55, 56, 57, 59, 61, 62, 63, 64, 65 ]
      -
         sv_count: 4
         rho: -5.6806447180274295e+00
         alpha: [ 6.5463960529083579e+01, 5.5115650778642454e+01,
             -4.2309668396010053e+01, -7.8269942911716001e+01 ]
         index: [ 21, 30, 73, 80 ]
      -
         sv_count: 13
         rho: -4.1944497413936519e+00
         alpha: [ 2.4146275437100550e+02, 3.1250000000000000e+02,
             7.5639761489691168e+01, 3.1250000000000000e+02,
             2.8169971359983583e+02, 1.8883187617897096e+02,
             -3.1250000000000000e+02, -2.6123844887771156e+02,
             -3.1250000000000000e+02, -7.5734511524635675e+00,
             -1.2659171696533807e+02, -2.6064409139645949e+02,
             -1.3158639724753183e+02 ]
         index: [ 28, 30, 31, 40, 42, 44, 91, 93, 103, 107, 112, 117,
             125 ]
      -
         sv_count: 3
         rho: -1.4414811746322467e+00
         alpha: [ 1.5894766843423097e+01, 5.0101771014586099e+01,
             -6.5996537858009219e+01 ]
         index: [ 30, 45, 136 ]
      -
         sv_count: 4
         rho: -2.6651942378359523e+00
         alpha: [ 1.4279327567633754e+01, 8.8792347149444346e+00,
             -6.8280050896586690e+00, -1.6330557192919517e+01 ]
         index: [ 30, 42, 145, 151 ]
      -
         sv_count: 16
         rho: -9.6315930363111180e-01
         alpha: [ 3.1250000000000000e+02, 1.1752078582959336e+02,
             3.1250000000000000e+02, 9.4388701528500718e+01,
             1.2304623910605162e+02, 3.1250000000000000e+02,
             3.1250000000000000e+02, 3.1250000000000000e+02,
             -1.6553979533820444e+02, -1.9259248808870371e+01,
             -3.1250000000000000e+02, -3.1250000000000000e+02,
             -3.1250000000000000e+02, -3.1250000000000000e+02,
             -3.1250000000000000e+02, -1.5015668231707050e+02 ]
         index: [ 22, 23, 24, 30, 31, 36, 40, 45, 158, 161, 163, 165,
             169, 173, 174, 176 ]
      -
         sv_count: 5
         rho: -7.4254147785581965e+00
         alpha: [ 8.0322383708081688e+01, 1.0763035527709451e+02,
             -1.4020260815850062e+02, -8.1875447360733471e+00,
             -3.9562586090602075e+01 ]
         index: [ 30, 40, 199, 205, 213 ]
      -
         sv_count: 7
         rho: -2.1351621588429706e+00
         alpha: [ 9.0945712917049860e+01, 1.1176955856898692e+02,
             3.1250000000000000e+02, 2.7415528384502604e+01,
             -9.1697074073932683e+00, -2.2096109246314620e+02,
             -3.1250000000000000e+02 ]
         index: [ 30, 31, 40, 45, 222, 232, 234 ]
      -
         sv_count: 25
         rho: -1.8662731690399976e+00
         alpha: [ 3.0179876600475450e+02, 3.1250000000000000e+02,
             3.1250000000000000e+02, 2.4541025052961567e+02,
             3.1250000000000000e+02, 3.1119526989467050e+02,
             3.1250000000000000e+02, 3.1250000000000000e+02,
             3.1250000000000000e+02, 2.5739096805449105e+02,
             3.1250000000000000e+02, 3.1250000000000000e+02,
             -3.1250000000000000e+02, -3.1250000000000000e+02,
             -3.1250000000000000e+02, -1.9856953324777988e+00,
             -2.2036098475676533e+02, -3.1250000000000000e+02,
             -3.1250000000000000e+02, -3.1250000000000000e+02,
             -3.1250000000000000e+02, -3.1250000000000000e+02,
             -2.6844857439428853e+02, -3.1250000000000000e+02,
             -3.1250000000000000e+02 ]
         index: [ 20, 22, 24, 25, 26, 30, 36, 40, 41, 44, 45, 46, 238,
             239, 240, 243, 244, 246, 247, 249, 250, 251, 258, 259, 267 ]
      -
         sv_count: 17
         rho: -1.9003613113063464e+00
         alpha: [ 2.9531477512492842e+02, 3.1250000000000000e+02,
             3.1250000000000000e+02, 3.1250000000000000e+02,
             1.3570064815680576e+02, 7.4334741730920513e+01,
             3.1250000000000000e+02, 3.1250000000000000e+02,
             5.5255046663840417e+01, -3.1250000000000000e+02,
             -3.1250000000000000e+02, -3.1250000000000000e+02,
             -3.0966984735441622e+02, -3.1250000000000000e+02,
             -2.4912466455131599e+02, -3.1250000000000000e+02,
             -1.8106997707627843e+00 ]
         index: [ 22, 26, 29, 30, 31, 34, 41, 44, 46, 268, 273, 281, 285,
             286, 294, 297, 300 ]
      -
         sv_count: 23
         rho: -2.6580829629225544e+00
         alpha: [ 3.1250000000000000e+02, 3.1250000000000000e+02,
             3.1250000000000000e+02, 1.2194253783966066e+02,
             3.1250000000000000e+02, 3.1250000000000000e+02,
             3.1250000000000000e+02, 3.1250000000000000e+02,
             2.3001302713220237e+01, 8.4387270365248995e+01,
             3.1250000000000000e+02, 6.4370376866968186e+01,
             -3.1250000000000000e+02, -3.1250000000000000e+02,
             -1.2985028588849337e+02, -3.1250000000000000e+02,
             -1.4353943388255450e+02, -2.0741927897525409e+02,
             -3.1250000000000000e+02, -3.1250000000000000e+02,
             -3.1250000000000000e+02, -3.1250000000000000e+02,
             -1.2539248903879631e+02 ]
         index: [ 26, 29, 30, 31, 32, 33, 34, 38, 40, 41, 44, 47, 311,
             312, 314, 315, 321, 328, 332, 333, 338, 340, 341 ]
      -
         sv_count: 10
         rho: -3.2307198137310498e+00
         alpha: [ 2.5383733517495813e+02, 1.5095517070369512e+01,
             3.1250000000000000e+02, 9.8642446852643531e+01,
             1.4450014668409190e+02, -8.5667577383166346e+01,
             -3.1250000000000000e+02, -2.7630435604482227e+02,
             -9.1234527016739278e+01, -5.8868985337335680e+01 ]
         index: [ 21, 26, 29, 30, 42, 344, 346, 347, 354, 357 ]
      -
         sv_count: 9
         rho: -3.0383187846763078e+00
         alpha: [ 3.1250000000000000e+02, 2.9150829247232394e+02,
             3.1250000000000000e+02, 7.3329664994625674e+01,
             -2.0373478086058967e+02, -1.5942978123812799e+02,
             -3.1250000000000000e+02, -3.1250000000000000e+02,
             -1.6733953682313565e+00 ]
         index: [ 21, 27, 29, 30, 364, 367, 373, 382, 391 ]
      -
         sv_count: 3
         rho: -2.9618123739606355e+00
         alpha: [ 4.4217526900562568e+01, -3.2273202334822926e+01,
             -1.1944324565739640e+01 ]
         index: [ 63, 73, 74 ]
      -
         sv_count: 5
         rho: -1.4524112833074245e+00
         alpha: [ 2.1814086686910881e+00, 2.9789463773009800e+01,
             1.5665099175904718e+01, -2.7801591905081725e+01,
             -1.9834379712523873e+01 ]
         index: [ 54, 57, 63, 103, 104 ]
      -
         sv_count: 4
         rho: -1.4835693616478165e+00
         alpha: [ 3.3662596670551956e+01, 4.5234668546158181e+00,
             -3.6279848854650417e+01, -1.9062146705173517e+00 ]
         index: [ 58, 63, 136, 138 ]
      -
         sv_count: 4
         rho: -1.8731787991714961e+00
         alpha: [ 2.6943174404153304e+01, -4.3617161842678156e+00,
             -1.2065952129569766e+00, -2.1374863006928507e+01 ]
         index: [ 63, 147, 150, 151 ]
      -
         sv_count: 16
         rho: -1.3864410266626248e+00
         alpha: [ 7.9973193791225540e+01, 3.1250000000000000e+02,
             8.0171545181330870e+01, 3.1250000000000000e+02,
             3.1250000000000000e+02, 3.1250000000000000e+02,
             1.3631128296310225e+01, 3.1250000000000000e+02,
             -3.1250000000000000e+02, -4.1563493192183693e-01,
             -3.1250000000000000e+02, -3.1250000000000000e+02,
             -1.0414417083755911e+00, -3.1250000000000000e+02,
             -1.7231879062856919e+02, -3.1250000000000000e+02 ]
         index: [ 48, 49, 51, 58, 61, 62, 63, 64, 163, 165, 168, 169,
             173, 174, 175, 176 ]
      -
         sv_count: 5
         rho: -1.4751792795457210e+00
         alpha: [ 2.8613907355870967e+00, 1.3636501805661677e+01,
             -3.3994065301421514e+00, -7.4056891336688784e+00,
             -5.6927968774377380e+00 ]
         index: [ 48, 63, 199, 205, 213 ]
      -
         sv_count: 5
         rho: -1.4289962992086918e+00
         alpha: [ 1.3770565581859701e+01, 1.2549946439205176e+01,
             1.1356450036462528e+01, -1.8033394866891452e+01,
             -1.9643567190635949e+01 ]
         index: [ 48, 58, 63, 222, 234 ]
      -
         sv_count: 20
         rho: -2.4441839260751039e+00
         alpha: [ 9.2375124716635199e+01, 3.1250000000000000e+02,
             3.1250000000000000e+02, 3.1250000000000000e+02,
             3.1250000000000000e+02, 2.9634767729066630e+02,
             2.6928938650366212e+02, 3.1250000000000000e+02,
             3.1250000000000000e+02, 1.6980727195146423e+02,
             -3.1250000000000000e+02, -3.1250000000000000e+02,
             -3.1250000000000000e+02, -3.1250000000000000e+02,
             -3.1250000000000000e+02, -3.1250000000000000e+02,
             -3.1250000000000000e+02, -1.0708531853058555e+02,
             -9.5734141931840767e+01, -3.1250000000000000e+02 ]
         index: [ 48, 51, 52, 57, 58, 59, 61, 62, 63, 64, 236, 238, 242,
             246, 251, 257, 259, 260, 265, 267 ]
      -
         sv_count: 10
         rho: -1.6665428015702952e+00
         alpha: [ 7.0658595328852257e+01, 3.1250000000000000e+02,
             5.2595109463130946e+01, 6.5425314409819208e+01,
             1.0655953780582492e+02, 3.1250000000000000e+02,
             -3.1250000000000000e+02, -1.8879646009639052e+02,
             -3.1250000000000000e+02, -1.0644209691123665e+02 ]
         index: [ 48, 51, 52, 57, 58, 63, 268, 279, 286, 297 ]
      -
         sv_count: 12
         rho: -2.6283973705282206e+00
         alpha: [ 2.2693923821297412e+02, 3.9557285559560313e+01,
             3.1250000000000000e+02, 7.6894550125485225e+01,
             3.1250000000000000e+02, -4.5623928459998503e+01,
             -5.1255350844262267e+01, -3.1250000000000000e+02,
             -2.1633551596583362e+02, -3.1250000000000000e+02,
             -1.3525079314715947e+01, -1.6651199313209325e+01 ]
         index: [ 52, 55, 57, 60, 63, 302, 313, 314, 326, 333, 338, 339 ]
      -
         sv_count: 9
         rho: -3.0257869898101117e+00
         alpha: [ 1.3843812253547324e+02, 2.8741340751323406e+02,
             1.8511127553109301e+02, 3.1250000000000000e+02,
             -3.1250000000000000e+02, -3.1250000000000000e+02,
             -8.7715420182825554e+01, -2.0800803322121953e+02,
             -2.7393521757550223e+00 ]
         index: [ 48, 57, 60, 63, 344, 357, 360, 361, 362 ]
      -
         sv_count: 6
         rho: -2.9176252436522598e+00
         alpha: [ 6.0139920144948618e+01, 5.4055942728201991e+01,
             3.1250000000000000e+02, -1.1927230187529774e+02,
             -1.2622605422368321e+02, -1.8119750677416963e+02 ]
         index: [ 57, 60, 63, 373, 379, 381 ]
      -
         sv_count: 43
         rho: -1.6936960139863653e+00
         alpha: [ 2.5318795692602095e+02, 3.1250000000000000e+02,
             3.1250000000000000e+02, 3.1250000000000000e+02,
             3.1250000000000000e+02, 3.1250000000000000e+02,
             3.1250000000000000e+02, 3.1250000000000000e+02,
             3.1250000000000000e+02, 3.1250000000000000e+02,
             3.1250000000000000e+02, 3.1250000000000000e+02,
             3.1250000000000000e+02, 3.1250000000000000e+02,
             3.1250000000000000e+02, 3.1250000000000000e+02,
             3.1250000000000000e+02, 3.1250000000000000e+02,
             3.1250000000000000e+02, 3.1250000000000000e+02,
             -2.9201992736102801e+02, -1.7252829275545528e+02,
             -3.1250000000000000e+02, -3.1250000000000000e+02,
             -3.1250000000000000e+02, -3.1250000000000000e+02,
             -3.1250000000000000e+02, -4.3450160640486232e+01,
             -3.1250000000000000e+02, -3.1250000000000000e+02,
             -3.1250000000000000e+02, -2.4196287168650750e+02,
             -3.1250000000000000e+02, -6.2629325852386977e+01,
             -3.1250000000000000e+02, -3.1250000000000000e+02,
             -3.1250000000000000e+02, -3.1250000000000000e+02,
             -6.5597378630156527e+01, -3.1250000000000000e+02,
             -3.1250000000000000e+02, -3.1250000000000000e+02,
             -3.1250000000000000e+02 ]
         index: [ 66, 67, 68, 69, 70, 71, 72, 76, 77, 78, 79, 80, 81, 82,
             83, 84, 85, 86, 87, 88, 89, 91, 92, 95, 100, 101, 102, 103,
             104, 105, 106, 107, 110, 112, 113, 114, 115, 116, 119, 122,
             123, 124, 125 ]
      -
         sv_count: 3
         rho: 8.4504905094891924e-01
         alpha: [ 7.4755633875496699e+00, 1.2206701762227166e+00,
             -8.6962335637723882e+00 ]
         index: [ 73, 80, 136 ]
      -
         sv_count: 13
         rho: -8.1338105602754389e+00
         alpha: [ 1.9860286088441828e+02, 1.3536396178279057e+02,
             1.1988229323799752e+02, 3.1250000000000000e+02,
             2.8192834172853878e+02, 3.1250000000000000e+02,
             1.8666798834240262e+02, -3.1250000000000000e+02,
             -5.5432275094886194e+01, -2.4201317088126206e+02,
             -3.1250000000000000e+02, -3.1250000000000000e+02,
             -3.1250000000000000e+02 ]
         index: [ 67, 69, 82, 85, 86, 87, 88, 144, 145, 148, 149, 150,
             151 ]
      -
         sv_count: 6
         rho: 1.0150112563454876e+00
         alpha: [ 8.7570247545386337e+00, 1.7415034361979462e+00,
             -5.3979143215008891e+00, -1.3828917050536687e+00,
             -2.0192126972033408e+00, -1.6985094669786760e+00 ]
         index: [ 73, 80, 154, 165, 172, 179 ]
      -
         sv_count: 9
         rho: -1.8908975596493791e+00
         alpha: [ 1.0361279890535162e+01, 2.9371739710182010e+00,
             1.1885234412672541e+02, 1.8383904993092062e+02,
             5.6841573412897418e+01, -2.7662905980958751e+01,
             -2.1479496741615637e+01, -1.1189018609522169e+01,
             -3.1250000000000000e+02 ]
         index: [ 66, 72, 76, 82, 88, 189, 195, 205, 213 ]
      -
         sv_count: 5
         rho: 9.0209582940711575e-01
         alpha: [ 7.2030359566651052e+00, 2.8403475506762232e+00,
             -3.1593708682858351e-01, -1.7002900837986332e+00,
             -8.0271563367141159e+00 ]
         index: [ 73, 80, 220, 222, 234 ]
      -
         sv_count: 5
         rho: 1.7134688959939137e+00
         alpha: [ 2.5980719156957800e+01, 2.3537791604195851e-01,
             -2.1346549830758126e+00, -2.3974456510313171e+01,
             -1.0698557961076412e-01 ]
         index: [ 73, 74, 247, 254, 266 ]
      -
         sv_count: 5
         rho: 2.0060747215288997e+00
         alpha: [ 4.3367309705921899e+00, 4.1395256395319443e+01,
             3.8877716046611908e+00, -1.3194230827875858e+01,
             -3.6425528142696969e+01 ]
         index: [ 66, 73, 80, 269, 285 ]
      -
         sv_count: 6
         rho: 3.1596114356979226e+00
         alpha: [ 4.7454045194442909e+00, 5.9528996487817565e+01,
             8.8135949430664180e+00, 2.8071544500576326e+01,
             -1.8619592632389296e+01, -8.2539947818515259e+01 ]
         index: [ 66, 73, 74, 80, 310, 329 ]
      -
         sv_count: 13
         rho: 7.0788854580794744e+00
         alpha: [ 2.0715240335580935e+02, 3.1250000000000000e+02,
             1.1502326212399127e+02, 2.2112876219141006e+02,
             3.1250000000000000e+02, 1.2586093542561994e+02,
             -3.1250000000000000e+02, -8.6569161924962586e+01,
             -2.2210667420586196e+02, -3.1250000000000000e+02,
             -4.0378085523025099e+01, -3.1250000000000000e+02,
             -7.6114414429819641e+00 ]
         index: [ 66, 73, 74, 79, 80, 83, 345, 347, 349, 350, 352, 358,
             363 ]
      -
         sv_count: 38
         rho: 2.3529394686768588e+00
         alpha: [ 3.1250000000000000e+02, 3.1250000000000000e+02,
             3.8121240696599472e+01, 3.0914087582237750e+02,
             3.1250000000000000e+02, 3.1250000000000000e+02,
             3.1250000000000000e+02, 3.1250000000000000e+02,
             3.1250000000000000e+02, 2.8016983658148257e+02,
             3.1250000000000000e+02, 3.1250000000000000e+02,
             3.1250000000000000e+02, 3.1250000000000000e+02,
             3.1250000000000000e+02, 3.1250000000000000e+02,
             3.1250000000000000e+02, 3.1250000000000000e+02,
             -8.5989486242767029e+01, -1.0179796406806950e+02,
             -3.1250000000000000e+02, -3.1250000000000000e+02,
             -3.1250000000000000e+02, -3.1250000000000000e+02,
             -3.1250000000000000e+02, -3.1250000000000000e+02,
             -3.1250000000000000e+02, -2.8308253571642030e+02,
             -8.7708265094854596e+01, -3.1250000000000000e+02,
             -3.1250000000000000e+02, -3.1250000000000000e+02,
             -3.1250000000000000e+02, -3.1250000000000000e+02,
             -3.1250000000000000e+02, -3.1250000000000000e+02,
             -6.8853701978346777e+01, -3.1250000000000000e+02 ]
         index: [ 66, 68, 69, 71, 72, 73, 74, 75, 76, 77, 78, 79, 80, 82,
             83, 84, 86, 87, 365, 366, 369, 370, 371, 374, 376, 377, 378,
             383, 384, 385, 386, 388, 389, 393, 394, 395, 396, 397 ]
      -
         sv_count: 8
         rho: -1.3314705023176721e+00
         alpha: [ 1.0977480775772468e+01, 3.1250000000000000e+02,
             3.1250000000000000e+02, 3.1250000000000000e+02,
             -3.1250000000000000e+02, -2.4435425682183168e+02,
             -7.9123223953940425e+01, -3.1250000000000000e+02 ]
         index: [ 89, 90, 98, 107, 128, 130, 136, 141 ]
      -
         sv_count: 17
         rho: -5.2925566973960345e+00
         alpha: [ 1.0550015348664955e+02, 3.1250000000000000e+02,
             1.0717816933206387e+02, 2.9144116858305512e+02,
             5.0544497360117703e+01, 3.1250000000000000e+02,
             2.4831048424147195e+02, 3.1250000000000000e+02,
             3.1250000000000000e+02, 9.7513781179422310e+00,
             -2.9436915492072188e+02, -3.1250000000000000e+02,
             -3.1250000000000000e+02, -3.1250000000000000e+02,
             -3.1250000000000000e+02, -3.1250000000000000e+02,
             -2.0585669620057902e+02 ]
         index: [ 89, 92, 96, 97, 99, 104, 109, 113, 118, 121, 144, 145,
             146, 148, 149, 150, 151 ]
      -
         sv_count: 15
         rho: 2.2235804892896671e+00
         alpha: [ 3.1250000000000000e+02, 3.1250000000000000e+02,
             1.4733411374319354e+02, 3.1250000000000000e+02,
             6.2586757432901770e+01, 3.1250000000000000e+02,
             2.4453408949910003e+01, 3.1250000000000000e+02,
             5.9288945817655376e+00, -3.1250000000000000e+02,
             -3.1250000000000000e+02, -3.1250000000000000e+02,
             -2.5534792000334599e+02, -2.9745525470442459e+02,
             -3.1250000000000000e+02 ]
         index: [ 90, 93, 98, 103, 106, 107, 108, 117, 122, 158, 165,
             177, 179, 181, 183 ]
      -
         sv_count: 24
         rho: -5.0140773050912859e+00
         alpha: [ 3.1250000000000000e+02, 3.3136883115609493e+01,
             3.1250000000000000e+02, 3.1250000000000000e+02,
             6.5629244876470793e+01, 2.3004937695183025e+02,
             3.1250000000000000e+02, 2.8370617670249146e+01,
             3.1250000000000000e+02, 1.9685771379786547e+02,
             3.1250000000000000e+02, 4.0810653540323351e+01,
             3.1250000000000000e+02, -3.1250000000000000e+02,
             -8.5710430134171915e+01, -3.0097956046213255e+02,
             -3.1250000000000000e+02, -2.0204748555033353e+02,
             -3.1250000000000000e+02, -6.1170138057121441e+00,
             -3.1250000000000000e+02, -3.1250000000000000e+02,
             -3.1250000000000000e+02, -3.1250000000000000e+02 ]
         index: [ 90, 92, 93, 98, 104, 106, 107, 108, 111, 117, 120, 125,
             126, 185, 187, 189, 195, 197, 199, 202, 203, 211, 212, 213 ]
      -
         sv_count: 13
         rho: -6.9459619209116197e-01
         alpha: [ 3.1250000000000000e+02, 3.1250000000000000e+02,
             8.1276696923208888e+01, 1.3595204230346496e+02,
             9.0117481499763144e+01, 3.1250000000000000e+02,
             1.1477081850572315e+01, -1.8854580275262774e+02,
             -6.2702319395938325e+01, -3.1250000000000000e+02,
             -6.7575180428443190e+01, -3.1250000000000000e+02,
             -3.1250000000000000e+02 ]
         index: [ 90, 93, 98, 103, 106, 107, 108, 217, 218, 221, 229,
             233, 234 ]
      -
         sv_count: 9
         rho: 8.9973515883725175e-01
         alpha: [ 2.5524149190510215e+01, 3.1250000000000000e+02,
             4.6457979618130103e+01, 1.9087181161863765e+02,
             4.4165019819553059e+01, -1.8146012899922351e+02,
             -1.0997328460177070e+02, -3.1250000000000000e+02,
             -1.5585546645836208e+01 ]
         index: [ 93, 103, 106, 107, 108, 249, 253, 258, 261 ]
      -
         sv_count: 8
         rho: 7.8696528632944229e-01
         alpha: [ 3.1250000000000000e+02, 8.0705598623839307e+01,
             3.5339376308924329e+01, 5.7283324245764689e+01,
             1.9308321869259238e+01, -1.4362398937043062e+02,
             -1.0872328746990998e+02, -2.5278934420744704e+02 ]
         index: [ 103, 106, 107, 108, 125, 285, 286, 300 ]
      -
         sv_count: 11
         rho: 1.2234828881156157e+00
         alpha: [ 2.9393605544727501e+02, 1.0766175356849357e+02,
             9.5082357855393429e+00, 1.4880283015702361e+02,
             8.7888275779678793e+01, 7.0279342851848568e+01,
             -3.1250000000000000e+02, -1.4323779346111604e+02,
             -7.4987071387049994e+01, -1.5754615359310384e+02,
             -2.9805475148592645e+01 ]
         index: [ 103, 106, 107, 108, 112, 125, 310, 333, 334, 335, 342 ]
      -
         sv_count: 19
         rho: 3.2191275001211026e+00
         alpha: [ 3.1250000000000000e+02, 2.5721454144931823e+02,
             3.1250000000000000e+02, 6.5637509725031350e+01,
             7.6097442911919558e+01, 3.1250000000000000e+02,
             3.1250000000000000e+02, 3.1250000000000000e+02,
             3.1250000000000000e+02, -3.1250000000000000e+02,
             -2.8656103950505388e+02, -3.1250000000000000e+02,
             -1.9618286842604411e+02, -3.1230261212388797e+01,
             -1.3731494989861955e+02, -6.0160375044163914e+01,
             -3.1250000000000000e+02, -3.1250000000000000e+02,
             -3.1250000000000000e+02 ]
         index: [ 91, 103, 106, 107, 108, 110, 112, 114, 125, 345, 346,
             347, 349, 350, 351, 353, 354, 358, 359 ]
      -
         sv_count: 34
         rho: 1.3088409150163562e+00
         alpha: [ 3.1250000000000000e+02, 3.1250000000000000e+02,
             3.1250000000000000e+02, 1.0472441753387488e+02,
             5.3283106743476274e+01, 3.1250000000000000e+02,
             1.2550863693946646e+02, 2.1188282492595863e+02,
             3.1250000000000000e+02, 3.1250000000000000e+02,
             3.1250000000000000e+02, 3.1250000000000000e+02,
             5.1097835075181152e+01, 3.1250000000000000e+02,
             3.1250000000000000e+02, 3.1250000000000000e+02,
             3.1250000000000000e+02, 3.1250000000000000e+02,
             -1.2512002967460592e+02, -3.1250000000000000e+02,
             -3.1250000000000000e+02, -3.1250000000000000e+02,
             -1.0887679154335150e+02, -3.1250000000000000e+02,
             -3.1250000000000000e+02, -3.1250000000000000e+02,
             -3.1250000000000000e+02, -3.1250000000000000e+02,
             -3.1250000000000000e+02, -3.1250000000000000e+02,
             -3.1250000000000000e+02, -3.1250000000000000e+02,
             -3.1250000000000000e+02, -3.1250000000000000e+02 ]
         index: [ 91, 92, 101, 103, 104, 106, 107, 108, 110, 112, 113,
             114, 115, 116, 122, 123, 124, 125, 364, 365, 369, 370, 374,
             376, 377, 378, 382, 385, 386, 388, 393, 394, 395, 397 ]
      -
         sv_count: 4
         rho: -8.0202890185638598e-01
         alpha: [ 5.4406887059583307e+00, 3.6801822776372534e-01,
             -2.1751969610537156e-01, -5.5911872376166842e+00 ]
         index: [ 136, 138, 145, 151 ]
      -
         sv_count: 21
         rho: 3.6340117711264948e+00
         alpha: [ 3.1250000000000000e+02, 3.1250000000000000e+02,
             3.1250000000000000e+02, 1.6701424991359372e+02,
             3.1250000000000000e+02, 2.9602098665042502e+02,
             3.1250000000000000e+02, 3.1250000000000000e+02,
             3.1250000000000000e+02, 3.1250000000000000e+02,
             -3.1250000000000000e+02, -3.1250000000000000e+02,
             -2.4936419028532933e+02, -3.1250000000000000e+02,
             -1.4756830764654376e+02, -3.1250000000000000e+02,
             -2.6632924435473660e+02, -3.1250000000000000e+02,
             -3.1250000000000000e+02, -1.1227349427740967e+02,
             -3.1250000000000000e+02 ]
         index: [ 128, 129, 131, 132, 133, 134, 136, 137, 138, 143, 153,
             155, 156, 158, 159, 162, 164, 171, 181, 183, 184 ]
      -
         sv_count: 23
         rho: -2.4504897355256903e+00
         alpha: [ 3.1250000000000000e+02, 3.1250000000000000e+02,
             3.1250000000000000e+02, 3.1250000000000000e+02,
             3.1250000000000000e+02, 2.5087002273393765e+02,
             2.2401387910995186e+02, 3.1250000000000000e+02,
             3.1250000000000000e+02, 3.1250000000000000e+02,
             3.1250000000000000e+02, -3.1250000000000000e+02,
             -3.1250000000000000e+02, -3.1250000000000000e+02,
             -3.1250000000000000e+02, -3.1250000000000000e+02,
             -3.1250000000000000e+02, -2.1928392339708500e+02,
             -3.1250000000000000e+02, -3.1250000000000000e+02,
             -1.1227415799304255e+02, -3.1250000000000000e+02,
             -1.4332582045376211e+02 ]
         index: [ 127, 128, 130, 131, 132, 135, 139, 140, 141, 142, 143,
             186, 190, 191, 193, 194, 195, 199, 201, 202, 205, 207, 210 ]
      -
         sv_count: 5
         rho: 2.2877191984973588e-01
         alpha: [ 2.9191935244004242e+02, 1.2172709359798573e+02,
             1.6859905939491361e+02, -2.6974550543294202e+02,
             -3.1250000000000000e+02 ]
         index: [ 128, 131, 136, 215, 234 ]
      -
         sv_count: 6
         rho: 5.8255590878784480e-01
         alpha: [ 3.0657407775292273e+02, 1.7311701751514306e+01,
             -2.1752188366564514e+01, -1.0037318810831474e+02,
             -2.0100098197250350e+02, -7.5942105705429985e-01 ]
         index: [ 136, 138, 249, 253, 255, 261 ]
      -
         sv_count: 5
         rho: 6.8355677658957603e-01
         alpha: [ 6.3295393504273207e+01, -4.6091582147183097e+00,
             -4.8826869850453981e+01, -9.0631192428935670e+00,
             -7.9624619620733150e-01 ]
         index: [ 136, 270, 286, 287, 299 ]
      -
         sv_count: 5
         rho: 9.7119985885494642e-02
         alpha: [ 4.4149980990971954e+01, -3.6461971280967136e+00,
             -8.1828791253899027e+00, -3.1656051397061471e+01,
             -6.6485334042382460e-01 ]
         index: [ 136, 307, 314, 338, 340 ]
      -
         sv_count: 5
         rho: 1.2820660028132971e+00
         alpha: [ 3.6050452520211230e+01, 4.0211346416503211e+01,
             -7.1021874146011172e+01, -1.6009790996419058e+00,
             -3.6389456910613651e+00 ]
         index: [ 136, 138, 344, 353, 362 ]
      -
         sv_count: 3
         rho: 1.4596733578328483e-01
         alpha: [ 2.2498670519073876e+01, -2.2323082499533019e+01,
             -1.7558801954085804e-01 ]
         index: [ 136, 373, 391 ]
      -
         sv_count: 4
         rho: 1.0147645794572533e+00
         alpha: [ 7.0813498354652564e+00, -6.3508568155556322e+00,
             -4.8172540237040012e-01, -2.4876761753922402e-01 ]
         index: [ 151, 154, 165, 179 ]
      -
         sv_count: 7
         rho: 3.0627039333163620e-02
         alpha: [ 5.9269108517484014e+01, 4.9284338984706380e+01,
             2.0954888924546856e+02, 3.9473935621519495e+01,
             -2.4836238108536158e+01, -2.0240034260642233e+01,
             -3.1250000000000000e+02 ]
         index: [ 145, 146, 150, 151, 189, 205, 213 ]
      -
         sv_count: 4
         rho: 8.1419496542722847e-01
         alpha: [ 5.0388686292637452e-01, 5.9987577571776987e+00,
             -1.8487726439271979e+00, -4.6538719761768750e+00 ]
         index: [ 145, 151, 222, 234 ]
      -
         sv_count: 4
         rho: 1.5429686435669825e+00
         alpha: [ 1.4884485656047264e+01, -4.5712164844892156e+00,
             -1.2204677977416201e+00, -9.0928013738164264e+00 ]
         index: [ 151, 244, 252, 254 ]
      -
         sv_count: 4
         rho: 1.8782274933912955e+00
         alpha: [ 1.6172070799951452e+01, 6.8262146953975993e+00,
             -1.5512673792304845e+01, -7.4856117030442073e+00 ]
         index: [ 150, 151, 269, 285 ]
      -
         sv_count: 5
         rho: 2.6711094821035593e+00
         alpha: [ 2.0597229251253324e+01, 1.5114760861430453e+01,
             -8.3371029326131985e-01, -1.4274723459783085e+00,
             -3.3450807473444144e+01 ]
         index: [ 150, 151, 310, 317, 329 ]
      -
         sv_count: 6
         rho: 4.6417837661468004e+00
         alpha: [ 2.0961920885709031e+01, 9.3741360778524822e+01,
             -4.6341169290937337e+01, -2.3629414269647459e+01,
             -4.6832115987435978e+00, -4.0049486504905403e+01 ]
         index: [ 145, 150, 345, 349, 350, 363 ]
      -
         sv_count: 11
         rho: 7.2720907759670554e+00
         alpha: [ 3.1250000000000000e+02, 1.6265037530905482e+02,
             2.6888275268220696e+01, 3.5841480076786027e+01,
             3.1250000000000000e+02, 3.1250000000000000e+02,
             -2.0283508461782105e+02, -2.2545046036241185e+01,
             -3.1250000000000000e+02, -3.1250000000000000e+02,
             -3.1250000000000000e+02 ]
         index: [ 144, 145, 147, 148, 150, 151, 376, 388, 389, 394, 397 ]
      -
         sv_count: 26
         rho: -5.6343191281277072e+00
         alpha: [ 3.1250000000000000e+02, 1.5252495566149491e+02,
             3.1250000000000000e+02, 3.1250000000000000e+02,
             3.1250000000000000e+02, 3.1250000000000000e+02,
             2.2430299761014211e+02, 3.1250000000000000e+02,
             3.1250000000000000e+02, 3.1250000000000000e+02,
             3.1250000000000000e+02, 3.1250000000000000e+02,
             -3.8484658116989877e+01, -2.9440213908893776e+02,
             -3.1250000000000000e+02, -3.1250000000000000e+02,
             -3.1250000000000000e+02, -1.0355359206608824e+02,
             -3.1250000000000000e+02, -3.1250000000000000e+02,
             -3.1250000000000000e+02, -3.1250000000000000e+02,
             -2.1150290928071098e+02, -3.1250000000000000e+02,
             -3.1250000000000000e+02, -4.1384654718911158e+01 ]
         index: [ 159, 160, 162, 164, 165, 170, 178, 179, 180, 181, 182,
             183, 185, 186, 187, 189, 195, 196, 200, 201, 204, 205, 206,
             211, 212, 213 ]
      -
         sv_count: 17
         rho: -3.0443912343664477e+00
         alpha: [ 3.1250000000000000e+02, 1.4112752509536011e+02,
             3.1250000000000000e+02, 2.8664713094832177e+02,
             2.7199091830610382e+02, 3.1250000000000000e+02,
             3.1250000000000000e+02, 1.4424874297183931e+02,
             -3.1250000000000000e+02, -3.1250000000000000e+02,
             -3.1250000000000000e+02, -2.4296577986050326e+02,
             -3.1250000000000000e+02, -9.8170895588931856e+01,
             -9.9196083446720451e+01, -9.1181558425473185e+01,
             -3.1250000000000000e+02 ]
         index: [ 157, 159, 165, 166, 167, 179, 181, 183, 215, 218, 221,
             222, 228, 229, 232, 233, 234 ]
      -
         sv_count: 15
         rho: -1.2395518557479825e+00
         alpha: [ 3.1250000000000000e+02, 3.1250000000000000e+02,
             7.5141914492383933e+01, 1.5555389544858929e+02,
             3.1250000000000000e+02, 3.1250000000000000e+02,
             1.0631369429976111e+02, 4.2235703486900285e+01,
             -1.0533965988201393e+02, -3.1250000000000000e+02,
             -3.1250000000000000e+02, -4.4656377250229205e+01,
             -3.1250000000000000e+02, -3.1250000000000000e+02,
             -2.2924917059539143e+02 ]
         index: [ 154, 163, 165, 166, 169, 172, 174, 175, 235, 238, 249,
             253, 255, 257, 259 ]
      -
         sv_count: 6
         rho: -7.0870374071133402e-01
         alpha: [ 3.1250000000000000e+02, 3.2279212296159251e+01,
             -3.0976404710702809e+01, -3.1250000000000000e+02,
             -1.1500232390100338e+00, -1.5278434644635489e-01 ]
         index: [ 163, 169, 268, 286, 299, 300 ]
      -
         sv_count: 6
         rho: -1.0747330096918548e+00
         alpha: [ 3.6099959955794025e+00, 9.4365512669323508e+01,
             3.9770074951209381e+01, 1.1519590309653225e+01,
             -1.9737178919819762e+01, -1.2952799500594577e+02 ]
         index: [ 154, 163, 165, 172, 314, 338 ]
      -
         sv_count: 6
         rho: -1.6784318528105195e+00
         alpha: [ 6.3455912594390888e+01, 1.5430998104694953e+02,
             1.2158575944291390e+02, -3.1250000000000000e+02,
             -3.7716719068169282e+00, -2.3079981177437517e+01 ]
         index: [ 154, 168, 178, 344, 353, 357 ]
      -
         sv_count: 6
         rho: -1.0288531095894313e+00
         alpha: [ 7.8507854194980835e+00, 8.7457960786526083e+00,
             3.2751445399881289e+00, 1.9868916749034248e+01,
             -3.7175518939674781e+01, -2.5651238474982994e+00 ]
         index: [ 154, 163, 165, 172, 373, 379 ]
      -
         sv_count: 27
         rho: 9.1835552802271114e-01
         alpha: [ 3.1250000000000000e+02, 3.1250000000000000e+02,
             3.1250000000000000e+02, 3.1250000000000000e+02,
             3.1250000000000000e+02, 3.1250000000000000e+02,
             3.1250000000000000e+02, 2.3180834279610480e+02,
             3.1250000000000000e+02, 3.1250000000000000e+02,
             3.1250000000000000e+02, 3.1250000000000000e+02,
             1.1734076500384576e+02, -3.1250000000000000e+02,
             -3.0148562744725012e+02, -3.1080580814629991e+02,
             -3.1250000000000000e+02, -3.1250000000000000e+02,
             -3.1250000000000000e+02, -4.4645067128002218e+01,
             -3.1250000000000000e+02, -2.2537253069748451e+02,
             -3.1250000000000000e+02, -3.1250000000000000e+02,
             -2.0429744623303654e+02, -2.0004262814787754e+02,
             -3.1250000000000000e+02 ]
         index: [ 185, 187, 188, 189, 192, 195, 196, 197, 198, 208, 209,
             212, 213, 215, 216, 217, 218, 219, 221, 222, 223, 224, 225,
             226, 231, 232, 234 ]
      -
         sv_count: 10
         rho: 1.9492964889208375e+00
         alpha: [ 3.1250000000000000e+02, 1.6404679527979496e+02,
             2.4495500245922213e+02, 3.4048948970124108e+01,
             7.3052165219784357e+01, -2.3876647924111742e+02,
             -6.5849137746874774e+01, -1.3452920799414804e+02,
             -1.7093213020976589e+02, -2.1852595673701950e+02 ]
         index: [ 187, 189, 205, 212, 213, 235, 253, 255, 258, 261 ]
      -
         sv_count: 10
         rho: 1.3095940437760294e+00
         alpha: [ 4.0356102495582356e+01, 8.3209367781529139e+01,
             2.2171141392073320e+01, 6.7899557402337933e+01,
             -5.7099521151322122e+01, -1.1724110438911053e+01,
             -3.0016666984799613e+01, -3.2223568417167648e+01,
             -1.0651394851155356e+01, -7.1920907228166996e+01 ]
         index: [ 187, 189, 205, 213, 269, 270, 286, 287, 299, 300 ]
      -
         sv_count: 10
         rho: 1.7232147354867167e+00
         alpha: [ 4.5889803991474636e+01, 5.4784273600843079e+01,
             2.0550898313597489e+01, 8.9650978070384042e+01,
             -2.9172146925903711e+01, -6.5052604934428643e+01,
             -1.0048375718777951e+01, -5.4505839920151729e+01,
             -3.6749521398843747e+01, -1.5347465078194038e+01 ]
         index: [ 187, 189, 205, 213, 307, 308, 323, 329, 333, 335 ]
      -
         sv_count: 7
         rho: 3.5831062182700859e+00
         alpha: [ 2.3129415038373317e+01, 6.5215893763180290e+01,
             3.7177668042164449e+01, 2.8270318217329208e+02,
             -1.7829905770893535e+02, -1.6220726383149474e+02,
             -6.7719837476579755e+01 ]
         index: [ 187, 189, 205, 213, 345, 349, 350 ]
      -
         sv_count: 10
         rho: 1.7129945156061988e+00
         alpha: [ 2.9348535039607729e+01, 1.1767716670105871e+01,
             1.6252817051820507e+01, 3.1250000000000000e+02,
             -1.6247144643894109e+02, -1.1853236077235481e+01,
             -3.9207950075154123e+01, -3.2115393916868609e+00,
             -7.4555385029670504e+01, -7.8569511748846949e+01 ]
         index: [ 189, 195, 205, 213, 370, 387, 389, 391, 393, 394 ]
      -
         sv_count: 12
         rho: 8.3856355958234252e-01
         alpha: [ 5.0072104262818096e+00, 3.1250000000000000e+02,
             3.1250000000000000e+02, 3.1250000000000000e+02,
             3.1250000000000000e+02, -3.0441101971706075e+02,
             -3.1250000000000000e+02, -3.9261831170241578e+01,
             -2.3726559508928312e+02, -1.8935442191486749e+02,
             -7.3350205897748125e+01, -9.8864136637079838e+01 ]
         index: [ 220, 222, 227, 228, 234, 235, 248, 249, 253, 255, 258,
             261 ]
      -
         sv_count: 6
         rho: 5.3902399148953573e-01
         alpha: [ 2.4375434207113513e+00, 1.0837679715210085e+02,
             -6.9142033702670517e+01, -1.4432216013066231e+01,
             -4.2184729178825964e-01, -2.6818243565287265e+01 ]
         index: [ 222, 234, 286, 287, 299, 300 ]
      -
         sv_count: 6
         rho: -4.3846055666737382e-01
         alpha: [ 1.1504572246638050e+00, 5.3231210085062166e+00,
             1.0232077488766808e+02, -4.0648529555764927e+00,
             -2.0747697299729964e+01, -8.3981802865531634e+01 ]
         index: [ 222, 232, 234, 314, 338, 340 ]
      -
         sv_count: 5
         rho: 2.4144006946480503e+00
         alpha: [ 1.0009132350973981e+02, 5.5749881730989671e+01,
             -1.4051803451116911e+02, -2.1526554630465328e-01,
             -1.5107905183255779e+01 ]
         index: [ 222, 234, 344, 354, 362 ]
      -
         sv_count: 4
         rho: 2.8219714132914769e-02
         alpha: [ 2.8598061881309915e+00, 2.3075104621193610e+01,
             -1.5444333850366521e+00, -2.4390477424287951e+01 ]
         index: [ 222, 234, 365, 373 ]
      -
         sv_count: 27
         rho: -1.9956978821887654e+00
         alpha: [ 4.0094386822165035e+01, 3.1250000000000000e+02,
             3.1250000000000000e+02, 3.1250000000000000e+02,
             3.1250000000000000e+02, 1.3762944890154819e+02,
             2.6939666038359184e+02, 2.5973861605716888e+02,
             3.1250000000000000e+02, 3.1250000000000000e+02,
             2.1196383645851628e+02, 3.1250000000000000e+02,
             3.1250000000000000e+02, 3.1250000000000000e+02,
             -3.1250000000000000e+02, -3.1250000000000000e+02,
             -1.5418195172593627e+02, -3.1250000000000000e+02,
             -3.1250000000000000e+02, -3.1190902821373766e+02,
             -3.1250000000000000e+02, -3.1250000000000000e+02,
             -3.1250000000000000e+02, -3.1250000000000000e+02,
             -3.1250000000000000e+02, -3.1250000000000000e+02,
             -1.4023196868331613e+02 ]
         index: [ 236, 237, 239, 241, 244, 245, 247, 251, 252, 254, 256,
             262, 263, 264, 268, 274, 275, 278, 279, 281, 282, 286, 289,
             292, 297, 299, 300 ]
      -
         sv_count: 13
         rho: -2.6108180265601888e+00
         alpha: [ 2.1894721257135393e+02, 3.6082229215880879e+01,
             3.1250000000000000e+02, 2.9064307384233206e+02,
             3.1250000000000000e+02, 3.1250000000000000e+02,
             1.9148903944610515e+02, -1.5911772756844297e+02,
             -2.6554382750722948e+02, -3.1250000000000000e+02,
             -3.1250000000000000e+02, -3.1250000000000000e+02,
             -3.1250000000000000e+02 ]
         index: [ 239, 241, 244, 247, 252, 254, 264, 302, 304, 313, 314,
             338, 340 ]
      -
         sv_count: 8
         rho: -1.7288891303640990e+00
         alpha: [ 7.8185703990864241e+01, 1.6512038016635219e+02,
             2.4376029941875262e+02, 1.1649075380830944e+02,
             -3.1250000000000000e+02, -7.3006494026702100e+01,
             -2.0491023661190550e+02, -1.3140406745670568e+01 ]
         index: [ 235, 236, 244, 252, 344, 356, 361, 362 ]
      -
         sv_count: 5
         rho: -2.4931756718146820e+00
         alpha: [ 1.3291218342122022e+02, 5.1941685660518125e+01,
             9.9052953866402778e+00, -1.8902267997372857e+02,
             -5.7364844946500408e+00 ]
         index: [ 239, 244, 247, 373, 379 ]
      -
         sv_count: 51
         rho: -1.3805332172194014e+00
         alpha: [ 3.1250000000000000e+02, 1.0124021734276627e-01,
             3.1250000000000000e+02, 1.2410626238051901e+02,
             3.1250000000000000e+02, 3.1250000000000000e+02,
             3.1250000000000000e+02, 3.1250000000000000e+02,
             3.1250000000000000e+02, 3.1250000000000000e+02,
             3.1250000000000000e+02, 7.3653348258412649e+01,
             3.1250000000000000e+02, 1.3630698933300997e+02,
             3.1250000000000000e+02, 3.1250000000000000e+02,
             3.1250000000000000e+02, 3.1250000000000000e+02,
             3.1250000000000000e+02, 3.1250000000000000e+02,
             3.1250000000000000e+02, 3.1250000000000000e+02,
             3.1250000000000000e+02, 3.1250000000000000e+02,
             -1.2779276239630315e+02, -5.2119700147803755e+01,
             -4.9020608168400742e+01, -3.1250000000000000e+02,
             -3.1250000000000000e+02, -3.1250000000000000e+02,
             -3.1250000000000000e+02, -3.1250000000000000e+02,
             -3.1250000000000000e+02, -3.1250000000000000e+02,
             -2.9530092488962697e+02, -1.3747712994384699e+02,
             -3.1250000000000000e+02, -3.1250000000000000e+02,
             -1.5744655072041903e+02, -3.1250000000000000e+02,
             -3.1250000000000000e+02, -5.0511765712447634e+01,
             -3.1250000000000000e+02, -3.1250000000000000e+02,
             -3.1250000000000000e+02, -1.3459540716755317e+01,
             -3.1250000000000000e+02, -3.1250000000000000e+02,
             -3.1250000000000000e+02, -3.1250000000000000e+02,
             -7.6038857493680382e+01 ]
         index: [ 269, 270, 271, 272, 273, 275, 276, 277, 279, 280, 281,
             282, 283, 284, 285, 286, 288, 290, 291, 293, 294, 295, 296,
             298, 301, 302, 303, 304, 305, 306, 307, 308, 313, 314, 315,
             316, 318, 319, 320, 322, 325, 326, 327, 328, 330, 332, 337,
             338, 339, 340, 343 ]
      -
         sv_count: 11
         rho: -1.5690839060044390e+00
         alpha: [ 3.1250000000000000e+02, 1.3925180011034081e+02,
             1.8237719438414092e+02, 1.1620478142694617e+02,
             1.3878543159528522e+02, -3.1250000000000000e+02,
             -7.8069882160893140e+00, -7.1161209741048221e+00,
             -3.1250000000000000e+02, -1.5685363675780573e+02,
             -9.2342461568712508e+01 ]
         index: [ 269, 277, 279, 285, 286, 344, 352, 353, 356, 361, 362 ]
      -
         sv_count: 6
         rho: -1.7637192372026267e+00
         alpha: [ 8.2229449833914998e+01, 2.1573868538377272e+02,
             6.5898219287760853e+01, -3.1250000000000000e+02,
             -7.0835458300216656e+00, -4.4282808675426836e+01 ]
         index: [ 269, 285, 286, 373, 381, 391 ]
      -
         sv_count: 17
         rho: -2.0107281986534136e+00
         alpha: [ 3.1250000000000000e+02, 3.1250000000000000e+02,
             6.2557915747824836e+01, 3.1250000000000000e+02,
             1.3898723402990061e+00, 4.9082830724917606e+01,
             3.1250000000000000e+02, 1.1706242715309753e+02,
             3.1250000000000000e+02, -3.1250000000000000e+02,
             -2.1650479087698716e+02, -2.4235694928653192e+01,
             -3.1250000000000000e+02, -3.2317571742488525e+01,
             -3.1250000000000000e+02, -2.6953498841801002e+02,
             -3.1250000000000000e+02 ]
         index: [ 317, 323, 326, 329, 331, 333, 335, 336, 342, 344, 352,
             353, 356, 357, 361, 362, 363 ]
      -
         sv_count: 12
         rho: -3.7187688579222886e+00
         alpha: [ 8.7265773290522873e+01, 3.1250000000000000e+02,
             3.1250000000000000e+02, 7.0479539097464192e+00,
             3.1250000000000000e+02, -1.2139430683217660e+02,
             -1.8618891335000009e+02, -3.1250000000000000e+02,
             -6.4902688825910985e+01, -2.8946984142872587e+01,
             -3.1250000000000000e+02, -5.3808340493091737e+00 ]
         index: [ 310, 323, 329, 333, 335, 367, 372, 373, 375, 379, 381,
             391 ]
      -
         sv_count: 39
         rho: -7.4876654555138911e-01
         alpha: [ 3.1250000000000000e+02, 3.1250000000000000e+02,
             3.1250000000000000e+02, 2.7204541630958244e+02,
             3.1250000000000000e+02, 3.1250000000000000e+02,
             3.1250000000000000e+02, 3.1250000000000000e+02,
             3.1250000000000000e+02, 3.1250000000000000e+02,
             3.1250000000000000e+02, 3.1250000000000000e+02,
             3.1250000000000000e+02, 3.1250000000000000e+02,
             3.1250000000000000e+02, 3.1250000000000000e+02,
             3.1250000000000000e+02, 3.1250000000000000e+02,
             -3.1250000000000000e+02, -3.1250000000000000e+02,
             -3.1250000000000000e+02, -2.6403054285178189e+02,
             -1.6097524207267884e+00, -3.1250000000000000e+02,
             -3.1250000000000000e+02, -3.1250000000000000e+02,
             -2.1603765775706989e+02, -3.1250000000000000e+02,
             -3.1250000000000000e+02, -6.1313229839144427e+01,
             -3.1250000000000000e+02, -3.1250000000000000e+02,
             -3.1250000000000000e+02, -2.9820268102657047e+02,
             -3.1250000000000000e+02, -3.1250000000000000e+02,
             -3.1250000000000000e+02, -3.1250000000000000e+02,
             -5.5851552414289536e+01 ]
         index: [ 345, 346, 347, 348, 349, 350, 351, 352, 353, 354, 355,
             356, 357, 358, 359, 360, 361, 363, 364, 365, 367, 368, 371,
             372, 373, 374, 375, 377, 379, 380, 381, 382, 384, 386, 387,
             390, 391, 392, 395 ]
